5.731651508774198156e-01 -1.565359884329723117e-01 5.665887111466195725e-01 3.736472958575317443e-02 2.857374030442769719e-01 7.396995423001766490e-01 1.572908454508875342e-01 1.593749704435726555e-01 1.938165315436299607e-01 -8.378360719170805382e-01 -1.532535804803117612e-03 -7.765081655037731068e-01 -5.617455699606741515e-01 2.824382968657261350e-01 1.317285860772162975e-01 8.582327414161522450e-01
5.791307842496399294e-01 2.811347881663293080e-01 9.175644816098589562e-02 -4.987490222832390852e-01 4.089376125986866617e-01 7.407792825018399974e-01 -9.042277938520115743e-01 -3.073590080757361287e-01 1.055728413785526065e+00 -4.491415890527747368e-01 3.413333707749020562e-01 -1.584163710176701712e-01 -4.930697113076950577e-01 1.105864498403180823e-01 -5.002330384704457567e-01 9.032657787720878295e-02
3.074336372548067912e-03 4.360721246148620001e-01 1.574136609821004673e-01 -6.200720311989106337e-01 -5.330948723859946226e-01 2.255368454312138907e-02 7.056260000484706474e-01 3.735376928933066831e-01 -6.453244472553594686e-03 -2.512800944929871605e-01 -8.454116183844383459e-01 -4.210836427924400938e-01 -6.971832697594849693e-01 -7.338707864506771594e-01 2.768706085916728191e-02 3.907405767890724801e-01
5.129872997298841053e-01 1.808439546163911338e-01 2.145499439960726895e-01 2.262832251897097802e-01 1.991756228861613631e-01 6.040207415317613293e-01 -4.153705490431391922e-01 2.558073133606053040e-01 -6.614906799874137322e-01 2.225917900789302906e-01 3.789864679205274256e-01 8.625173045963817620e-01 -2.346349385782439123e-01 6.336202484763945320e-01 -7.143144196467082763e-01 -4.355216994225706850e-01
5.809792760888300434e-01 7.118394050054271949e-02 -6.602251842315027819e-01 2.132838124973249205e-01 4.291360670652042963e-01 6.660626680732020244e-01 4.108666389507316663e-01 5.425328344337402298e-01 5.135792492993266345e-01 -3.516850242304694896e-02 4.204122663125691162e-01 7.651004287811223881e-01 -2.876352781855877061e-01 3.663368442630417499e-01 -2.834873497111475293e-01 7.356757344935926923e-01
5.996123102583780229e-01 7.032536629790369087e-01 5.662887321903430360e-01 -1.272701387211314095e-01 3.644848732239086009e-01 -9.796657411582119224e-01 1.338626949959883551e-02 -1.142605156281250728e-01 -1.066263110745426235e-01 -2.900980577534021942e-01 3.458610935775338624e-01 -3.037451030195360002e-01 6.664219850175661097e-01 -4.220177338695524361e-01 -1.205140625100918211e-01 -5.776062263910203276e-01
-6.465927328220863468e-02 6.457200051509677241e-01 -3.797416894337298232e-01 1.310183402928758456e-01 7.380189763684177340e-01 8.380949382536721781e-02 -9.126323863433615236e-01 -4.612752624174463190e-01 -6.468316115388426102e-01 -3.692527395474760610e-01 9.019147423311920653e-01 7.470306884775599343e-01 1.169787963057651731e-01 9.486892843603861314e-01 -1.096738412020013265e-01 -8.481085283976893541e-01
-3.270320589944422651e-01 -9.770027813394903671e-01 2.854376457674911438e-01 -1.460848112306968680e-03 -3.657048127017336059e-01 -9.089241865744045190e-02 -6.251029496659272766e-01 -9.321281381941581845e-01 -1.635557883583503014e-01 4.991650387811975564e-01 -2.711671068474416635e-01 -3.245972667340966955e-02 5.045319307902679240e-01 -5.498516299928795092e-01 -1.935793264065766295e-01 -4.851539380522617018e-01
3.195223648741248867e-01 3.793573324520371215e-01 -5.938748832385399856e-01 -4.057818817027759040e-01 -5.019920925690292135e-01 8.693101007400483304e-01 8.745426371977554902e-01 -9.480029306625401553e-01 -1.451266106019059310e-01 -5.003646318200077880e-01 -2.193695029447743361e-01 2.609940021636957819e-01 -1.545091192728394736e-01 5.171759423460457056e-02 -4.073694613816201682e-01 -4.375110036335053132e-01
5.171238899242844855e-01 9.029928643896640850e-01 -6.173769776507879170e-01 1.177397322448840017e-01 7.592040304373881554e-01 -1.320394180580866661e-01 -2.507535929484022152e-01 2.967351435881693256e-01 6.976467762760852898e-01 -6.487668575403857107e-02 2.196482196181162860e-01 -2.869930502745495771e-01 3.817399305704600732e-01 1.019910066068225041e-01 1.083270318377762831e-01 2.195096283205717411e-02
