-7.334569387519925820e-01 -5.707857926953647798e-01 -1.231998935535786099e+00 -1.132989640429989509e+00 1.392794110609349156e-01 3.018663589038657058e-01 6.781106264571480358e-01 -1.813125763476005348e-01 -5.665354649902810680e-01 -3.967416182228324373e-01 -5.196831893115793077e-01 -9.951545515972436418e-01 -4.183022595335049165e-01 -6.293474201098585574e-01 -6.692060903475588463e-02 2.676214831427153329e-01
3.215807016159168419e-01 -1.485249598057970521e-01 -4.351213527467424069e-01 -6.005765268012502878e-01 -9.402373545761053553e-01 2.221937896325633932e-01 3.058509903791536422e-01 -7.579521397641810765e-01 -7.458147038500345660e-01 -9.669222466964009222e-01 -1.145566941284443530e-01 3.582353500733818641e-01 6.675506609104572830e-02 -4.001246868948740154e-01 -8.305712779962063363e-01 -2.944966744278844639e-01
2.828876384547255873e-01 -7.335443640695841205e-01 -4.277794834764490628e-01 -5.701749157813736923e-01 1.039942573927625097e-01 2.384368376921950639e-01 -8.650386052811461779e-01 -5.940861491186044674e-01 5.939164762705787526e-01 -2.703684497957389299e-01 -1.029543563832480579e+00 2.622677942762612902e-01 5.312072674943796313e-01 -5.476348216012971726e-01 -2.105931185813834094e-01 9.250532699018711169e-02
3.937211634412194905e-01 -2.895920691176224193e-01 -7.022718059599551976e-01 -2.113054075271805499e-01 -9.378826132314276032e-02 -6.394313706910078610e-01 -1.022837059572381690e+00 -3.567844164960762288e-01 -1.023239373305266930e+00 -1.987119830448732805e-01 -3.303210293963660948e-01 5.474630356129551734e-01 3.102218256420147813e-01 -8.406499921429753108e-01 -7.279848969221731636e-01 2.644690487226727255e-02
2.580763595790619980e-01 -1.923211025147094910e-01 -9.511248767378510660e-01 -8.183059152996990937e-01 -2.628645066783880102e-01 5.168349218729256095e-02 3.591698548761837473e-01 -5.244416233905031532e-01 1.576184372472261008e-01 -8.546000684963130922e-01 -5.547380787416267278e-01 8.538683367529235901e-02 -8.635827525432636653e-01 -1.048505891432042203e+00 7.042828457715651080e-02 -3.695865054709924213e-01
1.975674986195827265e-01 -5.956273511882670402e-01 -7.555331669051654764e-01 -4.183291836275064568e-02 -5.228364012156323515e-01 -6.909500421488196098e-01 1.463792370666163190e-01 -5.827588080532042358e-01 -1.707232116269425115e-01 -8.904049045145389085e-01 -5.650482507719883918e-01 -8.092656491688565712e-01 -9.063277789826846842e-01 -3.178999982895757553e-02 -7.327433117051723732e-01 -9.335758626024306950e-02
1.902317183861680916e-01 -6.499263179350626141e-01 -7.530915004975786697e-01 -1.110788866691610588e+00 -2.871455647043655648e-02 3.028702902240473227e-01 -1.441951258363215749e-01 -1.444115227401074342e-01 -3.946749131001980881e-02 -1.635597888498692420e-01 -1.099846396131471504e+00 2.673593622551984628e-01 3.860896497920609516e-01 -7.183161871500253204e-01 -2.308747921342986786e-01 1.864346508928447707e-02
2.893717265539844530e-03 -5.166965884376882590e-02 -6.667507739928882904e-01 -2.678982351076041879e-01 -9.443330147493024518e-02 -3.261487516560662159e-01 -3.025149172094555028e-01 -9.449158953289087393e-01 5.330735538035595855e-01 -9.712594380234628177e-01 -4.495342558808601008e-01 -8.374643345131981276e-01 -3.030811090759595872e-01 -1.031229505351109882e-01 -7.318398088986591832e-01 -7.982691563877890306e-02
-3.732876106499420643e-02 -9.869440608314484775e-01 -1.147916500830254538e+00 -1.054069446340710758e+00 -3.911886865851208622e-02 -6.584709844385766564e-01 -7.524946772147167451e-01 -2.124983288571218876e-01 5.521664755192779994e-01 -6.553727704345331251e-01 -1.043647004199717426e-01 4.329427239207344069e-01 -4.599475582256707940e-01 -5.220830719914340001e-01 -6.230029433903551128e-01 7.031848289480453762e-02
1.350625633163697048e-01 -1.096451020338083726e+00 -1.095101785833582753e+00 -9.480759220061372172e-01 -3.373614236199597993e-01 -9.802600063763841076e-01 8.239688252982320105e-01 -2.136256897005979760e-01 1.909067477054046391e-01 -3.589450299676199552e-01 -4.909361298019104258e-01 -1.807907541837048826e-01 -1.383381662648762445e-01 -7.961918643686325403e-01 -4.113645633545238711e-01 4.274210424240811323e-01
-1.717637129973866583e-01 -9.398054365398927912e-01 -8.766291228485724174e-01 -8.975520116322848185e-01 3.322213873539717893e-02 -7.861881707825131294e-01 4.398691277092787733e-01 -7.077336990493937607e-01 3.745243049410861280e-01 -4.123869397419844263e-01 -2.985045620019728396e-01 1.881627550169708285e-01 2.386302847816996198e-01 -7.317635882016373383e-01 -4.720310194605515375e-01 -4.556414219431547674e-01
-1.840391402097559526e-01 -1.554056699347767245e-01 -2.387074943596334542e-01 -8.940913588374396204e-01 1.688208620092115919e-01 -2.750541294473701770e-01 4.346076108647092817e-01 -8.270837107545698785e-01 -1.209170853581901933e-01 -7.124459554617685875e-01 -6.622411103346134142e-01 5.915602752457073121e-01 -3.299936928024304467e-02 -4.877300306209607639e-01 -9.436301768507430188e-01 -4.466536193458139348e-01
6.491886989418720333e-01 -4.808978885310329354e-01 -1.026532216690061450e+00 -8.846439128994514345e-01 -3.519335690347928369e-01 -7.570368480645326414e-01 6.854016382917386130e-01 -4.216458484805886142e-01 1.092053869336968575e-01 -1.046971556851475027e+00 -9.753052815680068877e-01 -9.222614475156685199e-01 4.602863171736016890e-01 -2.837575666218238313e-01 2.802153419330108766e-02 -3.366061706382481034e-01
3.187272020044100151e-01 -2.908819298424660318e-02 -8.550474457019558994e-01 -1.303154879233608732e+00 -1.234742865732213923e+00 1.727934379518027419e-01 -2.552158783367542982e-01 -6.226389827640447239e-01 5.087921847917935558e-01 -5.181703847506030636e-01 -1.169737327140254024e+00 -3.056421835458850711e-01 2.167087007596396331e-01 -1.055108255752546409e+00 -5.767843192338903968e-01 -8.198756255022888739e-01
1.336212181040702940e-01 -8.655044581215798338e-01 -2.664493585691697294e-02 -7.489461076243848492e-01 -4.415974257900586730e-01 3.054716017494914573e-02 -8.244121287029889666e-01 -7.175656289666346721e-01 1.371288281814416199e-01 -9.435176196893948486e-01 -5.146348939197562533e-01 8.877469436669676028e-01 -5.085231013633556563e-01 -6.922219439973912314e-01 -9.184266371234421911e-01 -6.156883531409760302e-01
3.672293263062843538e-01 -6.018794694213156493e-01 -1.429225722076625793e+00 -1.379599530509593608e+00 8.187998749604583071e-02 -2.097458893940451208e-01 -1.676047126160933043e-01 -5.578449934054825476e-01 -8.006571609795645195e-01 -7.057333369236331588e-01 -4.506185337150854786e-01 3.368989918642258802e-02 2.429359328064165935e-01 -1.163950326971752020e-01 -6.361001060798284756e-01 -1.000809137055456155e+00
