6.002414980853203463e-01 -4.582368743876916728e-01 -7.279131958764306631e-01 6.986464642237244504e-02 3.030614644920410772e-01 -3.600882671502581012e-02 -7.184645409547343320e-01 -4.291184702039085863e-01 -2.126332969160382724e-02 -8.791343874615509257e-01 4.484155384322399129e-01 -2.846515727482048508e-01 -4.385619144957435545e-01 -6.331371388451030313e-01 6.060847830354092469e-01 -3.829967831354497143e-01 -3.256074439068841198e-01 -8.811706186120993323e-01 4.794887594329710900e-01 6.533251229365741874e-01 -8.951057364540577765e-01 6.975879840604628512e-01 -5.791033453072969017e-02 8.285768526562709013e-01 2.626364541875803038e-01 -1.308037479864470054e-01 -1.650370421607629812e-01 8.842673813582766496e-01 -9.025977970659564420e-01 3.188164861547870821e-02 2.804881281694018291e-01 5.341130657165333862e-01 -9.186073567742283341e-01 3.568325196839150504e-01 -9.197282134056787850e-01 -6.351172622214709129e-01 -5.986202670815845561e-01 7.540559579231929099e-01 1.562114539771897181e-01 1.076078881546831401e-01 1.147667224791832641e-01 8.556292572969093069e-01 5.441661079657198474e-01 -7.990986007156983817e-01 1.351629352899945680e-01 -2.426940796669245781e-01 -2.923393987740783295e-01 8.184989262898023643e-01 -3.416912301282519770e-01 -9.262002988636710565e-01 6.373555630816822859e-01 -7.918050968413963275e-01 -2.098821109430775156e-01 6.756706133779635248e-01 -5.458228709086281327e-01 4.744336012587577756e-01 7.752168671255605936e-01 8.461031474438558408e-01 -9.965366193992128974e-01 -6.489035697084049037e-01 2.201643926291545483e-01 8.204805264216061822e-01 4.217752643936849566e-01 -9.568421600466088250e-01 4.366813605778614438e-01 6.254687950422398446e-01 1.368598720183156203e-01 -5.870916095100631171e-01 -6.485705730716170847e-02 3.184864097246858060e-03 -3.656591609280423344e-02 1.766539440491893265e-01 1.824410772546500858e-01 5.942835256906793262e-01 2.838057581479451197e-01 8.136580695172193067e-01 -7.110650529850083279e-01 1.555989523135175856e-01 -8.739937848828684963e-01 1.730076114633982698e-02 7.041336764410675020e-01 3.374295103735924783e-02 3.446951009094545437e-01 9.804857185139763676e-01 5.749837306616498722e-01 7.228303076938231708e-01 -4.510392226824655459e-01 5.979586305015287540e-01 -2.738291292124936938e-01 2.754165218936455162e-01 -1.142376104866515973e-01 4.206500332142396048e-01 -8.867653908313195554e-01 5.912730196421361883e-02 -6.588301102434627188e-01 -9.716883557845649166e-01 -3.872742730052071147e-01 -5.313178553887220462e-02 -3.319296351843411541e-01 -6.798142172612228196e-01 -2.345516713677483212e-01 -1.416924808245427492e-01 -4.520736890492901283e-01 1.014269933843041094e-01 7.644236999706931490e-01 -7.769102888936595397e-01 -7.700874858866442185e-01 8.120667229479658911e-01 5.205024063613093999e-01 -8.011974400618249170e-01 7.147223711043277916e-01 -5.991593378902611011e-01 1.491276643983696637e-02 8.878504747577342648e-02 -7.493414584933941747e-01 -7.173154286606440166e-01 1.813119842307986396e-01 -9.166568601884217404e-01 -1.435936214977668879e-01 7.836819775224320717e-01 6.666537188118347723e-01 8.376468938738570458e-01 -2.157288393056000508e-01 -1.779668825669268248e-02 8.664609240081435626e-01 8.492788544263684125e-01 6.864136597360948056e-01 9.059975890865463732e-01 -4.633963984339794506e-01 -6.981020444324784746e-01 -7.338650628054332881e-02 6.597548165982399793e-01 -1.201933542610223171e-01 7.124558302708325908e-01 5.826765287908181046e-01 -3.941500919277298731e-01 9.912446272715832452e-01 -9.231799785010041948e-01 -4.594335296009157688e-01 5.948565152659432975e-01 -2.013263063574364242e-01 8.526681655300138996e-01 2.448441278331447979e-01 1.972372275484448600e-01 -8.076462714257470754e-01 -7.101999447464546478e-01 -7.554249122874489020e-01 3.365085737257613174e-01 2.915792931988926973e-01 -8.944131583758342385e-01 1.572408738151739177e-02 -3.691397565917519663e-01 -6.470764795629071475e-01 -3.543775733684058696e-03 -2.126999468774913582e-01 5.261630539310032662e-01 8.058717127447957429e-01 -5.968214240296495499e-01 -1.786734261331177631e-01 1.809755294295558314e-01 -1.000094919217604295e+00 8.391601523199042623e-01 -1.230799336418897105e-01 -7.169558331108788485e-01 -1.524175225153114321e-01 7.541520036041606811e-01 4.340755667754510050e-01 4.023675193934157512e-01 1.186911008243056731e-01 -4.238073081211652937e-01 2.211407011656738586e-01 -9.845080883371453151e-01 -7.312299142221587722e-01 9.490800072799275844e-01 2.539643186783319129e-01 -8.630428498563291750e-02 -3.255531602716851269e-01 8.524406253315170989e-01 -4.273234819896682968e-01 8.680369977321967800e-01 -1.264449717459551203e-01 6.964110028728001112e-01 4.925230619995088488e-01 -9.068389747505669618e-01 -1.083044512246866375e+00 -3.588767710562055235e-01 5.426610655171915099e-01 -3.091234640333019312e-01 -4.990008305053699744e-01 -9.677130368326215537e-01 1.686480695620393710e-01 6.069819458447349714e-01 -8.972364406025726824e-01 1.281359298532183666e-01 -4.056173671306462225e-01 -5.196367812593347679e-01 8.359958362239268137e-01 -9.961246126728195982e-01 -5.121757222493985573e-01 8.388251304203245828e-01 9.693920726877300886e-01 4.208497247822460818e-01 6.409226619406546699e-02 -3.195546902258550870e-01 -3.889970395305450412e-01 6.714078667211398344e-01 -3.427191182030512456e-02 2.233654648031718204e-01 6.506743023311631902e-01 -1.066950192629724237e+00 5.419290885214535225e-02 -2.566618166782576038e-01 2.762100274573278669e-01 -1.070701330607731760e+00 -5.603364641403909552e-01 -6.797318350574014373e-03 4.257119431545446919e-01 3.767932240979230962e-01 -1.740671073660494395e-01 -9.977328499541751050e-01 -9.404798650892607359e-01 -5.510951867945467209e-01 -6.802613470394012207e-01 5.059444146737630543e-01 9.282473517688771825e-01 7.032827124723498580e-01 1.621550552271085466e-01 2.260388374578080617e-01 2.394450685628375930e-01 -9.833803705379458027e-01 -4.213366749815393719e-01 4.038781360038861123e-01 -9.261262591075536399e-01 8.813832698804681121e-01 -9.485772837429603532e-01 7.859659053932523953e-01 -5.345549324950510384e-01 -4.097807787470242324e-01 -8.962125746019838912e-01 -1.067214641195970426e+00 -1.092021922868485588e-02 4.684268390178980002e-01 -2.123045092373654630e-01 -8.353747866258154353e-01 -6.665475591188786408e-01 -9.395533300562758372e-01 4.389877716447351808e-01 7.507789860485299116e-02 6.905120262740498394e-01 -9.832062655904160176e-01 1.601470745966218634e-01 8.852213825393360214e-01 -2.077140720646055705e-01 -2.905112652893279690e-01 -4.187030193693062063e-01 4.037386743818356383e-01 4.191439328109897167e-01 -5.546090740871594260e-01 5.999610403207177312e-01 8.372320808565165695e-01 5.560637236182707221e-01 -2.541211116363988887e-01 6.185587751865699868e-01 8.639471214745977345e-01 -1.929038763131634970e-01 -8.132122904610477043e-01 7.031381554716011895e-01 3.248096505021537683e-01 5.579335024155033240e-01 -6.848927766256346361e-01 3.485658018009965553e-01 -6.804609914584865971e-01 7.228351497995793018e-01 4.580755271136356943e-01 6.982176990879321865e-01 3.411714212289860271e-01 8.310308825788489395e-01 3.691104103332114583e-01 7.769502000342412007e-01 -3.465346511845042166e-01 -2.962907799943126363e-03 6.505787117879220371e-01 3.527922717061851010e-01 -5.431596056658211102e-01 -7.497966528740940273e-01 -6.501748738809999262e-01 6.960715293892204558e-01 2.200019579749056264e-01 -1.340603383271944671e-01 6.331567617538115256e-01 -7.554607638821561055e-01 -1.537741441498274297e-01 -4.938236011057255404e-01 -3.728375541149924199e-01 1.492652272201246480e-02 -4.089972773566599717e-01 -2.529556196661722489e-01 4.741955303755439610e-01 -1.731541814444178540e-01 5.275377602539524924e-01 -8.542504756015448786e-01 -4.382251827747450368e-01 3.792338902792172783e-01 2.369840980002034247e-01 -1.934885513876808405e-01 6.079661752911940109e-01 1.033640882811643290e-04 -5.615610936575397005e-01 -2.932555182250766723e-01 5.489511336592249879e-01 -2.790221532844812113e-01 -6.534832265723586886e-01 2.279180274199478773e-01 6.151782284717688398e-01 -6.900107177058024677e-01 4.536239615052398144e-01 2.290515574318980896e-01 -1.887881824474467729e-01 4.088301244661443068e-01 -2.268043241907397867e-01 -1.229115598069308035e-01 -1.420351552982720977e-01 8.457664324305524950e-01 2.445369821586065862e-01 -9.270215272533196549e-01 -5.821320354818081411e-01 6.993728753590302549e-01 5.857717211211883601e-01 8.235784903860551287e-01 -7.364026019842286885e-01 -9.295777727019928216e-01 6.361218056308765023e-01 7.774511985991497953e-01 -2.702957638270486185e-01 5.443979370342799662e-02 1.094052038779564917e-01 -6.509526316594160811e-01 4.824101648055378888e-01 7.312045804181058761e-01 -3.359989199477754762e-01 7.617111250441986892e-01 2.057140290205118072e-01 -2.717252557127369239e-01 -8.097306237462841283e-01 1.279458156535836499e-01 -3.071295015655503904e-02 -5.250188193120642888e-01 5.575459196687723024e-02 1.584203734379223405e-01 -1.540796182340386788e-01 -1.065263619586848565e+00 -4.170421554083614951e-02 7.722649446126353956e-01 1.671063811598132512e-02 2.085198171404176529e-02 -1.009684430411293687e-01 3.812888550021149570e-01 6.750925436613813835e-01 -1.000607825468034395e+00 8.431567955552804472e-03 -7.497082735269775533e-01 4.700628056881328565e-01 -8.075157548342462022e-01 -5.464928757038596263e-01 -4.334064111374149597e-01 7.864073634193375906e-01 3.785457885451566362e-01 -3.093172702793445250e-01 9.271056333646503500e-01 -9.196599256359545560e-01 -6.240820526343111574e-01 -7.083544903272455118e-01 -5.066410679255333172e-01 4.058681755218190301e-01 -6.126526103223972619e-01 4.887266629663829520e-01 -1.059791447330646674e+00 -8.667205044054453536e-03 -8.182610658403934867e-01 -4.149552669304900077e-01 7.274367084903303748e-01 3.559057200481575700e-01 -6.974453866329166640e-01 7.276874699091067100e-01 1.568410938503099483e-01 -3.667362171585509256e-01 -5.754183724129690036e-01 5.676932348696864805e-01 -3.259567309912874133e-01 2.184987861745770754e-01 -5.247739780569402601e-01 8.590326572198192512e-01 8.279994884648123055e-01 -7.012330722398327776e-01 -2.549085725533777325e-01 -4.273115893263825793e-01 3.490347739882713740e-01 -1.842223806544635023e-02 5.953066983173092019e-01 7.815714453597610856e-01 -2.231483969880972418e-01 -8.984645805341477942e-01 -1.708594596250992970e-01 -8.860694748448922908e-01 5.299422153162990368e-01 -8.593530230521631008e-01 -8.870198498449421987e-01 5.317662233328903643e-01 -3.432556625615951207e-01 -4.706656558105079546e-02 4.846555115824631721e-01 -5.522406580803496112e-01 9.395441892042309673e-02 3.628989875667393838e-01 -3.797002262120655058e-01 -4.374712336250908273e-01 7.584478961304712552e-01 2.439917562635285364e-03 1.288681046979318623e-01 6.716489812587655983e-02 4.014143335120374800e-01 6.064589834475355712e-01 6.089429367710272878e-01 7.542548093875826032e-01 -6.926173492211161742e-01 -2.510582730052533518e-01 5.769818769949316417e-01 -9.913149874783641069e-01 -2.835611093026266238e-01 8.565335913261101775e-01 8.233427751414196250e-01 -7.104150326816357497e-01 -8.612181737707763629e-01 7.683462932685988234e-01 3.586684399426655623e-01 -1.026189696258147377e+00 -1.110059733018829542e+00 7.730204562542951630e-01 -5.891265293369697398e-01 -9.158764197947245611e-01 6.055866070003477208e-01 -8.819803090554672043e-01 3.615183026133723665e-01 1.367639931505403583e-01 9.496322197963525946e-01 -6.242572655967185136e-02 9.359045562174324040e-01 -7.076758540625640581e-01 8.518877065444190322e-01 -4.649367934038168837e-01 9.725550808784431123e-01 8.572129409015883938e-01 -5.939264882623414010e-01 -7.819866371708720232e-01 4.858918146687322137e-01 5.410684988516445415e-01 -3.258522905892129867e-02 -6.223020363765406904e-01 9.360401157614779422e-01 -8.689773054348728376e-01 -7.053023452233592172e-01 4.817379769772690834e-02 -9.799194545769599474e-01 -1.037795003020424600e+00 -7.105568651697745652e-01 -6.046812313960572283e-01 7.268656521094273293e-01 -9.940793801669618457e-01 -2.922268500446125739e-01 -6.296635452466251559e-01 -5.529042020318307715e-01 -1.029239368047487752e-01 3.288479465542128166e-02 -9.660303511537684518e-01 4.886626292258711146e-02 -8.321738159831133519e-01 -1.988403829231841780e-01 -2.281664245969901028e-01 9.773293668649702948e-01 -9.680124080149370425e-01 -3.592342425871057898e-01 -7.351664838843054994e-01 2.339918769364404127e-01 -1.011333953066200775e-01 9.236335612156826302e-02 -7.167084259272521463e-01 4.344200438575434031e-01 1.691549844478201226e-01 -5.008885767503014064e-01 2.882273186927183373e-01 -3.181057607003939247e-01 6.288612304268335063e-01 -1.080761958176595039e+00 -2.001295770764876802e-01 4.356535510845756520e-01 1.317144782217758714e-01 -3.542266628352048752e-01 -7.932591126285798780e-03 -7.269156175000094366e-01 -9.327344385696536566e-01 5.662205937016860924e-01 -8.990105402281103331e-01 6.488723107030636150e-02 7.367745950185697890e-01 4.302998292663811064e-01 -5.186457190475730616e-01 -9.398924237284038696e-01 -7.489848555404952091e-01 -2.321050729446715588e-01 -9.010229342586578705e-01 2.645723521043363835e-01 -2.355681250916202146e-02 8.597686511429402101e-01 -2.551229120863919911e-02 3.032843664477276602e-01 -3.033656634738492452e-01 -1.049557980164561144e+00 4.167106428596772938e-01 1.567271384046753369e-01 -7.261047852051873974e-01 6.672605868018576247e-01 6.361726587318257131e-01 -8.468068728549081881e-01 -5.873980598681489695e-01 -9.549687319367891059e-01 2.250082166209924628e-01 -8.727737383113463032e-01 -6.938517425937461569e-01 3.955811214206191861e-01 -5.508721487191577948e-01 -7.230733946638709941e-01 -7.802802422654453451e-01 2.007495012464315387e-01 8.890685175625072656e-01 -5.588057083812738579e-01 -8.444320942758960502e-01 -6.959074694815292617e-01 -5.178379857554916699e-01 -2.349585940753329272e-01 -2.464177006583808394e-01 -8.015470191504149300e-01 7.746464142158846489e-01 -5.414033355480147858e-01 7.532376976492962672e-01 -9.831796795769217612e-01 8.003145598291677709e-01 -2.475265854802438659e-01 6.156017728326171889e-01 2.372097838085636401e-01 -7.527288709704249570e-01 7.858124788528325633e-01 -1.452901972476462744e-01 4.824463904766546629e-01 -6.126084474033307581e-01 -8.415196244363242206e-01 7.115300799582134905e-01 7.573903996794435489e-01 -3.519859359255219644e-01 5.812952285035752897e-01 6.574785270968070972e-01 2.852706922416610169e-01 8.232742327127098303e-01 -3.509693106848810196e-02 -4.749003777923425929e-02 6.420013206155676944e-01 -3.943414621521257879e-01 7.715330028583934352e-01 -5.364193443418399099e-01 -6.403218881689538566e-01 -3.323562934100150468e-01 6.343350887960488849e-02 7.332324798620543094e-01 4.225361582225656276e-01 4.999942318148349885e-01 -1.061908824663504891e+00 -1.516117475177153617e-01 -7.708226201907137920e-01 -1.034904727141401359e+00 -8.850421769449828835e-01 3.144231315680469652e-01 4.736932544377563947e-01 5.706106244044478748e-01 -9.021158745270094759e-01 9.502241887470687098e-01 3.572590017901897119e-01 7.398846735250509399e-01 3.535459004686545281e-01 8.527054207648376849e-01 8.564165200246618426e-01 -8.491716827480069174e-01 8.459694359580987033e-01 -2.013847521427133136e-01 -5.251121411417696283e-01 -9.279863406018312721e-01 -3.059649803072297947e-01 1.809971054765683873e-01 -5.081132496224650685e-01 1.570160288753995048e-01 -6.189558815533297009e-01 5.187770858810080155e-01 5.788384939531966422e-01 3.025357289626119939e-01 -3.289881539533546229e-01 -5.661542579403073816e-01 -2.587281195603072237e-01 8.061081529774265231e-02 -1.003860078692333069e+00 -1.969439372895974427e-01 -3.378715210081003617e-01 6.019295975116748521e-01 -4.738207926575893070e-01 4.477321768630008747e-01 7.082962161938060053e-01 9.518919354819603829e-01 -8.414190815305560012e-01 6.444966471750657178e-02 -1.818613949870808710e-01 -6.326072332614240956e-01 -4.989442532074761516e-02 5.549670025673540952e-01 8.787928598661068902e-01 -9.040159412564491292e-01 5.852522641561994643e-01 9.040493014764156010e-01 5.693121607776355786e-01 -6.114469700170884758e-01 -6.874539865254940540e-01 3.055435953592170462e-01 7.240927268167000053e-01 3.383927124182145030e-01 -1.667398539736593965e-01 2.764743203297102547e-01 -1.048422666443046269e+00 3.768541741327565697e-01 8.770275911779952527e-02 -8.125059680006655460e-01 4.761477995476026681e-02 5.094851347212333570e-01 -5.445446837796016348e-01 9.818860713272742347e-01 6.464444465849392696e-01 -7.414230369426397793e-01 -4.665557956051258337e-01 3.644799180073468037e-01 -6.121071829769162420e-01 -8.398057757147832092e-01 6.126453172331529640e-01 -3.135783973134793623e-01 2.598299888597192520e-01 9.039659675931726035e-01 1.695678579638824623e-01 -7.129593224122209305e-01 3.345931024838001422e-01 -7.579676822261313118e-01 -5.179210617105368675e-01 5.088982328475134542e-01 6.932542150794768210e-01 8.108683575388085929e-01 9.333829330463738749e-02 -7.630256733684097625e-01 1.082369227828225144e-01 -6.434970660004075693e-01 1.813377985537011072e-01 5.602212146541161175e-01 -1.467317481428878911e-01 -6.357094278747487115e-01 3.652646419858727178e-01 6.592251501773317424e-01 5.587619063386981555e-01 -7.987598061169707275e-01 9.041475820955728882e-01 -6.559759611895570330e-01 9.729874773350737360e-01 -9.712769257524955790e-01 -3.650978907541926333e-01 -9.648379925384606981e-01 7.367304083562303818e-01 -6.382388471498434690e-02 -2.788498467390380653e-01 4.817463855179306975e-01 7.082980098353945930e-01 -6.737638944743538916e-02 7.481705823029847213e-01 -8.398462328367103935e-02 -1.025126830629098595e+00 -7.997209450891921145e-01 -4.001540472591922359e-01 9.619072022866541616e-01 1.281009492888577905e-01 8.658988992138441088e-01 -7.718183281633914650e-01 -3.344549735849413619e-01 1.425962319971321168e-01 6.828612480535153351e-01 -7.269316848517299867e-01 6.000343433867147969e-01 -5.373614982063057433e-02 7.389857122005758505e-01 -4.859040715836882018e-01 2.620578757188936070e-01 -5.600932259875910368e-01 -7.580110791106293711e-01 2.413748837040308182e-01 3.510972666140528275e-01 1.089924840808971229e-01 8.683098486012335027e-01 8.692393363171615484e-01 -3.237212606959530975e-02 2.309136618847721645e-01 8.627596022853751823e-01 -2.497771237263168298e-01 -8.399176515346626903e-01 -4.353046158959971157e-01 -1.736360957564194452e-01 -9.914730462922974885e-01 5.199566877611291327e-01 -8.675273504986017459e-01 -6.212265007911723647e-01 -1.204086577048592288e-02 1.722370541399519117e-01 -1.505091859726638004e-01 -5.219544595999233566e-02 -2.554343493064814563e-01 -4.201309870105118804e-01 6.879213639661152513e-02 -6.117466024191360319e-01 -2.992681913725174780e-01 -3.957197927922329050e-01 2.662819961757709741e-01 6.415800910848403760e-01 2.938792538112133812e-02 -2.408324877784462359e-02 -4.802213542046729344e-01 7.917579964902876632e-02 -1.757584550623396691e-01 -7.424502188875984343e-01 2.231106563932456488e-01 4.687494529119866082e-01 -5.594553254230327788e-01 2.342956333126651192e-01 -7.253761097483660825e-01 9.090412335513184949e-01 5.154055902266755362e-01 -4.237154996507717652e-01 2.675377985671180681e-01 2.909649676856129186e-01 -2.989027064413327106e-01 -2.575892305559083217e-01 3.303573595952186137e-02 2.429982149496954236e-01 -5.289693693014736464e-01 2.801257617786669929e-01 -8.520456865966568039e-01 -2.355365076346194186e-02 1.167920310098489178e-01 8.277308645167891221e-01 8.676738897547544571e-01 1.832421546617049035e-01 -2.600977226288798683e-01 8.785321241164643080e-01 7.205802133105747576e-01 -5.000730229581356046e-01 -3.649394796070550839e-01 -4.445315000017031615e-01 2.201311961284162511e-01 -5.666073978641984060e-02 7.919607624888439501e-01 1.157449979430820175e-01 9.020758477432341271e-01 -6.723247830988584584e-01 -3.410736385627170519e-01 -3.511845741480660865e-01 9.879447294254795064e-01 -7.757854540963539103e-01 -2.227680492804693380e-01 -6.960175866712972059e-01 3.225198180485344679e-01 2.209561462036733204e-01 5.198894720938567193e-01 7.103092447439627311e-01 6.373071140884822849e-01 6.176695811515597878e-01 4.199126130007193591e-01 2.729191701147686278e-01
-6.675872731585101860e-01 3.641401546300364611e-01 4.806655996988067336e-01 -6.116117985008973079e-02 -1.929417136664342003e-01 -8.170613770863268677e-01 -3.847387875531957935e-01 -2.565881631005144659e-01 -9.752722956037633839e-01 -8.850881719285277338e-01 -1.265923909351773791e-01 9.459749514567330486e-01 6.398668446854836045e-01 8.403808120855913444e-01 9.529446768538742951e-01 -4.879826278481806945e-01 -1.004082235683660951e-01 -3.056833240703100696e-01 2.261447621011609677e-01 -5.987782602526252607e-01 -6.578453215126445208e-01 -6.613304101846451122e-01 4.502181991611808876e-01 -9.601686216487830272e-01 6.050117797352223548e-01 6.257785197829044410e-01 -5.999539069091652799e-02 -2.883917198592855780e-01 -6.013919004851382422e-01 8.457777333263352126e-01 -6.366067196333831113e-01 -4.499319009508373490e-02 3.406936129570286020e-01 -1.133207281625714380e-01 6.185157316138454320e-01 5.990572065681889491e-01 2.276486684072431821e-01 -2.477699043716046212e-01 -9.947329969871088196e-01 -2.165620719733638566e-01 -7.933084313996123793e-01 -7.579546055161923146e-01 -8.247392677209586243e-01 -2.317460199343290839e-02 7.037266329843805401e-01 3.431797328565283633e-01 -6.657951377254889280e-01 -8.502619701509130934e-01 -7.493283115665012595e-01 1.010842321752636330e-01 5.812809211862814962e-01 5.595093906869277323e-01 -8.322123697195071834e-02 -9.163768456264738127e-01 -7.288913082877934713e-01 -5.967063256943105909e-01 9.032314862462489380e-01 -3.185610692623213058e-01 -8.985779812472018957e-01 7.657111675757364289e-01 1.082004437155388299e-01 3.972909011804413026e-01 -4.161625800455430735e-01 -8.763965625390874870e-01 -1.178335837134642100e-01 -3.252207804640771527e-01 9.580630352095858004e-01 6.892459337162293309e-01 7.989629383666407847e-01 3.888689745390160879e-01 4.541807928747988998e-01 5.145466854611247670e-02 8.217530124713099404e-01 1.915796838056780249e-01 -9.191379790948058792e-01 5.985213184512026136e-02 5.755583411627368529e-01 1.089186289379197176e-01 -7.579205035800749002e-01 9.455023461549597608e-01 -8.829480224192876037e-01 -7.926258145855435977e-01 -8.238742849226359244e-01 3.927879829365705788e-01 -7.655826465134218939e-01 7.506815593621747329e-01 3.952794270359287765e-01 4.044389286931173721e-01 2.727901906323602077e-01 -9.662093620953933204e-01 7.318948670459780592e-01 1.317629760904035774e-01 7.769382106668426546e-01 -8.018438497034475754e-01 -3.112804952632550193e-01 -4.759853996652962937e-01 2.433933456571606146e-01 -7.096042612141297834e-01 -3.889755926016756904e-01 -1.091975539594619571e-01 -2.376991748347310751e-01 7.189720509406110072e-01 8.714238590117939776e-02 -4.343534074644447296e-01 7.812392085514755502e-01 -9.064778046515487020e-01 9.130868379553525038e-01 7.642969636679074197e-02 -7.107594922821478534e-01 -5.648809903768119423e-01 -5.884758888511716357e-01 3.137314955311996112e-01 -6.740488567945668308e-02 4.514942639611401187e-01 4.498968881174778556e-01 -9.891770649397297888e-01 1.377376652097089538e-01 -5.708044086896502112e-02 -4.106458402056653023e-01 8.410727647078040103e-01 -8.204517530270467873e-02 3.762097889154613073e-01 -6.375380309309482962e-01 -2.576296840460719495e-01 -5.468584737907605103e-02 4.461898793659332396e-01 -7.696302285256495512e-01 8.466503840824923799e-01 2.272109701098263823e-01 2.070941936622448243e-01 -5.540831196194335312e-02 -2.700695024817879597e-01 -1.655685911904513918e-01 -1.303169696409104683e-01 3.520588023874285377e-01 -8.300985723931244564e-01 2.185177478270495244e-01 -1.943298010497365169e-01 4.109433011893661725e-01 -1.359615820039259404e-01 -6.238409728950553568e-01 1.125288316917403275e-01 -9.243110961225937672e-01 -9.248745063110230813e-01 6.190296877955305810e-01 5.652032544734476582e-01 -5.891299572939148188e-01 3.268621636793923591e-01 -3.931937136168582314e-01 3.288268703207974930e-01 9.527337680040919299e-01 2.615132505922768691e-01 9.906633738994321536e-01 -4.246872871685426487e-01 2.254951449007906450e-01 -8.258945370731793911e-01 8.071439642474453890e-01 2.059723240161815683e-01 8.914696629535128203e-01 -6.994834652680052001e-01 9.037876653780803071e-01 -6.105329567506713184e-01 1.683193805053098957e-01 2.047859713443639096e-01 -3.220862954428018177e-01 7.510153161133434896e-01 6.913495223217069885e-01 -3.808646249616121082e-02 -7.183059609172071092e-02 7.920838772605913736e-01 -5.374949938976059105e-01 -9.317787730264758261e-01 4.440809814885970375e-01 7.684841294069670592e-02 -2.358975759511435233e-01 9.603054608598641240e-01 -4.125722539209052964e-01 8.473489453723858089e-01 9.182896962410962427e-01 -4.021018574764681497e-01 -5.096196285788979763e-01 -6.110644472191922166e-02 -6.865438505141835401e-01 1.012182881303568038e+00 5.967107484657558913e-01 2.365733281421241174e-01 -4.586685335739052460e-01 -1.780493708869198277e-01 2.475941599183349440e-01 8.814480353325108153e-01 8.695788202367166209e-01 -6.380002670321629488e-01 -5.839653993546910504e-01 -7.558115779702173631e-01 9.987415402223966954e-01 -3.179541020267269147e-01 -8.394753140403721225e-02 3.335763505911537585e-02 5.423435445140381006e-01 1.344342351475237285e-01 -2.579321511362981934e-01 -8.040770133573426071e-01 6.718455442054616089e-01 -2.125179724400977355e-01 5.659134209677849636e-01 -2.083482176826152721e-01 -4.676792203641883527e-01 -8.049294726692320934e-01 -1.683909723312394524e-01 4.797618037161049953e-02 -4.330304330626795761e-01 -4.998680074252184746e-01 4.264030233653108848e-01 3.229845373131524644e-01 -6.556498910292786197e-01 -8.903478053758685506e-01 -1.193306947595525885e-01 -6.571784465141523590e-01 1.557269728366568462e-01 7.821315688129585331e-01 6.569934824804192219e-01 8.644028783400105054e-01 -7.421667103218315686e-01 6.036641802507496379e-01 -3.923839912870430435e-01 5.010759190415061681e-01 2.813524323118765658e-01 6.153915961330426176e-01 4.398470431323651120e-01 -1.353180243817225514e-01 2.610099117669146818e-01 -2.275643894591997951e-01 -7.635534759339489552e-01 3.170229795411401708e-01 -9.686298180505591437e-01 -1.497137593704920000e-01 4.623607394496181966e-02 8.486103041489603260e-01 5.700689446316357101e-01 7.391233725723975745e-01 2.730448239444936420e-01 -1.094641043925561830e+00 -4.496202055931520780e-01 6.130415332416566665e-01 -3.000263348245446049e-01 2.071478188669287068e-01 7.761817755779131245e-01 -4.014512241098585621e-01 4.655897114876962894e-01 -3.470055261935531821e-01 6.626711931667040867e-01 -3.464385185665921352e-01 6.215876139736895567e-01 -3.945246661069522903e-02 1.458396718252526758e-01 3.925080512890151141e-01 -2.017462983288064726e-01 6.382281682502531917e-01 -7.490049842683300652e-01 4.008231131287053883e-01 8.032413760407746128e-01 -1.156382592123761238e-01 6.422299782619058650e-01 1.597154624789042798e-01 -9.825714376039912379e-01 -7.429633012694868421e-01 3.811586032243005073e-01 -8.060168878722161478e-01 -6.641008614228549600e-01 7.190010797480417271e-01 -9.504974088108415486e-01 -9.829127963737440687e-01 5.813408713389949245e-01 7.377801138482072973e-01 6.202641177228012115e-01 -4.678624945594155871e-01 -6.718786371060967433e-01 6.600506856571857206e-01 -1.578459202870339251e-01 1.517892166338441484e-02 -6.624796048238537072e-01 -6.896203588849747490e-01 6.829843669780477633e-01 4.970054968920092908e-01 7.350747628577976034e-01 2.643281394319704214e-01 6.429149725666603032e-01 -3.982751176399099702e-01 8.971805711117951387e-02 4.976793764915208862e-01 6.054420108956986013e-01 8.528470188825654219e-01 -5.871873578939440508e-01 2.921186006402186619e-01 -1.395651240970847140e-01 4.724172363234608873e-01 -1.037557988364534944e+00 6.123749901180155497e-01 8.386719017546277744e-02 3.880812898713142944e-01 -9.759132961262769745e-01 -7.933510096567707448e-01 9.217837407443515985e-02 -6.363018042077431824e-01 -1.092735419367621696e-01 -8.592033057998664514e-02 1.067710078955950714e-01 5.657190798330855586e-01 7.657642463695260027e-01 -5.029845329762390183e-01 -9.129944966562302255e-01 6.519937071791366279e-01 8.206543786276747632e-01 7.448623473418790608e-01 1.404212322326619800e-01 -1.681769559683264081e-01 6.621870907560372110e-01 6.532403332743798030e-01 -3.482906408333203974e-01 -7.247550521188341754e-01 -5.398138313164094759e-01 -4.714019230322873399e-01 8.752412211364158923e-01 2.599546005966626994e-01 -8.531071632350658573e-01 5.433042655180190250e-01 4.581532264428353485e-01 -5.181746836941079071e-01 -1.379674890751948213e-01 -3.639291280308702414e-01 -6.937431715777212515e-01 -5.760097052737823686e-01 -3.905788651122575339e-01 7.889069248382534205e-01 -2.861387572555254000e-01 -6.565207595981212840e-01 -9.585974398939289820e-02 -6.423901709264672188e-01 -9.306078373587464148e-01 8.172545723930063274e-03 -7.626836954007416569e-01 6.355802634249477778e-01 4.813681163371190397e-02 -8.561341477911024178e-01 -3.699622688467628651e-01 2.215072193170565251e-01 -1.324386332893479346e-01 -5.607602217188012439e-01 5.903832570669707014e-01 -3.273198663714755874e-01 8.878631167595932849e-01 5.694287677739676701e-01 3.184124732961582938e-01 3.586881072778639878e-01 -8.539322739044222788e-01 3.741505197355168844e-01 7.680414642177650630e-02 -2.621115516268833767e-01 7.379772759692774242e-01 -1.421509240738841051e-01 9.689292850171667137e-02 -7.317333090563118425e-01 6.928088420799638492e-01 -2.574814169297654498e-01 3.860471987826799012e-01 -4.158886437381204004e-01 -4.512228133988336332e-01 1.647731195071549248e-01 -6.021078707576523747e-01 3.538541336068238286e-01 1.374540020602613155e-02 4.001851292671207427e-01 -3.976005412612146350e-01 9.158687422597635575e-01 -3.157906847591379629e-01 1.440080871010742669e-01 -4.083970818089942001e-01 4.583900906801717801e-01 -6.600885984464265333e-01 -8.902807396028463716e-01 9.170021182043578412e-01 7.216996930733941829e-02 -7.784461018232311513e-01 2.015357207811500906e-01 3.659254023236367392e-01 -7.274561167775803749e-01 -8.884927564747532314e-01 9.569274448694387036e-01 -5.173240350831912471e-01 -8.976138196273013570e-01 -5.726074288077900309e-01 -6.744945151323151755e-01 -2.267141981482738711e-01 4.155271382017728943e-01 -6.390130575821002523e-01 7.179679904301428106e-01 3.405580407505796048e-01 -3.896970690154433759e-01 9.117321285839283806e-01 -6.856394424894117767e-01 2.069240801155813603e-01 -7.508114263097057650e-01 -5.500810132928701801e-01 -8.999605385261043589e-01 9.530204418664426358e-01 -9.002879846781002282e-01 -2.771377652350965337e-01 1.042967073105808273e+00 5.753093556999819835e-01 -6.966252857045696079e-01 1.000295164374671142e+00 5.243154528742016707e-01 -4.030631188994789893e-01 8.691391655889657564e-01 -8.204143135479242954e-02 -1.699026222862766167e-01 9.846539148944142283e-01 9.153674680634446004e-01 1.672071219342783355e-01 -3.854387512963344253e-01 -7.325403679692366055e-01 5.041883962825506327e-01 -3.147742167536231594e-01 8.997297971246352999e-01 5.059689637818667873e-02 -7.480502328982789884e-01 7.751533049538870124e-01 -6.548448740209794616e-01 4.227435591789906189e-02 1.027803180895499047e+00 -3.790203920337902738e-02 6.455079632943072632e-01 5.136280945772202233e-02 5.606644894346107799e-01 2.890536804811484894e-01 -6.206969864516300728e-01 5.789439230312214413e-01 -4.490382194983305597e-01 -8.860522733130520301e-01 7.691658793757336632e-01 -2.410422069344979878e-01 -3.454548195862849336e-01 4.007698461225635556e-01 2.379402653937346401e-01 4.455432213608231384e-01 -6.056357528057212392e-01 1.294070788829140284e-01 -6.927173787193607879e-01 3.392365760280222631e-01 -1.836687528401195202e-01 -3.077583715807254983e-01 2.275077769077205325e-01 -6.290122101255505305e-01 -6.110733316539716103e-02 2.206269730770966386e-01 5.090005866102442766e-01 -2.881895424545579676e-01 6.200481143317543298e-01 2.728091900150925730e-01 -1.431413521591204108e-01 9.288057343479628747e-01 4.301486973764481747e-01 -4.166193702763472118e-01 7.549029938018637642e-01 -6.788192636657984780e-01 1.692814855972719357e-01 4.970532910100403101e-01 -4.537090181553438684e-01 -7.085769298252615478e-01 8.166197592360369129e-01 -4.607009119680722797e-01 5.233018391883820231e-01 -8.419622502070981396e-01 -3.183849574613142330e-01 7.519994957829290172e-01 2.842720675177281553e-01 -2.791538525111547653e-01 3.315759627312320212e-01 1.404194273624241873e-01 -2.631184634014843149e-01 5.487629424579542059e-01 -6.101407583222511199e-01 4.914567341657706256e-01 9.952430731194347180e-01 -2.384418419108240150e-01 -5.185882518028605004e-01 -3.967447108383199694e-01 -1.380655194513202566e-01 6.214382141766603418e-01 -5.853902617439883382e-01 -5.362223434140752643e-01 6.917910747912140446e-01 5.708072482016921523e-01 -1.467414543955116168e-01 9.693182228573311576e-01 5.974388450709177123e-01 -3.010540950046600717e-01 -6.944270764704382759e-02 -7.121218845705640232e-01 3.452914604822414635e-01 2.126332115099921483e-01 -5.230632938566850410e-01 1.234032447306843833e-01 2.838840324137970050e-02 -5.991184765065555862e-01 -4.831823596594602144e-01 -4.974494478077309267e-01 6.104521893092181850e-01 8.184759543604174237e-01 -9.621682355908722784e-01 9.588928292449165891e-01 -2.477531294946747342e-01 -3.345003155229001601e-01 8.429237099740959360e-01 8.507480587405522598e-01 2.072517115808941435e-01 8.698604525069524307e-01 3.699351481624699178e-01 -5.474364513603107163e-01 3.005221724009701778e-01 -3.037160370928574174e-02 -2.588931823047149194e-01 9.485383294827486322e-01 -1.994336444094112204e-01 -2.916521264376193412e-01 -3.013290332063393515e-02 2.293262464720135785e-01 -3.227646287796825941e-01 7.285324835658464337e-01 4.039172824122130856e-01 5.866957389510760734e-01 -1.004245693927972027e-01 2.484702662505831050e-01 -6.865312879473794982e-01 -3.777783551142921414e-01 -8.172590924313541949e-01 -8.998682370433968014e-01 5.652753841726120276e-01 -7.755097413341033308e-01 -4.058894733051608972e-01 8.130136488297714514e-01 -1.557367116557931315e-02 -3.252959769392330114e-01 7.604398104615329723e-01 4.988371680121262558e-02 2.092762805725983943e-01 -5.498330657650453146e-01 -4.534661276607040437e-01 -4.941946361956003897e-02 -9.420538157241773458e-01 -4.162490094083220321e-02 -1.546122577891752836e-01 4.955956304449037342e-01 -8.147819663219217634e-02 4.084850668643421057e-01 -7.629775958486154641e-01 6.595973538625459209e-01 -5.053857281220065084e-02 8.646850126955638594e-01 1.033691703379771010e-01 -9.764886526430796021e-01 -2.479928220878457878e-02 -6.633390726942305360e-01 -1.534312081736008970e-01 -6.672179645589885189e-01 -4.884929997781888716e-02 -1.147518467973754619e-01 7.216584848784681760e-01 -5.284153249627485671e-01 2.694025819593197715e-02 8.218120065855347711e-01 9.177449776831090311e-01 -2.158656837957701746e-01 8.724573172139129529e-01 -5.814944098124334992e-01 5.833051142672388556e-01 2.476460139516499792e-01 -2.916308745791881818e-01 -8.140410486706218807e-01 6.720298956588551809e-01 -3.877077499182175480e-01 8.445930728295693024e-01 -3.401612855557676340e-01 -1.892833871458842743e-01 1.093503408661297832e-01 1.283651839665237993e-01 5.016032756458195241e-01 -1.613793601714803572e-01 -2.351732340104433217e-01 8.973086090699999851e-02 -1.160559975370731856e-01 -4.117884376408934011e-01 -4.496067180283074838e-01 -4.124462635140098699e-01 4.363544441950870101e-01 2.607130542929423367e-01 1.372070241242680511e-01 -5.254708618059765746e-01 9.224250170029114626e-01 -9.318188004405119074e-01 -4.642433013158364652e-01 -4.748248630780322888e-01 -6.757680748585640496e-01 8.668266811836723429e-01 6.420554524068396995e-01 2.926873709182085115e-01 -2.400949428586869605e-01 1.743751746288545179e-01 2.303924876037287406e-01 8.625257562141727119e-01 -2.333883861256276782e-01 2.253916003880925695e-02 7.629258727605746360e-03 -6.117638732576937688e-01 -4.118521089402809032e-01 -9.961453196220009243e-01 8.196676412755332652e-01 7.675736843497589224e-01 4.303390484952223094e-01 -5.662658187024687678e-02 -6.022511821235534413e-01 -6.136294553233182514e-01 -9.604679969301928022e-01 9.441633128793732732e-01 -9.304640901894084548e-01 -7.491754399951601473e-02 -9.624194137726805875e-01 -1.941407620621663499e-01 2.826847956945234552e-02 -3.554681067081481571e-01 -7.471000776997439585e-01 -2.248224539505757347e-01 -7.823603771961812336e-01 -2.336062180287579171e-01 7.354776827288894703e-01 -7.458815600831257830e-01 1.669787892802900575e-01 9.380689462454062655e-01 -7.019937053043079356e-01 7.227114963199304798e-01 2.975647132137606565e-01 -3.265271261575319883e-02 7.503215656462633998e-01 2.782293361789553998e-01 4.000678378945414781e-01 2.713052844603844882e-01 -5.379967007516197608e-01 -3.054930496206109680e-01 3.648817334611675900e-01 -5.475873317428529008e-01 3.986208373921116821e-01 8.188272478681009048e-01 -7.214101199662575903e-01 -8.421908375016533554e-01 7.375221387475544566e-01 -8.737495413117963849e-01 -1.182377012409984857e-01 8.098323158314117975e-01 7.556002048266486915e-01 9.208333399953985698e-02 -7.677879307038778522e-01 -4.399600954787475926e-01 -2.181144231446846202e-02 -6.144939830554690431e-03 -8.203920825396340266e-01 9.498339727780510389e-01 3.967412851692407871e-01 5.466966651826218326e-01 1.018200456715101510e-02 7.279565294341292514e-01 2.785320823113504041e-01 8.617488460107081139e-01 2.767411101287065023e-02 7.821339260728481513e-01 -8.845716629548185939e-01 6.208204229127489704e-01 -6.025082079187120687e-01 1.110317530652057127e-01 1.957029063709034636e-02 4.651286345077836060e-02 2.129743433857199941e-01 6.932641686300644590e-01 -4.227519945230217013e-01 -5.845527355017038351e-01 -3.055337663923900493e-01 3.671010795815130012e-01 -2.859686879818510996e-01 -9.636070213003796736e-01 -6.519308084335068143e-01 -4.592791095785372923e-01 2.742904922002933898e-01 1.432140986375937397e-01 2.341839810855831164e-02 7.659013716481481993e-01 6.914227848284263400e-01 8.771027868229708258e-02 1.349056401275250394e-02 6.597279883659514788e-01 -6.708076731184586805e-02 -3.587875419185488912e-01 -9.175552019671731063e-01 2.670184008611116155e-01 3.518007904215523229e-01 -5.556089603787617293e-01 2.273499349577001727e-01 -7.626143577313471145e-01 4.497623394981297151e-01 8.216748614822214636e-01 2.445716069626083233e-01 -9.607626355152332209e-01 -6.526857785799253797e-01 8.619200505537375490e-01 8.585419891494201483e-01 7.513502283526442005e-01 5.058772667496715947e-01 -6.083658864191342497e-01 -5.735842711234429708e-02 1.581343575720660644e-01 -3.800706205848636277e-02 3.201865850953258819e-01 9.620396484262452308e-01 -6.295424411012858767e-01 4.903779708242414492e-01 6.976003421519498815e-01 5.586882444957101956e-01 -5.634635504447516041e-02 -2.352981682053509882e-01 -5.000715476399335557e-01 -5.002846776226737013e-01 -6.079203854101913329e-01 2.496136422680099720e-01 -9.269246007065756743e-02 4.505479893031132388e-01 -5.398056705845677428e-02 -5.812774975808604472e-02 -6.194166414834021417e-01 5.332718828576177295e-01 6.392917901992740681e-01 6.277927305339725539e-01 1.861286945970845874e-01 -2.613418709086338665e-01 -7.389252957538755551e-02 5.377811856619088005e-01 4.383196773680390623e-01 -1.742011875926683523e-02 7.277256318690321357e-02 -2.725396226030026292e-01 -3.318169690511653114e-01 -1.206497498907909693e-01 -3.317094522942346524e-01 -3.558438803913068216e-01 6.301333869428891177e-01 -4.318403379305846279e-01 3.935149626881633278e-01 9.298231949142143904e-03 8.228613018271269119e-02 1.600460528865070842e-01 7.646345425878795510e-01 5.069428018112935863e-01 9.698817284086582724e-01 2.513347396013299040e-02 3.311909589257452935e-01 8.362094765395785556e-01 7.776232591106777559e-01 1.132872854706146182e-01 -2.182869720454225781e-01 1.791032063668042962e-01 -4.779136980987228611e-01 2.777806865403476544e-01 -1.374105263622925517e-02 -3.231416985408284703e-01 -6.455216735716837739e-01 7.149146232362746378e-01 5.468010248835553089e-01 5.470679441778969476e-01 -5.546201828497107078e-01 1.039386696984825331e-01 -8.777185152263717871e-01 -4.716935190998863270e-01 5.251064709913255690e-01 3.220902233474010057e-01 -4.505612358119257532e-01 8.544935251311391866e-01 -6.094067344889151361e-01
2.644460280946259179e-01 8.449844004910147532e-01 -6.398170041934754249e-01 3.179251908227422874e-01 3.272205077831962239e-01 -6.836853666029369947e-01 8.612609547298044621e-01 2.227037219803473800e-01 -4.024559167923902336e-01 -9.626444766007418163e-01 3.258366413576099241e-01 -4.362395895291115711e-01 -1.218574755314851821e-01 1.794061494767595910e-02 -9.791359565605772808e-02 4.054319333233107336e-01 2.341610973771346416e-02 -8.881223308166859010e-01 8.386416487188423918e-01 -4.440688443395992557e-01 -5.859488023715575533e-01 -7.253365903331279174e-01 -9.541141469817429055e-01 4.674568967207115566e-01 -5.681695943386906311e-01 -5.941626512017266215e-01 8.506429119325453758e-01 9.444713432828388822e-01 6.610563753525340314e-01 7.706043502493393760e-01 8.023918657742930005e-01 4.128885677451987757e-01 -7.109048947779068595e-01 5.949968307055846228e-01 8.178828463879281863e-01 6.457678123347521115e-02 -8.488846482689802464e-01 2.627640990689570355e-01 -6.030107682651659751e-01 2.859443292083310162e-01 9.308640282798522625e-01 5.429113286632289981e-01 -9.887568774246868752e-01 9.137815617505702370e-01 -5.611251323472801200e-01 -1.011512692702065674e-01 6.880242784755681296e-01 8.530735635809025830e-01 7.494653028160633834e-01 -2.724135126374676030e-01 3.337462693309711792e-01 -7.679329388423929981e-01 -7.861805696088790540e-01 4.125306072575058991e-01 4.479740489321342167e-01 7.917397590248806960e-01 -3.822042578454205586e-01 8.313984542084744689e-01 7.852038136844450289e-01 -8.519182030037426578e-01 3.230055621423959522e-01 6.332453962927908631e-01 2.237941322407195344e-01 7.468601789769455657e-01 9.836261784797341035e-01 5.983552764508567323e-01 4.196892879063974791e-01 1.734792858619336187e-01 -8.473735115754101044e-02 7.382642168674274918e-01 -2.383605132159650197e-01 7.758051464329425162e-01 -3.361503283964802913e-01 -9.192889920451695618e-01 -8.063161677707048058e-01 -9.342008291791826791e-01 -7.435595832386941995e-01 1.831057207309290391e-02 -7.736913928061325274e-01 4.280310693538602607e-02 -2.108770102013513004e-01 5.355418461967651478e-01 -8.423097897747828799e-01 -7.326957510009906027e-01 7.220033300476424998e-02 -5.259190976755394598e-01 7.751039810571276334e-01 -9.006961035464029486e-01 9.751651244151116060e-03 2.327028672467272852e-01 -9.068318806178379266e-01 -3.140986860434704514e-02 5.466005176966609591e-01 -7.331921248619026610e-01 5.188006691399563719e-01 -8.189775425628865735e-01 8.354890485284294233e-01 7.939552723862439709e-01 -5.885132451670055387e-01 2.611687395888276919e-01 -5.503491355936953600e-01 2.510978899876579740e-01 -8.611517895488557395e-01 -8.144640529297162423e-01 7.230215386829458302e-01 -2.920182508110160530e-02 -1.261520407553107515e-01 7.678341326971797054e-01 4.461428358181569465e-01 4.760835869158437372e-01 9.031783192262092808e-01 2.727985825346614934e-01 -4.492791009293586324e-01 3.563238137400597250e-01 7.661606440166912613e-01 1.374972923333936947e-01 9.683346337958511629e-01 -3.790497674832122299e-01 1.372041579920105780e-01 4.454126266536749812e-01 9.688201401031181215e-01 1.644286516481750227e-01 -9.048945580100037356e-01 -8.999227378989849147e-01 8.955046685472493051e-01 3.637584136217357211e-01 7.275122173957376814e-01 -4.738827884830192905e-01 -7.277638744948132787e-01 -1.757162438298373874e-01 2.775994575409820864e-01 1.993345747952837699e-01 -2.072610797672103655e-01 2.144857260603093008e-01 -5.766916617380547505e-01 -5.372975268349960976e-01 9.680562462514642474e-01 -5.001014995532608864e-01 -3.497141195387685197e-01 -6.383775616934872499e-01 -4.826202251011526556e-01 7.466738577069300664e-01 -7.866063198003965251e-01 2.470348208185810801e-01 -4.130424500941232147e-01 7.205808907872544022e-01 3.686025033851110522e-02 -7.756868050635326028e-01 -8.088485210377930335e-01 -6.493366518550741651e-01 8.129983146660834104e-01 7.347306125385340003e-01 -9.539140187643696533e-01 7.799897324415441813e-02 8.744223886172972082e-02 5.634810778417004284e-01 5.679323759361655233e-01 -1.906167237185550645e-01 5.485251422510213359e-01 3.762151195914092972e-01 7.245686022609570953e-01 -3.291516636475754209e-01 -7.337583398454133876e-01 8.090268214668266955e-01 -2.503246843897976581e-01 -9.626600993144648344e-01 7.423987492984895908e-02 8.960716068655991684e-01 4.256449909765316342e-01 -6.480135195309242313e-01 4.828931061476864350e-01 5.730263311033985119e-01 -6.944119948784165386e-01 -7.943553104043736823e-01 7.140427846212827889e-01 8.999210328127922320e-01 8.238994246582882486e-01 8.761504347320450137e-01 -8.979463518866249716e-01 1.876437053407789156e-03 -5.945753840045050476e-01 -6.096444236065760025e-01 8.961119199959344250e-01 8.159469998261211776e-01 -4.133297405001909453e-01 8.812746477067024964e-01 -7.520149835442401232e-01 -5.877870165506996619e-02 -6.205832911677510166e-01 -4.278479755430458220e-01 -8.708162544698829777e-01 3.368856550025316476e-01 -9.736879869719670122e-01 4.838443277418220667e-01 7.091773390733953075e-01 8.310344866387728846e-01 -1.888356488059137472e-01 -1.825324388984492785e-01 1.390738713997938525e-01 4.762055744122772882e-02 7.595802673712410691e-01 3.777983673637453910e-01 -9.378370078087380213e-01 -2.457663376528251009e-01 -8.114365246028304446e-02 3.017279562782928526e-01 -3.783121463508988258e-01 -6.229251123378306554e-01 -6.748824183996854353e-01 -1.245686311829633935e-01 -5.435543523899307727e-01 7.112366130573422041e-01 -3.887598871376434229e-01 -1.269341638048691046e-01 1.674548242114548280e-01 -5.096490804556543797e-01 3.836208938324660589e-01 7.279560860242366704e-01 -7.764677963725802323e-01 -8.356819783074379560e-01 2.566569417669836706e-01 6.815549914564525968e-01 -5.421101756052212339e-01 1.028428985657816597e-01 8.216091693027220977e-01 -5.237509176992923843e-01 -5.014749829692316530e-01 8.584034264039225315e-02 -9.004139241394873983e-01 6.612459891621462749e-01 -8.609326256452882742e-01 3.401278103745599690e-01 9.989248922420015386e-01 8.717264087982403709e-01 5.251044797924024898e-01 -8.888465030986686388e-01 -9.125514678190692619e-01 6.400996770743634379e-01 6.977092208795505623e-01 -6.124423897029841468e-01 -6.121133108003619094e-01 8.747923881230461607e-01 2.519436962560975615e-02 -4.531162640018718268e-01 -8.620866638054276443e-01 9.221535002091911792e-01 -4.575201415939867955e-01 9.769754021514407416e-01 -1.653427003505328341e-01 5.292696130400299515e-01 -5.376694543604920717e-01 5.010976145087462363e-01 5.763483994102336361e-02 2.089348846299659557e-01 -8.445208130104578936e-01 -3.916858056873144256e-01 9.075512920723193266e-01 6.272752259089551252e-01 -3.524793360962231725e-01 -4.408413959380149127e-01 1.011243574862984440e+00 -8.607904008660151041e-01 1.001574301479276619e+00 -1.349388278349052672e-01 -1.895013052814807641e-02 9.195722987960269768e-01 1.889129490993273486e-01 -4.438257911636496189e-01 -8.259692758838693694e-01 6.051220441560490881e-01 6.335497213118506110e-01 9.637706503552626591e-01 6.557782404000067622e-01 4.700284299736191829e-02 9.324355646169381062e-01 -2.874054986098247277e-01 -3.026331192365364631e-01 -1.494983147446070360e-01 8.716565193986185456e-01 -3.589848936308157601e-01 9.849832907898867784e-01 4.806712845949447921e-01 -5.041278423197077529e-01 8.542790181762586199e-01 6.955155876765715117e-01 3.705076757281418331e-02 7.663301621422241583e-02 -5.918597028901790846e-01 -4.043699547868222499e-01 9.929028198081429890e-01 3.258570160551376160e-01 6.843429450491141930e-01 -5.253500284740140192e-01 -5.324146467584393028e-01 8.416143435321582489e-01 2.090370618521307511e-01 -4.803254783624183455e-01 -4.219672281213806553e-01 -7.899676405972196058e-02 6.067939028261144091e-02 -5.437636580952832643e-01 2.783627777848258211e-01 5.330699956931300720e-01 5.282677051975644966e-01 6.912125951722285222e-02 -2.225048172675304636e-01 -2.285098067461384108e-01 7.086881945694178953e-02 -3.834415988376014273e-01 -8.358969610141795403e-01 8.941726976850573189e-03 -5.794868607146405060e-01 4.399783998081209235e-01 -7.142138188944701094e-01 -8.178338037592302046e-01 -6.896580087831953865e-01 2.239278882913035007e-01 3.329413370940788597e-01 9.900567834331928108e-01 3.158896533720033095e-01 -9.446151840674988920e-01 8.873704679788915195e-01 3.881733083876011126e-01 3.662111728219919482e-01 5.179895710252552243e-01 3.035639843151657913e-01 -6.604861635860743707e-01 -4.860504991683495257e-01 2.974022300487906278e-01 8.298025871069272807e-02 1.001990092004234612e+00 8.067714349971607524e-01 -7.125160360570202966e-01 6.129002776110261536e-02 7.474857020249028317e-01 -4.919236745102701924e-01 -7.557466024762131696e-01 3.529607574992854602e-02 -5.114282117904782599e-01 9.215224548460086984e-01 6.322960278282312441e-01 -5.605285740128818084e-01 8.031536876556989724e-02 3.977630775110507777e-01 1.892083228423338537e-02 -2.715382487267207004e-02 5.579995737554704904e-02 3.237926246838944699e-01 3.988402877376221456e-01 -1.008268542774417159e-01 4.778067259237357978e-01 3.677544899471744122e-01 -5.648421432585917223e-01 -7.022005803437648686e-01 -8.014916732794804544e-01 9.562584677982585157e-01 9.767762403961051110e-01 -3.884340981018106764e-01 4.514498395934480324e-01 7.604817281407283414e-01 -9.693817116360687880e-01 7.506334986064633341e-01 6.745736818617309449e-01 8.123699827431754006e-01 1.386958469410628503e-01 5.945333744669323295e-02 -8.355718366960412924e-01 1.227123558848416396e-01 -1.566152305651571652e-01 -2.377675024195206321e-01 2.011919174119294884e-01 5.553387806321469222e-02 -4.307315560912665098e-01 3.059475065673932792e-01 -1.717293382880108188e-01 4.478018970582112873e-02 4.823205161106707689e-02 -9.295807269910342230e-01 1.900953615154081233e-01 3.788414183167586602e-01 6.404531310855517967e-01 5.129925053414119071e-03 3.755950915509848054e-02 -1.568157944361164846e-02 2.385765427092489260e-02 8.676386751519425955e-01 4.291252523146139586e-01 -7.379305706847653079e-01 -4.825374733607313837e-01 7.237225302605851951e-01 7.078596364263964880e-01 -7.924888770284219675e-01 -6.759667546427692297e-01 -5.589376993738399690e-01 1.863149194689359689e-01 -5.891846948015008190e-01 -8.901429689755570307e-02 -3.963228065444143189e-01 9.208368776939267475e-01 -4.558024709494224447e-01 2.278459690210542510e-01 -7.469540489889925361e-01 6.841110022276455371e-01 3.242222955377160321e-01 1.847024635790876779e-01 5.629083720216602194e-01 7.495757752140066454e-01 4.609159521814190086e-01 -8.737185077399017841e-01 7.831570399624890877e-01 -2.396564950902104474e-01 3.923199957016602624e-01 7.413353942227282056e-01 4.062796976246866865e-01 6.777969384279672882e-01 -4.963466903096276361e-01 1.333593197125887420e-01 -5.939129407693984897e-01 9.274646384450946357e-01 -8.968903311325759908e-02 -8.998355853542068239e-01 -2.691507626902320816e-01 5.152085124930421145e-01 -7.298293752765341313e-01 -3.365955324083375610e-01 -9.552541079229606158e-01 4.170981388101621112e-01 1.962863204328227362e-01 5.585033886735389919e-01 -3.878104333670477355e-01 -5.995252987664015931e-01 -8.097824565183570078e-01 1.031525478370342273e-02 -3.154064520556739137e-01 -5.210540183393853608e-01 -4.229980359571991477e-01 6.301832806368927731e-01 -4.002449349350805097e-01 7.474419662975281820e-02 -5.170388505960983316e-01 -1.852001384337290113e-01 9.296380237862448270e-01 -9.495256925610480181e-01 -6.544283119346493427e-01 5.117086816781387659e-01 -9.300441383612508828e-01 -4.348403366920834401e-01 7.916154414174134679e-01 2.688597966001500250e-01 7.572750080636472259e-01 -6.509401776240308912e-01 -5.924413793226097208e-02 -7.856338170904654250e-01 5.799148734985767328e-01 -8.593063047074894767e-02 -3.021280235268400949e-01 -4.489143795125119518e-01 5.326002752108779381e-01 -2.611738006795197298e-01 -7.273412382520479946e-01 5.886549471416543389e-01 1.050699623224668811e+00 8.630232835246586243e-01 2.365408332953174708e-01 -4.909895698700524336e-01 1.036835054003124146e+00 -4.176760107363701735e-01 -7.481453155258014354e-01 -9.077538179887424397e-01 3.088081292632660069e-01 7.569964663025867272e-04 -2.329985849554987165e-01 1.871238179964452852e-01 2.486598541331541401e-01 2.418697681774581998e-01 8.785957218611335495e-01 3.023859302842022423e-01 6.610058283199562457e-01 -7.542559367160048822e-01 7.767438722233315218e-01 9.408979761615647863e-01 -3.597164882188215729e-01 -7.640713383369850398e-01 -2.875507394514392745e-01 3.124133957345817114e-01 -2.786726917217417498e-01 -7.441368252936806371e-01 6.969713708234619443e-01 -5.540608858344945320e-01 -7.713260266221471095e-01 -4.361220405224482399e-01 6.193619568353007088e-01 9.633024128434627409e-01 2.289203614700326961e-01 -6.246442805805229037e-01 8.859446006154577669e-01 -3.825417992044187754e-01 8.063675179319237385e-01 -1.216410726673197440e-01 -2.490607937417952666e-01 8.781603371217121534e-01 4.603612696146328759e-02 -8.349593836465791785e-01 -7.945055406724566005e-01 -3.419809381208231969e-01 2.375745767113226492e-01 7.115670632629353953e-01 -8.387216111729419721e-01 -1.402999484338404990e-01 5.342384663692961722e-01 -9.125239220027233644e-01 -2.258138332632483036e-01 6.473189893703606979e-01 9.487311331855344809e-01 8.363613417976805131e-01 2.565729010315109804e-01 9.447555516278834942e-01 -8.251417190784732236e-01 9.941870100969517621e-01 1.259127215459924787e-01 8.852913582096256784e-01 5.838597346467736537e-01 2.423996858430054260e-02 9.342148395250046145e-01 -4.688468164796529281e-01 9.309104859156706047e-01 -4.051743086080248912e-01 -7.960460393475411456e-01 -1.343746069749847949e-01 5.137742082529683785e-01 -3.172863566351380449e-01 1.127677989716195928e-01 6.681687708816772542e-01 -5.206817428852958951e-01 8.368778195949670984e-01 -8.218151019522207390e-01 3.018552467636107517e-01 7.779980004153606021e-01 -9.091990350830717604e-01 -7.769267163518137065e-02 8.217595225975915518e-01 -6.261871592144523380e-01 1.074077577161402397e+00 -5.617348076527565182e-01 3.096154629331557273e-01 -5.074119229997702263e-01 -2.597843934637817931e-01 -7.684418537968373819e-01 4.682759539668161497e-01 5.650281780097510254e-01 3.272918832536450030e-03 4.345366910089462076e-01 -8.742295637234754890e-01 -9.847301946562083685e-01 2.337074519458926525e-01 -7.582437408689917113e-01 4.649013551013003731e-01 -5.018831721521551659e-01 6.002283901286290524e-01 -9.722969708531141730e-01 3.074105926485386497e-01 2.971191905021270951e-01 -3.985596716718622368e-01 -9.187681827271646506e-01 -7.754856252770931935e-01 9.192898398972623175e-01 -6.533682541265110055e-01 -6.233093136253780031e-01 7.645610277338348304e-01 -8.682200463996949669e-01 -5.081242203613106634e-01 9.639210232579299431e-01 1.000636240499347629e+00 -4.822584353708066485e-01 -2.961832587250909921e-01 6.428853375415072291e-01 -6.910446041881556090e-01 8.000362306202832841e-01 5.254446857688951367e-01 7.684738322148652045e-01 -6.197861688867624119e-01 2.240043714564018962e-01 5.816306422827244305e-01 7.658515355036676908e-01 5.148225477482751833e-01 -9.523372229595226113e-01 -7.284605346585670826e-01 -5.162363735865027614e-02 9.501264469841432803e-01 3.104277460940754185e-01 -5.416176319744410161e-01 -8.065817011724603081e-01 -9.201125753284212783e-01 3.963828988156476996e-01 -1.340214684890759511e-01 -9.362512401593137135e-01 7.969877929608403244e-01 -8.109732872766242107e-01 -8.352954450208253112e-01 1.288167036650190722e-01 6.157673187990753139e-01 8.009141877198222570e-01 -3.281757166514526758e-01 -6.721560024850350423e-01 3.929402633002196943e-01 -3.100631191003148102e-01 5.907876614482349131e-01 2.978877532864167565e-01 9.745639594752142365e-01 4.699044917469346050e-01 -8.539599674230408111e-01 3.758787829638388089e-02 8.878953488071664735e-01 8.083312185375157721e-01 -8.345118001386175877e-02 -9.396399674944004854e-01 5.735986028295949612e-01 4.499742863897393530e-01 -3.281772878895477530e-01 1.729365588090326922e-01 3.934030374581169720e-02 4.352150235676528062e-02 8.689766329702176550e-01 4.486259778383005874e-03 2.934577853680465087e-01 -2.580602391127670425e-01 9.830481292271046889e-02 -5.345448907281491469e-02 2.525638066954014604e-01 7.752452931917984680e-01 7.486268535763581644e-01 8.050780075029805305e-01 -1.164461626614444328e-01 2.150710448968880806e-01 -9.485893613582070394e-01 6.894606770074203084e-01 -1.940127738788550993e-01 8.184962328391302000e-01 -8.977499352576985281e-01 7.195245399530835195e-01 4.711873069909309208e-01 2.015991046678993204e-01 8.601789790436873417e-01 1.020246494695420392e-01 -4.126495860665486681e-01 6.864186209235969560e-01 -6.127052196101363535e-01 -8.555829143717161855e-01 6.861258441268431874e-01 4.879147701212116495e-01 -7.269675183443303768e-01 -9.905989329770277518e-02 2.129855653289194073e-01 9.440962023621259913e-01 4.470624690294153214e-01 -3.064087506409318706e-01 3.419762167785244111e-01 5.876093064949487049e-02 7.503741398121390738e-01 7.015174127813987859e-01 2.420053807715249194e-01 -7.994247040337458809e-01 -6.275500399851331457e-01 -3.635310140355293984e-02 -5.968451727457934064e-01 5.772818134352390995e-01 -8.190409598249752676e-01 -2.185770847309314868e-01 -9.802270366145700020e-01 -3.593399328647413071e-01 6.115201662491913659e-01 -4.679975688239932374e-01 5.281108529545952557e-01 -1.324034074617972401e-01 -7.200071203738445114e-01 6.807521194214458671e-01 -1.009333120780707971e-01 2.113281999377504827e-01 3.836723378654264272e-01 2.660404042228508570e-01 -8.874285120686620232e-01 -8.489375688471866299e-01 9.183942816707741930e-01 4.105273968982162680e-01 5.290884875587752445e-01 -1.885288739661820367e-01 -9.735249467273060509e-01 9.788451699373993398e-01 4.543863215830663549e-01 7.483307025104865562e-02 3.579953164320165970e-01 -6.884080439233395410e-01 -5.533888088661735871e-01 -5.620561294522241624e-01 -1.851552645219629312e-01 7.935198277308661563e-01 -4.283171889691332890e-01 -2.623111298332907459e-01 1.083502678456367274e-01 2.509647360212714506e-01 6.511214839866394932e-01 -2.785427775114781568e-01 -2.614489481116810676e-01 -3.328516533620013984e-01 -7.663543740886218369e-01 2.155272633794882431e-01 1.775997314667977778e-01 3.263959445404315263e-01 6.985281803437369819e-01 -2.875556750410995788e-01 -1.615600783158813725e-01 -2.370675684205096057e-01 8.550042761774698796e-01 9.044990508119328532e-02 -7.404744294412558547e-01 9.243259102302211483e-01 3.366973245724175917e-02 6.327323019674911952e-01 -9.748984039181317618e-01 5.492411270381157840e-01 -1.300612744172028809e-02 4.175832042651053122e-01 -7.844733483982890831e-02 -3.088225268283064651e-01 -3.700474401236402144e-01 5.008638692913909285e-01 6.102115467018716100e-01 -3.787861199564981352e-01 9.561741214846490866e-01 -9.542043047624735319e-01 -6.101087910991875862e-01 -6.856558273568500450e-01 -9.252425549991014631e-01 -6.297901109421188970e-01 3.929345953662488067e-01 -1.433615586627909055e-01 7.529510150338317720e-01 3.390217519982430816e-01 -5.962634342679353772e-01 -3.336532537053381042e-01 2.894547862840406993e-01 3.161341117405035428e-01 7.316433870603029632e-01 -4.276742234956670274e-01 -1.716917553414223918e-01 -6.173609316917203493e-01 -6.980522989394372102e-01 1.217332655729377183e-01 -4.213984297279072672e-02 1.606175828432163388e-01 -2.375544734425418525e-01 -7.429509553472215533e-01 -3.987374802414651587e-01 8.428210027719851283e-02 -2.940370798856786205e-01 -2.405967189864748335e-01 2.488131799623718443e-01 2.791456939134906445e-01 7.007530321550927699e-01 7.587704114799695976e-01 -5.714424210823245698e-01 3.663169255431140137e-01 3.644399631405668138e-01 6.278321825691399738e-01 -4.905811195215692422e-02 -9.172765173303419894e-01 9.186544945662645789e-01 -8.499601700486656419e-01 3.748264673658022184e-01 -4.188385873651290225e-02 8.577308899682377641e-01 8.312706855552198792e-02 2.134101718246937396e-01 3.741260369873297686e-02 3.808514786255958184e-01 3.606696573224753566e-01 7.044665036892456822e-01 -8.952608839345379543e-01 -4.348639038889468011e-02 -8.674816205934028357e-01 6.363254150856931801e-01 -4.382014446226780713e-01 4.276422359200133805e-01 1.577102044953959670e-02
8.426172666550473256e-01 -3.262392825039557298e-01 5.370823782009594982e-01 9.881073490276892635e-02 -6.426865591812462863e-01 -7.541901763441423157e-01 7.668459584444176080e-01 5.499205886073901262e-01 6.352762064528760799e-01 9.943037479696070768e-01 -8.366698833939101299e-02 4.826797319913096462e-01 4.381744764856865260e-02 -9.482992737143758344e-01 -6.253223326747536781e-01 -1.790102414688168331e-01 2.119361825647814168e-01 -2.674677548156445539e-02 -4.839438724194735642e-01 6.672410086561249010e-01 7.655050500802271785e-01 -1.885327959520364249e-01 4.857966370775352871e-01 6.286729118958385154e-01 2.364107639113917081e-01 -2.507133605884817040e-01 -4.941717991393967946e-01 4.059866181665698903e-01 6.531369311278665268e-01 -9.882102041869240683e-01 7.489816186222084671e-01 -3.897096433638593815e-01 -6.941953874359785281e-01 8.313113184360503283e-01 -1.087421187298844849e-01 8.276224458423755426e-01 9.882771900890721106e-01 -1.995009512794829742e-01 -5.416833259849427318e-01 -2.166073302523066069e-01 1.564235587739232491e-01 1.198699796077082880e-01 1.560615190463394697e-01 3.857376886794767756e-01 5.970353688262977077e-01 1.605882223557862643e-01 2.127502066005422243e-01 -7.662891899371218063e-01 -8.559313911194001978e-01 -8.543782695204016342e-01 5.948930902195694870e-01 -5.521398961335495237e-01 -9.028780788477865915e-01 -3.868706393610870098e-01 -7.827427081477491555e-01 9.835890622409417805e-01 5.649144876431080320e-01 6.462208243898996951e-01 4.904296471141642577e-01 -1.160353313206614612e-01 -7.530759535759838919e-01 6.023544535314404591e-01 9.728314096379875320e-01 -8.794871564867272618e-01 -3.184521270884612537e-02 -9.372474419770212561e-01 1.487063565051693209e-02 -6.555787805763811649e-02 5.264234072180340451e-01 9.556774532896731289e-01 2.291870813383500571e-01 7.083040861124783039e-01 3.012026458931679751e-01 8.090710124024016459e-01 7.832056303472682002e-01 -9.539324167710035995e-01 1.897756305199714555e-01 -1.571008985756282561e-01 -8.865915269061032111e-01 -6.456218155171901119e-01 3.332030922514235272e-01 5.013175404066516627e-01 -5.670675948459691362e-02 -9.983852515435656105e-01 6.596015439218172460e-01 -7.407837411507003367e-01 2.523087812163169463e-01 -4.381632956029342107e-01 -4.680258329969522180e-01 -2.359453631816950114e-01 9.396830514262626277e-01 2.920330544198582179e-02 -3.930059400113100065e-01 -5.283381607296931959e-01 -5.205210199782935865e-01 4.157210802306081643e-01 9.942918146399586377e-01 -6.833137034587982717e-01 9.402657961707794332e-01 -6.770418690025233055e-02 9.655088583586145523e-01 -7.158609722944385689e-01 3.596398860019253685e-01 1.701356747044272255e-01 5.804878239085025093e-01 3.788556365393828118e-01 -4.092464650316554597e-02 3.549389052852388593e-01 -3.922181254314338061e-01 -2.566969052041920829e-01 2.198515510367078374e-01 -5.933843625963461932e-01 -2.089170222493936802e-01 5.804339323073537393e-02 1.155960579770418661e-01 9.993854128158865535e-01 6.999684717728387184e-01 7.941122611317108504e-01 -3.707717971730697948e-02 -3.655000277899672634e-01 -6.455658638674222072e-01 -3.192655920701588292e-03 8.107466445486076756e-01 -6.951807049454795662e-01 -7.185842853021365828e-01 -4.399938835991568098e-01 -7.920622358048494682e-01 -2.884740725870446054e-01 -5.013373978046040680e-01 5.951512039360351558e-01 -5.386027420894661660e-02 -3.340211490896942137e-01 9.737113123258233083e-01 -9.777221504474319369e-01 8.659541184052917950e-01 5.249778627445941259e-01 -8.916535116450465814e-01 -5.819907513398534515e-01 1.269958292542792133e-01 -7.924390835872066052e-01 3.881714226627630548e-01 -1.585976045692363279e-01 3.333084962160106635e-01 2.090565696370993709e-01 -8.486931883037551749e-01 7.460463893283969528e-01 -8.111960038307864940e-01 7.738702225829490189e-01 -3.961618669664718762e-01 -1.992486247639068953e-01 8.137007535829260396e-01 -6.755279431428237169e-01 -6.618638512688519437e-01 -8.280999491070681895e-01 2.348490584758662347e-01 -1.426097407664657091e-01 -1.281506212643829523e-01 -8.629509436705424807e-01 -6.063780422727551578e-01 -5.139819415701937233e-01 -6.196443076042866815e-01 -9.375266918985737663e-02 -4.403022214657333344e-01 8.136924508872726003e-01 5.438342280893164737e-01 -1.772402424989159286e-01 7.160725437324320097e-01 4.613318425622319197e-01 1.621648907445871757e-03 -9.981800226536474696e-01 4.162366367578231863e-01 7.408684051550286087e-01 -1.835623004366025157e-01 8.995601350167675703e-01 -5.264201308922364930e-01 -3.605228393276390109e-01 9.351967032010758407e-01 6.279114502929377117e-01 -2.784527699939274292e-01 1.079534129253006292e+00 4.449747852223874811e-01 7.111536870842415370e-01 -1.113600173076279981e-01 2.104593130076831964e-01 -7.965359385696417771e-01 5.867234995803245479e-01 -9.297044565203935740e-01 9.785064376611593007e-01 -4.038726147698757374e-01 -6.362625887554836934e-01 -1.337805643484758222e-01 -4.733493892186193541e-01 -4.678744125483976224e-01 3.988669034030666305e-01 -4.069263518032737448e-01 -5.698136464009828650e-01 7.446243958301281829e-01 6.659013096567436563e-01 -9.452143439444499196e-01 4.715706081534886129e-01 -5.521254602627465591e-01 7.633688157205387181e-01 9.956565984754451870e-01 -8.960248498256843108e-01 -4.025367112566222150e-01 -4.210550865210569982e-01 1.308520422542456541e-01 -2.306875505226483325e-01 6.198179718243157499e-01 -3.646958923725430735e-01 -7.804244151961158282e-01 -1.679845160032743812e-01 7.914188334337558528e-01 -5.181873998220256627e-01 3.731360563602897917e-01 4.598084234814801552e-01 6.979886233850893240e-02 -6.613874167750631583e-02 -9.149979463862335516e-01 -1.549331748360146810e-01 -8.571287840111201373e-01 -2.771777857315648741e-01 7.036533871402378404e-01 2.590116304804788161e-01 -4.355021394874729612e-01 2.383037044197950649e-01 -8.472762983157897665e-01 -4.521701487226690297e-01 8.574312194401959575e-01 2.820901274805980852e-01 4.139371278284344480e-01 5.272782329568579535e-02 -4.789641038484125368e-01 9.098903842833605538e-02 1.866966003106191596e-01 -2.651973149498184079e-01 8.050857449719708292e-01 3.724470777579807490e-01 2.468398583713587446e-01 2.664080891357063427e-02 5.364872432413528847e-01 -8.175918952294333186e-01 8.384044140441295756e-01 -1.097090028515011362e+00 -5.220375389057376747e-01 -5.242971125789129827e-01 -5.706495870681708160e-01 3.768778224338686367e-01 1.655488720024032856e-01 1.816117228103920622e-01 5.975225663616837712e-01 6.502320922779805112e-01 -7.921126307491521690e-01 2.675716099460801467e-01 4.749431970601326047e-01 -6.259704103409158282e-01 8.885877564064872391e-01 1.777996060937935691e-02 -8.765322356515037328e-01 3.278971971237371053e-01 -1.815931683421241269e-02 -7.154969237325963238e-01 -7.580803160996807399e-01 1.861034665397736099e-01 -4.895664118339865811e-01 8.303440850760067660e-01 7.947894616493819120e-01 4.565382209553186521e-01 -9.420848707425725221e-01 -5.654227030293670353e-01 7.700226874693316681e-01 6.166988194236276977e-01 -6.529278117618368960e-01 6.817286741522602389e-01 -1.366307831739288214e-01 -3.891017091030955499e-01 -6.422601760565893603e-01 6.902731616780415358e-01 2.922712245621084115e-02 9.557462513470025289e-01 -5.280606176671858165e-01 7.910237832528583812e-01 5.619408578935275456e-01 -1.986604367933385851e-01 2.820819392335167097e-01 -3.837305107977411756e-01 -2.660696984984118885e-01 -8.233705231814999470e-01 -1.005038192006177944e+00 -7.054108308859151355e-02 9.511452726921587608e-02 -9.876724824648385193e-01 -1.043628500317274055e+00 4.990230075378432884e-01 4.124912045855343504e-03 -2.820569735850609883e-01 -9.606512315064438257e-01 2.667932834267410999e-02 7.819123194235597096e-02 -2.481395887458010541e-01 -7.865166753813028766e-01 -5.047320212084140945e-01 -8.541593425213583890e-01 6.329938824134530018e-01 5.379168066383686053e-01 3.648603238222108969e-01 -1.901303519661682595e-01 6.166399603151433428e-01 -6.744017676412332740e-01 4.398412474230416480e-01 -4.904243250559874867e-01 -7.471179480017582364e-01 7.754573713470118701e-01 4.641223877437603007e-01 6.263556900235034419e-01 -7.779206462160438706e-02 6.239428324057201269e-01 6.193925386133315447e-01 2.195363322780829463e-01 -2.229695669979694650e-01 5.564995998929392895e-01 -9.266973409187999611e-01 -9.137558569945027909e-01 4.541246323057002154e-01 7.229148857315574883e-01 1.733122057246773429e-01 6.217770564895939156e-01 -3.176143076914339503e-01 -8.356457336384244261e-01 7.504003267855833270e-01 -6.437326576987056903e-01 8.653565508365461678e-01 5.167710545223020979e-01 -7.034890671768883053e-01 -8.553408962356767731e-02 4.181295198880985442e-01 3.211388083109356639e-01 -7.390884831268169641e-01 9.054013707364511054e-01 6.594952759881180793e-01 3.203068969308658920e-01 2.111550473863113564e-01 3.162779362835130836e-01 6.247469373446089269e-02 9.192874837924748244e-01 -4.837638378770055536e-01 -2.606522996752763666e-01 -2.614415820603802065e-01 7.488193506353010287e-01 2.721542775598969621e-01 6.158205693896580124e-01 -1.794954709147175698e-01 -3.358291781323062830e-01 -2.586237813433375776e-01 1.581620948189402798e-01 -9.899086878774411291e-01 5.096287707780774445e-01 -7.142062651356542169e-01 7.772707145945556562e-01 -6.540975911088703354e-01 6.857320952800465275e-01 1.961475971843445743e-01 -4.602390017061783745e-01 -4.761946898957309937e-01 -4.955097371813803608e-01 1.381831118488752175e-01 -4.384628198336422145e-01 2.621324057481652647e-01 -9.029822067289010601e-01 -4.866757982505434676e-01 -8.022639073308522883e-01 3.917145764158860288e-01 -5.133890412847614826e-01 1.407464534579556115e-01 8.792794287548146848e-01 -2.179138293502866364e-01 -1.331498669537864443e-01 -8.693182247182894562e-01 -1.062692293936902815e-01 -3.717079556215697744e-01 3.268104055750319370e-01 -5.597671914231994172e-02 -1.007149058566937594e+00 7.862957927976466088e-01 2.766331396903029538e-01 -3.625402880442665180e-03 -1.921488369510021277e-01 4.536088453977795698e-01 3.257904364749866777e-01 -2.668879117642204979e-01 7.105034557145466501e-01 -5.626645582071230223e-01 7.478152523307006749e-01 -4.572797113435225214e-01 -1.815912138741631043e-01 -4.915734514253828902e-01 4.950883896645303928e-01 8.215260085154109104e-01 8.522186906252383620e-01 -3.125891235231693238e-02 -5.390106322789933735e-02 -3.522091860573999811e-01 8.672025931924796927e-02 7.342365119371099258e-01 2.907798143844930738e-01 5.529643352749893381e-01 4.497936739354167490e-01 -4.561896487856276772e-01 -1.895193038348294556e-01 -2.831512714343333847e-01 -3.359192237567698025e-01 1.309086829960656451e-01 2.635956829712947647e-01 4.125100817326162739e-01 -4.730085201533255068e-01 6.253055435879875112e-01 -2.343726648450951966e-01 -5.922177853412323723e-01 -8.039894262667666158e-01 4.665856434378237161e-01 7.547936389386922240e-01 6.240857134044537347e-01 -4.919488390810491385e-01 -8.129990389311599897e-01 2.761148612692144733e-01 6.772671376996145520e-01 5.529565830945537552e-01 7.450591977850136161e-01 -1.539434004646936804e-01 -6.556571879354764487e-01 5.819750093111282219e-01 -1.418253037083568591e-01 2.983266703308031786e-01 -6.287447134824005746e-01 3.615254162424462736e-01 -8.822375497769761044e-01 2.041488750854978940e-01 1.459849391412091635e-01 2.606091624689783615e-01 2.320418090377125153e-01 4.287277454364582518e-01 -6.292744586735705692e-01 5.735924981250946075e-01 -7.059772285302466921e-01 -4.200876561543095411e-01 6.432092229397227134e-01 1.721449966948178645e-01 4.622600215635197518e-01 -2.179763640831140492e-01 8.610394915564765217e-01 9.269353308071233144e-01 1.065133427870557370e-01 3.972432602940988988e-01 4.829264152812480226e-01 -1.840444015381592913e-01 2.967805419864769090e-01 3.474702748040363054e-01 -7.408556687337311542e-02 6.618418144621561749e-01 4.563646996717170556e-01 5.943905967828254644e-01 -1.661363986817594729e-01 -3.999932395846698130e-01 -6.732224527486176946e-01 5.730862157174571037e-01 7.568263213850909832e-01 4.596165028890780713e-01 -7.777232753311962288e-01 -5.827288592247916732e-01 -1.429400976486950858e-01 -7.096004033879438344e-02 7.907453997116820066e-01 -5.291716794132843571e-01 -1.490218876932693781e-01 -7.967068867252244946e-01 -5.576042726623677837e-01 -9.507034500135771449e-01 -6.186733855537216442e-01 8.222776609531718961e-01 4.939429953674172036e-01 -7.259755331484264718e-02 -3.972697796565336642e-02 -8.714994238508360080e-01 -5.582781804309576712e-01 7.042397267052123988e-01 4.829172739097625233e-01 3.052554768451108680e-02 4.362221483368007302e-01 7.440292613763277441e-01 -7.097963099148728305e-02 -4.402102385934606454e-01 7.075740173463168636e-01 3.636609129441686350e-01 2.163150670568258771e-01 -5.886311420986192200e-01 7.907369897553934157e-02 -2.244058305016193855e-01 7.575005704248194416e-01 6.403725884817340619e-01 9.482776438992717161e-01 -8.958194763418388940e-01 2.445509179385746135e-01 -5.019582994081785987e-01 3.836644246314138140e-01 9.651316906029947518e-01 -9.677767503870355892e-01 -9.243740011924059807e-01 -8.975502914647043307e-01 3.169880247845742183e-01 -6.353649767474683907e-01 8.203780297727071291e-01 7.646734056916202338e-01 -1.050712936746866777e-01 -9.525138782433668627e-01 2.394651033819565344e-01 7.150773774749067391e-01 -9.759205802544334007e-01 8.295375794466359753e-01 9.415110116298274212e-01 -2.082151749759398041e-01 7.672737607028696782e-01 -6.536005317541319082e-01 3.750942146009915712e-01 1.837930720748742197e-01 2.838756685777360511e-01 -8.242912198697828832e-03 -8.756087529772996758e-01 5.754142364341913174e-01 7.201536399041571501e-01 7.994942003381677598e-01 2.195012549849091332e-01 -5.046721785497085833e-01 -3.840284953448165339e-01 7.598619834660924610e-01 5.808935085885176264e-01 7.647444221145477394e-01 -9.689570682583790173e-01 4.254699313699917274e-01 5.969956356902936800e-01 -3.510555044484715559e-01 2.411228979243832116e-01 8.465355947103798684e-01 -1.080001139497245299e-01 5.069634264036343430e-01 -6.095276513774032789e-01 -6.631925951377546508e-03 -4.020368031219973548e-01 -6.738310831880005292e-02 3.525624552011243362e-01 7.735197612001821765e-01 -9.579648386107272318e-01 -3.357079616756856177e-01 4.646609324605056601e-01 5.336176191202997021e-01 -2.069132347136595496e-01 -4.218216099255422957e-01 1.471144980536188973e-01 -6.527870771853618859e-01 -9.949085180340911938e-01 -6.316703592756660601e-01 4.221087917820181001e-01 4.780053019675563064e-01 -8.839385992383199664e-01 -2.978375930003853700e-01 -1.728101276423179167e-03 4.325199667138605597e-01 -2.277739625271647528e-01 -2.391514393869649535e-01 9.407059617454268663e-01 9.352887188198972801e-01 8.930540435641715069e-01 7.906609918873013232e-01 -4.799288369756819495e-01 -5.159915823376132193e-01 8.784190016167299220e-01 6.762510682423310548e-01 4.276632786848235668e-01 5.517837193075139091e-01 -7.447439273842910712e-01 -6.661302352581153219e-01 -4.017850840892898678e-01 3.115829740524764246e-01 -9.081665237609714003e-01 -1.246951076402610416e-02 -9.569233360815698752e-01 -1.321336006804504914e-01 4.738397643005634041e-01 -7.360467405171673416e-01 5.383275183206501779e-01 8.300566819085168913e-01 -5.047694065243599759e-01 -7.112876222711679297e-01 6.676478750609513568e-01 5.583140147003630149e-01 -7.065361269214180950e-01 6.457160673990729460e-01 -6.642477504416829381e-01 -5.007933721756150369e-01 3.127604998650487800e-02 1.226908786522740852e-01 2.816456854708147134e-02 1.181728949831990505e-01 2.750679347514634054e-01 7.768931202958331284e-01 7.521710705591577728e-01 6.648527315131883553e-01 5.645277737989526923e-01 -8.733230472176760628e-01 7.085092344996178904e-01 1.739565041984654781e-01 -1.932964646144562371e-01 -7.045374579693577388e-01 -2.494963442627773365e-01 4.474089897392929949e-01 -8.972218080179397148e-01 6.420520339913284857e-01 -7.027715179947979784e-02 4.691776508764156084e-01 -2.837128975323449653e-01 -5.400005191664080106e-01 3.469841545434215191e-01 1.235246963224335831e-01 -8.661249597400700884e-01 -7.697931873467488417e-01 9.070814135015364821e-01 -2.495004461392993922e-01 9.333200923163889051e-01 2.190575218592681270e-02 5.488656831374989498e-01 -5.616216580387212165e-01 5.936649116869820997e-01 7.654120947256672913e-01 9.692621800079104233e-01 -4.178076403886788609e-02 7.796889896449926693e-01 -8.783718194246957767e-01 7.027255231805902280e-01 4.851458097878156850e-01 -5.079484470323466505e-01 8.129066231186414804e-01 7.389679926000805033e-01 4.362032781063911457e-01 -8.149799889973825540e-01 -5.110651437433482158e-01 -8.935827526405024646e-01 -7.231164513029630925e-01 6.438983252983592198e-01 -8.506448013498179028e-01 -8.446206445135562291e-02 -6.485444534064328526e-01 -7.039118470558217711e-01 -5.337805347044140003e-01 5.603199827086918772e-01 -2.893002415436042307e-01 8.867863620915805711e-01 -5.771484598741783989e-01 7.289788751298192926e-01 6.846716905499394823e-01 -3.287404908682168281e-01 5.822709663262746194e-01 3.452721348879352892e-01 6.926321851716332745e-01 7.988122407987336970e-01 -7.015893171512289639e-01 -7.269787541419766574e-01 6.742216063874143517e-01 8.223164728382823530e-01 8.368494438871265650e-01 -8.225236262275712473e-01 8.614410620759329618e-01 6.399708480771018060e-01 1.254389586343920282e-01 4.557402717462111230e-01 -5.517841718117444394e-01 -9.260279881520667722e-01 -2.219764217081918733e-01 6.439080245665687041e-01 -5.067847500813366102e-01 -1.523568637103036305e-01 -8.108679025754388370e-01 7.146801100787552041e-01 8.119678920019306467e-01 -2.229642393195500616e-01 -4.030406983112169716e-01 7.550875203843447903e-01 5.823856874833614750e-02 3.429812225918209556e-01 -5.467724290329320502e-02 -2.493319835015182784e-01 -1.490288581335661444e-01 -6.649023956582577055e-01 8.634968208813901258e-01 9.746575702525425156e-01 -2.631086456347760394e-01 -9.652055357581145190e-01 6.264339812035105703e-01 1.608401837032169546e-01 1.499448392014497422e-01 -2.052018331281055818e-01 5.322075179906393672e-02 -9.626461479291670287e-02 5.387992661549649842e-01 1.846166264697197690e-01 -8.882898369148912732e-01 -7.801164026117404227e-01 9.960764139036932807e-01 -9.695998072440594751e-01 5.227361694567826955e-01 -5.516266911433472808e-01 -3.468870616493160974e-01 5.011509049017691675e-01 -1.178924608878378771e-01 -5.464144503407026843e-01 9.566931331073347256e-01 -8.322285968165573644e-01 8.103549160022045783e-02 7.034921773238683729e-01 -5.754201961476483884e-01 9.522602644349098533e-01 -6.766665889708607384e-01 -8.571434195911735721e-01 2.535525643160477238e-01 5.277192511877919490e-01 2.062566616519678764e-01 4.058130491313030053e-01 -9.228815735587037050e-01 1.760961473476243544e-01 9.561483902276204372e-01 6.222899377907589180e-01 1.842526611397325986e-01 -4.548248716647884660e-01 -4.871832188285019072e-03 7.548128298547116533e-01 -5.093194383972212691e-01 -5.762501139389101246e-01 6.035347109586982617e-01 -9.772270678179230119e-01 6.960189682758793905e-01 5.509892520157596563e-01 5.709269851899619885e-01 6.169087971741251536e-02 9.684972880319636657e-01 -6.715533811549770915e-01 1.161695267180697239e-01 -7.017452122858770514e-01 4.344189685776805865e-01 -9.226455009763072646e-01 4.540499466803872841e-01 -1.271945676959951865e-01 -7.971953173516347357e-01 1.774311116838980240e-01 -8.234204600178025579e-01 -7.651131279051333056e-01 1.357346760736715119e-01 -4.006363154352259315e-01 -1.468824803995003592e-01 7.563957751569669874e-01 1.831733353731210823e-01 6.850824390438401412e-01 5.314384306894304189e-01 2.141556109695152976e-02 9.440932278248626019e-01 -6.842174577626409793e-01 -3.202977641584365820e-01 9.395779218346751449e-01 -3.642179322484422332e-01 2.761725519356159619e-01 2.487323691278560123e-01 -5.019069121197072825e-01 -4.448842125068106501e-01 7.102975282587572492e-01 -1.320490091311428693e-01 3.754423554852606704e-02 -4.614120380805112887e-01 5.226588576472660508e-01 8.096136688622097566e-01 2.178955195542842116e-01 7.899672860400814844e-01 -1.739569342279061459e-01 7.719358703876602057e-01 8.042617892374646082e-01 -8.443075919435398813e-01 -7.562177621983821041e-01 -3.841662775138043884e-01
7.410624029028614057e-01 -1.775191630969186196e-01 8.375104846852610141e-01 2.379163923859346497e-01 -2.825908799749092815e-01 4.492095627863450513e-01 -8.441358786084920407e-01 1.538060900945847909e-01 6.328535731328299718e-01 -4.193390695726586515e-01 3.979705789495435742e-01 -3.109056173421091973e-01 1.007926476319627174e-01 -1.128995685917197900e-01 3.278459046404800237e-01 -2.933564159948258698e-01 4.779485307707207475e-01 2.682050597105800627e-01 -7.387362625009419315e-01 9.502688320874141947e-01 7.202652255391672753e-02 2.372500978647471559e-01 -4.232817430770441369e-01 3.891271487670493467e-01 -5.835764801917471267e-01 -4.903291177739801388e-01 9.386224972764631858e-01 4.434106786687572743e-01 7.996632398248326723e-02 5.810261044428319810e-01 -4.940956798933506811e-01 -6.429205382552689585e-01 -7.063171647170869427e-01 -5.726601699355828856e-01 -7.503598564929254700e-01 2.708045284657796259e-01 -5.876216512297451899e-01 -5.509749308939582146e-01 -6.815036627825756810e-01 5.627115152562534028e-01 -6.929028805044252781e-01 4.865937260421460131e-02 -8.726371280748737025e-01 -7.050080344855671477e-01 -9.037936925174721026e-01 7.555329636593157705e-01 -2.692800842274130080e-01 5.777883823351979142e-01 1.193952941193479056e-01 -1.145991415367664246e-01 4.315379739955440552e-01 7.313952746916443370e-01 -3.308159861456660966e-01 8.778877630511607855e-01 -7.169546667708743826e-01 6.838232259422696302e-01 1.775761503879051961e-01 -5.594344650314115874e-01 -1.873834301317656159e-01 -7.323260889200986501e-01 -4.463464861435133546e-01 -3.432298070898547326e-01 -5.222363788545711927e-01 -9.408019240988341192e-01 9.577079822623326688e-01 -4.567226508167598897e-01 4.293594334385231193e-01 -9.361439615240622070e-01 2.206075973360561993e-01 -5.283433101098524709e-01 -3.899796179515390565e-02 1.687781918304130102e-01 3.380796748330462398e-01 3.760806699779210560e-01 -7.580602251772454725e-01 -9.620365531363195277e-01 1.761883659332297292e-01 -8.953536798398298302e-01 -2.607391757714003777e-01 -2.562254331437949229e-01 -5.400431633087983130e-01 8.044210538705038882e-01 -5.778914288328329540e-02 4.112726647041300421e-01 6.441872876056475850e-01 5.185311104966852103e-01 -3.693880811046712509e-01 -6.237915770632311840e-01 -2.958005285857441269e-01 -6.602705281782574875e-01 -9.521743019436021971e-01 -8.663854319050481312e-01 7.918603510157417036e-01 4.419907626089137898e-01 -8.851524717517734731e-01 2.247137223687109830e-01 8.583814442178142601e-01 -8.142771273895124118e-01 -8.007520630471999246e-01 -7.572633073693427197e-02 3.694054517967215734e-01 -3.828433886001935127e-01 -3.258959121597760356e-01 -3.926458597292314945e-01 -6.966108447350327637e-02 -7.740676389127870705e-01 8.055035355156930921e-01 -9.585178763637591803e-01 -6.212418441903032607e-01 -7.927089480696472013e-01 7.657200346353798537e-01 -4.938517865266163209e-01 7.819413332715694498e-01 4.042092040597200509e-01 7.028696925382260652e-01 -1.133040675701013633e-02 3.908918932199154650e-01 -3.690006427987599924e-01 1.697662211659678455e-02 -6.160236637928083736e-01 3.598111371187163177e-01 -1.375899504896250236e-01 5.851050379944736646e-01 3.580080438140037513e-01 -9.574803776713580739e-01 5.158329106709431677e-01 -2.367355598312321785e-01 -1.348930617226557216e-01 -3.377990790044776981e-01 -4.822713689364978018e-01 -2.035016636605386509e-01 -9.478690344635443132e-01 1.538210852687031116e-01 -7.265867136953356453e-02 -5.750518017924362013e-01 9.156652912044443982e-01 5.707365421393049143e-01 5.983317092874895771e-01 3.990266864714306916e-01 5.144783604231897289e-01 8.499311555458941569e-01 -1.317519850132717885e-01 -7.716048577432039757e-01 9.693472519016765876e-01 7.265270994764716495e-01 -7.838071977372501609e-01 1.558103010482704276e-01 1.995848856785699121e-01 4.284177546333703401e-02 1.879135459323725416e-02 8.763651718978511251e-01 -1.578665051832564004e-01 9.305425802038861383e-01 1.418055349375929759e-02 -6.277881646997359733e-01 8.349827952412219173e-03 -3.268737447121328743e-01 -7.316563280304546613e-01 9.309649829364184948e-01 5.325344071749480435e-01 7.195633084678003666e-01 2.374942128385954671e-02 8.992152504691457438e-01 -1.889653623363276788e-02 -6.967121866151200216e-01 -6.958089584849731501e-01 -8.284708419758093356e-01 -7.248967114799562683e-01 -5.867767946231028375e-01 -4.195409245006005428e-01 -2.754267951246902602e-01 3.806323547577949995e-01 1.661863985984306513e-01 -6.463589655079393648e-01 -5.063130212916243655e-01 8.286984107166609492e-01 -1.781736939464114711e-01 -5.838428590876389157e-04 -4.539132090900326877e-01 1.183770058226672195e-01 -5.314054422589900017e-01 -4.340258762429736183e-01 1.989342887027296392e-01 -9.252296691666751505e-01 1.450787514375443191e-02 8.596502850878002810e-01 9.074731071536253912e-01 -7.842170993494697040e-01 8.286149340661478346e-01 3.629663989700075422e-01 -2.922526197490631916e-01 6.099984697335443240e-01 -2.885200933205896989e-01 -5.174666764766480131e-01 3.814770172912234081e-01 4.299324445427363806e-01 5.550731076231656402e-01 -1.415565648144834210e-01 7.524944232579746650e-01 -8.910233620874313809e-01 -1.623303480429360846e-01 8.903028095081277904e-02 5.918833643385771476e-02 -1.031294066785541919e-01 5.019004112488115732e-01 2.856347107573855570e-01 5.935157174647102130e-01 5.504243134636941370e-01 -1.297977069497910189e-02 -4.214828415827635566e-01 5.154224820523648498e-01 7.455550881436157074e-01 6.264939662885954386e-01 8.675051520079346545e-01 7.150038546352213142e-01 -6.315653887592176385e-01 -5.453423615107443334e-01 7.395225023726986757e-02 5.222587600955359566e-01 3.906598998669551931e-02 -9.045557236856897054e-01 -3.408202195694950420e-01 7.413017649945170540e-01 7.483837682301519578e-02 -4.333829662104675684e-01 -3.876011140348497030e-01 5.893057899008870004e-01 8.026569003049420781e-01 8.912909150127509283e-01 -9.376820635177719465e-01 -7.815782239852143709e-01 5.367740979000951151e-02 9.414176107241525315e-01 -3.191376377735556380e-01 4.913641551648318395e-01 1.411657201423938690e-01 -2.994791384633884723e-01 4.873305611181169006e-01 5.625035441954189253e-01 -3.639654528234269049e-01 -9.444990326566912175e-01 6.447939092228260893e-01 -5.366799759517865143e-01 -2.473627876607039366e-01 -7.083237195746749926e-01 -3.057471180904421950e-04 -1.041945831486612850e-01 -8.926197292418887042e-01 -6.368337031281537941e-01 9.882669386690312585e-01 2.018232007334317402e-01 -1.509644864517296625e-01 -9.290619099394437086e-01 8.538977831340925917e-01 5.996995510166210908e-01 -7.468115418181658915e-01 -5.787304965284776337e-01 1.239770019887252717e-01 -9.787777095727620003e-01 5.483930248592142620e-01 4.208661948115651197e-01 9.352614719689770206e-01 -4.493487751663360202e-02 3.059893983412269036e-01 -9.481661392858982129e-01 -3.139617649300497915e-01 -6.185766592929228258e-01 -5.167026821701459216e-02 7.914668507988915636e-01 9.172653827306652408e-02 -8.754124868200509058e-01 1.350816230190567124e-01 -8.260853896085811054e-02 2.431412467711490111e-01 8.874099521774843069e-01 -8.468071564101021798e-01 4.747120300697557638e-01 5.238550680337323850e-01 -1.948951966785474887e-01 8.123512045433385342e-01 5.189286401633956824e-01 -7.402724095779824598e-01 8.435666625001023711e-01 -8.509622719822197423e-01 3.749396745716243595e-02 8.908384556176577318e-01 -7.161126959486578958e-01 5.615216405644654074e-01 -5.955767176822764908e-01 3.928877818996835414e-01 -3.537932148884923023e-02 -8.171130485958973955e-01 5.267795854114672993e-01 -3.230257493601960128e-01 4.373907198446848610e-01 2.513928386301502171e-01 -1.428481934121687558e-01 -1.881107727820999220e-01 1.655613017849829043e-03 2.195024076558080850e-01 -8.105544995966930122e-01 -4.836051701167645017e-02 -9.376180508447254924e-01 -1.419958369329080705e-01 3.630184128189197224e-01 -5.424506967055977569e-01 1.419515835392188841e-01 -9.799365242971478374e-01 -2.744266179756891244e-01 -1.472303294852701505e-01 5.788528235367521591e-01 2.581839673513658395e-01 -1.988594026469089719e-03 9.107263488305177290e-01 7.526682086295216623e-02 -7.664459904299127935e-01 5.717369625133641442e-01 4.639743252196574796e-01 -8.055996855435879622e-01 -3.921386077726265462e-01 3.971339554124944660e-01 -5.962294601823896478e-01 -7.589455663518134276e-01 -6.227786905673706741e-01 -2.008922199235974870e-01 -6.863367630668112396e-01 -3.017966855456084563e-01 -5.271421710971956331e-01 2.307670810495875691e-01 1.319725643007681193e-01 5.012942879900662840e-02 -3.255032840265631444e-01 -1.157788717855740002e-01 7.085651122436582572e-01 3.294448681861354977e-01 2.125993797763905402e-01 3.579040893517861921e-01 -6.226517456451232668e-01 -1.066271854226161775e-01 5.044783721678777200e-01 3.012067469924860630e-01 -4.675370396604776602e-01 4.905053676769138282e-01 -2.486236485268596419e-01 8.071831530834876200e-02 -2.322668847949024284e-01 8.954054346578091961e-01 2.065490148168113715e-01 7.279119899890383882e-01 -6.826550051652064965e-01 1.499123781543171552e-01 7.530474697458285904e-01 -1.030572117450916370e+00 -6.151345555334573056e-01 -4.042441461153345461e-01 -5.436094265089084221e-01 -5.151568573841007748e-01 -3.047963854030489861e-01 2.521817059166947539e-01 -9.584736536812471508e-01 1.568778210312718191e-01 -2.724910801073827660e-01 -7.186339554324727708e-02 -7.342602237042736846e-01 6.935547745916761375e-01 -8.246862605077789343e-01 5.774785566120070879e-01 4.891975148406942364e-01 -9.331335220899488192e-01 5.102231707760976898e-01 2.934711627165964565e-01 9.413735721429488112e-01 -3.491965854367528599e-01 -2.250436837741004725e-01 -8.251323199989473167e-01 6.280059328189522283e-01 7.824270267515778254e-01 1.751045232515149597e-01 -5.837523128182905419e-01 2.661942354589039161e-01 3.967670199839112288e-01 2.922287423448391430e-01 -6.221111256783832255e-01 -9.001004841530618750e-01 -2.055999103115447868e-01 5.947082300800825561e-01 -4.516668546787651617e-01 -4.197295501670826323e-01 2.934152696400896820e-01 -6.729079573022316296e-01 -1.302226419587229067e-01 1.320812389781098606e-01 9.997378780154040356e-01 -1.911508940204937890e-01 -8.138160044130338111e-01 3.648493163551492224e-01 9.690301849365891007e-01 4.491152700359292704e-01 4.171112084547461962e-01 -2.579044271119842469e-01 -7.822255353767355590e-01 -7.701538125475245744e-01 8.359129344188677146e-01 7.974037227032998443e-01 2.691979374045344597e-01 8.575302295195262603e-02 -6.859326173641790980e-01 -5.047555298751283948e-01 4.346337018042011335e-01 -9.278122415286019775e-01 -6.600949004880819759e-02 6.298823324975703075e-01 -6.436437448236047576e-01 7.167312466168080931e-01 4.764281925474947998e-01 1.894691582138536001e-01 -3.146460001758963898e-01 7.857223555737471443e-01 -4.272980633613774337e-01 6.322236262214586677e-01 5.313814087922563711e-01 4.484375592987011050e-01 -5.040897275419653489e-02 -9.257912031800891173e-01 9.804076768428577893e-01 -5.473554200587684715e-01 -2.260370789251185397e-01 -9.158973859246244409e-01 -5.172943156708923462e-01 -4.673328523167782911e-01 -3.087882461133879819e-02 -9.443882313639281878e-02 4.358108007745337686e-01 -7.124768678579893599e-01 8.453442628185827701e-01 6.280255764797071372e-01 6.111599602341132031e-02 5.189330239278261425e-01 2.391109796360386952e-01 -3.524049728811384785e-01 -7.699662465506953990e-02 2.211549147017417283e-01 -7.738339598970441768e-01 -6.233991636266901226e-01 -8.751703654492263285e-01 -4.318116091326245076e-01 9.491575713234294831e-01 6.420791547215534134e-01 6.527461128410094737e-01 6.466775273991818285e-01 1.107414224373814982e-01 9.133672853362757582e-01 8.825371812599938082e-01 -1.363665908309957264e-01 -3.008207026535108033e-02 -2.574901906134530183e-01 7.639714785092883709e-01 3.441666702930772787e-02 -8.572689599760933976e-02 -9.520547327752821865e-01 1.999034004125617159e-01 -7.322029644370717794e-01 -3.780163212874103063e-01 -3.267744008532225825e-02 -1.684517178465736245e-02 6.483458638315514264e-03 2.879215820766386491e-01 -1.832667124671669423e-01 8.364321422070312151e-01 5.765185808824863090e-01 3.399046441593718826e-01 -2.789074150499949445e-01 -9.940135560224209188e-01 -3.122499879580014071e-01 3.045929200602752740e-01 7.379411451017883206e-01 -1.877609612028696695e-01 6.993382500335445506e-01 2.522926119198241057e-01 -9.260033312427167207e-01 -8.489700233488796099e-01 6.210244939871895076e-01 -5.661910624040998874e-01 3.004493700558933528e-02 -4.031439112473322872e-01 -1.018751637246376518e+00 7.285536652255670820e-01 -9.858832436434531443e-01 2.259308759380951326e-01 -3.111119017548235610e-01 -2.488328776910606610e-01 -7.046413755755575048e-01 -6.596169907582737357e-01 7.635835875056826705e-01 -7.747729879656638230e-02 -1.026242995734779617e+00 -4.607075417815012508e-01 3.201283590444853888e-01 -3.122167470407765100e-01 7.577929533317893096e-01 -7.754664671140401033e-01 -9.455168924660044549e-01 2.266906969313544629e-01 3.649320552694779174e-02 -1.900905135344548302e-01 1.795631707679676836e-01 3.144537883439735282e-02 2.928237438072081589e-01 8.248100793766747207e-01 -2.300220687449434365e-01 -3.990131801282330581e-01 7.651793410583954680e-01 -5.107507088482147184e-01 5.276121833667323235e-01 -4.694255468467638942e-02 3.161847336589809210e-01 -5.423530833089653669e-01 -6.321489007162115481e-01 -4.345921484114597666e-01 2.126543345683654385e-01 9.019506736836649941e-01 -4.285781691049716513e-01 -1.916429458278874620e-01 -2.537344576627068582e-01 4.996804635063554212e-01 4.196714013272038746e-01 9.099285924437270356e-01 -3.963625231560273243e-01 7.820178714903459616e-01 3.766580768319777728e-01 9.907640575577190134e-01 -3.470566377927359891e-01 3.377244215658974369e-01 4.675160855292845863e-01 9.082338399052639621e-01 -1.637836791840214523e-01 -4.599062906613080037e-01 -7.620015300582175799e-01 5.877182982520942067e-01 -3.272742211967236692e-01 -1.112287916317712538e-01 -3.098736471351470900e-01 8.013918070177756814e-01 -2.573775577816029836e-01 -5.059438231357890059e-01 5.455919868458617566e-02 -1.685612129970156525e-01 3.729356601746511846e-01 -3.851163840432424990e-01 -5.395060360529825294e-01 -3.404732836844761579e-01 2.784160959490595832e-01 3.129155008516833480e-01 7.912659795943448593e-01 -7.721091722928172807e-01 -3.718501594900450180e-01 -8.419609283694468038e-01 3.649711566269800977e-01 4.187330390789066881e-01 9.354470603177595933e-01 4.593036137490513759e-01 -7.584517548229507966e-01 -3.497522367733971738e-01 8.772339965057752709e-01 1.688424997361332724e-01 7.591837941055717964e-01 2.396380669318831091e-01 9.373529033152599999e-01 -8.802993911846902497e-01 -4.990619840034214438e-01 -8.890311947779686585e-01 -7.440991478875140785e-01 -6.881026835784782580e-01 -3.182471782319921672e-01 7.910360964841088860e-01 3.357508169770362372e-01 3.342837339776087019e-02 -1.643216127811104876e-01 4.517532221470217935e-01 -9.337361115082476459e-01 -7.684485343060701856e-01 -2.890464670318629858e-01 2.456910565336259122e-01 -3.599322786086835979e-01 3.937933127390128574e-01 9.856136916518118962e-01 6.207845197219061806e-01 -2.839533424939810757e-01 4.194166547783058085e-01 7.340413861571055687e-01 4.511423327723446119e-02 -6.757646769219325389e-01 -7.584862330780064443e-01 4.958178694471452319e-01 -7.099196303036866551e-01 -8.379959683047980556e-01 -1.000354512881949098e+00 -9.052816011965417742e-01 -6.006857754663262883e-01 -9.195888013360012936e-01 -2.602450925231767354e-01 2.827265594765930312e-01 -9.651711530276687601e-01 5.416365541950070028e-01 8.476305082787735090e-01 -1.849041926959314698e-03 8.001905201779264676e-01 -7.833992441597804612e-01 3.557117106592286859e-01 -7.826056873991064089e-01 -8.298204509114023297e-01 2.758077650802880920e-01 -1.036723313626564114e-02 -9.789744721617998913e-02 3.068119606701156243e-01 1.776432968045007499e-01 8.230278207158425730e-02 -7.327886236969971545e-01 2.327750618024720108e-01 1.467908518026122822e-01 -4.231855013777965357e-01 -4.107559275153895850e-01 -3.291329689622247145e-01 6.201139720111812359e-01 7.312872409840648347e-01 4.039482868536065641e-01 7.350996044342451574e-01 -1.022456722322966582e+00 -6.837496852168452321e-02 2.593388040055492200e-02 -4.478763174773473521e-01 -4.728627677081567726e-01 5.813348263945667949e-01 -9.154936235357392649e-01 -1.265117500894998859e-01 5.482690904394884601e-01 -9.248034488977328049e-01 -9.279978693737449547e-01 -7.528483498184437295e-01 9.380116904912054743e-01 -6.447964695423866743e-01 8.693249912006413282e-01 7.984963495463559546e-02 5.653015529013829532e-01 -3.836936513492579248e-01 2.521558153465386365e-01 9.921875796352292998e-01 4.288810790741955925e-01 -6.603200213531880136e-01 -1.125693557057562688e-01 -3.963347092176258135e-01 6.492803572546029800e-01 -9.388708531426001036e-01 2.521698417385883073e-01 -6.877656920842649679e-01 8.454096081796361739e-01 -9.414463147517415642e-01 4.999721734323224198e-01 -4.595092606883748876e-01 2.822197539989089732e-01 3.254337805827857144e-01 5.547757934300618921e-01 -7.162125051464001135e-01 6.639270409405089168e-01 -5.930510337965405609e-01 -9.994300653666164935e-01 -2.084384791121345060e-01 -1.085950488445246997e-01 9.055899488406562448e-01 3.002695043024947719e-01 -6.760349354137928923e-01 -4.412498233958295213e-01 7.666363293076106089e-01 -8.576355974022862316e-01 -4.402359886700957237e-01 -9.006198555198086098e-01 8.832635571937453856e-01 -4.916949394065756040e-01 1.113562639728490344e-01 -7.082108752566422805e-01 -1.472536975805417703e-01 9.980637497963627813e-02 -8.618149475801635262e-01 8.695246286301939742e-01 -1.202618580354626182e-01 4.306078394078926563e-01 -9.885091269828457650e-01 4.913282445305177104e-01 4.510729930529466247e-01 -6.225516827099064621e-01 -1.455267963658450903e-01 3.941098385028881657e-01 -4.080464371015467551e-01 -7.133160946005041581e-01 -1.704343392534677648e-01 6.783926190567308723e-01 -8.038079085499976184e-01 1.016655651133393512e-01 -2.261490379584034649e-01 7.478931656992304777e-01 6.100830779236356971e-01 -9.305166613885753613e-01 -3.328274638237633809e-01 -4.337002732574462005e-01 5.840215877076241346e-01 8.310049793568635712e-01 -7.486185508106611985e-01 4.500158487815391628e-01 8.043244691551264536e-01 -4.723184439857501526e-02 3.730463118251032828e-01 4.241040170474073001e-01 6.763395272668856206e-01 -1.477294258415828010e-01 7.345525554868407303e-01 6.454854650930850202e-01 9.053443228997377634e-01 8.312485463659107232e-01 -9.174929421416110342e-01 -2.184857881151127945e-01 4.495866019659138235e-01 4.633085197010295420e-01 8.868074732454847009e-01 -3.760314323314604135e-01 8.284310442634128524e-01 -9.216456717003496113e-01 5.812358261117589464e-01 4.120031747688206458e-01 -9.905882462311514924e-01 8.573728973353882399e-01 6.468995720323378329e-01 -3.125655421292459213e-01 -6.551166862139816693e-01 -2.903132340311032067e-03 -3.134908993048823866e-02 -9.913696910777280991e-01 -1.881908601459174601e-01 8.263448489270412978e-01 2.723713418460463331e-01 -2.715812651920382903e-01 2.363994864544494701e-01 -5.711774057039862296e-01 -2.921752480638290517e-01 -9.664181194517978968e-01 -5.515353442493019509e-01 -7.719068130510883252e-01 9.962403889150655001e-01 2.939645711184175059e-01 -2.433952786475763741e-01 -4.308490688437108251e-01 3.345689884181235474e-01 2.029495048867160367e-01 5.671307528446252189e-01 1.540125649396708596e-01 -3.379806302269616758e-01 -6.568566518629213036e-01 7.890879561702974776e-01 -7.373618319490964357e-01 -1.359690638579564848e-01 -5.653424134818330060e-01 1.642391092866464231e-01 7.200947328359230681e-02 -3.761945252380261007e-01 -8.642370339230496246e-01 7.533461972958055419e-02 -3.728493244656219119e-01 -5.799976806166102783e-01 -6.287164962118501066e-01 6.642414667147896745e-01 -8.113471767911342170e-01 3.109178980527215197e-01 -2.072603954466343407e-02 -4.143095766509621303e-01 -4.736971865858417008e-01 -1.910857655233246799e-01 5.734300237648755072e-01 -8.453684297706380857e-01 -4.128367646401329694e-01 -4.448969344296311856e-01 7.094994053959846614e-01 3.408967824975475125e-01 -4.837564412511339285e-01 -4.493327371805053705e-01 6.660818541010438132e-01
