-3.613733158822485247e-02 2.868215940033800801e-02 1.222523315683532036e-01 -2.273508052668116869e-02 -1.641159661991556384e-02 4.005824855734062967e-02 -3.459247785332063285e-02 -2.398351155943021298e-02 6.483142071804963436e-02 -2.737337915599975455e-03 2.043040193510540711e-02 -4.747671416037246850e-02 -2.754077589937050166e-02 3.419428930550959950e-02 3.448321763395424227e-05 -4.604542300840539643e-02
-6.178924602621756884e-03 1.668824375247674602e-02 4.917035380074868955e-02 1.468873747964124024e-02 -1.318438651384569449e-02 3.302588185796751646e-02 1.893371829768144415e-02 7.062348677159199783e-03 1.743876637839699567e-02 -1.931730997410946796e-02 2.841570941172491191e-02 -2.332051338706703919e-02 4.668320415981801197e-02 6.403756338379654189e-03 3.730007522571304052e-02 2.888200986837482446e-03
3.647592800777332833e-02 -7.500572506450464520e-03 -1.743599260017367758e-01 2.143616253249256906e-02 -3.840275074060307131e-02 -1.266419171732235277e-04 4.413201995529646843e-03 -7.370727171138390446e-03 -6.497702436586422214e-02 6.446909609040445133e-02 -2.199973139320012677e-02 -4.640372714801373200e-02 6.514181990581877080e-02 -1.194583043887118556e-01 3.687023017512631312e-02 5.771517825553886677e-02
5.495426365542444708e-02 6.344401597223676970e-02 -8.510610347198455800e-03 6.240002654871671522e-02 9.467418396338550535e-02 5.091369155430309351e-02 1.357164353854691530e-01 9.485343874084943561e-02 3.005634241651701510e-02 4.649598588360347000e-03 7.773431817685735878e-02 3.504698099942906570e-02 1.484342884683873265e-01 7.201335792451943330e-02 7.649770771527895918e-02 4.485363712816910209e-02
-1.309963459655254930e-02 -5.367881804048329347e-03 4.468728653310933066e-03 3.193193974684511299e-02 -2.542712099780111007e-02 1.015318216336846130e-02 1.543115583082347100e-02 -4.107258648361961084e-02 -1.436382536178338991e-02 -4.053302947063461975e-02 7.117907123720687915e-03 -1.920698111137094863e-02 6.262878445594205479e-02 -3.049825102738711047e-02 5.178467801173122081e-02 4.473277607498531150e-02
-2.821221252563652776e-02 -2.698949669262024065e-02 -1.166902976901638793e-02 -2.737237373389313222e-02 4.646236277152129140e-03 -3.560619292440187628e-02 -1.101204515988034316e-01 -1.018967321462749265e-01 1.520711448549226519e-02 3.798039382743904901e-02 -8.289375805356720417e-02 1.773402939486168339e-02 -1.175445042729895140e-01 -1.823617323394141967e-02 -7.040816854990744611e-02 3.715408133299256260e-02
-2.072030652779720261e-02 -6.044256151327387361e-02 1.035382815945386503e-01 7.622021325065504727e-02 -3.557211379350529168e-02 -2.913945845536456553e-02 4.329546622103540993e-02 -4.656294370704387037e-02 3.888112644105494627e-03 -9.531371239032393472e-02 2.415464289575798215e-02 1.226187583942541376e-01 1.643697791447311027e-02 1.027588481356152793e-02 1.732355274770415107e-02 5.811741533993008968e-02
3.587318765919982749e-03 9.763661189156504563e-03 -1.646859814931215041e-02 -2.236090537255766911e-02 -5.003046559784739278e-02 2.605764846275260976e-02 -6.187339416776843626e-02 1.232190878012747598e-02 4.770553203393621683e-03 5.049953005043061188e-02 2.034702155691469477e-03 -4.598289870235708343e-02 -4.703175207653781387e-02 -5.542227253062426140e-02 -1.559475178972572970e-02 -3.026489801922576522e-02
1.084745018838115388e-01 9.210622592150954913e-02 -1.899622873668400241e-02 2.486672810986455262e-02 1.275359909977022421e-01 5.757552802405217773e-02 7.392253854696578808e-02 1.659079222974431111e-01 5.407127499786888725e-02 1.121134332480834411e-01 6.016594619892737250e-02 7.344789371280348311e-02 2.528300183385610161e-02 9.337859129829401139e-02 -1.910602690544969473e-03 -3.289427516996949741e-03
-6.050745292452558433e-05 -4.855884904411197911e-02 2.710691610015637104e-02 7.798311333475221874e-03 -1.272536570855933510e-02 -4.615414095743891609e-02 -7.452110470496396688e-02 -3.091739479985955441e-02 1.715731233344256965e-02 3.458232846320990345e-02 -3.615417754729910449e-02 1.128294403933405438e-01 -1.417733464153835277e-01 -5.877763437260499768e-03 -8.428363941031033479e-02 2.482460157579959026e-02
2.630702968309884052e-02 4.730656402765957141e-02 2.020405662542509515e-02 8.237739837653105732e-03 7.532071808624427045e-02 2.191191625894562192e-02 2.171290083334524723e-02 3.108101715226458880e-02 4.338973788353193972e-02 3.370607414807517271e-02 1.569288063266045460e-02 1.352637673636955702e-02 2.495650704898296987e-05 6.511844762985191659e-02 -1.444176874126678299e-03 2.479563486494698425e-03
7.451270092829118119e-02 3.434855351888820713e-02 4.709533102813736466e-02 7.866928497251216013e-02 4.597990606429140648e-02 3.879933524002524003e-02 1.527393231215171399e-01 1.720196759484058646e-01 1.607446603713367714e-02 -9.218006363551838750e-03 1.221819635293855399e-01 1.271729230544127176e-01 8.931028625860923387e-02 7.159049989956596527e-02 5.224320041096656292e-02 3.915001839464788032e-03
-1.346389055537572203e-02 7.013078981875915663e-02 5.594352699494714587e-02 -1.482545488435284969e-02 5.313258374744182083e-02 7.021080393186793223e-02 1.851971054624730953e-02 -2.039919476423966357e-02 6.550788802045605375e-02 1.747814417998974504e-03 2.205326231611056884e-02 -8.259369689137698034e-02 7.167230376536951053e-02 6.260309872957063593e-02 5.711273597874737956e-02 1.419270596248869759e-03
-1.192289704401647971e-02 -9.008004448801260056e-04 -8.256647465037795369e-03 -4.286263594101129282e-02 -1.475159467412573075e-02 -4.326440072031291495e-03 -1.049498631658478676e-01 -6.674489683328413414e-02 1.201423128621740416e-02 6.158106042535628488e-02 -5.921211178751065868e-02 -3.817413439329306324e-02 -1.010868169871161210e-01 -2.699854439041569215e-02 -4.162799584277245696e-02 5.819408572215606368e-04
-1.678412985835606728e-03 3.221609720167328828e-02 -2.883246533763467873e-02 -3.470201741340350060e-02 -1.152830390971003142e-02 4.088509543491920806e-02 -5.980534185950818135e-03 1.661833166854555927e-02 8.644213519695324519e-03 2.813879068830740793e-02 1.565181443119161367e-02 -9.519552430203601090e-02 3.936697358903597233e-02 -1.451819543325165614e-02 2.531695667628190705e-02 -3.297372224659052969e-02
-6.640476033338546524e-03 -2.728896564727249785e-02 -4.746416004216314627e-02 1.473729933326707597e-02 4.926877334177234141e-03 -2.913765902985979844e-02 -1.856490148364644405e-02 -7.302808220086008661e-02 -1.692476530266750351e-02 -9.924320627331260219e-03 -4.319837872706640963e-02 2.513479822559653437e-02 1.963782373751450649e-03 -2.424774918747807373e-02 -4.195153867736566705e-03 7.077132320248756547e-02
