6.046257885826630124e-03 8.372675915778721514e-03 1.409752385138502914e-03 7.403131938441101165e-03 7.071349898551770527e-03 8.781151229648669065e-03 8.441623243524749506e-03 6.147477745928930969e-04 4.037989778824939945e-03 9.586211985134379318e-03 1.332061590259864259e-03 7.971849225604949254e-03 6.367728741583937070e-03 2.562679162730031272e-03 9.553540555953209806e-03 6.942103975054342855e-04 9.186215968616578617e-03 4.867659054628012058e-03 1.033225754665634266e-03 5.521580855374526309e-03 2.654788883547275647e-03 8.185365846097691477e-04 8.405292892473867350e-03 5.361173490072159396e-03 3.663748176368374423e-03 9.117864589229893874e-03 4.395068401852557545e-03 5.260037226621433817e-03 2.224224331490250086e-03 8.908935088264737304e-03 5.635107713546964013e-03 5.529321469012191299e-03 3.263728622435209305e-03 8.717172520828394763e-03 9.070156231910101591e-03 1.934248574879433727e-03 5.369002300499029005e-05 5.343677568502505290e-03 3.884923776479982070e-03 -5.295632879282771797e-04 6.634277533055236292e-03 3.671800062503974456e-03 5.643840978089928288e-03 5.702865381136660748e-04 8.611846591464639459e-04 1.369098896200163793e-03 2.572932750026028694e-03 9.529197429696207103e-03 3.394582228187467449e-04 7.775537321986893645e-03 7.031029193139008530e-03 7.868660407439265897e-03 3.062856831715430120e-03 3.851816610779371618e-03 3.351565235174269741e-03 6.901636538503157919e-03 9.421288156632297295e-03 1.820164602546709993e-03 9.584751558807749067e-03 3.588901350766498990e-03 8.361345686049717965e-03 9.212031219788443387e-03 5.773749652888233823e-03 -3.206156040675951693e-03 2.220028240495315695e-03 1.454795173461289996e-02 1.130638686470295971e-03 -9.141089741090745874e-03 -9.577676903167145483e-03 -1.173019058931179699e-02 -1.222762619899233315e-02 -1.015117534665147675e-02 -1.171844687470808763e-02 -7.726571225049821447e-03 -8.133873994134439497e-03 -6.668123631384688214e-03 -2.780899787887150358e-03 2.325508582669888035e-03 5.098091498247042490e-03 2.111065893965474206e-03 5.721218014870995197e-03 1.125462412234940618e-02 3.610868570697034485e-05 6.501924338592737253e-03 8.817905950866775089e-03 5.972266723331993640e-03 9.699058705350260823e-03 4.979612025909498953e-03 7.126447019571146083e-03 8.330047664653773137e-03 4.372113506782342174e-03 -7.717798151530431104e-03 4.610950285104257855e-03 2.149341137831605603e-02 2.577303415709236711e-02 3.279363811359366828e-03 -5.328331865280381587e-03 -2.460584632506935751e-02 -2.430277561716613632e-02 -1.825794499260614823e-02 -2.372963892125033031e-02 -6.334766261576020747e-03 -3.184810913042204067e-02 -1.992065710933822731e-02 -1.155245963488979628e-02 -2.614113202299480927e-03 -6.450353308604189762e-03 4.047603827211426405e-03 1.057130263092016277e-02 4.383252554867345455e-03 5.232496417804206705e-03 8.093855166253341449e-03 4.772554115168458136e-03 6.541849322918499854e-03 7.369585356275464537e-03 3.625598343341073296e-03 6.938962443343734895e-03 4.400563913713841292e-05 2.378298997891063228e-03 5.745437541381744062e-03 2.675208250892222462e-03 1.331288123952372587e-02 -7.261712052822451519e-04 -1.512128338382694431e-03 -2.301383153814445803e-02 -2.297814120149832204e-02 -3.309712968091168411e-02 -2.569832475946952008e-02 -6.902448917530391859e-02 -2.724538708825785527e-02 -2.246806173948940819e-03 -2.277160550717395246e-02 -1.939130673462883397e-02 -1.074452516858159790e-02 7.542102896269393952e-03 1.286251570168050508e-02 2.694810225221071220e-02 2.827188982178053048e-02 1.419772799608561877e-02 4.520691061797254238e-03 8.311268308020227508e-03 3.765041356621652135e-03 1.623213972455396677e-03 7.596505505097430819e-03 3.220314394816241928e-03 1.076019428034567793e-02 1.930827693984566232e-02 1.018289243801696886e-02 2.218549293559253857e-02 1.066003608292597979e-03 3.455364166573915950e-03 1.360516664256036096e-02 -1.236068355258566724e-02 1.675333563742215787e-02 -6.009189613490090610e-04 -2.554577328785386306e-02 -1.903251921369061503e-02 -6.190481829790640995e-03 -1.080665519625390557e-02 7.879022933724145160e-04 2.590710855605873886e-02 1.265294758960907803e-02 7.666396781281557479e-03 1.701171072698338949e-02 1.647557948643416786e-02 2.279108629620618665e-02 1.035363091107546762e-02 6.464318183610316335e-03 4.467723376079416574e-03 9.149672232635740069e-04 6.127038842023217226e-03 1.399407355078000244e-02 6.755403220317290555e-03 1.959606150883703296e-02 3.752765279374649376e-02 1.821159949946669562e-02 4.006495408585633577e-02 1.920069415948849612e-02 3.698472033252751812e-02 2.011067425372553563e-02 4.605279010871465156e-02 3.788597163383702199e-02 4.785316833282688559e-02 4.051713267404884883e-02 2.577350540940811022e-02 1.680410514009997650e-02 -4.230199554770495626e-03 -2.532728442161000237e-03 2.977643604200784760e-03 3.233399586560950500e-02 8.570280217426742841e-03 6.434158871858377529e-04 1.702123196939679672e-02 1.386927668738020640e-02 4.733614800319463183e-03 3.566687920635419271e-03 6.789865458754856115e-03 1.180221494595249266e-03 7.305920094909249332e-03 1.281166235544351460e-02 6.741716996801546714e-03 8.995765830788267359e-03 2.971782824694189223e-02 2.073585042455534933e-02 3.077329158655223856e-02 2.815322858704918940e-02 3.750338454173317987e-02 4.364317588180518376e-02 5.889375374882487718e-02 2.623058264746754367e-02 6.288826289076593357e-02 5.169339690387545622e-02 2.357973991049942819e-02 2.099774926288455051e-02 6.771825903544049022e-03 -8.390938244417360829e-04 6.475775933836662099e-03 1.730173626647975478e-03 -9.974956327169135634e-03 -1.987381295720258220e-02 -1.290741772341242634e-02 1.069168481898577321e-02 4.065768569221381822e-03 8.336355717598642120e-03 3.748760361895274885e-03 1.025503663212081959e-02 9.703261498973540788e-03 1.896768043030999662e-02 -6.540448643145319041e-03 4.041339341814208577e-03 1.279023274518907918e-02 -3.637188800282077552e-03 2.291174636867980910e-02 1.794526791745107777e-02 2.756043414946453621e-02 1.786449657919340905e-02 3.840074218795160033e-02 1.996595207946505121e-02 5.355717432600470840e-02 2.773634578756763169e-02 3.011926082334315247e-02 1.393549668738047233e-02 7.570448162358292196e-03 -1.018512853817397229e-02 -1.466868692317533328e-02 -6.792425406307231288e-03 2.687695241380271601e-03 -7.799482625759360938e-03 -2.380893103589917445e-02 -1.187499122100257756e-05 1.158044650481647626e-02 9.169834552957441959e-03 3.166390391644955445e-03 1.081818771561027237e-02 7.531995529840411659e-03 1.837639963206543284e-02 1.870066973888968170e-02 1.226016428186096734e-02 4.933568078693108608e-03 1.865129359360711767e-02 1.960397325614940747e-02 1.616295218238647524e-02 5.445024534846634560e-03 9.441436017962262853e-03 4.061486503523540487e-02 3.077849700610272438e-02 3.677377954408685840e-02 4.454829121227086089e-03 -4.425471303732280044e-03 9.764864375978283065e-03 -6.925059236314737646e-04 -1.020816777076529250e-02 -2.198120534355484101e-02 -9.306420591169624681e-03 1.180128708557586425e-03 -8.982761350933279529e-03 -2.560511479447465794e-03 2.619463364292784133e-02 1.638036581236066228e-02 1.664156662351082283e-02 6.490856837733333801e-03 5.011161572987599296e-03 1.263127154469211380e-02 2.046191077684022044e-02 1.345923526676750387e-02 2.502831184496105699e-02 3.559741255809283772e-02 1.732143353192457796e-02 2.331531864152507419e-02 1.139256682901565107e-02 5.684034946738043999e-03 2.634601082950358908e-04 -2.616798974985412585e-02 1.883987439828264943e-02 3.206775528917924899e-03 -1.299627901943609803e-02 2.537470734921757460e-04 -8.825275155401227090e-03 -7.041254137455417103e-03 -1.840445961141783451e-02 -9.788700394133870511e-03 -2.945614681722739936e-03 -2.643266399307371041e-03 -2.251256612146234487e-02 1.295038780421312215e-02 1.929870865511435635e-02 1.983625406884165915e-02 9.711959525302051033e-03 7.440432780091046742e-04 7.847819406800536635e-03 1.399515047139458616e-02 1.457671150433996823e-02 9.147138280226254498e-03 -8.241537278540373226e-03 2.351916185073111079e-02 -1.462376046298778133e-02 -2.651145432905509594e-02 -5.896623430971754953e-03 -4.256636622915666024e-02 -2.935146945414926836e-02 -3.208306704177013580e-02 -2.361624606469425736e-02 -6.151127542088893202e-02 -2.859026607280172258e-02 3.038777181712418000e-03 3.879063033405980975e-03 3.101718928360235050e-02 -3.793623070026783291e-03 -2.166473076969681680e-02 -2.669853061237559624e-02 4.214955930819551909e-03 -4.327145868981700956e-04 1.102554198699265409e-02 2.372728129666797428e-02 1.849718137774020166e-02 2.414972266337503306e-03 3.363540959503689542e-03 2.935683929170887062e-03 1.319363867250411375e-02 5.308888004716925957e-03 -5.778967676273502998e-04 -1.140815784613442505e-02 -1.229469541981921890e-02 -9.934946907676512132e-03 -4.855536075822042795e-03 -2.866434316314761532e-02 -3.129078074710338331e-02 -5.005149565646185156e-02 -5.006899079286662724e-02 -3.289168152158754299e-02 -3.248865891536584227e-02 -2.701329670631202624e-03 1.555749328912637078e-02 -1.400435842691222406e-02 2.431113931255685784e-02 5.084051819509863637e-03 -3.804801037183183198e-03 -5.863844386856390672e-03 -1.580200898284244218e-02 -1.694601227633248455e-02 -8.730008813208506649e-03 1.705864634291313128e-03 1.061726313169719313e-02 2.568654541324826620e-03 5.372506623948297092e-04 2.273652526293489830e-03 6.072122263634793793e-03 -8.886302395645369334e-03 -3.024032542355175809e-02 -2.916856484741928851e-02 -2.003011235320049585e-02 -8.742377967303125580e-03 -2.676792055645724894e-02 -1.495282529325669442e-02 -2.124887964252915144e-03 -2.822141570186440657e-02 -1.947453997853763885e-02 -3.963832638741009336e-03 1.504009169171350267e-02 -1.689353221961122781e-02 -1.106090194359034447e-02 1.368658309642645059e-02 1.238973701205267619e-02 -1.048194582703732697e-02 -2.333581333390920276e-02 -3.054723087785686780e-03 -1.030909255293235502e-02 -3.837843569838430419e-02 -1.353058555855600129e-02 -1.339460322215261373e-02 1.951846043356400854e-03 4.632091843637391355e-03 5.329115827065691695e-03 8.728089430900771301e-03 5.105446113111126831e-03 -2.959453162639784254e-04 -3.033687581632792812e-02 -3.858116023127704242e-02 -3.727736632014746337e-02 2.682906442520126972e-03 6.138634623727034882e-03 -1.463214378050444603e-02 1.429598685450929330e-02 -2.779661892340822005e-02 5.001178523249646089e-03 -1.937650985542425236e-02 3.227562245149846396e-03 3.060479391013781747e-02 -2.669538446564417768e-03 -1.050788177292161577e-02 -2.083494426889253084e-03 -1.047681092188430287e-02 -1.605211667814097215e-02 2.373616024591379894e-02 -8.526331021184352724e-03 3.232890961296678092e-03 -2.519290123010802483e-03 -9.974476670645784915e-03 1.296350276339072564e-02 8.170685977526310345e-03 2.990775464197753357e-03 6.857815953901805379e-03 8.183742884465678574e-03 3.110290726626841959e-03 -9.733507550467106542e-03 -1.421971318260938436e-02 -1.778971591659653240e-02 -6.746767450647010896e-03 -3.857526437379559230e-03 -1.344275740943217182e-02 8.650916701869496364e-03 -2.379774604039251642e-03 -2.521149395879826796e-02 -2.138618662381231231e-02 -1.577961729710256056e-02 -5.906157028106397838e-03 -1.916630344038346145e-02 5.916782998964832500e-03 1.254960033240709941e-02 -3.186725130460493771e-02 -4.800253325118706248e-03 1.609186268349552945e-02 -1.929935388644059280e-02 1.783847577256498325e-03 -1.736636082802204065e-02 -2.488933944816650035e-02 -6.822716312275760309e-03 8.914271161884050956e-03 8.621245375435791433e-03 5.608880852720076957e-03 7.621696458095397406e-03 3.837704650280531187e-03 -1.130621520606550634e-02 -2.906944606844282571e-03 1.179807219238563146e-02 2.424920281439365850e-03 -5.997546179874661473e-03 -1.946057834546265422e-02 5.261042904213937728e-03 6.596866699275096002e-03 1.311473086163590478e-02 -6.889562258985198855e-03 -1.258800802973471245e-02 -3.914590551270729496e-02 -2.932066635484500278e-02 -2.324654387934075098e-02 -2.581265652675692954e-02 -6.651595687325422002e-03 -5.064620770227953178e-03 1.404717048619273656e-02 -4.014524282887415099e-03 -3.869161510007033955e-02 -1.462362637543098212e-02 -2.509362104316993636e-02 1.176266721418875189e-03 8.293114891478848075e-03 7.873881176415053681e-03 9.837266796395438204e-03 1.878735183146910048e-03 5.254323676679098151e-03 -2.347549589150378212e-03 -9.902340222713607032e-03 -8.387886179610590937e-03 -3.125928526430576579e-04 -2.955826218426909745e-03 4.904067864060071558e-03 -1.575262827591421277e-02 2.269537238565703594e-02 1.636151314125064427e-02 -6.457478635506991652e-03 -6.618983189297971553e-03 -3.233560732593726561e-02 -3.960628536556663748e-02 -3.961799209131045170e-03 -1.938552626272815535e-02 -5.134130355163398461e-03 -3.267178148176991433e-03 -1.993108711776145001e-02 -2.126585275334514843e-02 -1.495200805868444546e-02 7.267281533010257026e-03 8.593307408916357054e-03 1.063942303683883608e-02 1.105211511270899356e-03 3.950937267541082022e-03 9.662924947023849784e-03 6.820238033528546427e-03 8.583912239334452396e-03 1.439069875730114405e-02 -2.422824157698055467e-02 -2.480574880426956313e-02 -2.761021396585246895e-02 -7.813374547282463806e-03 -2.086787337522733390e-02 8.917319981539358412e-03 -4.270191197555638085e-03 -4.995250037089265377e-03 -1.000171206040615865e-02 -2.465668145664654323e-02 2.838719889361869270e-03 -1.461965385746290995e-03 -9.467807393201907191e-04 -1.143075951889440224e-03 -1.537634130165729980e-02 -1.351641173415133249e-02 5.835131815566670099e-03 1.996646067433686944e-02 1.620558222659880792e-03 8.942695556164297413e-03 1.266384919248922380e-03 1.240402259179061370e-02 1.820568990784123421e-03 2.554769107079592292e-03 9.307610065446371428e-03 9.498957185754060284e-03 1.298382124089139320e-02 1.392407529635271077e-02 -8.200348331666012028e-03 -1.645790003943043214e-02 -2.774828568618317726e-02 -6.497376709100183539e-04 -5.681425349942331553e-03 3.209363330411268891e-03 -7.436811305509003281e-03 3.957646216323722384e-03 -1.162718303689611390e-02 1.477164144474163790e-02 9.768828136315368948e-03 7.431304555816291117e-03 -4.020353805613034563e-03 4.554823716220091426e-03 6.940708822242534770e-03 1.904316354146569357e-02 5.395689677906588023e-03 4.883628831670113954e-03 -1.030338145168691391e-02 1.253953283965637995e-02 1.072504713712864322e-02 6.517883835206311587e-03 7.581447164294870950e-03 3.625393180328161449e-03 7.679105299351192361e-04 1.084670761359071527e-02 1.854274088331288317e-02 1.674522315792749752e-02 2.050159170076041801e-02 -1.387133800632031188e-03 -8.290815365598174988e-03 6.473634335090482084e-03 2.489832754415790346e-04 1.170264459602414833e-02 -1.746580202820666519e-02 -1.104035844650894452e-02 1.267210755984520855e-02 2.204533814916061901e-02 1.662519888159026335e-02 2.120218164378194145e-02 6.553102063486963835e-03 7.588417086041686008e-03 2.306420012692505378e-02 3.600923048594088701e-05 -1.946627730940142173e-02 -3.731604604396031397e-03 5.879016217924453586e-03 1.074794599610839028e-02 1.272071432253374899e-02 7.248692876654122715e-03 6.389564893790717140e-03 2.813586548695547196e-03 2.842772755747176999e-03 3.784451933116794644e-03 3.256932933911529417e-03 1.403344920283474545e-02 3.602505731250445816e-03 -2.185706277754388693e-02 -2.577042809922210423e-02 -2.420840911440142601e-02 -1.174032146991441962e-02 3.258675615574936624e-02 1.037087510173351733e-02 2.019185581630005347e-02 7.127144634486792286e-03 1.991820516626111731e-02 7.967257371251264264e-03 2.317601042349074977e-02 -1.553515112610160537e-02 1.736416837918500818e-03 5.826001925727945611e-03 -5.360459434388971552e-03 -2.885922901215086465e-03 -6.927356130254068781e-03 1.099016722897037598e-02 1.533322753860212953e-02 1.174560104846205169e-02 2.611471388415782802e-03 8.613707213988214045e-04 3.021861539594869906e-03 4.359954435898683554e-03 5.718035086650939680e-03 -5.170112611500905613e-03 -1.308335733272516545e-02 2.164936358152605347e-03 -4.953086036030727654e-03 -2.231058560510129976e-02 -4.347017551074024849e-03 1.691423366308988235e-02 2.131435159918482203e-02 1.643291340243672322e-02 1.371646404424142068e-02 2.166941825443870727e-03 1.714174132400707665e-02 1.739088898595848171e-02 1.856328244883474407e-02 4.982859624558593284e-03 -1.071975277622766627e-02 1.144236329337546508e-02 8.831448872571796491e-03 -2.893010600219798889e-03 1.478767680023606972e-02 1.500395872371916746e-02 4.739106242424219462e-03 5.436127958643240977e-03 3.688722675906807701e-03 2.264604093186127140e-03 2.567089742673054394e-03 2.106247194313809294e-03 7.700569093355756276e-03 6.021905574698642981e-03 1.029594879992306970e-02 1.164890360463076598e-02 3.382239898167650749e-02 2.258033943797492851e-02 -1.485194764782654664e-02 1.214022185492734385e-02 6.861938496007033775e-03 3.358813971511349916e-02 7.871185592932256406e-03 -6.743472548762946030e-03 8.381293311236472088e-03 3.887679568326605183e-03 -1.305975826141107582e-03 -8.252787282932445845e-03 4.124426143435364761e-03 7.016978091490921714e-03 4.753351593241708639e-03 -1.195352159572433612e-02 1.025217138285757119e-03 2.143260168735275448e-03 9.783353300557334070e-03 1.463508317834348246e-02 2.201930975063870304e-03 3.799146059260839498e-03 2.611078341671920974e-03 6.835300833112832944e-03 7.710893520241778390e-03 9.063862443083896617e-03 1.602803127013556830e-02 2.925644584099576159e-02 2.464345524408759550e-02 2.427316792698678422e-02 1.338896740311965733e-02 -5.720047018984912406e-03 -5.339070995965377459e-03 -1.078849142032972837e-02 2.620904985943143823e-03 6.089526030000481753e-03 5.548305677502450095e-04 1.338052606610239635e-03 -1.740014260372266947e-02 4.201880688773934440e-03 1.003002451363568803e-02 -1.940467652771507231e-04 3.281191467651624165e-03 4.263887047683901158e-03 2.518402351330838000e-03 3.008934362081797705e-03 7.509091966507761701e-03 8.156840460031504481e-03 9.668221138257595756e-03 4.363855961539400870e-03 6.501011553663667980e-03 5.356077105216926204e-03 3.293707155044797632e-03 9.111233582389959007e-03 1.215794036705262170e-02 6.128141717905518163e-03 1.494740393165187864e-02 2.754122324056337834e-02 2.881537442354540138e-02 3.200371266507062717e-02 -1.795853017962046163e-03 1.610460062947083673e-02 2.386460917193979764e-02 3.650572046287741800e-03 -1.595263538147907029e-02 1.964388638995313158e-02 1.423367686230450277e-02 5.027193186895715163e-03 9.156262354988026902e-03 1.272443081447978928e-02 9.440248110228862321e-04 1.740533607657633900e-03 1.622451614706157084e-03 2.501762948148451935e-03 1.135293605815357494e-02 3.161158263329538580e-03 1.046894690661359477e-02 5.604420052703441152e-03 5.529752713257867457e-03 4.279700049975944387e-03 2.880267971375157984e-03 1.174771192052255627e-03 4.427430992634869694e-03 -1.452675143581129251e-02 -9.475645734677608234e-03 9.395617025998241958e-03 1.879227471618184070e-02 2.441994857283268094e-02 2.139562659007155851e-02 2.658264122950963065e-02 1.805516969068797495e-02 3.071310686927950298e-02 3.857156958340991759e-02 3.673426278989972565e-02 2.337271804546080245e-02 5.233104569499264294e-03 2.542387470594991566e-02 2.761469908407194335e-02 1.221168039370635131e-02 1.869410167545740688e-03 7.326503885019454258e-03 2.995059565405937350e-03 9.282006926767694685e-04 3.469234125585217432e-03 8.486327884911449779e-03 4.810362985647471945e-03 4.909571408106386085e-03 6.206398935342448582e-03 8.797343023175396501e-03 3.064805951538129728e-06 9.940996914734025192e-03 8.281912022877098434e-03 6.848744989049185793e-03 2.010496706652481827e-03 3.254838635511958945e-03 5.112322279710981680e-03 1.016127534046755605e-02 4.739969055866800896e-03 4.003516547628442092e-03 4.121717974500921366e-03 3.723824537509038291e-03 2.743070865802766517e-03 -2.710751381443473839e-05 6.986820314538530127e-03 8.083366200509208011e-03 5.480054632961424421e-03 1.668564420725431041e-03 -7.582808439801619728e-04 3.581178980386651601e-03 1.018665902199980718e-02 6.029783748511560390e-03 7.945587609015359459e-03 4.325712202733811350e-05 4.580768871168466178e-03
5.466616021429195754e-03 1.684571131141506884e-03 5.202234943354244572e-03 8.408528388312097937e-03 5.227419067118791070e-03 2.530706281172834336e-04 8.505181347657298028e-04 7.054902369907875212e-03 9.655435818262534525e-03 1.675629010275117006e-03 7.605947288007977765e-03 4.000735541320582164e-03 8.513651681873507862e-03 5.376670510439760832e-03 7.714515710225789552e-03 1.012600781442493832e-03 3.671089569163987851e-03 5.989534255190331891e-03 1.988104647859927250e-03 6.537412098263925900e-03 1.895928845361176743e-03 1.860930949524784977e-03 3.827074141070685486e-04 8.622806236031342261e-03 9.265377851805634262e-04 6.451868709003113524e-03 8.706253200834368836e-03 8.860901464061744781e-03 6.719716890177573941e-04 2.437878312481327366e-03 1.260463180112345689e-03 2.385838880513992816e-03 8.590216521185878654e-03 1.006900325425512084e-03 2.516401259018150385e-03 7.601960604129381557e-03 9.621979093709221928e-03 8.221630580557406573e-03 4.136621274328476650e-03 5.265813074746015197e-03 1.026444554859664085e-02 6.978226448512376244e-03 7.457906747327516100e-03 3.916218804064689786e-03 4.332361413796097932e-03 9.031553479197737154e-04 8.685099206369733746e-03 5.554174683768483070e-03 3.796278056379024214e-04 3.536776197098664368e-03 4.668506547467599467e-04 2.939873448161976679e-03 1.965456231456261683e-03 3.741419124796200452e-03 1.247701735774560134e-03 6.972231767650723978e-03 3.508070629195375774e-03 3.049025212630205456e-03 4.886474499089797294e-03 4.605038662574909535e-03 1.285553278889279118e-03 3.141071914148902897e-03 3.546508981411806288e-03 7.627484530390716937e-03 6.536057061786485281e-03 2.490111708498339571e-03 2.573424647316008892e-03 9.189476498489407980e-03 4.551580466552780299e-03 1.123991967541075956e-02 1.595141638160784206e-02 1.683479491765930286e-02 1.530548365482735026e-02 1.234283752013568686e-02 9.889966232413647390e-03 2.286089339368735027e-02 1.415181502694265805e-02 6.816205883807506007e-03 7.256051018986403936e-03 -7.751870232694979719e-04 2.206618417590946665e-03 5.938301428560423690e-04 7.894603984551478576e-03 9.369599996335612260e-03 4.108624799696802658e-03 4.979483931731467847e-03 9.788530438309978737e-04 8.880892855105361125e-03 6.858231585352504754e-04 1.134675584265094211e-02 1.019776905380011776e-02 8.088429873836075826e-03 -4.066912164247815653e-03 -7.884375527349479079e-03 -1.692375166161978360e-03 1.907850720805637397e-03 -1.861197906647123895e-02 -6.050320903586588455e-04 1.077566391047323066e-03 -1.012699627955564435e-03 1.130975794592523759e-02 8.385110109727568484e-03 1.409926657503296661e-02 1.827590251315885581e-02 3.935253410997183003e-03 1.703340673975412825e-03 5.649133876198907458e-03 7.234420494388387954e-03 -2.896325858165830006e-03 -2.759837822575186578e-03 1.002918251371556248e-02 3.250282517314541202e-03 9.325126850183816998e-03 3.913779907979424329e-03 6.553483154789094441e-03 4.694532719061009045e-03 8.851390300736212621e-03 1.569875417600349876e-02 1.152095598316779657e-02 1.294277798179251961e-02 1.376043527654370602e-02 2.718231174933750309e-04 6.281692195968530644e-03 -2.823091785811288230e-03 1.663495898988159166e-03 2.614042573565021621e-02 1.811461439794221501e-02 -1.005133068050794755e-02 1.255074241696138918e-02 1.223013729226909291e-02 9.945665140946600979e-03 1.448824771434377608e-02 1.378508455386301748e-02 1.355009823234082193e-02 1.099504323579461942e-02 1.472206056312140750e-02 1.005874250305797708e-03 7.376739115351628635e-03 7.403644958287606409e-03 1.874177072988380405e-03 8.748373358176558118e-03 6.776411490860361451e-03 9.742670194101629016e-03 7.072933383060612741e-03 7.533028001783671074e-03 1.920516727760509385e-02 1.786696280481937446e-02 2.087268602634203760e-02 1.370135019817854058e-02 1.442426723561874430e-02 1.418974328671887032e-02 -4.567882539595315150e-03 2.366060233858553394e-02 -1.381170479267115501e-03 1.418570920550513322e-02 -1.770951196797816533e-03 -1.794595511185034450e-02 1.428197107404354134e-02 7.468973129282548487e-03 2.439348232520937784e-02 2.327058166456463448e-02 1.129052373693179012e-02 -1.541592638415511586e-04 7.059936831857260321e-03 1.408890874348771305e-02 4.757443582362655583e-03 1.609591037597377311e-03 9.097223522530360762e-03 2.197314823341795908e-03 4.695827795128983129e-03 -9.375429302623466228e-04 2.587777661084883756e-03 3.910992617913244297e-03 1.071228091593427051e-02 1.358550144227887654e-02 2.336019808019243818e-02 2.529488573631451936e-02 4.329282060272711397e-02 8.049908670425251489e-03 4.393099351097563832e-02 7.358482074367846473e-03 1.896230584315308082e-02 1.776453797846357791e-02 1.913802568195304907e-02 5.790947711360815153e-03 1.622973327725088510e-02 4.464500412719291621e-04 4.729389292218869403e-03 1.258668203381282762e-02 3.172474576462271795e-03 2.562044829998304327e-03 1.358953577154631623e-02 6.657684903834984805e-03 3.746940114312950851e-03 2.159936142856999988e-03 5.945928072641722996e-03 2.595095533080014980e-03 3.750595967118524818e-03 1.485461714046189567e-03 4.933452919704890000e-03 1.286724449577970539e-02 1.375451162679619879e-02 2.026229573184225308e-02 6.351803400905265415e-04 1.634829287977706061e-02 1.693733135956808009e-02 1.961610108414043110e-02 -1.178366556465089421e-03 2.202802531526682275e-02 1.412450523074847142e-02 1.686024739686414406e-02 2.465879006282782615e-02 1.864107424416551917e-04 1.360109683856815417e-02 1.023283941359096234e-02 -2.102587758445269208e-03 4.262653677309410742e-03 1.253647418521689275e-02 1.729189727218228070e-02 2.134829697998838482e-02 1.155939268746371956e-02 -5.606433923636084359e-03 6.781562184575587980e-03 8.501250107005512216e-03 8.215946558839490321e-03 6.617874857224695026e-03 6.766375906239816516e-03 6.472248151683511128e-03 2.147668358749963910e-02 1.044327686661245154e-02 1.422706996481118424e-02 2.112736239856826889e-02 1.468368823479102546e-02 6.933378089888354162e-03 -7.371597229002060936e-03 -2.793213118254546466e-03 -5.761034266163904231e-03 3.160513578718678225e-03 -2.231094778402494677e-03 -6.818257968086985886e-03 5.169269743610568728e-03 -3.639241899600797591e-03 2.327700852927846661e-03 -6.477830509158015622e-03 -2.180853981116007839e-02 2.396571644467354253e-02 -6.832641372373230750e-03 -1.229007321431447620e-02 3.866452990210642038e-03 2.263317723661576776e-03 3.972686397962098617e-03 9.064961756940303692e-03 4.198112150626794395e-03 5.460055204002100919e-03 1.338890800655244927e-03 2.533967555764725724e-03 7.433784145595655028e-03 -6.830562191222490191e-03 7.068559185610617454e-03 1.103230966796489923e-02 -1.192958432740028095e-03 -2.801801873325751157e-03 -2.462288941885446697e-02 -1.169534769785790865e-02 -1.953143321815536959e-02 -1.524677319680236252e-02 -2.222282175309991253e-02 2.937377084808941684e-03 -1.188690433197250212e-04 2.901831366311561061e-03 9.278144022477037914e-03 8.098008101123084154e-03 9.885692506088360199e-03 1.745509534265535581e-02 -3.685640718549884100e-03 -6.544800608563068785e-03 -1.616759053697074469e-02 -1.502393105459201746e-02 -1.160766577637624723e-03 2.435065477408163061e-03 3.828714990527673327e-03 1.771155073991783518e-04 3.387304073550496692e-03 1.540523664894251629e-06 -6.878236161838893227e-03 -1.175523840235941607e-02 -1.516555667709443452e-02 -1.102269576746527091e-02 -8.137735569423723558e-03 -9.849507396018232497e-03 -1.686148420679947982e-02 -3.074237278464315298e-02 -3.436520743837379738e-02 -3.118707073930199886e-02 -3.055463367450481083e-02 -1.822300308628578211e-02 -2.029099577837875992e-02 1.827023254178419473e-02 7.434131644959859897e-03 8.885081231034751628e-03 -1.276870535471837098e-02 1.312851331157120901e-03 -1.270134622245254908e-03 -1.464151939306798048e-03 -2.098115447601446928e-02 -1.101616347684689773e-02 -5.651756650548167386e-03 8.522212916406569916e-03 3.265582815412651409e-03 6.830675450438129098e-03 -8.976372637509243135e-03 -3.884235036801150440e-03 -1.287873911249646890e-02 2.192528322652527537e-03 -8.719557435999477149e-03 4.227764256277491590e-03 7.687015305286933921e-03 1.453764616362373564e-02 3.964576297674719113e-03 -2.168806357423555889e-02 -3.396375850292097671e-03 -1.927079811173232349e-02 -2.365672971578481470e-02 -1.509649780517185839e-02 6.819927254574099582e-03 2.930859961378909362e-02 1.825560525147391228e-02 1.339202670687046799e-02 7.735856000542092568e-04 1.426285675853321971e-02 -8.507725829165617079e-03 -1.258861477972511231e-02 -1.559986623939688295e-02 -2.246898286507456252e-02 -2.723170164660343538e-03 3.356723497080979068e-03 6.767456720226247384e-03 3.046603582693629183e-03 1.696896134748704203e-03 1.376801755994712991e-03 -2.321114047200300515e-03 -2.680633956448052677e-03 5.460818359300650959e-03 1.505919989355038527e-03 -1.061086227978704291e-02 -1.908428333714398770e-03 8.965696037865239151e-03 2.569590015795706131e-02 1.634584467259123791e-02 -2.252605654937246335e-02 -1.219587115326766467e-02 -9.930457168349711081e-03 6.169115248906379204e-03 1.445590843841101231e-02 1.362368287916442336e-02 2.038842643605967217e-02 4.280846020759216872e-03 3.286301993967608720e-02 2.085932064011357390e-02 2.096947559096727989e-02 1.940538678860941318e-03 -1.103930025248160175e-02 -8.724260713991727895e-03 7.084613300079198490e-03 2.055151434346637936e-03 1.155204959992878200e-02 2.366940742490229125e-03 4.376806986238553077e-03 -9.856863127718151155e-04 -2.240258710568901121e-02 -1.639288672272969441e-02 -8.214385088242731961e-03 2.456918233799787465e-02 1.391828023852699145e-02 8.143350618949812131e-03 5.300839442094951691e-03 2.134103507958182882e-04 4.041862593734887009e-03 1.150812758062698090e-03 2.502003755747479741e-02 4.012092170392811061e-03 1.846220954110463358e-02 9.234372590551235757e-03 1.600764160476849177e-02 1.051793194050168294e-02 4.250209688103496510e-03 9.586512797639099026e-03 1.608248495548647572e-02 2.531508605445056525e-03 1.297431128112718933e-03 -7.111395663508526289e-03 -3.925516200402638726e-05 9.885260853383795801e-03 7.824078153445429042e-04 2.998188065359137962e-03 7.405335638433696403e-03 -3.153690950186339992e-03 -1.169269249597594366e-02 2.585505089023393353e-03 3.970383707852967285e-03 1.827871541475041203e-02 2.124268997469222486e-02 1.360174373225681065e-03 1.983699286108230736e-02 -4.904203668338360557e-03 -3.430658282669690664e-03 2.600246308057605621e-02 8.175013113553106225e-03 1.960366075642201722e-02 9.671021162207953797e-03 1.224273678890652056e-02 -7.877692755395395915e-03 2.165777607461726994e-03 1.537463355828012392e-02 6.944497077307132914e-03 -1.340023787095784985e-02 -1.874247162619333343e-02 1.034887649411540995e-02 -1.114985698902313214e-02 4.927621689631073686e-03 3.628571838016709985e-03 7.782623758456870024e-03 3.877593508415916931e-03 1.369197013070525513e-02 7.158657712430353121e-03 -9.757649116621911964e-03 4.930172790454823584e-04 1.234876623045362380e-02 2.450314817495240910e-02 -1.068898098668258530e-02 4.341324747806000854e-03 2.245918674044266455e-02 -7.346295877853362133e-03 2.385268304882985635e-02 2.878981805240946740e-02 -2.802570211023744373e-03 8.243544870469957401e-04 2.057109045523073526e-02 -1.994601732791529553e-02 -2.515735040166786844e-03 -5.224750458760551476e-03 1.442308042853560589e-02 3.519554642517902510e-02 -1.093602972297821538e-02 -2.156141905995880362e-02 -3.951017122487440573e-03 8.923958855781828278e-03 7.036091363420360172e-03 2.913718083179554861e-03 9.563851248390032450e-03 4.331689897002029624e-03 1.605274873078516018e-02 5.069386504493948731e-03 1.292516893685740666e-02 4.464102593533933981e-03 9.526725276773860551e-03 6.643338733269840181e-03 1.260326564586779045e-02 -6.832525716155853253e-03 1.854592929458459896e-02 1.289695641097057463e-02 2.653880372372618285e-02 1.559787037065378697e-02 9.275125646590035369e-03 8.579090355802097140e-03 4.452880878300197534e-03 1.103608293033425322e-02 -1.691366850920567738e-02 6.561623687221866154e-03 -1.478615475429500854e-03 -8.986612637148865511e-04 2.318507294437969699e-03 -4.539830778842226513e-04 -1.146570361867294344e-02 -6.840855061888183666e-03 2.697874851665420758e-03 3.980047942031783538e-04 7.431301570887942354e-03 9.599807104989132103e-03 9.074545836819039243e-03 4.085059841881973249e-03 -1.675794064884151635e-03 -1.225468714269695517e-02 2.889669923885739705e-03 2.478428633386418889e-02 -2.323747535731045602e-03 4.949795290001264211e-03 6.133226862853445246e-03 9.517460955221546115e-03 3.468026529538582869e-02 7.929259046857052226e-03 -1.910774265901331835e-03 5.734467386422864230e-03 -6.923035088966129728e-03 1.078141988367201619e-02 -1.353849502260130039e-03 1.496741868909989663e-02 -5.686251161340320250e-03 -6.401806298053727869e-03 7.828885332817036788e-03 3.839442628799668786e-03 -1.359266037615665564e-02 -1.347634671142648299e-03 -1.652618542954869011e-03 9.764584809577558618e-04 8.825624573997648686e-03 1.141870745219753826e-02 1.096406893482874435e-02 -1.006150770138070083e-02 -1.271946484474258295e-02 1.543046758427878617e-03 -7.094077149855742247e-03 -2.028721795752833762e-02 -3.029960499060829066e-03 -1.863637959386435852e-02 -2.897648542269650688e-03 -2.152298173289023727e-03 1.134992782901802014e-02 4.706996289085754216e-03 -1.123693566934763459e-02 -1.292945525257642057e-03 7.903494038037568378e-03 1.843920181456026181e-02 -1.782280132086805054e-03 -5.763350707337825014e-03 -2.119944279968800221e-03 -7.677085823802981719e-03 8.174658565412627753e-03 5.987600404554977232e-03 8.037989407825020874e-03 2.934169990886240174e-03 8.571050682536445961e-03 9.057579850306281613e-03 4.474490942230765301e-05 6.263391344945429089e-03 1.187629099807350694e-02 -1.273806434977596254e-04 -2.317126125952674478e-04 -3.949779681818765126e-03 -4.567181556603182833e-03 -8.040311795797228100e-04 1.077504428756345493e-02 -4.785955773202984868e-03 -8.143135226056847850e-03 -2.066312636990680351e-02 -6.614225027143386115e-03 -2.657399283356870045e-03 -8.899935617047249978e-04 2.396006730217917560e-02 1.150552155653507009e-03 7.787869423628379986e-03 -5.933936395019866542e-03 -1.057667025462702892e-03 -7.200545367460799671e-03 2.910168479075114084e-03 1.443709949447426026e-02 6.469362831275818349e-03 3.395947376591387703e-03 1.164973286918741724e-03 5.891212050545628284e-03 1.288671050728695789e-04 3.874201162777017420e-03 1.448276233835211688e-03 -2.065708014834110370e-03 -3.244557368963080050e-03 -1.243528989269816927e-02 6.510912368945027950e-03 2.306580143904113801e-03 -3.513348577304423181e-02 -1.956889021564060718e-03 1.997825489687524419e-03 -1.097411519429936262e-02 -1.061101776535651291e-02 -1.937358920852871522e-02 1.956319899422240619e-02 1.551644767394862699e-02 2.658188614157504584e-02 3.534040979758979253e-03 2.428952877716329325e-02 1.014639559322129576e-02 1.134693272181306820e-02 7.282075657546504925e-03 1.212686099011946531e-02 5.590715386840424718e-03 6.948996860981240982e-03 -5.447857508640077499e-03 -8.017812439435496863e-05 3.954338216844619468e-03 4.086497390029575393e-04 8.825519664225040624e-04 -1.895111085527321658e-03 4.846943812469275276e-03 -6.959494225404523268e-03 -3.001466730747415212e-03 -4.101016015666187394e-04 -4.185921747202708126e-03 1.540390247711380216e-02 1.093118902814892678e-02 5.069944679052706266e-03 9.894179218831126305e-03 1.715754978380828674e-02 1.671939894948617014e-02 8.696026212243600229e-03 1.386008833107498298e-02 9.488526502043143768e-03 6.549872621690890594e-03 -7.947171117406746921e-03 6.710329022110888761e-03 1.683305421219384243e-02 -6.931486144513144664e-04 1.309432855917609662e-02 -6.781008717985671612e-03 -5.542984322469458186e-03 -5.535620245212458839e-04 9.462296206818897109e-04 7.370190604992211264e-03 2.869002745922792121e-03 2.681631994395230947e-03 9.925565854020700421e-04 5.383389598072776776e-03 6.395989413133563312e-03 -6.562233272165604071e-03 -4.201888234904481260e-03 -9.836626690671611273e-03 -1.163257687486555754e-04 -3.650939508255200260e-03 2.155570106878326037e-02 1.431956240390900789e-02 4.100441126061446680e-03 9.114645561386219841e-03 6.663476625285655493e-03 -2.226300115385321157e-03 9.759508932759942273e-03 1.779311345487932317e-03 1.134104015966563156e-02 2.181058171051820233e-02 3.015554205839358556e-02 3.039892691592474896e-02 2.329909216301460223e-02 2.284335586323176827e-03 4.281733494819910113e-03 -1.198131617587058816e-03 1.568019350877369184e-03 1.149199431602205418e-03 7.031393972634113372e-03 9.912158358873520217e-03 3.550742116279838583e-03 3.015515635998972967e-03 7.468944720693440186e-04 3.839452428544121339e-03 -1.903308226486213200e-02 -1.430616474647037825e-03 9.274643530752069848e-03 -9.594694321372108578e-03 -3.751971639718129810e-04 1.260844037230149893e-02 9.553821707820358416e-03 1.076343013602758768e-02 9.193719427481259962e-03 2.121037263983052007e-02 1.109424014021602976e-02 9.394079280099791943e-03 3.171795282943851851e-02 4.581171077662824637e-02 4.352348304926635658e-02 3.818174036391317611e-02 2.178400275991964480e-02 7.674591802831440789e-03 -3.024570239357260003e-03 -5.407287690892484920e-03 4.299484022060765659e-03 2.455722323197436722e-03 6.170369908522745084e-03 6.629731601455808587e-03 3.551098643971421689e-03 9.719441840928197407e-03 4.381222425864007841e-03 4.278629457511699472e-03 4.837929040833054313e-03 1.768063320852241577e-02 1.299032593198454905e-02 1.213241505434744377e-02 2.481392259141699391e-02 3.658112797377126302e-02 1.077206623846309330e-02 1.515225614149360439e-02 3.228974725150874150e-03 4.870136780627451305e-03 2.182655858226559623e-02 -1.507190191406088814e-02 4.687796988267673576e-03 1.558444640333592202e-02 2.674056623895007187e-02 5.979983457307345117e-03 2.383241087083594334e-02 2.705655591726756695e-02 3.076617021638155484e-03 -4.778390076670893790e-04 1.108752447563004269e-05 2.888090075840672559e-03 5.346153413522093494e-03 2.660504149681092341e-03 1.952248409338774643e-03 8.530562034344010489e-03 5.791887343056030535e-03 1.778727689348713961e-02 1.764454191754784296e-02 3.110962854665839938e-03 1.590980773761703493e-02 9.091147919178583017e-03 2.488492449254073313e-02 2.436940805301589241e-02 2.413852659608322140e-03 4.853478952548052200e-03 8.653531483413738623e-03 -6.686522708165131001e-03 -8.815376094502011886e-03 -5.989954496504969542e-03 -3.971253474134723020e-04 -1.450073362193584313e-02 3.909035314704057025e-03 4.907195256256506079e-03 1.023415144057363653e-03 8.567332003434860455e-03 2.900991111677961917e-03 3.488041328123859131e-03 3.011229995042281459e-03 4.256758979318253904e-04 4.521307146538400355e-04 7.555214966430655321e-03 1.427415857738039036e-03 7.294737204885736771e-03 1.278294018262409251e-02 1.404159203792544955e-02 2.349789549638078845e-02 2.001198807381887254e-02 8.510675205849787400e-03 7.927523663342943630e-03 1.473079031282820139e-02 2.801125640193578067e-03 1.785499538994132426e-02 2.447804271951198578e-03 1.705332085985944435e-02 -9.685422511295374917e-03 -8.868275762302969129e-03 7.830739927122923327e-03 -5.376648117983648389e-03 -1.554766848893264670e-02 5.177803688867563606e-03 1.519127230717808898e-03 -2.209330985386929840e-03 7.021507320280722698e-03 2.759836908460027577e-03 1.056758686584402702e-04 4.496505959646845962e-03 1.172918012618698845e-03 4.291141637148717519e-03 8.145563279337415807e-03 6.083042152074071528e-03 7.701591885742466170e-03 2.151749722414663681e-04 5.609157413440131988e-03 6.735543964350282874e-03 9.736892404583197269e-03 8.071331719585740985e-03 5.086411213789427885e-03 4.500058472851337435e-03 7.189621237771058257e-04 7.063004865082144271e-03 7.622637188561217671e-03 1.002204266263652735e-02 1.371159389984353584e-02 2.532367485221949637e-03 1.937371662576695347e-03 5.059401943469290369e-04 1.138527325769581955e-03 9.392383279718597919e-03 7.003104418842911322e-03 -7.291039738910579018e-04 1.314226648861343064e-03 2.868097132676916661e-04 8.324912568553799377e-04 8.885972753855974834e-03 3.341688832426745800e-03
1.234593197416694512e-03 9.174368703600444149e-05 6.201192908862099631e-03 2.848376404846913925e-03 6.031624947659709572e-03 6.777166622246402240e-03 5.461032437925972607e-04 8.492043806174401008e-03 4.483031818802804373e-03 5.709775723949373074e-05 6.399009254238091290e-03 4.397501935788956581e-03 6.873375003438427638e-03 1.868573520955512128e-03 2.886461513151822571e-03 2.535105318985501812e-03 4.607858311235193266e-03 5.307887624302556548e-03 5.191511388161008760e-03 4.051062386579729079e-04 5.264820372518841862e-04 1.349020549669954772e-04 5.434621040740106324e-03 4.132461080776640185e-03 3.742930062705685044e-03 2.263276079006796161e-03 3.681408019814391935e-04 7.555844951745945871e-03 9.370933176046638766e-03 8.502337695583936372e-03 9.239782794609852079e-03 7.239723117877650124e-04 5.165686864537232664e-03 4.304864403970339211e-03 9.393063632367698243e-03 1.259867203721594950e-03 1.103829873495926726e-02 6.147402360802768466e-03 1.210486513295190580e-02 1.029690375058864293e-02 1.230991950297913307e-02 1.182827998893320846e-02 2.685026358857799025e-03 8.804651929802717603e-03 1.104958783948638973e-02 1.085185022542036783e-02 9.385027996344200499e-03 7.694187765834824277e-03 5.504711257469526407e-03 9.051002212260241334e-03 9.952799894955491680e-03 5.529066501052207552e-03 7.736460965459237421e-03 5.766418706365557777e-03 1.289388396116520914e-03 8.182881198348857660e-03 6.097663524440141182e-03 1.460361894555203214e-03 8.510858491598091713e-03 3.714643445216255901e-03 1.101467260074905693e-03 5.291359380060051826e-03 1.076041611521113411e-02 1.366916917738325923e-02 1.261725776263034580e-02 6.838089384570636940e-03 2.403698944665712267e-02 3.004218966590763498e-02 3.136477656794311314e-02 1.899075471251693639e-02 2.085891158597564729e-02 3.081938573875986354e-02 2.872265591438029342e-02 2.658544288138193698e-02 2.834197349866765872e-02 2.403680617630449268e-02 1.748798679561614292e-02 1.542058249211439129e-02 9.960731464423226017e-03 8.249868300091178080e-03 6.486147363109200092e-03 7.431831232483678863e-03 2.752904516406049461e-03 3.558629681178161405e-03 7.011276138041555930e-03 6.000915488267311027e-04 1.574338721581006097e-03 1.009826202010985149e-02 3.881784427192775180e-03 4.620809320341897133e-03 3.388943614751380607e-03 1.461936470235151303e-02 2.378999396594656465e-02 2.700005570130588686e-02 1.327401670561340757e-02 3.243991684668543624e-02 4.051017545362720768e-02 5.608388206928575231e-02 4.144013883475203275e-02 3.341354933028486268e-02 3.671717853360475375e-02 3.156721502245120325e-02 2.690515234385813456e-02 3.983838970192327827e-02 2.984513938655936408e-02 2.796226830282307410e-02 1.667153346570078923e-02 7.641187456454773090e-03 9.009730924359336118e-03 7.380196631356079721e-04 3.253234301120410971e-03 5.645446422909849863e-04 4.378617488804037623e-03 5.211316282094825489e-03 9.126726520613073421e-03 1.471481578597443355e-03 -1.718127476152323365e-03 -7.475348984853707850e-03 -1.135702644198924652e-02 6.623510957861731760e-03 1.190104023089651013e-02 2.668891950242259503e-02 1.126807157384915499e-02 1.537630443463278151e-02 2.910563850249002949e-04 -1.596887165838400957e-02 1.541449444081154736e-03 2.436839037861940685e-02 1.968186909917674088e-02 1.041894427252677141e-02 1.307530134309065062e-02 2.505160655290222110e-02 -8.419964578836362790e-03 1.522032529246733989e-04 -5.842254909714731347e-03 -8.643975716897778910e-03 -1.240390014327746523e-02 -6.935599792836931498e-04 2.812141952232265468e-03 4.844315081051837196e-03 9.364621261259593876e-03 9.375229141760421658e-03 1.673121041087495021e-03 6.863373809936936833e-03 -1.152071426701112983e-02 -2.691501432044942840e-02 -2.505571500380912933e-02 -2.805887112484454875e-03 1.056363738418062727e-02 -2.204143444024491208e-03 2.101868495143710894e-02 5.553565237925613997e-03 -4.277411202472656757e-03 2.938188169281318995e-03 -3.422664057599253667e-03 -2.928245507255369980e-03 -4.073182439061362632e-03 -1.245112488588350462e-02 -6.526084758861645969e-03 2.622047091084514503e-02 2.233829941484381104e-02 2.271940671106733624e-03 -1.256161493056488256e-02 -5.792681374244290984e-03 -3.970373098025972887e-03 2.933465270758290472e-03 4.661804163084887036e-03 4.581979852770432307e-03 3.439723374527944248e-03 6.196199266293348808e-03 4.500227326606112688e-03 -6.998052275009042714e-03 -1.265850995743524748e-02 -1.686513335884421566e-02 -2.248308482731310384e-02 1.853538504477573318e-02 3.408924530626911576e-03 -2.067821213990465520e-02 2.775412089494714261e-03 -6.015729204011275796e-04 1.687391736508010026e-02 -6.136467534141625511e-03 -3.368700019672810769e-03 -7.289942884248968961e-03 -2.061477598170814718e-02 -1.340379221917993059e-02 -2.585658113370030778e-02 -1.207327813068930639e-02 -1.767551956197546334e-02 -1.795121881971339928e-02 6.292254237210278926e-03 3.034931657866035346e-03 1.791787592617173630e-02 1.831283109448804403e-02 6.830084795771597210e-03 7.392385744120346519e-03 5.739330497037954150e-03 6.881400403318350262e-03 -3.220927751787072430e-03 -9.089872794850047469e-03 -6.452512330614323770e-03 4.741660938715918337e-03 -1.983336038418914357e-02 -2.103219126833625989e-03 1.946803687945312467e-03 -2.321046520912007499e-02 9.054952840497426658e-03 1.590603960009243437e-02 5.325257621732920263e-03 -3.453167429474728392e-03 -6.704258180297591359e-03 7.773360390243211869e-03 -2.201825262244809338e-03 -1.287641697620608809e-02 1.626327002174141056e-02 -1.656731628930323622e-02 -4.214018728905015443e-02 -4.294881148730597675e-03 3.062930449450897673e-03 -1.256719986123392037e-02 1.483664006720636884e-02 1.876618525646345931e-02 2.387042280156105156e-03 1.065499852647528931e-02 5.364262354947487918e-03 1.881604624733664152e-03 -7.077107750034096045e-05 -3.483852432539037963e-03 -1.161564276126310011e-02 -1.049078895097934651e-02 2.711088829368935894e-03 -3.827009573628879346e-03 -8.846307648815351574e-03 -1.916076318310241597e-02 8.632193855036055657e-03 -8.253111347210424081e-03 1.017886330192405674e-02 1.501841291741550996e-02 8.618432914018616525e-03 -3.097690016707433346e-03 -1.603802441095622186e-02 -4.223402956013895017e-03 -3.119365742803596742e-02 -7.454213338957684301e-03 1.799386635819247987e-02 -1.304102425735884259e-02 -2.356360854421885292e-03 7.208761854380555181e-03 7.231216243667151940e-04 1.066217122162704117e-02 7.308775375119263770e-03 9.754101684411738485e-03 3.395996179754208130e-03 -1.949170208858863813e-04 2.055113219476568769e-03 -8.691444724282279544e-03 -7.392093748699369617e-03 -1.802756480682656329e-02 -8.088890544818190184e-03 1.241671094023876799e-02 9.983760502590158237e-03 -1.502956449321956635e-02 -6.873903509740284488e-03 -4.616445192874758102e-03 -1.795234820650143392e-02 8.909301098464952450e-04 1.622634067907203700e-02 -1.518044939362660391e-02 1.055598761862647445e-03 -4.079058901244327767e-02 -2.542233291250141358e-02 -1.883902093608292444e-02 -1.818957734359592793e-02 -5.404595968622769551e-03 -7.239478587502051928e-03 1.247063163664898292e-02 5.086721703918048454e-02 3.089584169465932686e-02 8.045268208954509462e-03 -1.005135947768017249e-02 7.400852225080430504e-04 3.403844660989136309e-03 6.075113934049048217e-03 -7.332037270824708162e-04 -7.562070957955309425e-03 -2.841868111828791538e-02 -5.466166283059720361e-03 -3.618937739335723307e-03 6.374642319980116864e-03 8.078938081653806030e-03 1.750568138304079563e-02 6.905364695157268327e-03 5.501905670928320356e-03 -4.154144075362448292e-03 2.634426102311538190e-02 -7.483390586715930534e-03 -6.737768830767852830e-03 -1.263516317204897363e-02 1.072721635842777826e-02 -2.858419921143538073e-02 1.730137009496505660e-02 4.522466154489730196e-03 1.143090580336558358e-04 1.634821325677519865e-02 5.403814359095962527e-02 2.113301118868447792e-02 3.971820856141117240e-03 2.508032227471576180e-03 2.785044626361183381e-03 1.418188794674304573e-03 1.995270187645027511e-05 -1.405534181505934538e-02 -2.292463284263193332e-02 -1.186398845770123174e-02 8.857291751196989804e-03 1.428980330323354961e-02 -8.882446657402138374e-03 -6.433555087124179922e-03 -2.256096827709527797e-02 -1.931621960730266208e-02 -2.222673355867844924e-02 1.961814302787688938e-02 6.049756925953790956e-03 -2.252956780251058957e-02 -1.967674949439706875e-02 1.451314175610397307e-02 1.637175728143910533e-02 1.258547993894087134e-02 -2.295432878490151485e-02 5.825122201968926244e-03 -1.925596966051022069e-02 1.471233956833783128e-02 3.548334593040259471e-02 1.866042591486253427e-02 1.073426764020240891e-02 -3.306670357046185801e-05 8.073665079783758428e-03 3.958712625165031369e-03 1.854263715076396408e-03 2.942891104214941794e-03 2.343599634150991188e-04 -2.709595897357812378e-04 4.529758569565730565e-03 1.394467342605856981e-02 1.177299834560305335e-03 1.729426782486122652e-02 1.057282629932658480e-02 1.351653342224991110e-02 6.155315135450162116e-03 -2.230020256809254076e-03 -2.129870213959930009e-02 -2.102293354342454207e-02 -7.809591235697016867e-03 1.242691834764737477e-02 -1.258926939346698658e-02 -2.181537520779940412e-02 -1.058018545418985823e-02 -4.048110724371919815e-03 -1.719696788730314119e-02 -1.284082020501264680e-02 1.259994225853677818e-02 -6.247192275509455680e-04 -3.670089765798331509e-03 3.736135610950555141e-03 3.864784152620222464e-03 6.432010538983061465e-03 5.257142344803147210e-03 6.422871929125433844e-03 -1.775801486426381191e-03 -3.141661028927028327e-03 -1.756832202283101566e-02 -2.497461670115734556e-02 3.772865445715986501e-03 1.100596115739595898e-02 8.203730773354156111e-03 -1.251961910369539174e-02 -6.143837503804065389e-03 -1.872773249076241722e-02 -3.511620488519168280e-03 -6.486333285924669734e-03 -2.574337968599647516e-02 -1.798945753253360091e-02 -1.231687405709123474e-02 1.446078064460254615e-02 2.484739113919987290e-03 5.223617920614219250e-03 1.731083109358248773e-02 4.456228988691985499e-03 -3.292974380895272949e-03 -1.314986280771311168e-02 1.273076731336109666e-03 1.254498686406097701e-03 2.844652700226128848e-03 2.809964369226571491e-03 7.896806684444241872e-03 -4.914080573116868991e-04 -2.945719540070901917e-03 -6.753136144173519338e-03 -1.705551386027778088e-02 -4.784442146440954710e-03 1.417605786015268578e-02 -6.268015892220265596e-03 -9.335032623696835549e-03 -1.050091589876385760e-03 -7.078370398306572248e-03 1.158364395287498315e-02 -1.817304444102571873e-02 -2.745413205304251397e-02 -2.435861691347798383e-02 -2.599358456042670865e-02 -1.641823989096024422e-02 -1.608450936426492756e-02 1.726336329117099735e-02 1.090266880951191140e-02 9.027279617038535750e-03 -1.274817519690997351e-04 1.094408986583454875e-02 -1.141603696135166067e-02 -3.478535152760476624e-03 6.042523579713799699e-03 9.818185105037057284e-03 2.959928428558958845e-03 4.671307942698647853e-03 1.367145171815750812e-03 -1.032204041277235210e-02 -1.799947548410070139e-02 -2.074649628953186345e-02 1.528643673251138752e-03 1.280734849240228006e-03 -1.546553118678502562e-03 -2.670974336607193078e-03 6.199561888865392882e-03 4.206334846147797429e-02 8.606115875192879225e-03 9.045964546786558827e-03 -2.499856251263025270e-02 -4.353073307368821206e-03 -2.345283052341361543e-02 6.001865636996663207e-03 -6.063699537787856433e-03 2.669238429207465915e-02 1.105642478699840094e-02 -1.657984406242992911e-02 6.100997447140631309e-03 2.320268865313976706e-02 9.257460303080514152e-03 8.639385168402184852e-04 3.050183170382987164e-04 2.686326398649736651e-03 8.149193083330731526e-04 3.737839783317685200e-03 1.175543945183134048e-03 -1.772149747119801041e-02 -1.273971401703851434e-03 -2.590672781284776918e-02 -2.532922901655875608e-02 -1.544863636506753519e-02 -8.582573849339726613e-03 -2.379843859248250326e-04 1.835666900052613723e-02 2.346963861490345554e-02 2.114322310300648794e-02 2.308356017907400165e-02 -3.507080647960924419e-02 -2.250820846648557763e-02 -3.455032189768410256e-02 -2.063698209405319742e-02 6.360485120636141191e-04 1.770711620053575604e-04 -3.007989864225714838e-03 8.086320803097591173e-03 7.002701304945839478e-03 1.578420008895515397e-02 1.529289092328772574e-02 -3.282243732117572522e-03 -1.530045449331322643e-03 1.431860728403916471e-03 6.514986082385633426e-03 -4.723956598298900732e-04 6.907293985136890579e-03 -1.035600142269980234e-02 3.789763181540166934e-04 -1.203734064107413355e-02 -2.494379684552764515e-02 -1.804663659685575711e-02 -1.288759103424353195e-02 3.023325745716470662e-03 2.713487407344444477e-02 2.029474548015760063e-02 3.354678365974964028e-04 3.448156831746844973e-03 -2.212829580044689895e-02 -1.880084841550787658e-02 -1.577321258221069762e-03 1.495835107158375752e-03 -1.107650270912303135e-02 -2.593400185117242240e-02 -4.465602973701279267e-03 2.134515474602305743e-02 4.354485336278590864e-03 7.589977604758727826e-03 5.985876031070159684e-03 8.661647668769709933e-04 6.983931402074197367e-03 2.181750082858409032e-03 2.854731829298612095e-03 6.918390297954059819e-03 -1.858605488716511423e-03 1.173160531864712169e-02 6.036624465727423623e-03 -1.949937484887583755e-02 -6.041808521396563152e-03 4.154012403822913806e-03 9.707921765464063227e-03 9.055149481893372612e-03 -1.002379399066646859e-02 1.357797948583920264e-02 -2.159388485643617961e-02 -1.524496996722485634e-02 -1.652043822290135029e-03 -3.428489462731725002e-02 -1.276180186774575863e-02 -1.106041243374257521e-02 -2.651091042406598930e-02 -3.064903654260325502e-02 3.746371687067406598e-05 -2.885717330068424819e-02 -4.917601454423220150e-03 3.073603534222875844e-03 1.184766449401598344e-02 3.148869586341220255e-03 2.140669089209194711e-03 4.029845716248315647e-04 4.409698662862000622e-03 5.501885557361241123e-03 -1.988261804589372839e-03 9.923684234839342741e-03 -1.429685963139353498e-02 -9.082286672881497228e-03 3.663495977730214185e-03 6.122029102071420946e-03 -3.469937286625451433e-03 1.479189118798049894e-02 1.510382085412272264e-02 7.696681761083352079e-03 -8.372917222930062117e-03 1.048065325707037490e-02 8.666016120917269597e-03 -5.427386931044939251e-03 1.516964376170688161e-02 1.401409916338626667e-02 -7.567684381736671656e-03 -5.002797617525233873e-03 -1.760333963919619507e-02 -8.613530433666687081e-03 2.775711759015292174e-03 7.545638386512568824e-03 1.515858019315182185e-03 4.082882005710265945e-03 3.551708718320790645e-03 8.727656710920045358e-03 8.545447528788300759e-03 1.173407737432334390e-02 6.998109906674365548e-03 2.571506978801735982e-02 1.530768015371283472e-02 -1.576690177525683773e-02 2.635524492676333264e-02 2.123801350103957097e-02 3.925876821661902771e-02 3.944162218011614679e-02 3.793145750636098962e-02 6.421380391001686727e-02 6.032103924961198377e-02 4.814175326191263288e-02 4.273655692146961782e-02 2.302001722983083171e-02 1.732717962324177227e-02 6.724158799930737146e-03 9.395122877909042880e-03 9.573332064241723421e-03 4.422642185860872766e-03 2.319466722105333750e-02 1.135244324463090260e-02 1.249148792834901996e-02 1.607777063978005003e-02 4.816599087503931585e-03 7.297797621944082137e-03 6.625683603956890842e-03 7.472179780342749419e-03 9.591094995772167509e-03 8.997206509518006559e-03 2.022251290913310365e-02 2.220306521540018219e-03 -2.930025105337789870e-03 2.949087969895721612e-02 1.473188296462899817e-02 3.346317146753855637e-02 3.595070703218589125e-02 3.892515713894639101e-02 4.476462066990122279e-02 4.112635444680891317e-02 5.395582617590876512e-02 5.144938765308981060e-02 2.858764835819996991e-02 1.268032309983220182e-02 1.804539894198258290e-02 2.195850163743386964e-03 7.148684764551172140e-03 9.162759165983734924e-03 4.472028964386263322e-02 2.090388438601766680e-02 1.313592105666088784e-02 1.408192363374121195e-02 7.751380308165119713e-03 1.029757556738117481e-03 3.542661089158367655e-03 1.905357994709060230e-03 6.262832629824321463e-03 5.213941556926296461e-03 5.504413290603557378e-03 2.395563799597182769e-02 4.543497425774025052e-03 1.705486925982844376e-02 1.044888246921272211e-02 8.054767277789531832e-03 1.030581019673172498e-02 1.811328259428989298e-02 3.573128911059008511e-02 3.498829392516976389e-02 5.161920770050291291e-02 5.582427846711399827e-02 2.872571396812140937e-02 3.432667605087633828e-02 1.216783648626942188e-02 2.407342817993268075e-02 1.126496136261568790e-02 4.081408716656994076e-03 1.446152532221561338e-03 7.484183127497599439e-03 2.947432384994360006e-03 1.655516244264614717e-02 2.660473301467302515e-03 2.066350997367852153e-03 8.639104504878702745e-04 4.393952639648913278e-03 1.016119096116290324e-02 1.371912324407266806e-02 7.297855107914771530e-03 1.551783997327889353e-02 2.099700080839188125e-03 -2.863591786070421395e-03 5.541661347205006742e-03 -1.725671686210317321e-03 1.932705249611242973e-02 8.419930880279275637e-03 2.103123707651829988e-02 2.867915702036983802e-02 3.775339710633923707e-02 1.742521690687317062e-02 3.971186648459559126e-02 2.268861820194699799e-02 -3.489356081149871860e-03 2.402437963950962083e-02 9.204796030584714780e-03 -9.422163669949910544e-03 1.656771559426398546e-02 1.915057954585465752e-02 2.687726684685143308e-03 1.133455002798289951e-02 7.216102961862077246e-03 5.291028911637307448e-04 9.279842952364227363e-03 3.825203847792963980e-03 5.515918584010504749e-04 3.774293231809027881e-03 -3.531315020942925385e-04 -5.488552316857510556e-03 -1.707136224714408609e-02 -2.070269253877123766e-02 -5.041787060716811618e-03 2.419051222911235144e-02 5.213950279778749829e-03 -1.470675344400091712e-02 5.906200761081004981e-03 1.213046562030774267e-02 1.099700565028394368e-02 3.010585628779033698e-03 1.479175321162696718e-02 7.345469941983576515e-03 4.838704178686595997e-02 2.257819412321028854e-02 1.522906637124975260e-02 -3.551650027280530645e-03 9.666969293000185828e-03 -1.504488220037507751e-03 1.119957717571687383e-02 6.353678454846154421e-03 1.965890570243225121e-03 3.778559636343254910e-03 2.292373949109493148e-03 5.694999522665303467e-03 9.523723120492212993e-03 -1.994587977152425357e-04 -3.785424023797773554e-03 -2.235966843329233178e-02 -1.726035452786566990e-02 -1.677769824875163795e-02 -2.979716646574239944e-02 -2.010585024206369004e-02 5.415360537718460392e-04 -1.686037625265008125e-02 -2.988385491636677549e-02 -2.867306754236483707e-02 -3.395594502683490362e-02 -1.493604180549943337e-02 1.568535813704248320e-03 9.307438261216504499e-03 1.246427514223895187e-02 2.025438530703067147e-02 -1.883662531679522651e-04 -4.224932063331826582e-03 6.526379370903875876e-03 2.861471886656210672e-03 4.527854483238478306e-03 4.675009065918776449e-03 9.240621014075698150e-03 4.829212133217726174e-03 5.082289292281645318e-03 9.685788700269638146e-03 3.924800276726458687e-04 3.500882062850027565e-03 5.593397529075339915e-03 -4.128365701785059912e-03 -1.233725354168352731e-02 -1.744024130928903404e-02 -1.131904698222833960e-02 -1.705662635383979608e-02 -2.778998234758735426e-03 6.465222244832011071e-03 -1.624057401629508011e-03 -9.751565743700910116e-03 -1.471188537349074794e-02 -9.929323443513750781e-04 3.515084254304048656e-03 1.167059512331258646e-02 4.083795161495373804e-03 -1.380577749998638561e-02 -1.131218386078220416e-02 7.346595748673874450e-04 2.617326251094924047e-03 7.207946430739039720e-03 5.207344535930823193e-03 2.273084663802221825e-03 4.427270389090105264e-03 1.454941562965406240e-04 2.051021965173288608e-03 5.555475794994886585e-03 9.215151968648034597e-03 6.953279592776876773e-03 7.588305843505677682e-03 1.250795051656445906e-03 7.950296201976805865e-03 3.315172006956077118e-03 1.931245248228687875e-03 -9.912970634278863487e-04 2.826341000009219631e-03 3.430263792196892089e-03 8.247391006390417459e-03 5.705737094586877181e-03 5.934201383674719658e-03 7.264602584222507823e-04 2.335660769295954016e-03 -2.424475224178462786e-04 -1.927936710182262276e-03 1.292899127606976061e-04 7.527138074775124518e-03 2.294642633538885798e-03 7.175111175120289656e-04 4.242993458542473548e-03 3.258395407487477656e-03 4.033390327093571391e-03 3.364005564344101171e-03 4.806015893487172556e-03
8.979747287114724086e-03 5.678155630075021072e-04 3.533640639529372820e-03 4.777950125823936765e-03 5.818119226702092063e-03 9.091286351864114740e-03 3.434501280039923068e-03 1.244774824399946887e-03 2.903667988776224927e-03 9.922602487981943900e-03 6.376676704004253723e-03 1.070420658626428665e-03 1.003810213935653643e-03 1.413389345573517423e-03 6.432749926286304362e-04 6.312404224261478937e-03 6.023695414163699130e-04 4.190395505274058241e-03 7.362729176229817346e-03 1.801803595953810431e-03 1.872385687838115089e-03 4.666038831871632733e-04 7.893033908703677229e-03 8.902179435068142618e-03 5.133487843947141284e-03 1.211173570664620877e-03 2.330694263177997966e-03 8.375642528627982517e-03 2.995719219167429850e-03 1.310253213202452376e-03 4.064152962289220225e-03 6.795639200584730269e-03 8.504446677962834017e-03 6.481249045980388458e-03 7.382514960552358750e-03 5.728671735488013658e-03 4.565454691316334079e-03 6.457082630392970736e-03 5.893354407401404232e-03 6.630397467022007552e-03 2.674197545975115498e-03 5.192163297066578441e-03 7.456812182221142851e-03 3.293043874134987756e-03 5.121598724133180278e-03 8.299027860086891084e-03 3.384045745944550942e-03 9.242627465195054140e-03 8.214275040813599077e-03 8.113934869846408174e-03 7.081722178065634433e-04 3.165500919845674476e-04 1.837496701410441542e-03 5.500594432360701204e-03 3.560222893664044281e-04 1.360618634834523995e-03 9.035028791892696018e-03 7.607611521997858367e-03 1.921043478389043539e-03 6.276130816983299145e-03 7.614471248497072138e-03 3.252213354952566363e-03 2.691223925547005322e-03 6.020999403235189566e-04 1.362380320911999506e-03 1.414901091707676875e-02 5.213045353330363584e-03 5.914224475076295187e-03 6.802820502132374963e-03 -2.500443076789497267e-03 -2.519368252595130270e-03 -4.742478119828548618e-03 -2.406901734146696913e-03 -4.386496157390376918e-03 -6.133534313165113147e-03 -4.652654910819525695e-03 5.699022364129485013e-03 -6.023816417568038991e-05 3.075366531067731408e-03 3.526798470723271385e-03 3.229546138857367684e-03 9.112548776618985963e-03 7.173357820709090095e-03 3.913558628961926085e-03 2.590152779161716129e-03 4.815873235112032302e-03 1.491110905800716036e-04 5.586518304888679794e-03 4.374905447340589164e-03 4.959131343127175413e-03 5.810501650570075059e-05 1.441809850252038106e-03 1.901157005249917578e-03 -6.296779045328284490e-04 -6.897281569048176533e-03 7.599665375644652126e-04 -7.537636574144159635e-03 -4.629197473856149457e-03 -2.369977025957550193e-02 -2.487176345385285273e-02 -1.792138844040815082e-02 -2.049716300546279221e-02 -3.022722550888639823e-02 -2.119297318335208388e-02 -9.166328550175958240e-03 -9.396562641751734016e-03 -2.854709550350416260e-03 3.305820756603133122e-03 4.344823689128533145e-03 9.794180984710932139e-03 6.088105465788166623e-03 6.040349083114837907e-04 8.115533915814930263e-03 7.919646636433172460e-03 3.482013414876119518e-03 6.924077176965906175e-03 3.096635263620976970e-03 6.292798976245747057e-03 3.468460300221207736e-03 -6.484027065020240774e-03 1.728368645292690728e-02 1.285508440496764722e-02 1.186575590978923393e-02 1.381986459274209787e-02 7.444069407302232079e-03 -1.722806905940548611e-02 -3.048591305533878207e-02 -3.734998520854290044e-02 -1.836736437354489007e-02 -4.463673358534226560e-02 -2.584662550061476993e-02 -4.154171800562828781e-02 -2.134922099250527450e-02 -3.487675429782816083e-02 -2.334208608378536901e-02 -1.315178599457724092e-02 -6.499018161295856515e-03 5.782593308385089968e-03 5.180043633363435977e-03 2.777180959653900369e-03 3.541663762322856332e-03 3.578246202493040769e-03 4.544254553086527273e-03 9.483120091907994501e-03 1.354794060356199169e-02 1.051937449360638641e-02 -4.033328416989987765e-03 -3.409932998623386308e-03 2.895025227646093671e-03 -2.239616792510006667e-03 1.374174286786463382e-02 3.101857196329495595e-02 7.667912433074015703e-03 6.018454149849169869e-03 -1.846628290780981396e-02 1.119312602945638641e-02 -1.944431311489649289e-02 -4.403649690904817837e-02 -1.141677658246005936e-02 -1.016843916148977081e-02 -9.289151434513793701e-03 -1.149868282878230112e-02 -6.743974150338042164e-03 -2.181462331566853124e-02 -2.169218368376874245e-03 1.109567545960793607e-02 1.071360079640345728e-02 7.794223394003238319e-03 2.748078645913479973e-03 4.909816546470201562e-03 3.758732122227978912e-03 1.230988085038111149e-02 1.507260226581452756e-02 -2.816993514627842005e-02 -4.953660514358275944e-03 3.537569481022382473e-03 8.805466194946251490e-03 8.415274234655446481e-03 1.523739507979962084e-02 1.555728896459127042e-02 1.609691190941916344e-02 2.807475496805445989e-02 2.302914994919766367e-02 1.615594793415258204e-02 2.821972844229739610e-02 -1.088339620475835615e-02 -1.208240334640474020e-02 -3.609661341009041263e-02 -1.261581560427477849e-02 -2.249687509049237352e-02 -4.392854824382000367e-02 -4.067269600331800856e-03 -2.433517832470680556e-02 7.963870232618660075e-03 7.350950606978897024e-04 8.911963592147610635e-03 6.347407222540850553e-03 6.547130203226420031e-03 7.272983752889315354e-03 6.723724290378332857e-03 2.428741203880164373e-02 -1.912245109125283726e-02 1.192672063240306744e-02 -1.076800308818442152e-02 -6.577241912329303414e-03 -2.554442110549723431e-04 7.337196935257504727e-04 8.509473686188153210e-03 4.826356227639999261e-03 2.934495978381899267e-02 1.089216561845479138e-02 3.509910558248201945e-02 2.522959529685765354e-02 -1.437762176149660030e-02 -1.737967144697541780e-02 -2.590464197474132146e-02 -2.561274881141941198e-02 -2.152572951573795620e-02 -4.073271789441015173e-02 -1.473823113388154221e-02 -1.536952219610205651e-02 -1.050629102381784663e-03 -2.240102947085497159e-03 6.679263469379501800e-03 1.870540240057897569e-03 5.839259768705809366e-03 -3.899235662023418209e-04 5.699344392809141402e-03 2.921359068836718725e-02 -1.149046185270338402e-02 -1.745686174723216780e-03 4.987621174963399479e-04 2.203623079391919294e-03 -8.619607320681219043e-03 2.843771395969665536e-02 6.598883054700423710e-03 1.662698908870253664e-02 5.006963709839649945e-02 4.347196004156378413e-02 3.214213778134741850e-02 2.489151241367239253e-02 8.589732929712021875e-03 1.527986170314719633e-03 2.596816910050935706e-02 -1.756841846895377743e-02 -1.967862323287319568e-02 -1.783855799121442836e-03 -4.941285234480969485e-02 -3.409128578183109881e-02 -1.570942084056579924e-02 4.796515929171758959e-03 5.644135181758228904e-03 8.098594618572126438e-03 8.121383206888167436e-03 6.611229213570784038e-03 4.671498846035375928e-03 1.259010928029483632e-02 -3.953863297664617950e-03 1.321186817839306235e-02 3.102682436570606325e-03 1.025527539744775472e-02 7.782705755642485221e-03 4.369603577146669027e-02 -1.483234930140133259e-03 1.040218335043549547e-02 4.669852125939136234e-02 5.349228340293080142e-02 3.297691772992789733e-02 1.192629477319046352e-02 2.017678819178317720e-02 7.444296662609001074e-03 1.336348707570326555e-04 1.743245764525330754e-02 7.889570716858955706e-04 9.049230402547802450e-05 -1.694982735880639496e-02 -3.746675475199010702e-02 -1.390299446375246190e-02 4.539180222715419322e-03 2.320522998453714014e-03 2.671281761058116010e-03 7.309423345385934918e-03 4.611491771292921572e-03 4.085872968946571357e-03 -1.086710113882445421e-02 -5.240361183750649916e-03 3.047996303872921656e-02 -2.897640475689293883e-03 -2.285351499197054576e-02 -2.027584836517601526e-03 1.672280604086613795e-03 -7.320935367101060257e-03 -1.469559662326419720e-02 3.355201280262283363e-03 2.615856459213314333e-02 -2.000034320125673032e-02 1.285622201353290098e-03 -9.095957100887777300e-03 1.772590464184312401e-03 2.058791992843397520e-02 -5.889278466554992084e-03 -2.196006422620541340e-02 -2.258326629730902577e-02 -5.829719010096390437e-03 -3.882592831731508654e-02 -1.568843322317171191e-02 -2.911175824666311588e-03 7.328490873262326170e-03 3.456398412721803631e-03 1.011505829609704761e-02 1.170796736302666830e-03 1.560267383597438483e-03 9.090884177106132308e-03 1.393814316553384190e-02 1.399384410558665408e-02 1.736533142289409248e-02 5.143825190419245783e-03 3.582019619116576237e-03 -4.993094325367679852e-03 6.012118523230905974e-03 -1.641435794959093461e-02 -1.449377703730546536e-02 -5.790136258865611653e-03 -1.256658297414848515e-03 -8.306676703109907786e-03 1.160443490239922507e-02 1.175202818919549030e-02 1.993519468079576681e-02 2.068302804015151319e-02 3.256320092490380420e-03 -1.715099945369842616e-02 -1.927916623462632567e-02 -1.289671590445797336e-02 5.918148083757615238e-03 -2.453705843688275962e-03 1.118433045069966263e-03 2.572410372305960059e-04 3.149095575050073724e-03 1.033195625200842259e-03 1.067571106835814082e-03 2.809512268427503262e-02 2.318025168751077381e-03 1.348177566333034864e-02 -2.379774135768885496e-02 -3.195189869323803583e-02 -6.725622844782146691e-04 -4.036949306809373833e-02 -3.264325365721989364e-02 -2.922311047664983424e-02 -1.593813455527096079e-02 2.448878089502371652e-02 1.392349447485017114e-02 -5.415248994538808189e-03 1.935629457795579392e-02 2.192812596294460136e-03 1.046938306795979542e-03 -2.770130410240202040e-03 -7.035782047587203466e-04 -2.006322585649923575e-03 7.336263104016394442e-03 6.081823611198839026e-03 1.128859549669096636e-02 7.099716783938795663e-03 3.540395723115961641e-03 2.257059074429440971e-03 2.843364732880881984e-03 4.364902333051643921e-03 1.562286811204222255e-03 6.313942116028460616e-03 -2.108465780180624957e-02 -7.209372389355027735e-03 -1.369319744546320175e-02 -1.552481121528828667e-02 -1.032539674372401524e-02 -2.242977042190730935e-02 -5.524213227136585622e-03 -1.220308022767701422e-02 1.613928986208647276e-02 3.933992507166442915e-02 1.822376442084608014e-02 2.304819945128229811e-02 3.561092401450256101e-02 1.763499597802642080e-02 1.063089830510913561e-02 2.402874640223297623e-02 -7.492115249970665407e-03 6.797784473474888060e-03 -1.720575582623091668e-02 -6.902604644671664694e-03 2.354918490957933971e-02 2.674780123601817883e-02 8.767178327855517511e-03 1.592975584750905629e-03 6.853895951775126200e-03 1.377492848639241037e-03 9.647008462522021002e-03 -4.915955304694271180e-03 -3.032481009182204715e-02 -1.903004235912508779e-02 -8.157410624742492469e-03 -1.033095683178282716e-02 -2.545925425207906309e-02 -2.140634944635524950e-02 -2.911866978929580560e-03 -1.279265323686585784e-02 2.628691687989984441e-02 1.876046481549658793e-02 1.493563679066017141e-02 1.513910921368791197e-03 -4.298024160022739099e-03 1.648460238572014083e-02 -1.940990708604789158e-02 -1.198524829761282327e-03 -1.216829982122834448e-02 -3.060365755585559705e-02 -2.736549320948633915e-02 -6.192608061558713475e-03 2.140529206390711855e-02 2.790112527418622118e-02 2.526263730204621541e-03 4.014297330087841613e-03 8.066257872304751289e-03 2.465828694372954304e-03 -3.567348940979707915e-03 -1.020572068390197124e-02 2.139390869173084329e-03 -1.337563980850868528e-02 -1.124480293629751340e-02 4.014899630864849668e-03 -1.631433932491744773e-02 -1.817110165702318439e-02 1.002284477020061633e-02 1.516235861359243632e-02 3.820588446206071159e-02 3.166305879701959008e-02 1.750657081411158625e-02 1.894554444173035535e-02 1.525612428785502218e-02 8.321435148269114290e-03 -4.445245508601640416e-03 7.992466229507475678e-03 -2.079935456032828284e-02 -1.674771785895294574e-02 4.775046048195358099e-03 6.082960048210176406e-04 8.620026448976270475e-03 1.341389684892883329e-02 5.149881009481771521e-03 9.447377840441288199e-05 8.405978013574689697e-03 3.589542690357708319e-03 -2.873959790279993071e-03 9.641251754232100374e-03 -8.978438628017591100e-03 -6.531133014995447322e-03 1.422497943096639322e-02 -3.222165432893751586e-03 2.995079875603625080e-03 1.476439496329187522e-02 3.011282187747170436e-02 1.441621490008073055e-02 3.448320015386070747e-02 4.093129330121928616e-02 -1.007468212160967692e-02 2.494793633868468835e-02 -2.328341994188877148e-02 1.621700170923406903e-02 -2.629057011876874059e-02 2.863256624188745183e-03 -2.083774170799346237e-02 5.609637976025234375e-03 1.805092647583037002e-03 2.199051881370783258e-03 2.315326087443528996e-02 2.090675518197320989e-02 7.874088552339892147e-03 2.713763495079824038e-03 5.829115951869619748e-03 -7.867741671490059664e-04 -3.503532798257337575e-03 1.269722786135355636e-02 -6.861558049401264570e-03 -1.669657628472897767e-02 8.003760126541685505e-03 1.537199555519055440e-02 1.572694441656437899e-03 1.927792854214659471e-02 -9.074976980537363333e-03 3.263666407472423647e-02 4.064201107886503128e-02 2.524309626278651523e-03 -2.981495227451069069e-03 -4.436783869952044997e-03 -7.919257927103824993e-03 -2.982163618656327730e-02 1.125054706273917113e-02 -6.251906916339841462e-03 -6.057251195682298965e-03 -1.749730846830853045e-02 -1.582539209782571690e-02 -6.441615954423192750e-03 2.336436653996077500e-02 1.865892082773466104e-02 8.501854145833140364e-03 2.756108306220680492e-03 1.947471788918449329e-03 -1.746892433169333191e-03 7.490956561091421592e-03 5.146580156186679467e-03 1.005740262046632243e-02 5.941412849001644026e-04 -1.797090484103050501e-02 -1.565490014434229443e-02 -1.692095873873561071e-02 1.263690069908861811e-02 9.991959131901180860e-03 -1.720154659209252590e-02 -2.064759420790517747e-02 -2.007574681200891085e-03 6.719064219702811785e-03 -2.745043912688135621e-02 5.139081436910501038e-03 2.905771125959015922e-03 -2.661784379128198283e-04 -2.218068453016104960e-02 9.089240635796568121e-04 1.121798799417739190e-02 -5.364293687697990363e-04 -5.366493959788590576e-03 1.907182011529324345e-02 7.257204357008113782e-03 4.353934495451607101e-03 2.047381658658501899e-03 7.758711700893819278e-03 -5.265317881555848546e-03 7.766651425205617527e-03 1.299758128545353648e-03 1.911992681442933276e-03 -3.373909661086352263e-02 -1.012401365208941834e-02 -2.043250638377361664e-02 -2.519814285380505420e-02 2.789401384590026525e-02 -2.380401519627751289e-02 -9.068650387495416978e-03 -5.208035681419262777e-03 2.650192653500355825e-03 -8.507918034620172779e-03 6.350511819779565935e-03 -3.734217121674924655e-03 -1.015417780076978589e-02 -7.234941044137689105e-03 5.061828831509112420e-03 7.627438628720784909e-03 2.286965374068672396e-02 1.237267102987152194e-02 -6.647366761562545703e-03 1.153542831583793254e-02 1.381310104968298813e-02 3.120541622439283822e-03 6.755511020944445465e-03 6.619175430263443075e-04 6.925633582368367555e-03 1.545264775914811581e-02 1.865588527848191860e-02 -3.422164399501436815e-03 -3.007704671358116602e-03 1.440692130790056577e-02 3.636727196156076120e-02 -1.120291569893065199e-02 8.547443016093145100e-04 -1.274292138692433712e-02 -1.763104298085099372e-02 -6.961502679732123507e-03 -1.303894953922342262e-03 1.370970244632006667e-02 2.025552908099309893e-02 2.304511544413818686e-03 -6.317318749558194745e-03 8.704367749527345101e-04 2.207854692145189840e-02 7.347824190726399279e-03 2.275712044066574222e-02 2.098969462168254890e-02 4.266775175410039353e-03 3.102784682959570332e-03 1.047151528805836604e-02 1.491736967874993710e-03 7.357078011413981274e-03 4.791917068664808895e-04 1.549146409267669611e-02 2.548654854673371509e-02 1.476456066437407955e-02 -9.059976241944279682e-03 -6.107511214193284133e-03 2.765466660531095376e-03 -1.276391406807870794e-03 -8.990422645476834826e-03 3.246734868972119773e-03 -1.051152333555075910e-02 -5.887854116872354984e-04 -1.019573912389302138e-02 -4.502607970720986716e-03 -8.945329096444400337e-04 2.204020438812450203e-02 -5.639257446448785009e-03 2.147998711857873957e-02 1.736771759911892588e-02 4.985403015099959707e-03 1.610045332697804688e-03 -3.137786412238942682e-03 1.158819422282799522e-02 -8.324190801574130397e-03 -3.017967163633605236e-03 5.840797463688328188e-03 1.567698004272214275e-03 4.354128081374717373e-03 7.088317012554139381e-03 5.148371293735029899e-03 1.293156702736948833e-02 2.017123104968712027e-02 1.870137674231380637e-02 4.748325031460404883e-03 -1.313216205542748483e-02 -6.686047493640305366e-03 2.721362962318500558e-04 -9.220627073789863445e-03 -1.948458776824098454e-03 -1.382291375951447479e-02 -2.098809463030091790e-03 2.036929437347536828e-02 -7.592980784461415573e-04 -1.106653859405199075e-05 -1.775185219653388838e-02 1.020990559676916536e-02 -1.238008425094774823e-02 3.108673951506306724e-02 5.743776898332914917e-03 1.138081963245580683e-02 7.087737032321627132e-04 -7.381029289502977903e-03 2.067726629465693744e-03 -7.397172900098211495e-04 4.959706707596031605e-03 2.228866305317145347e-04 1.246897249255628573e-03 8.773159783578014098e-03 1.061676726305567538e-02 8.429193010308077064e-03 7.551932817279403791e-03 6.776173249394723541e-03 1.237108922709970540e-02 5.877757943543605174e-03 -6.690713732229196589e-03 -2.107658311508319240e-02 -3.440184522828151643e-03 1.017114975913846996e-02 3.106346774410359904e-02 5.026156177442427445e-03 1.417713160213638669e-02 -2.353134938664684390e-03 1.219387189788836284e-02 2.206384145917433814e-02 -2.194773069635607299e-03 1.913866229571927272e-02 1.466054437735450112e-02 1.742608174141341976e-02 1.272730429772253764e-02 4.211279469758012935e-03 4.527076318926328592e-03 6.196780575687906890e-03 5.390108761026590929e-04 3.759086360151554437e-03 2.756654076825640776e-03 3.761929905163635679e-03 3.196533026496843014e-03 1.599272677631207243e-02 8.045397118349928087e-03 1.513761841875293189e-02 6.491944435227162830e-03 1.387387043212237082e-02 2.291195899878872583e-03 1.273662222334411356e-02 -3.583012334776674267e-03 -1.323931469562514111e-02 -9.477614458187304594e-03 -8.268082456861657395e-03 -4.292518546869249912e-03 -5.238848648261177320e-03 -1.470991132367296950e-02 1.429551573689901399e-02 1.554839339055387112e-02 1.805930079219231904e-02 4.523659195631355920e-03 3.585525714373549895e-03 1.237500762236402527e-02 6.438514702956752052e-03 1.378190283971317959e-02 1.550551925163795889e-03 8.669553000755033170e-03 9.354169542630797461e-05 5.584648519763217925e-03 9.017167881661651216e-03 6.458819289928093010e-03 7.709169376478984363e-03 1.513653418862576094e-02 1.720390262939905379e-02 9.975446488877067960e-03 2.908040033487927292e-02 2.216733921412180480e-02 4.747039618249627481e-03 1.309798345380198438e-03 2.218730556985905669e-02 1.934009132679966741e-02 1.965115427974784695e-02 -1.009518351015922452e-02 1.807353426905102325e-02 1.010675331743333093e-02 1.389974140344908161e-02 2.218975634752418796e-02 1.936259850514484432e-02 -1.034715395922278409e-02 -2.711788944325099759e-02 -9.750245589611093722e-03 -5.311162469964603172e-03 9.621156313153231276e-03 4.029111386957016060e-03 8.536515743412176815e-04 4.353052434913236984e-03 3.533711697260426624e-03 6.182169238203797344e-03 3.417296921734443767e-03 9.999172963269796141e-03 1.023609796410248317e-02 1.488760234051721663e-02 1.957121436241439361e-02 2.573049436126307807e-02 3.502017334123481290e-02 3.438530851731087801e-02 2.655499056459641877e-02 2.122423708077383550e-02 2.566257215960425497e-02 6.412515773794846830e-02 1.590881939236557518e-02 1.877524391318793895e-02 3.375366778271696871e-02 1.834315386347499383e-02 8.967493436768182377e-03 1.627924957810042081e-02 1.321347787784925287e-02 8.257189686105276608e-03 1.038715071659286268e-02 6.075160019773193087e-03 9.567995122339124220e-03 6.903251033352100600e-03 7.770613800379794558e-03 9.989860158265934792e-03 9.793850731401850321e-03 9.409486456559795070e-03 1.817521570331811403e-03 1.433567599660880154e-03 9.691843302852255759e-03 1.062175770823267119e-02 1.315845846085228130e-02 8.497091918734673427e-03 7.297239746492242655e-03 1.161631483763090472e-02 1.083641702445104459e-02 8.947064548621198182e-03 1.080661889426716947e-02 2.060254861381590266e-02 1.273726700490454555e-02 6.257033210990694920e-03 8.158331078413155746e-03 2.713327752362732631e-03 3.875922335854954486e-03 3.109256959209422740e-03 8.883615284973094689e-03 2.981006164244686014e-03 6.813831971658115957e-04 7.155460944673912652e-03 2.121453419354960620e-03 6.549184343672204839e-03 3.277750493580424643e-03
1.047798304484012181e-03 5.859731855250112018e-03 3.763741402356115574e-03 7.314802637270963886e-03 5.777938915904837040e-03 6.406450582319185225e-03 8.248589793570494655e-03 2.083050596221316594e-03 4.179076415169395708e-03 5.152038854493065125e-03 3.754194033654608808e-03 5.625611256948005387e-03 7.732225834057296007e-04 5.686224558847298438e-03 1.728081980826518980e-03 7.220494262761139280e-03 1.388273982948495732e-05 6.277558029025250876e-03 9.552855756768785078e-04 6.416714848582039500e-04 6.392830918663896210e-03 7.599144108398160624e-03 4.775401084589070083e-06 7.769711664404285387e-03 2.544473312365003442e-04 2.517569752835047332e-04 8.173755835490490590e-03 5.831312735744997866e-03 7.169963335853591149e-04 6.964088427825781968e-03 2.604195535042239801e-03 2.085864363687753732e-03 2.785763513522106910e-03 1.230798742821297056e-03 -6.270503810628475991e-04 4.779184849259468862e-03 3.038213337982239096e-03 6.483664174300454372e-03 3.948970086001570880e-03 5.128057761425438427e-03 -6.683706324583651385e-04 3.657606474932010264e-03 8.461433692333814385e-03 3.665060695670327700e-03 -6.530370856447592284e-03 3.154091082568320596e-03 5.216253346887405641e-03 -1.076460106320651126e-04 3.699850489582733482e-03 4.129389896677710184e-03 -7.388241321450616161e-04 -3.620151421158833340e-04 7.386609867442745815e-03 2.876578804957065274e-03 1.586566288792188271e-03 2.387209639705689841e-03 3.545067392873936345e-03 4.959283181248061792e-03 9.756393688701016711e-03 9.950923784504590169e-03 7.214813835775678308e-03 7.244159627518885827e-04 4.490449974287350973e-03 2.158899015610771938e-03 -2.409958139599591240e-03 -1.268167616843959107e-03 -5.796716162704770164e-03 1.164432003604329394e-04 -8.508070295273000017e-03 -1.168809555554573693e-02 -7.842947515478131820e-03 -6.071428229692802346e-03 -6.057876600633638545e-03 -1.095659742730800690e-02 -1.251610107370020736e-02 -3.650497978004727060e-03 2.780278310660850086e-03 -3.284329009898126050e-03 -2.023685890023556484e-03 6.618976899488847494e-04 -1.471663100230381728e-03 4.447163536513434011e-03 8.910604436407666001e-03 6.012164248632151722e-03 8.968830219649992757e-04 7.608176195184244116e-03 1.670763153639601498e-03 9.339729741732324605e-03 1.256444326484554242e-03 1.088706656819953943e-03 2.335933600245122756e-04 -1.488910617626321500e-02 -2.726695271779432106e-02 -2.266236392385668347e-02 -3.916655076726742804e-03 -1.285406340086310203e-02 -1.407412097735627476e-02 -3.445470471102458215e-02 -3.448014717233965215e-02 -1.584498102027526167e-02 4.130737882093681729e-03 5.542144045577734879e-03 6.883677089649598013e-03 3.207946670082901641e-03 8.619068244076596302e-03 3.582265340540210456e-03 3.857952158141121288e-03 -5.700676516739919958e-03 -1.603044977941565702e-03 8.255775605247817062e-03 5.827532847598322109e-03 4.191379335314836946e-03 9.125477997943861122e-03 7.710150288800840697e-03 5.129858855245073707e-03 8.812812054182574822e-03 4.035947487307284601e-03 8.292911306405566533e-04 -7.183586830819731206e-03 -1.596498927485170624e-02 -1.783533126680185432e-02 -7.711361003365097173e-03 -6.940595181065721368e-03 -4.162245947478781486e-04 4.803304039771453919e-03 2.687005762905324540e-03 -2.034526583168501379e-02 -1.018307648342340081e-03 7.706638676782903187e-03 2.987698168270721578e-03 -9.169129059153626696e-04 -1.425728884163976820e-02 -9.507303606841136304e-03 9.118093273968556900e-03 3.836757807415674352e-03 1.018217810793145897e-02 2.265727935573326121e-02 1.076605063289858000e-02 9.253415254902944967e-04 9.007421448671483477e-03 6.760049338239092730e-03 2.565496804493673077e-03 8.368050226701426869e-03 3.972947131693580630e-03 -3.376337355233949549e-03 4.492585001670227653e-03 -5.364198380301669206e-03 -1.072080473809858790e-02 -2.663340820275847398e-02 5.265513844248643528e-03 -6.459845188242778653e-03 -1.936645922861237375e-03 4.331052654643494093e-03 -3.747040954182515038e-02 -1.561672880940848541e-03 5.919162255657646476e-03 -6.257957169774759978e-03 -1.687691416525002527e-02 -3.194571829426579024e-02 -6.901335993996879359e-03 -7.793127452240380948e-03 -1.535217458200644099e-02 -4.662829666428719780e-03 4.719211051080350952e-03 1.342377837182926435e-02 7.042298588785517524e-03 8.151907379390940442e-03 6.762664727036322466e-03 3.833326596353548105e-04 3.672568489406101335e-03 7.182279538617316293e-03 -5.877490156275414455e-03 -1.330357532673480912e-02 4.604889210269242153e-03 -1.081067174260378315e-02 -1.846363122698420692e-02 -2.095637933649117240e-02 -4.456912117418093851e-03 -1.713781580196900925e-02 -4.446791636151892733e-03 -2.078409280464571865e-02 -2.021959588034880073e-02 5.320096910041240135e-03 1.516630803687501680e-02 4.903996499875020593e-03 -7.404642256327424038e-03 1.040414721041525367e-02 1.326180319759750689e-02 4.913332400078569522e-03 -1.016466840908220558e-02 1.796554875496105333e-02 1.610607139074201125e-02 3.017121796329745587e-02 1.274369075337664775e-02 8.437237441446308536e-03 4.668183201031497233e-03 2.258994208216619139e-03 1.043380627054332288e-03 8.057673503059834680e-03 -3.061076574855759163e-03 -1.854533959237191984e-02 2.756160939956846852e-03 -3.433526388522489467e-03 -1.002132749027721641e-02 -8.529902453410322972e-04 -4.964738935483660812e-03 2.439462348749541626e-02 8.698559425387992865e-04 -6.151067544744843281e-04 -8.911247099033008101e-03 1.296038869033632390e-03 1.292542788272242442e-02 1.893091733449342451e-02 4.669282025580327213e-03 1.467274452573453375e-02 2.441603400849152311e-02 3.774162879039609508e-02 1.310646072517686160e-02 1.699484357244789023e-02 3.466294999321042902e-02 1.950323686019630673e-02 1.869737927049736070e-02 1.182647096427816118e-02 2.401177088001331048e-03 7.462236329622590203e-03 7.866031024500163074e-03 1.186948197747669451e-02 1.955939296257746488e-03 -1.714476898847373462e-02 2.773306259033602415e-03 6.284100531690165782e-03 2.978446907587535986e-03 5.095301518081143954e-03 8.644100042968002467e-03 9.887943290379229075e-03 1.311885999860986675e-02 7.987757942652051746e-03 1.078803190578040035e-02 2.424931191337611688e-02 2.156489634716218101e-02 1.321248949496430652e-02 1.819370550488232747e-03 3.802938439385001451e-02 3.117470671725238243e-02 2.845591012146783672e-02 4.970514460800078138e-02 4.914933046511388293e-03 1.506426618543408279e-02 3.910079361848169816e-02 4.077727556290401678e-02 1.162286827570991297e-02 4.510358122113463340e-03 9.736061090394871123e-03 4.738279276943805317e-03 2.905296001937153916e-03 3.642018851124071300e-03 -9.679293569812027695e-03 -5.881259130284729466e-05 1.496271732720113982e-02 -3.559933647424210531e-03 -7.664592825305716582e-03 5.079598810570218857e-03 -2.292402014723812255e-03 7.462952358566885512e-03 -1.398875201385427376e-02 1.146844132950136479e-02 -1.058379269703988747e-02 8.356481110941031340e-03 1.754988911007425391e-03 9.681756261135515684e-03 3.438984021052528955e-02 2.867610564505705326e-02 2.021492968800012516e-02 2.234257376965764416e-02 7.395831572037062096e-03 6.645780404889878139e-03 2.473213992442963374e-02 2.629540534150500569e-02 3.842593796703353947e-03 2.168808814449751064e-03 5.625520986657321122e-03 9.040247442826047919e-03 -9.437387436031381130e-04 1.194517587643974081e-02 2.017554999224022930e-03 -6.528193215623135509e-03 -8.763539738719053687e-03 -1.080992110097170507e-02 1.840663931432669469e-03 1.574439504589671135e-02 2.448018774965851629e-03 -1.592144918695893863e-02 -1.153324051968031283e-02 -1.593511959144741294e-02 -4.774462289352359584e-02 -1.642278142386957226e-02 -2.730037135609001894e-02 -4.838329210501563643e-02 -2.575068732783492714e-02 2.507087618109481424e-03 -9.881260268344797121e-03 8.544764757549323667e-04 -1.750456064027164707e-02 -3.467699001596277059e-02 -2.327915386024434138e-02 1.867364583994278113e-02 5.175289814419745636e-03 2.488102568478109053e-03 9.483592329802907964e-03 3.883106099939409930e-03 -1.109078770958708219e-03 4.966822691958843600e-03 -1.031510876748690034e-02 1.136808084444608860e-02 7.556255933047823468e-03 4.934901101721543733e-03 -8.395363518634842842e-03 -5.051165883170496626e-03 1.355237865586082432e-02 -1.878013667945283710e-02 -7.115520066410384314e-03 -3.240513323049431377e-02 -3.404084873604675682e-02 -2.958660027191356567e-02 -3.520587611367265168e-02 -3.938054534779426158e-02 -4.585025392662069738e-02 -5.928272117335055269e-02 -4.992251226434183536e-02 -4.069168300501269098e-02 -3.874185950211510993e-02 -5.637078594490766564e-02 -4.751170319047987034e-02 5.359073412569940673e-03 2.246360111763885670e-03 1.434215430462926558e-03 1.844615650597868084e-03 3.385267999576343535e-03 5.982060785301650946e-03 6.286344153211984032e-03 -5.491554219980746346e-03 -1.112634380398685140e-03 1.193033475597958352e-02 5.944259751931298824e-03 2.444390317991321920e-03 -1.842877416992113812e-02 1.207973218115405110e-02 1.499871789486100296e-02 2.739780464398245373e-03 -2.560847356252040838e-02 -1.539226211192233802e-02 1.071732062535418750e-02 3.883828861151999838e-04 -1.808059929929872398e-02 -1.866789454623998465e-02 -3.151370390375941855e-02 -3.134523823297305500e-02 -2.805046079803562298e-02 -2.315388284660683388e-02 -3.241949151414486030e-02 -3.764561293948179982e-02 -6.282385763095957656e-03 -2.868262609464902052e-03 3.597252059346409299e-03 7.786243525372669831e-03 7.952831927213700400e-03 3.852442159859415394e-03 8.272382530191260686e-03 1.559245851166362641e-02 -5.142793235042831222e-03 -6.573216341573455499e-04 1.775382808453769209e-02 1.308187186736553195e-02 1.648764353056987337e-03 5.576460252033762881e-03 1.630238255241523229e-02 6.088857654287777206e-03 -1.287502721704766526e-03 1.486715990018530262e-02 2.479203364808746368e-02 2.732162937193050034e-02 3.904851211892867990e-02 4.844009421022590738e-03 -2.680305305554433679e-02 -1.466538604464716865e-02 -1.967167743395410034e-02 -2.617485171882161232e-02 -3.844101931267600303e-02 -2.971562618299775430e-02 -5.196012443494410320e-03 -7.144507987976368713e-03 -7.006370035913075294e-04 2.424740991333020328e-03 6.290156666501955929e-03 9.696326204108957070e-03 8.835280984997206238e-03 2.148219574790674255e-02 1.089057620403817428e-02 2.820214325210069345e-02 2.515443960637619991e-02 1.760381338294541437e-02 8.763454521887445101e-03 9.933170116355314119e-03 2.500506246014417886e-05 -1.201898468475278044e-02 -2.751231926143406920e-02 3.102030048146852889e-02 1.430282453261439227e-02 1.406331201267917337e-02 3.436350913301357279e-02 7.787605513478922103e-03 2.735328961721630262e-03 1.068359810731840448e-03 -2.589111580922403427e-02 -2.092239161159697297e-02 -1.782302499494863024e-02 -9.566909772901734110e-03 -1.195840362181855264e-02 -5.773544304209933531e-03 1.247595140764770497e-03 9.118858719451675837e-03 8.337258278563451988e-03 1.283200386505694776e-02 2.094802337123928201e-02 2.206737645336239589e-02 1.577636217346387038e-02 2.129323234024629863e-02 2.619991145592339560e-02 1.951433264570940143e-02 6.656760096195714869e-03 1.938266062651131105e-02 1.079742913393468701e-02 -1.735331459383753633e-02 -2.120384737183387408e-02 1.814424222608405218e-02 1.511687289884660126e-02 1.874684748354350436e-02 3.738529690720922283e-02 -1.340382763972100023e-02 -7.291471463550396092e-04 1.196097138248468014e-02 1.008431106512826941e-02 2.165395948724536945e-02 6.161523909113606791e-03 -3.440640058902297120e-03 -1.390632856649210748e-02 7.880560557178169917e-03 2.411246626782809818e-03 6.551327001789953620e-03 4.513163838823528590e-03 4.470212053327394033e-03 1.310703591321117460e-02 5.871820137724523443e-03 1.594867109706005204e-02 1.542098984395602612e-02 2.501141431536248183e-02 2.867274372979832994e-02 3.014025156449354204e-02 3.482764376291572206e-02 1.695010431313688157e-02 3.244707652798221181e-02 3.840602209434697267e-03 3.132885388017295561e-03 4.420101601316284157e-02 3.119827064122744631e-02 3.151053835619351678e-02 2.097485844907236857e-02 1.931103460734883174e-03 9.752986102883566197e-03 1.161804355139664860e-02 7.815522295313724957e-03 1.425720121781963445e-02 9.285937852848808252e-03 -1.463123401471304492e-02 -7.244005860537486297e-03 1.657144947284638725e-06 9.239594881910579566e-03 6.716696776650952182e-04 2.041292689653983767e-03 1.143869688879109447e-02 -9.306767498253935150e-03 3.158788529514602785e-03 4.202458577523067625e-03 2.524933753327902874e-02 1.094895634207867195e-02 1.870829846117231035e-02 2.755519015756552337e-02 -6.586694127515134445e-03 -3.558061668038968450e-02 -1.182612502649230124e-02 2.608648143661014898e-02 2.363758926764016402e-02 1.822092461677593186e-02 -3.264496356905546327e-03 1.955576263152547165e-02 -2.067203848832840571e-02 -6.963667298471194582e-03 -1.296938112021536055e-02 3.993062220854206798e-03 -2.204291946289235488e-03 -5.130801800349808067e-03 -1.767049514114912845e-02 -1.987982428224229631e-03 5.807001187218694543e-03 7.383946853926807476e-03 9.719654858504360798e-03 1.123404322970652028e-02 1.577029014051045024e-03 -6.362687912657316591e-03 -1.107851524228774254e-02 3.410862576018716848e-03 -1.403958191394777486e-03 -2.563027028993488179e-02 -7.906806161281297943e-03 -2.053239073566208092e-02 -2.319464721299290336e-02 -4.939264205329235019e-02 -1.135905414777736190e-02 1.922269914426927295e-02 2.932340317598320333e-05 2.058354426508101492e-02 3.395932975372690978e-03 3.215892114453702301e-03 -1.931933932284896419e-02 7.338060270348159206e-03 4.095021175695720355e-04 4.371547412288481933e-03 -1.585885486373137324e-02 -2.265901751662137767e-02 -1.413623771166008097e-02 3.892409584679382053e-03 7.132555770095804024e-04 6.820442177606887441e-04 8.489824806962462111e-03 3.576539654528724729e-03 -2.268418612017938842e-03 -4.019513979221061607e-03 -3.328873129245128477e-03 3.524478470559598824e-03 -2.156865344345663960e-02 -1.528223764310245383e-02 -1.353949583887545730e-02 -3.231553738075141485e-02 -9.313992087233961478e-03 -4.402173465205938552e-02 -3.212032163077288560e-02 1.079512328004023601e-02 1.456570986579106735e-03 9.958960763141884096e-03 -1.335382641392502453e-03 1.117039569213250025e-02 -1.687865430299634881e-03 7.427044447783204446e-03 4.123460773045439093e-03 -2.302394497172507298e-02 -2.884180815774470968e-02 -4.999977943660102384e-03 -3.959274632633933561e-03 5.009395471006757722e-03 7.621762668576574987e-03 3.983801166272938482e-03 2.371041510479745228e-03 -1.110350074873513388e-03 -1.440337381926773755e-02 -2.572849906661051414e-02 -1.734441151306658283e-02 -2.127030070010812665e-02 -3.346220675380338905e-02 -1.941238154294232937e-02 -2.145833948954226772e-02 -1.790202644193255102e-02 -2.233940214958394718e-02 -3.514832302599456976e-02 -1.422828040368033856e-02 3.337853995846433441e-02 7.373692978868459647e-03 1.322585273965768381e-02 1.878476699093123772e-02 -1.906248162085218004e-03 1.159146401998031872e-03 -1.244047075806971325e-02 3.639881428658086650e-03 -1.551421547956779307e-02 -1.150805727201465074e-02 -4.749639881390897711e-04 6.119107511746654533e-04 -1.029808700951055775e-03 6.418744812863807180e-03 6.555425461682227312e-03 2.402676514692498547e-03 7.613023049200904648e-03 -3.127883235710287799e-03 -3.795320087726517921e-03 -3.143088950022099662e-03 -1.691367468924729126e-02 -2.128871290385648055e-02 7.671984054735354018e-03 -3.974505456967953633e-03 -3.894873229763060746e-02 3.835868599214007496e-03 2.261604453953099808e-02 4.176252669743443953e-03 1.785792304005349995e-02 2.850031386975808087e-02 2.328834474720313519e-02 1.449495634960864393e-02 -6.228281825494863012e-03 1.139163036810881494e-03 -1.244621484067483371e-03 8.291870393975997672e-04 2.390432538552330829e-03 1.381300260698390412e-03 1.501912839790946197e-02 8.788938088340763136e-03 -1.942894617171790368e-03 6.884229618507144328e-03 7.741411291675525004e-03 4.309378599995316445e-03 -1.241402070975910002e-03 1.756941709763948280e-03 2.930328332743020910e-03 -1.491650067688532304e-02 -1.041196156664904449e-02 -1.561092991360317137e-02 -1.576599176456114013e-02 -1.355491060477679102e-02 2.404351545911978701e-03 1.100987955175799539e-02 1.465106799395865349e-03 -9.826723863720854268e-03 2.329322792895774374e-02 1.104417160539336237e-02 1.988809690184023191e-02 1.335086615841199302e-02 6.357950916855831074e-03 2.568595142273564016e-02 1.627038769386205194e-05 4.796658274069750053e-03 5.046411520308330921e-03 2.161753172203332088e-02 2.665925335753917963e-02 5.770931081869642119e-03 2.818668765127261330e-03 4.910742839566600328e-03 6.650388161107884978e-03 1.593734172028006286e-03 1.560783476826070213e-03 6.847059768348663297e-03 1.557771664588630551e-03 -1.421196978634946956e-03 -1.786979504037045996e-03 -6.387111068391660394e-03 -1.523193705712498798e-02 -2.415435419134156353e-02 1.935795230395044976e-03 -1.396150200175633356e-02 -2.368602344142677757e-02 -7.913968864723657654e-03 -4.860680021449252999e-03 7.426336638801813925e-03 2.193507728155027342e-02 -1.012773943859603121e-02 1.161943781574262908e-03 1.295990098672530032e-02 1.690003477021828279e-02 2.159297508850782643e-02 8.820340952503830448e-03 9.065572539658785581e-03 3.298839122844850202e-03 1.373860292233228253e-03 6.797953398547659960e-03 4.964856147119259613e-03 6.044242625730039849e-03 6.241168522787094927e-03 4.765601145647010463e-03 8.674456173721650440e-03 6.393879867100393972e-03 1.429156111283325786e-02 1.182254829909882253e-02 1.290106167511833636e-02 -1.767226181612495221e-03 1.549804124856696448e-02 1.123957221851193747e-02 1.561109088897640051e-02 -1.597367551754076687e-02 6.559505885739010979e-03 -1.928382351250502655e-02 7.811798373800431586e-03 1.298827893720659078e-02 1.717261629558403807e-02 1.310808106483985630e-02 2.421574820996905478e-02 2.045494544774872914e-02 1.882184043802626050e-02 1.282384536862771554e-02 1.685068430151666005e-02 -2.388553073848760297e-03 -9.104986768300080916e-04 5.609555168519715120e-03 5.466229504921915443e-04 3.888094616218898750e-03 6.135988072574862992e-03 8.563536557921963902e-03 9.118089180770198518e-04 9.708703914595337783e-03 6.896539831024315476e-03 7.668322469072833079e-04 6.813431738853294520e-03 1.965769243916210690e-02 3.046461506078111323e-02 2.537690531488778073e-02 1.767843102349906173e-02 2.166448655336617596e-02 1.514861593162768541e-02 1.910261686160084557e-02 1.521671063079362354e-02 6.877893390428166734e-04 1.040537359410898845e-02 2.646397610184110516e-02 1.169350606963346847e-02 1.382522159244798168e-02 2.927299155446240128e-02 1.964015595927910349e-02 1.395727873471203605e-02 6.545314428803459747e-03 7.179079953484331089e-03 -3.639384064621694888e-04 9.209838939657094894e-03 1.827937351301403080e-03 4.465236677743262585e-03 9.551558718993680488e-03 6.790123688181580637e-03 9.279607660732014721e-03 3.817271868682523168e-03 6.304324770029645988e-03 1.601081320134090102e-02 1.280071812414810412e-02 1.452320847221254436e-02 1.475564999398691624e-02 3.765142886767759885e-03 1.585857833936964514e-02 1.366042909468864752e-02 1.333450580717752791e-02 1.977594883665743236e-02 1.231198968792063600e-02 8.968764526573526699e-03 1.188738557205077338e-02 6.747349751585345751e-03 9.817559336555968866e-03 1.190248424616018215e-02 6.609012003630843068e-03 7.921409422314427051e-04 8.495028512123411341e-03 6.654751716999967627e-03 3.722642172456462704e-03 8.624321531084966699e-03 1.850321098572748095e-03 4.672340279949255271e-03 5.114471572744848718e-03 4.644741492553558677e-03 7.138733923472875831e-03 5.163367623903269629e-03 5.054198145342804829e-03 4.399932872610001246e-03 7.613377656616442807e-03 1.578825243009725470e-03 5.055591669658140476e-03 4.787941653128307933e-03 7.798514454238239350e-03 1.282423101655859711e-03 6.255757234063790730e-03 4.715362823470977890e-03 2.273092673238861789e-03 1.862918760162451948e-03 1.170223731783570989e-02 7.520750452350078059e-03 2.895701832099794107e-03 2.524790448617664999e-03 3.888974435924189444e-03 7.473609164695289289e-04 4.795650072260685542e-03 3.306850229310846854e-03 3.162897951084815522e-03 8.175050900264952541e-03
