2.197745817146152386e-02 2.034833137346575213e-02 2.152678324890510211e-02 -4.059209232547349860e-02 2.608508916103887201e-02 2.945519347414673680e-02 -4.563565822450871626e-03 2.596193755253525803e-02 9.259967571157840666e-03 1.699333751411580967e-02 5.195957567106354244e-03 -1.055088197339197967e-02 -1.606557729966780548e-02 -4.490403305740425614e-03 6.713815525285334040e-02 2.305211821071634359e-02
-3.069478161563241395e-02 6.602585385319130126e-03 -4.091444099630735243e-02 5.505404570072442577e-02 5.456238404345586934e-02 1.218838788418902808e-01 1.195824520628230823e-02 2.222377474072916373e-02 8.337516963061611386e-02 -3.240922367413611588e-02 -4.480147173934187488e-02 6.643928960739543810e-02 3.732485373730336925e-02 9.048298949500543920e-02 -4.744496746431432072e-02 -2.331606442822932793e-02
5.904308044342788248e-02 3.350555808144681236e-02 -1.073854675146546957e-02 -5.599564226653025445e-02 2.384986507204817779e-02 2.688120929411044226e-03 -8.180019281868532166e-03 -3.797855521450100441e-02 5.498846042941483991e-02 1.374002033715548791e-02 1.541950113522060246e-02 2.543508498664465850e-02 9.736239509490063684e-03 -8.061905972885074004e-03 4.735634970916393488e-02 6.707857002316755524e-02
-9.319221198353365779e-03 1.565937056631476823e-02 1.489551876738159572e-02 -2.352039344084000394e-02 4.791996639041472966e-02 9.237843212381871560e-02 4.039366637773294209e-03 5.859036932332628567e-02 -5.705987743757657930e-03 1.245616720408043027e-02 -2.542992795758659483e-02 -1.021963617568473481e-02 -2.539137531716694623e-02 -7.794741079447442328e-04 5.930379307173988535e-02 -4.002889152293951508e-02
3.939264172975392303e-02 2.694777688410948668e-02 -3.661209325639329382e-02 -5.300817560271624956e-02 2.977199510423474485e-02 1.415361455014260521e-02 -3.408196654120539820e-02 -2.888736105073928112e-02 9.081001603327372440e-02 -1.743107811177995251e-02 -5.764809585286145149e-03 3.528091970745213246e-02 -3.064573900047301569e-03 3.819693055614828414e-02 2.675245978301471830e-02 6.030692579746223247e-02
-3.255059999742822285e-02 -3.666887099369184940e-03 3.058084444385667303e-02 1.006045079566380146e-01 5.447888695167889955e-03 4.497020669570945400e-02 5.791095883737032435e-02 6.473970259337370747e-02 -4.512164042082027898e-02 2.505410929568234121e-02 7.318762601317563808e-03 5.540313860134859873e-03 2.670024174990019705e-02 1.955024431601343204e-02 -2.271342429578098940e-02 -5.141623370526725301e-02
2.007664814053064864e-02 1.139084514352982011e-02 5.838021240563267752e-03 -7.013020470122527730e-03 -1.078759328282447765e-03 -2.140191842415553602e-02 -2.070317326050474804e-02 1.060388322063216676e-02 1.728431288801384261e-02 1.214146704267108148e-02 2.129964172863491045e-02 2.752954329594314679e-03 -5.770826792859636185e-03 1.870357926318720262e-02 2.286012538038620368e-02 3.006837175865826814e-02
6.620028226354850685e-03 4.774229459523807520e-03 2.979264726793194335e-03 6.694860193634509862e-03 -4.578154944317004010e-03 -3.463630774609006979e-02 -2.663002799467533571e-02 1.812993728889858089e-02 2.572414897110454970e-02 -6.242901603323312669e-03 1.780287160701716359e-02 3.705600625995800201e-03 -2.767052029029550778e-03 4.701287944547052206e-02 8.666668836430089021e-03 2.501920707109308792e-02
1.525846472361367875e-02 8.800997582086200061e-03 -1.201387237829747330e-02 3.257639112942230936e-02 1.172761574525310775e-02 3.548383997847412430e-02 5.193965004050395129e-02 -3.233439231822678867e-02 7.873892412474322450e-03 7.468250722321748483e-03 2.552815146813331836e-03 3.522607992589802534e-02 4.709865865054357198e-02 -1.882155214070550114e-02 -3.058869745488594985e-02 7.326753130628416155e-03
3.794229652911942918e-02 2.502119470927735914e-02 4.405503900536141687e-02 -1.582310974981850863e-03 6.829156790736776693e-03 1.108574684763731369e-03 4.218424222873973228e-02 4.049881368184671086e-03 -2.571555285693280166e-02 4.069588703947951691e-02 3.003272520260187248e-02 -2.646183345175104730e-04 1.540264671716425580e-02 -2.830840586708681730e-02 3.706909619482749718e-02 1.437734867240817241e-02
4.261478440265967747e-03 4.640785682822347845e-03 5.400010876989730368e-02 5.047057192054005270e-02 -1.175140942805860157e-02 -3.288698935229221465e-02 2.833641064486049077e-02 4.933920462186969919e-02 -4.569961597935935649e-02 3.323406147168131430e-02 4.411991895785030010e-02 -1.002159920683608728e-02 1.214834895936818711e-02 5.432380667221045449e-03 2.448437232697693589e-02 -7.087328502478779666e-04
2.068871295105648156e-02 1.278865883256033106e-02 4.096670123273775388e-02 -7.547151149105365414e-03 7.196230486463080396e-03 -1.269337645123415695e-02 1.476361647978279143e-03 3.134998844357909237e-02 -1.265766764665693378e-02 3.812561705717820021e-02 2.874510529827452657e-02 -1.309454676101677421e-02 -1.217582047828079383e-02 2.315078500323110126e-03 5.791754090881164746e-02 1.444665977291849888e-02
5.794326372842389938e-02 1.946205257682230919e-02 1.142363927129391894e-02 2.046132951092376889e-02 -7.287880548435490650e-03 -4.121420342150338562e-02 2.677265874786984370e-02 -3.354388097479737291e-02 3.597696043858805703e-02 1.945811224812628304e-02 5.612498758619985373e-02 2.978095590575133636e-02 4.574058749295659837e-02 8.382892034745377877e-03 1.889191433658016315e-03 7.424991246263970557e-02
-6.760194039228626176e-03 3.589068023955457789e-03 9.694737586263489290e-03 5.176763857095253996e-02 -2.091102531677766982e-02 -4.443393425357203275e-02 2.384194166335960267e-03 1.634669356876298704e-02 1.524107517927528145e-03 1.218230689935524517e-02 3.324874225512043646e-02 1.689481440841932025e-02 2.179748550998269682e-02 4.451988496590828653e-02 -1.738855910102216767e-02 1.117778603041276811e-02
5.431297286900017146e-02 2.761723367580996499e-02 3.644167642930567358e-02 2.530503158756993234e-02 -6.502746700315011931e-03 -2.124030280867875153e-02 5.338558667000824209e-02 -2.157302348811854925e-02 -3.959080275384516644e-03 4.566446628798469937e-02 5.333842580072330891e-02 1.785383270894648142e-02 4.370797347208522921e-02 -3.163800289778943148e-02 1.461134788213918484e-02 5.362575857828989073e-02
2.270948763861920308e-02 2.648158003030091912e-02 5.050737207934027917e-02 -4.930539835152125683e-02 4.728872380896082667e-02 3.999190137891660973e-02 -1.423883937270959202e-02 6.922897732017788130e-02 -4.935241107659802014e-03 4.262774296461231682e-02 1.274349315326859730e-02 -2.431278712337492029e-02 -3.952870764496129591e-02 2.360955727243850728e-03 1.077198422517853249e-01 9.093742002531607013e-03
