3.708411550507034055e-03 6.399789615355677697e-02 1.644348420556818874e-02 8.902233196374193663e-03 3.836120854444701606e-02 1.102405699942101205e-02 1.373910307857606830e-02 -1.471785086319118974e-01 5.362362918267978701e-02 7.775033715483335717e-02 -3.780983012458265236e-02 1.660635585193982397e-02 8.961369264976963567e-02 8.903515549469651069e-03 8.505310303906024605e-02 -3.898102262579095784e-02
1.330866335884659246e-01 -1.169639763022836537e-01 9.015149110056919213e-02 -7.477154689699799794e-02 1.690058794836262479e-01 4.377921901941783656e-02 -1.675079012803389750e-02 6.394968907621764731e-02 1.081637903062365319e-01 1.223329684636963177e-02 -8.592960802754061322e-02 -7.645582621607344316e-03 4.949755893109400451e-02 -3.786225032454982459e-02 1.968080774568498614e-01 2.409966689188925565e-02
1.248647225841441680e-02 -1.290413175259357524e-02 9.519592450112210336e-02 3.848424373080771427e-02 -3.624071974253273432e-02 5.073544761938379721e-02 2.794037211929967582e-03 5.128414232009441409e-02 7.078501367098813390e-02 1.221826276222655466e-01 -2.302307349554091331e-01 -8.825500621112589150e-02 -1.668411004795310737e-01 1.407962121273239608e-01 -7.256546520381025600e-02 7.867496075151945989e-02
5.112114039260776815e-02 -2.182795097809267157e-02 8.732594043653461868e-02 -5.749790209501551286e-02 3.294001229206968556e-02 5.114963783320784253e-03 -7.992490935388178730e-02 -1.446564015023224514e-01 -2.362035445383953852e-02 3.707636081767581859e-02 -6.545454733226850792e-03 2.069922415149089423e-01 1.560602467974284147e-01 1.342983604461341907e-01 1.332174254157585946e-01 -1.982866131167204948e-01
6.622244189635741185e-02 -1.280311407783699118e-02 2.641227085791031728e-03 -4.037356136782069976e-02 -3.372936223257644306e-02 1.805907010457790535e-02 1.003679158731095866e-01 -4.836853343749542011e-02 3.391857063124589788e-02 -1.248039548166962782e-02 7.413258961810138825e-02 6.838899358078981416e-02 -3.576134157814983647e-03 1.384806342022783590e-02 2.986713856569140919e-04 -6.854295937313195641e-02
-1.646756597956190726e-03 5.334137308088025223e-04 -8.729869602863290015e-03 -4.915241173049533785e-02 -1.067711302069262493e-02 -8.061178166530899580e-02 1.607332991525018129e-01 5.392178271124737493e-02 2.754774590503451109e-02 -1.999749194416541170e-02 1.148841033815953261e-02 1.269079820786682411e-01 7.207006157853267092e-02 -2.314687820472322033e-04 9.556388211358528284e-02 6.053979395849398010e-02
-2.975463805526246119e-02 -3.618129884249078609e-02 1.151623713924830872e-01 -3.446160131575330687e-02 1.274834527704526120e-02 -3.429245145243371012e-02 -7.664803291378460837e-02 -5.829573572019022820e-02 1.254121272901498607e-01 2.099636909012615182e-01 8.442852072008640019e-02 -5.778351745551157242e-02 3.360025031046359051e-02 3.879908432920627787e-02 -7.551178109466222255e-02 5.744577962255597442e-02
-2.526644235299413746e-02 3.617894703511996546e-02 1.119872559771418752e-01 8.760491907052564420e-02 -6.307944197946026288e-02 6.334520795478212896e-02 -7.301573220219047256e-02 4.238822939413401658e-02 -2.048807722472496817e-01 -1.384697574547747168e-01 5.017312421565594399e-02 6.287692663010568950e-02 1.026737461989704753e-01 8.498418345208637315e-02 2.546529715039227981e-03 1.175986016001537848e-01
-6.604376546682181204e-04 7.445394577073771725e-02 -1.759778646518302958e-01 1.059133251255382491e-01 1.585480529781118642e-01 -1.154977162284943557e-02 7.112215379003103410e-02 -5.726625939843650766e-03 1.239012436634350373e-01 -2.534157579218792276e-03 -3.682392885518611519e-02 1.703156151213447156e-01 -7.680769632473324893e-02 1.361383228657662425e-01 -1.074958204938536860e-01 4.628375762464749001e-03
-1.814002644370166575e-02 2.480128798573118069e-03 4.118856589828094605e-02 7.333370321560908622e-02 -1.046483967938835885e-01 1.277836495832540276e-01 -4.015395047542787837e-02 5.832089844455158600e-02 9.163418821953206450e-02 5.881746854829108390e-02 4.531373511128523879e-02 -7.746450431854558227e-02 8.188634770648872685e-02 1.787004033659299329e-02 1.159085627234860832e-01 -2.109969466094853419e-02
7.388821508976957386e-02 -2.435249384869818748e-02 -6.673491853848527444e-02 -4.012357697052508498e-02 -2.822376368880154945e-02 3.060267355970987257e-02 7.223403201032176091e-02 1.321184964437546461e-01 -9.764395859549253320e-02 -5.095612177972284190e-02 5.101990031344120352e-02 1.013988630673848257e-01 8.631738335383087532e-03 2.339709743386751417e-01 -4.099644921259148339e-02 -7.800356614098621910e-02
3.076956213281370478e-02 -3.366414753079425073e-03 5.537757503657261826e-02 7.617570526932206099e-02 -9.979854166221616141e-02 5.816964613622607749e-02 -7.320996173281694996e-02 6.662019692777770841e-02 6.890896099289318608e-03 -1.378834481723733262e-02 1.772858465267958539e-01 -1.342368609718448957e-01 -3.454585932255550829e-02 -9.858517543971764135e-03 1.620451841750242955e-02 -5.201020710821827389e-03
1.251821015626127243e-01 -9.836779562501836438e-02 -1.002134111087303950e-02 6.296894480952476558e-02 -2.175066957330908102e-02 1.256780554808473449e-01 5.709721583193359817e-02 -1.736010931475513719e-02 2.087178041764340408e-01 2.816375484083751338e-02 4.005845879436795848e-02 -5.563506277702963410e-02 2.081150231017871166e-02 3.921120127685968904e-02 1.108772135186514712e-01 -1.705012585033990197e-02
-1.427432999433021765e-01 1.374810822851288417e-01 6.728639984925198925e-04 -2.310327111624508115e-02 9.508132472757979681e-02 -1.421995202035984673e-01 -1.637776958228843310e-02 -4.139063869907029514e-02 -6.583999195551509809e-02 5.886162426365223327e-02 -1.147773231562474860e-03 1.367793380332677222e-01 1.201815378689273794e-01 2.662306805195832453e-03 1.097419766905168154e-01 2.918933684731023215e-02
-5.486553005875440675e-03 -2.174842617433290701e-02 8.065980147068889383e-02 -8.666399480834900693e-02 6.524976587990792554e-02 -2.979722797823540058e-03 2.128550031762671199e-02 4.348181347789414203e-02 -4.182264172464612850e-02 1.294363806473220260e-02 -1.168256361117197689e-01 1.773744939552078514e-02 7.358928306076366332e-02 7.624624658857176440e-02 1.081120909106259437e-01 1.146656252203049481e-01
-1.461293621321461678e-01 6.506913430669650222e-02 7.207606701376188980e-03 -1.102230097125863062e-01 1.069057934054849085e-01 -1.466408509600486965e-01 -1.444320712215198810e-01 5.723952061887643133e-02 -4.217035411262674144e-02 4.523459217932043058e-02 8.654296975784096790e-02 -2.887125483167951936e-02 5.640063110043166267e-02 4.271114519596940634e-02 3.224664911749639679e-02 6.193710489250747048e-02
