-1.225156103411076114e-01 5.899224699363187635e-02 -1.190686655368048269e-01 -1.184971567923412267e-01 4.338920029552453123e-02 3.838432574677261289e-02 -8.967996646177640863e-02 1.225080156490153949e-01 -1.585370123287260513e-01 1.056288456860680486e-01 3.668432000811369664e-02 1.280382582115569823e-01 1.975203711148652841e-02 -1.555167543500082517e-01 1.585798259383090075e-02 -1.021745454269153280e-01
1.072159431899729481e-01 1.850460802309634306e-02 1.999679731666705595e-01 1.175175381834216715e-01 -6.418095894811629010e-02 -2.218757958882626447e-02 7.969986616388512191e-02 -4.693752490481442607e-02 1.047190245045576534e-01 1.458100710978015718e-02 -3.028137888431280400e-01 -2.126452803078388576e-01 2.095037824391188588e-02 8.577225432952888251e-02 4.902554792772623876e-02 -1.065768122191088907e-01
2.104524234357484438e-02 5.183738343177080737e-02 1.846482592537940504e-01 -5.069824430405083654e-02 -1.178202976608773954e-02 -1.446817766099679492e-01 7.665527911050419585e-02 -1.268083628154374753e-01 1.603919022873298919e-02 1.274639260120139506e-01 4.690216768370890355e-02 1.217554969183401031e-01 1.067776114914953944e-01 -1.641514278139960259e-01 -3.006147681180443981e-02 7.529230255111275805e-02
4.037466801292309559e-02 3.299090672541180741e-02 -2.121182263094181786e-02 1.335662392613763128e-01 1.741386419335240812e-02 7.412328037920473678e-02 2.505867017222286608e-02 -4.377438733219553291e-02 4.473023665600976001e-02 1.229243481538760396e-01 -8.975475992353515453e-02 -2.006392230301980856e-02 1.320682639016687310e-01 2.238908216648393540e-02 -7.772432927467565200e-02 -1.262090901721892311e-01
-3.172783156723298081e-02 -1.863073125845718381e-01 -2.323389310744303909e-02 -4.854794824420998606e-02 -2.541401832569322242e-02 7.863032315878602796e-02 -7.968350775759813764e-02 -3.563959087836358897e-02 4.549000000778023745e-02 -6.992394740109166007e-02 7.954749659613648272e-02 2.763091870344309715e-03 -2.107817242149529757e-01 2.145776322604115438e-01 -3.526526195888166071e-02 1.609358141040359014e-01
-6.865645859634590675e-02 1.718228688569355123e-01 -7.193680968095038375e-02 2.066441492196448571e-01 1.942942791792843724e-02 1.525554373087684157e-01 5.660495950438441254e-02 -3.977816152951613865e-02 -1.397558391235492470e-01 -1.236801558208249913e-01 3.403289864353595262e-02 -1.333846101088340640e-02 2.086638197955850704e-02 -5.856508074846490837e-04 1.463864799987948939e-01 9.359415197209718096e-02
-3.638719634296951055e-02 1.653289382811614361e-01 3.627876515268667942e-03 -9.553776042459444229e-02 -6.028204028815415012e-04 -1.036956359461132932e-01 6.298591528464356215e-02 1.634196509240263828e-01 -1.986084251233753706e-01 -5.499059066367373294e-02 -1.946490997938270804e-03 1.081016801320992260e-01 -1.821412280550518681e-01 7.779960565445130649e-02 4.654381321252554909e-02 1.513836327378020319e-01
-3.423885115777926952e-02 -1.474489739138797398e-02 8.451626150729907305e-02 2.254422852745762221e-02 1.542761132468357110e-01 7.493537970073735517e-03 1.231322243862905952e-01 -1.857271389582677568e-01 2.139877612359138703e-01 -1.040642925787220174e-01 1.377841909701045253e-01 -3.388763670121491822e-02 7.209822219664159537e-02 -1.090702592897533074e-01 -1.454867353204941371e-01 -7.115094348134674840e-02
1.040275013519213615e-01 -7.935916105000170861e-02 1.478925280577122331e-02 -2.219955486471962558e-01 -4.212343807792685857e-02 1.808836408371463506e-02 3.151730721799408247e-02 7.655004316125124664e-02 -2.124974045010435270e-02 5.728898626749854422e-02 5.131832653117526094e-02 -6.333881346636044407e-02 3.149126417713624809e-02 2.639792496494436716e-02 1.090449340636614334e-01 2.703642524369919038e-03
7.911563338957447455e-02 -1.643057830974339606e-01 -2.118556551387723863e-01 1.056768039529535769e-01 -5.738704054003906235e-02 -4.542909896763631938e-02 -2.359323910333526175e-01 1.676343170776957436e-01 1.552118469882068086e-01 -1.366598139711672731e-02 5.010996377808886459e-02 3.463411862265027702e-02 2.275909058584030253e-02 3.787941387790936393e-02 -2.959129962359744598e-02 -2.427527461726934621e-02
