-1.642960343684284064e-01 5.302664205445754009e-01 -7.097190719909121093e-01 -7.610783079910560245e-01 -1.181397201930309976e-02 -1.024745247820616489e-01 3.279404434070838370e-01 -5.166888491395907335e-02 -4.233672761080130575e-01 7.480856399336632823e-02 -2.691829593222468953e-01 -7.505175631530932590e-01 -2.856277296762209095e-01 1.621921599866307795e-01 -1.084391574521851170e-01 -5.222639338801621234e-02 -2.323425445819145840e-01 -3.503547061477539637e-02 -3.100353218859933091e-02 -3.951263392122389417e-02 -8.031426992368760898e-01 1.460597648024979101e-01 -2.010254918736839244e-02 1.227750318894324510e-01 -1.677292981134143740e-02 2.044132893656091521e-01 3.460362907622050455e-01 -5.645801591827630528e-01 -4.037803533966848879e-01 -7.206844582823020984e-01 -1.450719044806739744e-01 -2.681209424238061301e-01 -6.031110224734932412e-01 1.319103452435333237e-02 -2.954504873176642676e-01 1.204196528493499917e-02 1.649947283160827297e-02 7.106995136247822031e-02 -3.699184500854340585e-01 -9.481919727923355801e-01 -2.468860586654266220e-01 1.450477997448286205e-01 -1.419345673870537061e-01 7.680000757415753054e-02 -7.691170323453915270e-01 -1.053526197482687721e+00 1.390090282919730427e-02 -4.437333657941640030e-01 -2.092232847102644122e-01 -3.239293691667222141e-01 -5.231053219472835414e-01 3.814132881688272331e-02 -2.492997389379585926e-01 8.171950938812326537e-02 -9.836069168486938352e-02 -2.222029064478057425e-01 6.056988155929207002e-02 1.412203205222954672e-01 -1.013057404657572574e-01 1.599287588939869373e-02 1.121240659207760476e-01 -5.770540657715100136e-02 -7.383205631477782749e-01 -6.121037830467794816e-01 1.040313428118919276e-01 3.357153797464525469e-01 5.834600794025908421e-02 4.627892681764235461e-02 -6.231818151835210456e-02 -4.617193532711763582e-01 -4.515177752225330576e-01 8.698275468770988450e-02 1.057794242726039363e-02 6.923994467941543829e-02 -2.685915104039846568e-01 1.055227149687260890e-01 7.848371340243193162e-01 -7.464064319132403258e-02 -1.377837164446414457e-02 -9.426894576605365783e-02
1.149987936684666867e-02 -4.200829771715871436e-02 1.763265362987518139e-02 -7.307077588358878474e-03 1.988994574038005936e-03 -1.898337211659327159e-03 2.794848909469578313e-01 1.927945936654052242e-02 2.446030491671353363e-02 -1.366535153744176556e+00 2.080015261706133767e-01 -1.019498357573058595e-02 3.866906722156814025e-02 -1.423279011123586457e+00 -3.922917373505854233e-01 2.578100849265357319e-01 3.198053661751999455e-01 6.451976844144943768e-02 1.666430516390480371e-02 -7.466441117399964522e-01 -3.524722831207942331e-02 -1.896991392452733960e+00 2.241337548665510160e-01 1.214988268538673144e-01 4.842862761844934222e-02 -4.545446065787424050e-01 -4.902712682394964050e-01 -2.662570616742863591e-02 -2.560424914569378596e-02 -4.611128085574603408e-02 -4.402241791220870559e-02 -2.786625851777642729e-02 -2.891790811829877267e-02 1.198970918383920892e-01 -2.300022257878545431e-02 1.048021990824773682e-03 -3.702458375737112672e-01 3.599393080691059427e-02 9.924497197943367433e-02 -4.744169545416929840e-02 2.078523669604315227e-02 -2.427032459938890607e+00 1.116885688232177737e-01 -2.281849651800083034e-01 4.393387941859880352e-02 -7.066295363097482851e-02 -3.019334119767690394e-01 -2.029094448636499862e-02 -2.299282817336511520e-01 -8.581989082364658294e-01 -4.428834290935697825e-03 2.827673235722975159e-02 3.151037406300586374e-01 -9.407404539906845387e-02 2.273487577343506413e-02 1.042096601352300728e-01 -9.430336381260791268e-03 -5.564000805412671474e-02 -1.945740550115892253e-01 -9.354259255937956777e-03 -1.320371100356712901e+00 -4.386571467386258805e-01 8.669660969007152163e-02 1.679886876850585353e-01 -3.630151456759969530e+00 2.300230737489429578e-01 -4.348105479406219054e-01 -6.288347103418658879e-01 1.102375804333453196e-01 -4.887987570327642639e-03 1.959589897005291625e-01 3.625134009260832513e-01 3.358316905248077272e-02 2.393665148472588489e-01 5.558342450101313829e-03 -9.139059506045714709e-01 -8.844375454048919449e-02 4.241214376185104690e-02 4.935103764762970718e-02 2.936137221253664054e-01
2.360404381633394166e-01 -1.455856151548688970e-01 -6.431951622628399867e-02 1.958209830878946400e-01 1.468891637281683205e-01 -1.866662278188370178e-03 7.162605471434821958e-01 3.756826814293667827e-01 1.194156135085013143e-01 3.508896282891225127e-01 9.911220697434780513e-02 7.626517462503286382e-02 3.556210756113779015e-01 -3.583103094017212747e-02 2.630205915904426650e-01 2.603791541355766070e-01 3.501513002870568908e-02 8.242185721036318635e-02 3.232093315795659533e-02 7.602295333570056879e-02 1.894716344621182741e-02 4.258788437168150587e-01 1.199970590924460540e-01 2.828936189584849159e-01 1.398508357650284639e-01 7.243394651668663697e-03 5.646343927287390818e-02 4.431800485735071932e-02 9.031444762866181267e-03 1.094523844949274599e-01 -7.953937872079724913e-02 5.178897833659736050e-02 9.172852726479953367e-02 -1.641076594296881075e-01 3.344596247893781571e-02 5.319539763168018576e-02 8.021203470332260999e-02 2.282522108140757344e-01 3.253042629538210190e-02 6.893458088316721522e-02 1.218060238215428331e-01 2.282515193998478631e-01 2.314694993782064059e-01 -3.295214829207050722e-02 1.224877961873373777e-01 1.379437241078083354e-01 1.217530829494506694e-01 1.828736786405931250e-02 -7.572703112517961167e-03 1.219526790058834548e-01 7.250348958170403646e-02 -5.352442457884850485e-02 -7.005103381076801528e-01 -3.227122628016740324e-02 6.323617149322918740e-02 -1.817249141392087569e-02 5.046204899499066032e-01 -1.801422333448177704e-01 -2.793065250921430986e-02 -4.346957641461776309e-03 3.698946695229509696e-01 4.157904859247086443e-02 4.297985713414786968e-01 -1.691538770193095134e-02 3.432851097868506174e-01 2.049574928063714607e-01 -7.175696610421673782e-02 7.420018554004711997e-02 1.590779232035368640e-01 1.029769083901597021e-01 -1.233852424409847132e-01 4.743894512152208587e-01 8.715726259254545638e-02 3.318498583487849984e-01 2.798240734201379309e-02 8.909065349026960845e-02 -2.060158758280773716e-01 4.692382725320405623e-02 1.117515400313425084e-01 6.809459567708343597e-01
3.968533997345272818e-02 -3.343233676467432993e-03 1.013780292523584814e+00 1.596336959083190510e-01 -8.508422442636021099e-02 1.179754815669269326e-02 2.688499711520590529e-01 3.236202662490259563e-01 8.004376506371707611e-02 5.086456397306092780e-01 2.592879462383212291e-02 5.019400120834549561e-02 2.640118213649446655e-01 3.090724968263677819e-01 -1.908170728300099539e-01 6.958939237306904779e-02 -2.420388322680403978e-02 3.023262363592932322e-02 -2.416758670368874748e-02 2.335865402768724786e-01 1.119428961299129971e-01 6.411483425504914679e-01 8.661372732029617993e-02 -7.042102529250924281e-01 1.127269277526687374e-01 -1.240450765487609575e-01 -4.103440256459913726e-01 1.152685772020946298e-01 2.574848902776791931e-02 1.722763560846437836e-01 2.426536633316278904e-02 7.047516767562816975e-02 1.353090751502085409e-01 2.670316329044598695e-03 2.896870610086400843e-02 1.191535349898461965e-01 7.121801327710983176e-02 1.152611036271182637e-01 6.328084549207065035e-02 4.969367611608700025e-02 2.677163402379121801e-02 6.549908599234802731e-01 1.103106611447627755e-01 1.317953075014541287e-01 1.883734470553393159e-01 1.541231617893789041e-01 1.522184398641320269e-01 5.561577858901884785e-04 6.249069648919781256e-02 2.003718087447167728e-01 8.404000797662353195e-02 5.426867223383453377e-03 3.947614950241966625e-01 1.068888306210243333e-01 1.353326506531779549e-01 1.297772860031143893e-01 2.928487991011541336e-01 -1.787500973076571256e-02 1.148037544531697179e-01 -4.652261232691425746e-02 3.351459534159502707e-01 6.381220253146858978e-02 2.276234536126977293e-01 1.059854837960822471e-01 9.737086240782414359e-01 -1.258515221804248352e+00 7.424471717704955731e-02 1.662504557337668443e-01 7.438710121067755587e-02 2.720721241869004589e-02 1.176162997734978150e-01 3.526535391779263007e-01 1.771251942565946463e-03 2.849060901361394893e-01 7.208811855287795833e-02 2.041567073773442320e-01 5.226623770158893290e-02 3.865910820269236048e-02 4.449036500965192903e-02 4.768021178093995727e-01
1.135888854425473049e-01 9.997836427602893594e-03 4.638575875411556082e-02 1.400648499167767708e-02 -2.450008555162050058e-02 1.519089850127324642e-02 5.032829944204739725e-01 -8.056551451434774969e-02 -1.286808877272571823e-02 1.417625561161490189e-01 -9.265063875369478064e-02 2.168879522803323356e-01 4.045443345181855554e-01 2.140889849230289133e-01 -8.577551073231453119e-03 4.216684152267739794e-02 1.204607471112435629e-01 6.608415550963260554e-02 4.720039208625499000e-02 3.003243215256430620e-02 1.508605115002486785e-01 2.218361457717785978e-01 9.385631647449226012e-02 4.863715342280309356e-02 1.763490279904743052e-01 6.093381908447809137e-02 3.232794184091337952e-02 3.058569645772034676e-02 1.555033101177565602e-01 1.111151435599355697e-02 3.309004833479959468e-02 1.509428784856089653e-02 -1.671933997604963668e-02 -3.079208001981592613e-02 2.298423855768072163e-02 5.055781188180875907e-02 3.306049972422860778e-02 8.993729515281162490e-02 -5.265282066877986084e-02 1.356783901048671526e-01 1.040145994499073051e-01 1.815907957940539330e-01 2.339859626768867884e-01 3.950414997144274451e-03 -3.074792033900715371e-02 7.025746251013399724e-02 3.137271276350004495e-02 6.797929249746562097e-02 7.062865727964691420e-02 1.950317733734409364e-02 7.460003569864151300e-03 9.017625270724414274e-04 -1.482850406698281998e-01 -4.537957209120801333e-02 8.764706789372005147e-02 1.396922343477552120e-01 -6.523961902219825582e-02 6.444129395450639512e-04 -4.719670005507607680e-02 1.837762033548996643e-02 2.117751823296960267e-01 1.348563549876869924e-02 4.703882406759790080e-01 7.050039676859548576e-02 2.504747261296096372e-01 1.542433923111437843e-01 1.136938093720447213e-01 7.385161152357623549e-02 1.190620731867950421e-01 1.628454493665502933e-02 -7.103614569442235835e-03 2.856334595394912079e-01 6.717517028942253388e-02 2.528286099682939270e-01 -1.002120015273526808e-02 8.602080522563396170e-02 -6.597927213730277185e-02 1.284924151280460725e-01 1.257158473447686220e-01 5.810676368242964074e-01
5.270154681828183307e-02 -1.129556629887583513e-01 -9.494440251457927360e-01 1.616173933137593777e-01 -1.587795610106140440e-02 1.297541748493166551e-02 -4.138170139348748222e+00 -1.124665547774516217e+00 1.216991376050159251e-01 3.065936480262007602e-01 5.246033277199467146e-03 2.028242674544327440e-01 3.523206258300264349e-01 2.414325861282220209e-01 1.963685791365974570e-02 3.512436559549450554e-02 4.393927392107609131e-02 3.782922458766330154e-02 -7.972307051831183100e-03 1.973455570554935035e-01 1.619106295788204086e-01 3.583248993527823889e-01 1.183202926274541794e-01 3.204173004641258649e-01 1.352712317573560030e-01 1.381334270027503586e-01 2.072624210191658101e-01 2.171621640080254878e-01 1.051893518669110433e-01 2.049112312637837441e-01 2.652640007692742136e-02 1.168362609720792339e-01 2.460149705395009712e-01 1.935369815010140951e-02 1.170728221641481465e-01 7.619573592882332436e-02 4.060432762954911678e-02 -5.104587178604288455e-01 1.665008966111811428e-01 1.812985670350048817e-01 6.586983753714283074e-02 3.294686598831513269e-01 9.479501585606396608e-02 5.875431355872563766e-02 2.536127550339195569e-01 2.983033391459417594e-01 1.169411786538902681e-01 5.655524601904124427e-02 6.443715383122737561e-02 3.644334220782025069e-01 1.823144927299544804e-01 1.153775455827001691e-03 6.809600954994400601e-02 -6.259949966389928566e-02 1.137319328453787887e-01 9.816761819371286335e-02 -1.256323329314608772e+00 8.504489152855180395e-03 1.448701853200223821e-01 -1.543735678222866656e-02 2.065293858274178662e-01 2.121247958057746186e-01 4.143716543671812635e-01 8.531785497453957257e-02 5.180029691850084328e-01 2.319001968918779633e-01 3.996794939186314871e-02 8.425364199601080573e-02 8.878288295362646299e-02 8.597211326660203490e-02 5.352506623942704378e-02 3.167362053061309468e-01 4.674693122162062314e-02 2.761246484077055086e-01 1.007376875266181582e-01 9.653854482894759503e-02 2.516467184123649670e-02 -5.777953085721236892e-01 6.275249964664222913e-02 5.239402429319885979e-01
1.829546226927433183e-01 -9.298923756024529697e-02 1.070578178479576238e-02 1.385466433111080808e-01 1.388372389403933760e-01 2.017874182629337057e-02 8.089921203387233639e-01 3.555351687532380955e-01 6.729155753014508246e-02 3.608626304233526483e-01 -3.341367830491297208e-02 1.601985182933547969e-01 2.071971884170147882e-01 1.393148612150791332e-01 9.114735880964290604e-02 1.470732048888760413e-01 1.962298959176152907e-02 7.132642504318353893e-02 6.545983731910365311e-02 3.653158623567941826e-02 3.005386705250688573e-02 4.515842423163733965e-01 4.223784731066324710e-02 2.310064172216771128e-01 6.058348066159768841e-02 1.017615116801113134e-01 1.826590699296695708e-01 -5.792844127893586464e-02 3.468466936985814542e-01 1.081873813108637505e-01 1.429522565352164820e-01 1.331093665648496946e-02 3.086523266894765707e-02 -1.737429846219950766e-02 5.886272219926323018e-02 -2.143148266050213385e-02 6.086151577559507919e-02 1.421888825232447973e-01 1.690850019351732014e-02 1.420095203477841038e-02 2.244255236725443969e-01 3.066344651600843574e-01 2.800241535707246876e-01 -9.032808723471995663e-03 7.202215181156507162e-02 1.380560342027136178e-01 5.491121185545649180e-02 2.996226248020657235e-02 1.543764003975653110e-01 7.009846109196914143e-02 5.327012539473629377e-02 5.389580847401863328e-02 4.228806263598687276e-01 1.227836032554541768e-01 2.938165707161219734e-02 4.260892842917817641e-02 3.523110458494168040e-01 -2.795799834298128006e-02 4.216276825878940288e-02 2.414149141845026159e-02 3.235447440777703965e-01 -1.520588480127117205e-02 4.881172897580763337e-01 -8.728951947559217273e-02 4.539232910074175176e-01 2.972504886985564698e-01 8.739866629742530646e-02 1.290950755813904394e-01 2.429068862561145348e-01 7.031237107907908901e-02 9.267784469493592359e-02 3.035781792756274133e-01 4.519668141852448140e-02 2.067207189746138596e-01 1.777312607697006594e-02 1.879231624018424807e-01 -4.176858139931627911e-01 2.086327140552161064e-01 7.453862411809772381e-02 4.888452350297642912e-01
1.525486761735661834e-01 -2.552373581260496821e-02 -2.939168139452101591e-02 -7.953607051349021947e-03 -6.860300977406237621e-02 6.771595740763849611e-03 5.086692042203333486e-01 -3.648928249071418939e-02 -5.793241449184283708e-03 2.000638644707418423e-01 3.073130652944703819e-04 8.683157979156978790e-02 5.623434752154954364e-01 2.043699993538354576e-01 7.294615590250162762e-02 5.140611975113652116e-02 -5.324858531134514239e-01 8.709012053099361717e-02 1.094989123358921200e-02 8.272513221518403015e-02 3.715019771360206224e-02 2.137617404040603741e-01 2.185354031698675537e-01 2.928432190761314988e-02 3.055565448957971997e-01 3.828229623072718080e-02 3.940696345756567603e-02 1.115083935981959207e-01 4.937427089609751352e-03 1.619734424662346017e-02 1.710301534436480669e-02 1.875120956465257255e-02 5.823413720970065793e-02 -6.565267787666990984e-02 3.809878702626117580e-02 9.355718087814991757e-02 7.550241021563218469e-02 1.663588898673460381e-01 -2.722027869055964472e-02 2.059297607255128060e-01 5.650260171671771942e-02 1.786431330739939871e-01 1.695131013048494506e-01 4.767060847000001433e-02 -2.510222946720739104e-02 1.083691497557403294e-01 1.339147288614114806e-01 1.508582394657669301e-01 -9.104697144619051247e-03 -1.727766299359881352e-02 1.738180260794785353e-02 7.405101642946111673e-02 -1.275253766877973982e-01 2.323226890977821424e-01 4.738793395545452813e-02 -2.978948250205156745e-01 -1.136128003075684567e-01 4.326396870760962354e-02 -1.910556468302489902e-02 -1.937634816905229110e-02 3.597646924240858191e-01 -1.960937785468251995e-02 5.651954365614739739e-01 1.273046931173827112e-01 2.850309673494791363e-01 1.943127643026443252e-01 1.065671403503675035e-01 1.115051563678277763e-01 2.677937829040477613e-01 1.023323438381738421e-01 -9.079869989556423049e-02 3.704438095095847205e-01 2.657365852009543339e-01 3.880918268139433858e-01 1.680663954536309665e-02 9.558556606903374775e-02 -1.148186651738943159e-01 1.251851901855560723e-01 1.427360346217317055e-01 7.905109039069884158e-01
4.083774559000261095e-02 -2.675847271410503395e-02 6.062976259109080779e-01 9.786640596665194258e-02 3.821375007210945501e-02 4.322771582711917339e-03 4.701119260709650249e-01 1.800363546726181652e-01 3.905486226033633157e-02 5.297346267322641244e-01 1.006178174858013835e-01 1.051618092375139063e-01 2.377315164928133218e-01 3.936912834311248610e-02 2.697587483185261426e-01 5.478268788854748911e-02 5.262492226258660977e-02 2.627030542906215807e-02 5.549084365447615186e-02 1.967469971955607133e-01 1.348569391353129088e-01 6.551082990345924451e-01 1.169232759078191464e-01 1.324906545396574153e-01 7.400027686141380512e-02 -8.659940963224354096e-03 -1.763980159661771713e-03 8.324779138666049683e-02 2.429697534092449887e-02 1.161474343646137081e-01 2.387117770066336797e-02 8.998156978051724542e-02 7.945044909714553405e-02 4.856240807157329725e-02 2.083481671260226792e-02 -1.374671185425919463e-02 8.059356909127984858e-02 1.180173723405007619e-01 8.593318812385798700e-02 1.309743337342909320e-01 4.127400722365516528e-02 7.209346300528949314e-01 1.153087863734812007e-01 3.695151031720889101e-02 1.601917336614064880e-01 1.216929100352240750e-01 2.018223141292490030e-01 2.675361722883231805e-02 5.174208561707270559e-02 3.683176576604379471e-01 8.404727822429726436e-02 4.680844629959391920e-03 2.857448589697638708e-01 2.317459726380282359e-01 8.053829619075100754e-02 8.171253695667703154e-02 2.058254506810583695e-01 -2.095644937784056291e-02 6.151812565070220035e-02 1.397436202730704957e-02 4.734089900772093795e-01 2.369524714624608452e-01 3.384806951607186032e-01 -9.685174471009644348e-02 9.644418611725502632e-01 4.641292722715450320e-02 -7.441902038303397152e-03 1.884925215274712296e-01 9.445273937694384503e-02 4.771311216901818336e-02 1.746145389178439811e-01 3.461816000031934237e-01 2.753592422446546339e-02 2.444120675423926692e-01 2.313205522943184017e-02 2.027245262347009969e-01 9.322620132018047401e-02 5.360805740502652683e-02 8.965068385295739406e-02 4.877860167426950611e-01
-6.857137731585947193e-01 -1.040373500857868505e-01 7.879481593320956934e-02 -5.309154945658388358e-03 -1.345461842352514148e-01 3.288698849826324905e-02 2.333314204471472197e-01 2.478850837132618584e-02 -1.261136298793662236e-02 -1.075972088165336293e+00 -6.653557483416282226e-02 -1.333319900481508002e-01 -2.140129681099702808e+00 1.530873657588252557e-01 5.562253947623550451e-03 -8.681790457506204373e-01 2.109472743852896792e-01 -4.503250102582514458e-01 -1.466254066564539604e-01 -6.269662765190879561e-02 1.675242352792035705e-01 -1.211434643939790279e+00 -9.980044650218473645e-01 -5.951664814188862840e-01 -1.011185902341459553e+00 8.174423425143341471e-02 5.108220489091155198e-02 7.746007469255691835e-02 -2.413151020671772395e-01 1.717353742070901537e-02 1.648772205919824332e-03 -1.162137538029330286e-01 1.293610745184373481e-02 5.495539749199639112e-02 2.022902111247580972e-02 -3.751301546133472553e-01 -6.702410974896129414e-02 -4.705009798319876313e-01 -6.737731062070478373e-03 1.920991190651884506e-01 -4.105213546950740588e-01 -3.252583949132922814e-01 -1.192198044961130021e+00 -8.401410781322751764e-02 -2.608058906136030350e-02 1.177867584297437181e-01 -5.036760028188876914e-01 1.159346117317421043e-01 4.688871015390084357e-02 7.370713333695892711e-02 4.304791315564908405e-02 -1.661747686433437399e-01 -2.734412889168004179e-01 -5.155749016464924450e-01 -5.205223564933557645e-01 -7.604075384740745236e-02 3.775812191138655516e-02 1.234407609271536144e-01 2.109089600265881201e-02 2.363376008582724480e-02 -1.101299777337065411e+00 -3.262405066279097654e-02 -2.309305540972618420e+00 2.752911243071023972e-01 -2.598340615392272790e-01 -4.793916397843440147e-01 2.623526610384908572e-02 -2.647649816625992636e-01 -1.107953454923805259e+00 3.617242133561843903e-02 5.374868381796025357e-02 -2.893831068847385168e+00 -6.169968637579102966e-01 -2.308667650720496400e+00 2.038767076210067433e-02 -1.440716723136193644e-01 -6.819684913736277776e-02 2.255079806427039493e-02 -6.667931641276392263e-01 -4.245729657647790312e+00
