4.712935337556446030e-02 -5.435037647245160447e-02 2.066092891069773105e-02 6.751464500978970884e-02 -6.406097154177604891e-02 2.395234344146124350e-02 -8.145300072723757855e-04 -9.833727260344231336e-02 -7.191107823692560741e-02 -6.572176885264893395e-03 2.939600520031226613e-02 7.376247734995285132e-02 7.691283711151512825e-02 -5.815640844253178177e-02 -2.418297196903175170e-02 1.990043496200923773e-02
-5.645284476408482521e-02 5.842177622950806698e-02 -1.374877532757727734e-02 -5.221990488377829809e-02 5.814597176560013653e-02 -5.113134007313854812e-02 1.519194862583654951e-02 1.170551798333084453e-01 5.781977460609410285e-02 -9.638214287875726278e-04 -3.838478732982995856e-02 -9.341525542213383049e-02 -9.592503297486830449e-02 6.160935939109826731e-02 -3.328553445220620507e-03 -3.077849028566582643e-02
7.337787901680429235e-03 -1.070368383142076586e-02 3.685125451009516745e-02 9.366215487346117585e-02 9.516505291738974748e-03 -5.181247631351423855e-02 1.129900524140485113e-01 2.945584194476203940e-02 -4.746581743561437139e-02 3.999763711471807093e-02 -3.258139512246323310e-02 -1.618128845206003724e-02 5.475404416400116332e-03 1.258567041786617068e-03 -5.796977248496556351e-02 2.062038541913581782e-02
2.902157522205744272e-02 -1.069869050182730916e-02 -5.289665131202932885e-02 1.539613527075834806e-02 3.907532778937126972e-02 1.922633069057015989e-02 2.184662214785842646e-02 3.009016342790022530e-02 -1.118755383818190001e-02 2.590875453938747824e-02 4.491699649486362994e-02 -3.563865577575455607e-02 5.562083145826021008e-02 -3.427630016231607984e-02 7.290526517850631771e-02 1.931618588276244608e-02
-1.369765019983497714e-02 4.393345873215011299e-02 5.420817111557636736e-02 -5.002835166953215063e-02 5.728511403798267759e-03 2.502127109906925051e-02 -5.615663700905280942e-02 -2.589134398547643552e-03 5.509408538591975546e-02 -1.222640759717597697e-02 -1.343333953941193253e-02 4.586158326998890367e-02 -4.069943861972379756e-02 4.769156180039411941e-02 -6.625863353679354098e-03 -9.382128702720917909e-03
1.521509534588345695e-02 -2.059779584320873061e-02 2.312830248269736461e-02 -1.115815275143630485e-02 -1.991342037192617848e-02 8.181422327749475476e-02 -6.246493010119334027e-02 -2.026720951654791339e-02 -3.890054572945669115e-02 -4.797705031875346832e-02 9.753729027123552581e-03 5.661724489315977937e-02 5.218722266937775300e-02 -3.820424598126547747e-04 5.172710470590986126e-02 2.318563932223461493e-02
-1.481158815673857577e-02 -4.494573419600453312e-02 9.365512504341534650e-02 5.461912833664851752e-02 -1.450975527377200425e-02 3.725949647836047235e-02 1.841550901177258295e-02 2.866431452951367226e-02 -9.483477036954214567e-02 -4.826896519362952609e-02 -7.557233109980111829e-02 2.335437831678760165e-02 1.095544713753522983e-02 3.782657048929830707e-02 -1.698372579036163191e-02 3.564711689374257947e-02
3.030778656140325697e-02 4.329120740854676408e-02 -9.507315559983760267e-02 -2.918708957994875508e-02 1.263899880583576512e-03 -7.666020463864413326e-02 2.971625216901769423e-02 -6.020363901680973046e-02 1.091244327404629899e-01 8.708728602404836039e-02 9.683704668964324136e-02 -1.265481546561465602e-02 -1.357873604321052988e-02 -4.487649698610404053e-02 -1.427508692820139008e-02 -3.863695582790013794e-02
-4.383216879143767876e-03 5.706891964588800721e-03 2.368310527151462272e-02 -8.726624774676603130e-04 3.000999025214354243e-02 3.785462593376418688e-02 -2.840458500772231540e-03 4.935614658330714916e-02 -2.517789375859999686e-04 -1.544339403163413373e-02 -1.629501490782593251e-02 7.620572722773479783e-05 1.446572353809412806e-02 2.159974294910485190e-02 3.236275492748409699e-02 1.716764973287311646e-02
2.264250903226534568e-03 5.480339760382983705e-02 -4.031244987144585318e-02 -3.446451844141079635e-02 5.879534918528839423e-03 -1.632464383482581938e-02 -2.681063142055386053e-02 -9.968484961555690652e-03 9.567858941625125013e-02 2.393127595015214978e-02 4.983986468751798460e-02 1.627189957814813293e-02 -2.306949780641029749e-02 7.219447260836698091e-03 3.906542219235179317e-03 -1.895397096492566075e-02
