1.146726964129061825e-02 7.345882562062871698e-03 1.272230873229792530e-02 -1.393631080199400803e-02 -1.967236080506740148e-02 1.517152248443085980e-02 -2.486961349457324829e-03 1.530891701282807021e-02 1.825482088137937026e-02 3.747728637764252690e-02 -6.468305530177943579e-04 -2.849474292223185597e-03 2.306098831730049592e-02 5.243503369179312867e-02 -1.394006529839368061e-04 3.917390478951380400e-02
2.471318389515047773e-02 -5.325063510881012513e-02 1.093199205814700953e-02 7.567282634640039307e-02 1.252192394054996334e-02 1.777647662716617602e-02 3.787199915301083658e-02 1.136442213290163664e-02 -3.099747759374035360e-03 -1.398223933289141976e-02 2.135096760273207800e-02 -1.146143423136018052e-02 3.517086160182177068e-02 5.071872319938249343e-03 4.490234869685979374e-02 -4.406209956684199215e-03
-3.945028342513303039e-03 9.957821668374011725e-02 6.189874525759034296e-02 -2.605515677487412612e-02 6.737604974353775256e-02 -1.872219068445162699e-02 3.147511313598017751e-02 1.757195518222754577e-02 1.164203220500591510e-02 -1.912908701817322282e-02 -8.402016741474864795e-05 5.792723071913245120e-02 -3.150589060780184525e-02 -3.982640620625073347e-02 3.120133014383421124e-02 -6.671994285845456131e-04
-4.673538040394965148e-02 1.031554026945988717e-01 1.405548747277116962e-02 -4.335993071114945668e-02 4.233902258865437874e-04 3.073973268648149890e-02 -4.055417320826088315e-03 -1.228787999082812422e-02 4.496494460053782755e-02 4.643738941232555123e-02 3.059593396562466233e-02 2.546519483773497169e-02 2.265658073912495823e-02 1.913392174258624762e-02 -4.337908184210758321e-03 3.036772896264032864e-02
1.810163273992106137e-02 -2.240119516539035988e-02 -2.623368180509981495e-02 4.944088781068319005e-02 3.012038989104895079e-02 2.596605594030462413e-02 2.408855198420397151e-02 2.151570446111932770e-03 7.100985039222662207e-03 2.780632795162522528e-02 4.900022936435223520e-02 1.774584757655864320e-02 3.393534859959659606e-03 -1.826084322676560512e-02 9.493991673502639311e-03 -1.797585710373489701e-02
5.456150861500853877e-02 3.199783509777932855e-02 1.797698723843618729e-02 -2.441303230260802662e-02 5.314422356320845642e-02 -1.915398322162528005e-02 5.727792842326633570e-03 7.128586914157711285e-02 5.333065740771014522e-03 5.484485183391923056e-03 -2.248181956657307676e-02 6.455544529976640911e-02 -5.424038282164596325e-02 2.137096930342753665e-02 -1.655125652667631397e-02 2.930494659034622515e-02
-5.916348687601365175e-02 6.039448217000774333e-02 -2.151307206833524485e-02 -1.845127276014380414e-03 -1.824401818200313205e-02 4.554070062356935233e-02 9.170129376556116971e-03 -5.179737599091168571e-02 3.632652556165853058e-02 5.047145411943596699e-02 6.231753667082189085e-02 1.314199733208150280e-04 4.411870721519049743e-02 -4.542426735432586807e-03 3.709117707797354203e-03 -9.220976357161750347e-03
3.629093806507828306e-03 1.867171969186296604e-02 -4.531447832446005436e-02 7.959356286132097946e-02 7.574944678560054101e-02 1.996539596900043234e-02 3.648105966580964671e-02 1.713459370056471436e-03 1.579311017288636057e-02 1.586265527632604866e-02 8.039606086872295998e-02 4.459983016830094266e-02 -2.966725853798950555e-02 -6.449494368600702798e-02 1.048343539784656921e-02 -4.497334238558747810e-02
5.531286782747341091e-02 -1.240141838784222100e-01 1.422800696415981760e-02 1.059684884591481913e-01 -1.313121815532280155e-02 3.452131750647559338e-02 4.445044606914638069e-02 1.551389956246165998e-02 -5.998324178724921338e-03 -2.071084167790932309e-02 5.788214639165767915e-03 -4.166347633126225164e-02 7.115166548320432660e-02 2.834146758709070804e-02 5.767976240509009589e-02 7.598434695090848859e-03
-1.017485984652827594e-02 -3.118360092654915219e-02 7.186459885937137963e-04 1.887809681129335587e-02 -4.489140422236108374e-02 3.376740017884483774e-02 1.068369824969175180e-02 -2.157837880500242458e-02 1.716769490125436698e-02 3.997252532782420709e-02 3.166078391559013633e-02 -2.824356020115362589e-02 6.923371429650954090e-02 3.501584971054703260e-02 2.304856919136630267e-02 1.238183460099886481e-02
4.187909038779385335e-02 -5.761627822895677709e-02 2.137241381373150735e-03 1.512218979628822055e-02 -4.422637317130818924e-02 3.161564848109005288e-02 -3.523920984678510001e-03 2.987251846747099315e-02 7.958013576602546851e-03 3.227248634190598570e-02 -6.525205763083352650e-03 -2.464506134844386687e-02 5.150835949586398538e-02 8.705011794194711383e-02 1.006388146051909053e-03 4.621500505104543521e-02
2.673039438562968551e-02 3.758221650216064802e-02 7.568414491118906351e-02 -2.724202885339861019e-02 1.691262651792567809e-02 -4.195958766183884199e-03 1.455377835347324532e-02 5.270572489015679096e-02 1.059162413675312532e-02 -1.251231930157399586e-02 -4.354209918449580136e-02 2.598591008321217075e-02 9.009178203845400260e-03 5.210463346749992508e-02 2.881798447638726085e-02 5.725296097836578280e-02
2.220805699701409661e-02 4.536814407504151381e-02 8.960991765445147986e-03 -4.080433023440886015e-02 4.466454671970813105e-03 2.157340808522957912e-02 -1.532238318246578919e-02 4.440154793153638924e-02 3.758624502217765284e-02 6.119245726412055053e-02 2.338578999094791718e-03 3.711790246642188845e-02 4.851405302226155167e-03 7.545674796195535328e-02 -2.178883003682014971e-02 6.060534432878464384e-02
1.257646071861819211e-02 1.627166515865768534e-02 1.490884319157196290e-02 4.371705121247579373e-02 6.138724701465303468e-02 -8.073072708211330439e-03 3.688283598410881103e-02 6.171971759220927500e-03 3.015954926091600919e-03 -2.797398886600726067e-02 1.339656071057695672e-02 3.064673443282460094e-02 -1.871718667136185177e-02 -5.463823066955490748e-02 3.082590091510697614e-02 -2.553859653998979962e-02
5.525461065775597036e-02 -3.191880536394883783e-02 -3.211625571054936568e-02 9.173207604326443984e-03 1.768385386329933071e-02 -3.245907461303066083e-04 -1.207347498787728589e-02 5.177321066487885343e-02 2.329578043428224676e-03 3.230875585661949212e-02 1.095876038870215001e-02 3.610367219380523907e-02 -3.734985777537148249e-02 2.180284472542221366e-02 -2.889293231110234145e-02 1.510978863338176964e-02
5.623925936980933918e-04 4.217862085301412461e-02 7.219168207467656535e-03 -2.387381440384347617e-02 2.403568504022602151e-02 4.084876447401903157e-03 1.429285669350435946e-03 1.489676890995351131e-02 2.323779073618686963e-02 2.532714283333932156e-02 6.635876877000419088e-03 3.250164598919064174e-02 -1.551961035766903120e-02 3.653804735130511232e-03 -1.118212080866711963e-02 1.767612218718317418e-02
