2.739504440528833795e-02 -1.508923096439479250e-01 2.712087015513865371e-02 -4.720087151134027409e-02 -2.462423748472813978e-02 -4.024316914672443346e-02 3.645090515396698372e-02 1.349135774237754035e-02 -4.673341223737194350e-02 4.687508543194621874e-02 5.871258464692317991e-02 5.494247499950151437e-02 6.114354679359210870e-02 9.363752934553446275e-03 7.235215452636510614e-02 5.025803956273427325e-02
6.304733913856347231e-03 1.255165917264713660e-01 -6.461634507522220905e-02 7.555371351047390771e-02 -4.317891434311417476e-03 5.262996350964120607e-02 -3.089909780637910622e-02 -1.798239401543268862e-02 1.087011563033882244e-03 -5.439561905244449935e-02 -3.703280652071006679e-02 -3.882620592948276411e-02 -1.071490452621172845e-01 -2.761648130708254864e-02 -9.516399786530344018e-02 2.057345669734668772e-02
5.171839396690314228e-02 -1.666794441909016196e-03 2.420363832114882582e-02 6.076456056535977507e-02 4.344096018601774356e-02 -1.923188823391741228e-02 3.438259418214162366e-02 3.458324501863104666e-02 -5.733080897029369655e-02 -4.084860734783490183e-03 8.701990589964753858e-03 4.409839170880218429e-02 -3.209357533888398950e-02 6.939051634218401654e-03 -4.150127048881515485e-02 9.559503867145227596e-02
2.511047429139778159e-02 -3.440163613022682865e-02 -1.223245983842457738e-02 5.999936029301160961e-02 -5.993513247989578491e-02 5.323512259965897803e-02 -1.663747776721133040e-02 -4.037982689380420487e-02 1.984201313728188240e-02 5.369133377264639212e-02 3.363702992266509595e-02 3.370429185586200360e-02 -2.144686870316389951e-02 -2.526329273496560196e-02 2.726255136018012129e-02 4.969847550422080290e-02
-3.440535399641290321e-02 6.978308177406104817e-02 4.222502525981339239e-02 -5.147039560650769341e-02 6.859750872511934106e-02 -4.355886399674541859e-02 5.781253855503968100e-03 1.160733976852918424e-02 4.318275628366408797e-02 -2.873828776067762977e-02 -5.677818411698869888e-02 -3.872509092295840782e-02 4.066284742532697699e-02 1.592005772062447463e-02 4.844290986780075414e-03 -8.383759405057474023e-02
1.461800245781706524e-02 -5.970793731994832043e-02 2.860131629427113686e-02 -1.103468612852613086e-02 -1.971267248047020582e-02 1.625968721872278304e-03 2.612478842188560753e-03 -2.201571641353364597e-02 2.701312116379393433e-02 4.905597330854997301e-02 2.564223658717326715e-02 1.547755418688108453e-02 3.911004997195729332e-02 -8.115597173328700786e-03 6.684278249941336125e-02 8.239418937703434087e-03
4.155183901747488279e-02 -1.717060059716311177e-02 8.611124041417712871e-02 3.221053896172400483e-04 1.000039017963532118e-01 -9.866871651567218904e-02 2.520478681007518387e-02 2.747258529578934863e-02 -1.858521716069053836e-02 -9.425459581538788226e-03 -4.437006624951916195e-02 4.519076467429061078e-03 3.184489733016944435e-02 -2.591041881321252613e-02 -9.960149423404857788e-03 2.649124774438462934e-02
-4.631188263778434483e-02 2.884763673294149511e-02 -7.381153112948335426e-02 -2.653223218119706017e-02 -6.244231618516368071e-02 9.167176349147253267e-02 4.939381641517340618e-03 3.897439614578306760e-02 1.916516959091438483e-03 -1.239512793684668761e-02 6.613519644581472567e-02 1.732712302056330653e-03 1.063562409138116283e-02 8.002605322336771299e-02 -4.867345744665212658e-03 -5.405122963675288578e-02
1.646839975323360211e-02 2.862098232436051728e-02 1.707703695729300905e-02 3.954129915154122599e-02 9.199429898581912290e-03 2.170212443098212124e-02 -2.700721591854602331e-03 -1.031018738476234022e-02 2.656767649634132408e-02 2.439578621244716666e-02 2.226082913509736493e-03 5.206425891416410073e-03 -8.460899891489357186e-03 -8.584099467102902781e-03 8.170052107985631418e-03 1.227723908606925991e-02
-4.141476521876108485e-02 5.747128574429114650e-02 -4.724369245176671464e-03 -4.450575009772636537e-02 -3.090881961411049480e-03 3.442862610058205347e-02 -5.297718549895229917e-03 4.362963663885010418e-03 4.806548502800069012e-02 -9.692663344407987172e-03 -1.446255986546138425e-03 -2.890680324725721298e-02 3.393105595837683786e-02 3.139353989840366899e-02 1.769252163736622155e-02 -7.573687773263593215e-02
