1.527698622940738653e-02 2.567964504503938636e-02 -1.846069209330340744e-02 -3.498247595772874252e-02 6.423779938667401046e-02 3.304300281503052411e-02 6.022612436880057235e-02 -5.048642574760074664e-02 -1.304627003200123370e-01 -2.574988813598956885e-02 -3.355723934148592547e-02 -9.176313182287525183e-02 4.451850190766128146e-02 1.055001408533048565e-02 6.764027811860027052e-04 5.189315023126647719e-02
-3.422975619181731211e-02 -5.157135078497833425e-02 -2.494243082343582628e-03 -7.401113661780058667e-03 -9.530007720797922799e-02 5.217783593377782470e-02 -8.923209116681356246e-02 4.392883604141598064e-02 1.827144721220704815e-01 1.087858746097314089e-01 5.800661870429082989e-02 5.023598110471866329e-02 -5.957690078100332659e-02 7.635397831055834583e-02 -1.485631589100408316e-02 -2.463896341748029323e-02
1.853782324690230188e-01 9.259297176920831818e-02 -1.044547675484658183e-01 4.706726583303037087e-02 6.785883204113593581e-02 8.133349070564672989e-02 8.416380662941427837e-02 4.695748662055476697e-02 1.198994423459649600e-01 6.538555947981071481e-02 9.601345026093315027e-02 5.667062940031420554e-02 1.984775946925224910e-01 1.017778622543537848e-01 4.919994439869031233e-02 -4.028069323837861482e-03
-6.921176382474497624e-03 -6.203465641712787443e-02 -1.242263887648394211e-01 -1.429146834956890322e-01 -1.458397081900654202e-01 -2.243974634869198848e-02 -1.046557327574900720e-01 1.093789327319295152e-02 -1.551012817743618599e-01 -5.702976824447661408e-03 -7.391048679387722531e-02 -8.154640019239288440e-02 -1.543464521564325564e-01 -5.157558950725156521e-02 -1.753868780652392129e-02 -8.956162145604404379e-02
-5.154718845474895797e-03 7.377165346263545032e-02 2.294852212434824179e-01 1.152418940306632611e-01 1.224477291901923670e-01 -6.355036471987969560e-02 -1.080209980964556317e-02 7.539157097045194600e-02 9.495441835890464088e-02 -9.302635208188332616e-02 1.968393499588981868e-03 8.034114773214652561e-02 9.217666067048797818e-02 8.259521575792135029e-03 9.012657210071813030e-02 2.652289552641230036e-02
-6.130478272324807465e-02 -4.607092651116213855e-02 4.347473005554707004e-02 -8.020161408314192830e-02 -3.752791355462721523e-02 5.486537184996173599e-02 -4.588020370125325126e-02 -8.443371628740366924e-03 -1.020856317071060643e-01 3.491255078947670676e-02 -3.612052216040181896e-02 -1.203529152971930943e-01 -8.729606527177849462e-02 1.945251828436677863e-02 -5.557593400070100307e-04 4.316798224857595206e-02
9.848465660285413842e-03 -4.372225013141347802e-03 -3.369023346154231824e-02 -1.324837977603219447e-02 -4.012399689825979499e-02 -4.498658754459274739e-02 -1.386567144954873043e-01 -1.049345892838363450e-02 -8.210967906858071541e-02 -1.445244446248339365e-01 -1.448201112133872849e-02 -8.945881638325747787e-02 2.968461666694710566e-02 -3.960164491786571234e-02 5.438123275439100957e-02 -6.443102837943748273e-02
4.705176412337257370e-03 4.125260872209794011e-02 -2.688963820789269307e-02 9.292805182309221701e-02 6.919591417949576273e-02 -5.499993028734760647e-02 2.230264302592709080e-01 -5.585576313555125350e-02 2.675276771067350290e-02 3.987483925813947033e-02 1.918442025467404898e-03 1.844622202427736724e-01 -2.330229318464508217e-02 -8.001177720062610521e-02 -7.504529997151554443e-02 2.322901142045308634e-02
-4.160894536141346300e-02 -1.803373597643290888e-02 5.482356902750293304e-02 5.572832926510695728e-02 1.770012158377409425e-02 6.943117675369421538e-02 9.514581390256937263e-03 -2.191511162298744736e-02 7.118065348003935200e-02 6.261647568023596955e-02 4.178072466301360061e-02 2.764423044284614397e-03 1.935738566784538095e-02 2.341206569281798627e-02 -1.549971509503339159e-02 7.413392808521376831e-02
-2.967920799583836228e-02 1.235221472209954881e-02 3.085613510836760984e-02 3.413131962637480643e-02 3.051793366436015426e-02 -4.728933794512658190e-02 5.947608009480752356e-02 3.848862836794409575e-03 1.899918290543973348e-02 1.168207401870937669e-02 3.777702203486518404e-03 5.486325701234444352e-02 -2.024597579245215537e-02 -2.773710116617833510e-02 -3.286585678220525775e-02 2.330322337337069338e-02
