-3.456871012600133534e-04 -2.700370356649364669e-03 -5.042740849560691310e-03 1.119943509263171370e-02 -7.294876547412619192e-03 -3.300841780579955053e-04 1.510512538862912590e-02 4.572337124376862211e-03 1.058279264686315217e-02 1.832616182921006703e-03 1.531662380746042114e-02 -1.003749912127476114e-02 -8.023331560227071196e-03 3.999846228349411906e-03 1.995293709413779436e-03 -9.627711460863134715e-03 -1.029631644829613439e-02 -1.156361833032273911e-02 3.896578808233415459e-03 7.172683663881234718e-03 1.676279775772619371e-02 -1.951521845224011989e-03 1.681923515494470819e-02 8.193774754419038547e-03 4.281823097439655008e-03 3.549140755523598652e-03 -1.837864778566448629e-02 -9.639417276138441057e-03 3.267635029130638163e-02 4.934038954494405355e-03 1.030981856538989820e-02 2.034116827581078629e-03 2.012644727144817514e-02 2.215271602858528716e-03 1.688902798760665361e-02 -1.044324919891282191e-02 1.207442371885095612e-03 -2.274542206190702590e-02 -6.923394007309305320e-03 1.734206822746590980e-03 4.666310201706875931e-03 -4.988471132405033516e-03 3.485503125543296804e-02 1.221087797977326835e-03 -3.014150709240527581e-03 2.585719597513768883e-02 1.033395891583457037e-02 8.511204648511695378e-03 -1.311523565165971170e-02 1.734134943981831961e-03 6.807593973111804482e-03 -5.735243400081993092e-05 2.319460685032767241e-03 -7.858153491683363828e-03 5.953689813631745167e-03 5.615822925248440713e-03 -5.532985598767380109e-03 1.620690690279574103e-02 -5.937795204611720848e-03 -1.650468632652999507e-02 -3.469700849583798753e-03 5.055880123869753440e-03 -6.248596812602874020e-04 -1.035038808801897435e-02 1.038903886667032206e-03 -3.316365388486027573e-03 -1.286651401878594232e-02 -2.732934896343577891e-02 -1.816821702941797192e-02 1.386575742549782560e-02 -7.755269939789174831e-03 -5.499184215742847041e-03 2.406149034922916777e-02 7.539062557323459972e-03 1.216521503497703955e-03 -7.198963264750199258e-03 3.719851587001196062e-03 -2.241522969919578639e-02 4.573564972594713006e-04 1.530852211355463073e-02 2.392053193038495493e-02 -6.190932478880615403e-03 1.616926297697975079e-02 -6.385675271258364240e-03 -1.114475412997834904e-02 -7.471186731887026998e-03 -7.412739920285367663e-03 -1.545785122856605139e-03 -1.052114840314421693e-02 -3.844618557369116306e-03 3.821121638938808351e-03 -7.985631319577825987e-03 8.837012561087070894e-03 -4.798751756340798665e-04 1.869500673435419563e-02 -7.993102470665657683e-03 5.393823871142205961e-03 3.638980864283713600e-03 -1.403213225851064790e-02 2.315064026297289010e-02 -1.341595245168893330e-03 3.552221333694100067e-03 1.189946814757251309e-02 -4.522832694220697489e-03 -1.300031533523688006e-03 -4.015895472597949718e-03 1.205502416543759343e-02 -1.711254665481982268e-02 -1.194795782596765781e-04 -6.390518710244719354e-03 1.555728035038846969e-03 -9.369120803954050780e-03 -1.733037866289601284e-02 1.464221091326635589e-02 -1.773611203167452591e-02 -1.219211700000800112e-02 -1.006809126838422407e-02 1.354443000408831052e-03 -6.403919625345312963e-03 1.203565457336413722e-02 2.188267376563277078e-02 1.201225624984323401e-03 1.611558138157957384e-02 -1.916665681594650547e-02 1.164920993267282677e-02 3.729088634381503686e-03 6.986454742480216647e-03 -1.655534993630392374e-02 -7.356171216921564802e-03 5.156542238992357224e-03 2.131671968474419497e-03 -9.837012814274900124e-03 -5.334742301614814677e-03 7.280410129285599767e-03 2.349137759249286545e-03 2.499672170451994885e-02 -1.682800854658252424e-02 -1.210629110736696247e-02 9.627983685753499889e-04 -2.972433728794902918e-03 -1.016642044675475885e-02 -1.161376605476393577e-02 -2.905989704528824918e-03 -1.389901868225002120e-03 -1.813113825998170434e-02 3.918418354892795608e-03 3.405216523528684894e-04 1.591812764390702906e-02 -2.071064288825695543e-02 -3.924526684234864310e-03 -4.198868510420175441e-03 -1.385795041087809452e-02 -2.491130949537068151e-03 -5.525819364350728798e-03 1.429714162872745787e-03 1.909618267763736957e-02 2.003434953481378691e-02 6.953623291492102947e-03 1.885900826130217382e-04 5.074999378253533706e-03 5.940784068784493895e-03 6.553658093452061593e-03 2.803204360988915608e-02 2.705153548996139592e-02 6.878338735337804870e-03 1.208076322013040653e-02 1.692304411044939999e-03 1.485980937659137427e-02 8.500845088211675740e-03 2.626780532707181752e-03 -1.105301244768738637e-02 5.933032158705550847e-03 5.035589686396966212e-03 -1.157740989429666134e-02 1.834688756664486177e-03 -5.278987192988350736e-03 -3.415654652535794235e-03 -9.813442588817770929e-03 4.306052922636913367e-03 1.683473282414416072e-02 -4.477869267977310254e-03 6.637968478605951912e-03 1.543567405128459802e-02 1.473464298726165616e-03 2.186163926025397330e-02 7.491322692142333810e-04 -7.665598190930068660e-03 3.525967912626285384e-03 -9.557571252536097017e-03 -4.795547653280394021e-03 9.010105789473706051e-03 2.361351462484562527e-02 -1.121405244370066862e-02 7.471627310972370033e-03 -3.119566634124946829e-03 -1.110588405920705755e-02 -9.006398287244352097e-03 8.179667161467171071e-03 -1.119129133933489256e-02 1.463381473432126892e-02
2.952924062507147679e-04 -8.521381672655901646e-04 -5.575592629982754206e-03 -2.515500571458593061e-03 1.186602272256276867e-02 -9.829189113385063820e-03 2.389799120059676353e-03 -8.964400861205170518e-03 -3.124975642950292287e-03 8.036518526052619307e-03 1.044827713902964257e-02 3.347158778038430808e-03 -6.990975129262129613e-03 4.748014332481878021e-03 8.092175461594902988e-03 1.206072102536402419e-03 -6.185036199070297449e-04 -3.518944824109489396e-03 2.050072947418824822e-03 2.313364345017136000e-03 -8.488993560636200674e-04 2.958537961780515271e-03 1.487287515365784754e-02 -2.818866985173152859e-03 1.105768735576192346e-02 -4.331241935352367171e-03 -3.518444927738335719e-03 2.523848602284655285e-04 -5.058431948094546616e-04 3.634359761023546031e-03 -8.158102542241408434e-03 1.009344703730800062e-02 -8.300064931984200978e-03 -8.340787408788255530e-03 6.533980293507495214e-03 -5.752806871295253026e-03 5.942964052154397353e-03 1.659714823084899177e-02 -1.413896815604838431e-03 8.126896311825570346e-03 -1.644687250387069080e-03 4.266124309206404015e-03 1.454075537611982912e-03 -4.884233678872019341e-03 2.769088297541681242e-04 -3.799060445888708705e-03 -1.961789222750202639e-03 -1.011171933884596856e-02 -5.857341325446012437e-03 6.911416766276245668e-03 -6.456800418748528426e-03 6.907841842943923498e-03 1.289675279059322201e-03 4.581085003015060789e-03 4.859649323754604462e-03 -5.499870538276880119e-03 2.667454138956008684e-03 -5.224628301949417984e-03 3.280844652609038632e-03 -1.993122580051373636e-03 -6.745789628224079827e-03 6.275704641995128938e-03 5.372020153131189073e-04 -6.884288483397611562e-03 9.538941456131006663e-03 -1.562160717899593876e-03 7.527676850798358486e-03 7.508316092185582206e-03 -4.943300394737557175e-03 -1.533022285750593747e-03 -2.475697455822442952e-03 4.849372397647800335e-03 2.481693898717433466e-03 -1.195102874282660344e-03 7.427999737738574457e-03 -1.768003903411541344e-02 4.848169699454622089e-03 9.490311827067339501e-03 1.591389253728471218e-02 1.276862034040775369e-02 -1.226199833810118905e-02 -2.144727608831971735e-03 -6.455745596080027064e-03 -1.458800977873788568e-02 -8.283242204013647678e-03 -2.199817402204810000e-03 -6.698837963516254650e-03 1.153550283442012284e-02 1.925759181958503798e-03 -3.531630582960292464e-03 1.010391440063379727e-02 8.361134875714888726e-03 -2.349419722598774379e-03 -1.144318331762339200e-02 -7.035582479059057474e-03 -6.128039452176291257e-03 -5.944309135801742298e-03 -3.468144796011428475e-03 7.752113703205895569e-04 9.944676621467579605e-04 -9.151593750465203403e-03 -3.578273171620132906e-03 3.852252031790916274e-03 1.706907658125865826e-02 -1.293261962875272286e-02 -9.161693105117248506e-03 2.728795036222407457e-03 9.279419084479760549e-03 -4.642918733795510684e-03 4.663601996221482769e-03 -2.252915350993842363e-03 7.143563548307337377e-03 1.425652838274232836e-02 4.498929593764244622e-04 5.050819179419477334e-03 3.334874983349012285e-03 -5.554878508703673876e-03 -8.255647983146274099e-03 1.095142462459568200e-02 -5.593311634339953077e-03 8.174870075996635080e-03 -4.935920630554081062e-03 2.494918600341899939e-03 7.031262831179990215e-03 -3.225500604762434210e-03 7.733259822815318624e-03 2.472454871669551441e-03 1.023142791170768631e-02 -2.016821123036314882e-03 4.082952982328822713e-04 7.906183202903293780e-03 1.512841837738830304e-04 1.881323153542101192e-03 8.582644001950297946e-03 -8.274298896587825927e-03 -7.496218633066328331e-03 -7.943346818785245117e-04 -6.380500183033392149e-03 -7.078616174293197311e-03 -5.130249788627144411e-03 -2.388359597583142747e-03 -6.497398848908469277e-03 7.552507698203483714e-03 -1.627936240317129444e-03 8.320854270778542958e-04 -6.726769308645254818e-03 8.996433935146019726e-04 3.345619790007805464e-03 1.151894617434788722e-02 1.411604281978021992e-02 -7.628999775816988800e-03 2.768896424803372024e-03 5.940226702183257559e-03 -8.607936551649594120e-03 -6.415632313944283870e-03 4.704909889656772037e-04 -8.494655579219503785e-04 3.913928907115267128e-03 -1.693053557828154030e-03 -1.434429958427912424e-03 6.027089431260987222e-03 7.938169491183358004e-03 -9.620105382555574347e-03 -1.065758004063838832e-02 1.119923921220271346e-02 -2.782656233840094962e-03 -4.255464443924703889e-03 -9.524252018566719755e-03 8.159381574046373209e-03 -5.292422787271489938e-03 6.221667189429907693e-03 -1.283963307496774515e-03 -1.175299705093532697e-03 -1.933068027022428591e-03 1.277779972381310782e-02 6.060196305098312398e-03 -1.909797421828460804e-03 -3.914486290449619224e-03 9.447130634626766483e-04 -9.284169992509304012e-03 4.448278132947301559e-03 -1.651756589843939027e-02 -2.602023918832079615e-03 8.590315479353441766e-03 -4.623677860569267405e-03 -1.199941280586292770e-02 9.367507629092502661e-03 1.579406120933131083e-02 1.026110652924672705e-02 1.527885935357798904e-03 9.718341809542249340e-03 8.949271292188065371e-03 -1.741198104383978032e-03 5.061820809489849145e-03 -6.884471222118182000e-03 -1.075958840849201154e-03 -7.340224230259513073e-03 1.755256854488325977e-03 -2.798028379074586538e-03 -7.422199770373841959e-03
-1.326011769664427447e-03 -7.549768476017896482e-05 1.348739498274476728e-02 -1.259976214924518828e-03 9.796139421008789178e-04 -6.044919503640547830e-03 -9.464078705627675114e-03 4.369641964825536802e-03 8.623524802740995671e-03 -7.733443133526284215e-03 -1.506109972259797765e-02 -4.416385043097301871e-03 1.995082091997625595e-02 -8.794908481859426211e-03 -1.998622918063230284e-03 7.905239705003355710e-03 -1.474154855198259173e-02 3.682550392435849588e-03 -1.996679304567638372e-03 -1.105722772325567864e-02 1.462755884455909684e-02 1.031729065454866680e-02 1.928678974680460116e-03 -1.274518618193959396e-02 1.552522846181461896e-03 -1.594494790959953209e-02 -9.668255439533235060e-03 -5.880750520583658339e-03 -1.616275847903371476e-02 7.089783604740241933e-04 1.093702862053326334e-02 1.431006031021972609e-03 8.534917102178069329e-03 1.207929311695651441e-03 6.045396545058434774e-03 -1.376040304133216950e-02 -1.211904610535365426e-02 1.172896760022455742e-02 2.819616376484616101e-03 -4.965863166927017396e-03 9.239041664944694712e-03 -9.942277966794496255e-03 -2.551230145546412847e-03 -5.002614769056616846e-03 1.350928801967622890e-02 -6.790082791625013173e-04 -1.114608742921653281e-02 -9.062012550814829009e-03 8.877270927337222242e-03 6.605997944157436866e-03 -2.896926442611239081e-03 1.848014794018838130e-04 6.308443240788275987e-03 1.492014805502990711e-02 1.159639560496006187e-02 4.179366083771976666e-03 1.309277894100279241e-02 -2.421007706739355166e-03 -1.400461476448783965e-02 -1.152588935533566464e-02 -5.320522443152727460e-04 -1.143780047039426664e-02 8.598867475782718400e-03 4.940614817547513485e-03 7.762662190578920735e-03 2.070879550591361515e-02 6.946900935767620286e-03 8.166013669620433499e-03 6.745580648119844404e-03 5.625202470155556134e-03 6.555196598112995876e-03 1.174010102881466698e-02 1.006307221425035547e-03 -1.224049271925736542e-03 1.181487744480014907e-03 -5.648507528978573278e-03 -9.484583067567659356e-03 1.259850974809027628e-02 1.059473504355038995e-02 2.571707684536823826e-03 5.037250715025477256e-03 1.487120850911257709e-02 2.987813456514192088e-03 1.027686025786762143e-03 -2.832025593778466667e-03 1.012603286150831096e-02 1.442783917901755471e-03 6.358960253673173052e-03 -5.504831137071830409e-03 1.169117010361075265e-02 2.412463041000564856e-02 -5.188883945514490524e-03 -7.119052648733521609e-03 8.130684928074140977e-03 -1.558033999318916667e-02 -1.369882342144313533e-03 4.588418257729396342e-03 -9.229223465085093642e-03 -4.400131756554968247e-04 -1.823258284633828786e-03 4.121727841552098349e-03 -6.283461530712316709e-03 1.674304404035338589e-02 5.027574808989888899e-03 -8.629930549106809567e-03 -7.497408051014342600e-03 -1.243049765119608489e-03 1.866886431352697898e-02 4.046333722010312696e-03 -1.180060666950663410e-02 1.603964954089097741e-02 -5.125990973572031126e-04 -1.050668227104909966e-02 -1.588806636931822114e-02 2.148970903426911452e-02 -1.993700699088823882e-03 8.757797241567203197e-03 1.002269682637778325e-02 1.679904149251915460e-02 -2.284586997084768131e-02 -1.352808948847945836e-02 -7.744498992490649394e-04 5.815023367352008948e-03 9.223101786972302471e-03 1.586251238669185003e-03 5.969947748674404343e-03 3.459311414461597057e-03 -1.974110914505734435e-03 8.989164042995528153e-03 1.431373707310170697e-02 1.841931221737736889e-03 1.447518178738077879e-02 -1.417461845287521904e-03 -3.439150776898246883e-03 5.728012292470113440e-03 -1.280959072433209348e-02 1.335976390871320904e-02 1.052450536955580433e-02 4.480782182134573910e-03 -8.289885137608112714e-03 1.775355844000027147e-02 -1.441781307463917659e-02 -1.467830402296628478e-02 6.925790022217793822e-03 -2.689498939608149768e-03 -1.666877948092733430e-02 1.045738007913576528e-03 1.082843195774848069e-02 2.126410689219819170e-02 3.522723393021416584e-04 -8.243901998247654336e-03 9.360716957672094232e-03 -4.608299115882403228e-03 -1.656484410872145763e-02 -1.079669001899180407e-02 4.407187062076474947e-03 -1.424949266974938344e-02 -1.319873275026017204e-04 9.188230471396828178e-03 7.645476735110031882e-03 -6.639225633850480901e-04 -5.622874831254083723e-03 -4.482651565588902792e-03 6.124062548146154764e-03 -1.019595822785954349e-02 -7.509634141373787083e-03 -1.065019990435411802e-03 6.974498858592805342e-03 4.293195043621955524e-03 1.164384539010336790e-02 9.919728522087476602e-03 7.684530257548819257e-03 -1.038911116257930714e-02 1.118448878781142658e-02 1.146315538045777557e-02 1.646355414367483422e-02 1.591353824852731122e-02 1.398130114140115100e-02 5.997173674793487320e-03 -6.519713954955667391e-04 2.475509063819583114e-05 -1.496156134452187236e-03 6.387964868677077634e-03 1.096271151439001321e-02 -1.968657142345798389e-02 -9.965796614814800489e-03 5.785045585161087064e-03 -6.759631909698549448e-03 2.164297667597919056e-02 9.267480543741917626e-03 -7.900527776390412968e-03 -1.297577291167471055e-03 1.803848072329028787e-02 6.539996087901490084e-03 -1.003639354795700205e-02 1.632153151729089785e-02 -1.543045406480316253e-02 -4.792226005778737856e-03 9.324174496849123653e-03 -2.044975008214476933e-03
-2.292397649686468523e-03 8.063295564089308087e-03 -3.933516393188555248e-03 5.950400913675982749e-03 -1.750731190337665713e-03 1.757156353304246922e-03 -1.852169791496659093e-03 8.726278671193783351e-03 -6.859505781213344998e-03 -8.697831538714895228e-03 -1.011154738662482268e-02 8.639580580959834930e-03 5.447358614625991396e-04 -5.971727783193105446e-03 -4.444083759538359872e-03 1.285654022803975295e-03 1.703709941886262643e-03 -2.858087791673897919e-03 -8.211149834700909138e-04 -4.251160670987266105e-03 3.279115167097217988e-03 -8.252203387448144370e-03 -9.753587327843317792e-03 6.027621447568093198e-03 4.257006064654096124e-03 4.142618417781291154e-03 4.600469680553723878e-03 8.417346577213262460e-03 -1.287970580814446929e-03 -4.829345848504068735e-03 1.186407901919477471e-03 8.435994373757775208e-03 7.888623600112150067e-03 1.847659946031021997e-04 9.469226264645488542e-03 7.966282329974785220e-03 1.155488033680958067e-03 1.073425006616433560e-03 6.495621219012192096e-03 -7.370343685909448717e-03 4.799840051917084877e-03 -5.549509790898144498e-04 -2.002506632583173161e-03 -5.774212266855588763e-03 6.589060524471571957e-03 2.298545913556446132e-03 4.521904868431721701e-03 1.364692626820122314e-03 -1.319512306183759235e-03 9.379088820036275698e-03 3.325957588576055560e-03 -6.535465256224474648e-03 -9.323410088403264601e-03 -1.307963462444758146e-03 -2.871300502183931833e-03 -3.345550551383475856e-03 -2.362114961080966937e-04 -1.006048585139837463e-02 -2.891627427113423968e-03 -3.573937379166032893e-03 -8.195488365962141572e-03 -8.657181685546841204e-04 7.993668148275059546e-03 5.637435487733762768e-03 9.510309116563290047e-03 7.241384137462066051e-03 -6.490982491234216674e-03 -2.502355969631068090e-03 5.445995363242267344e-03 5.174104928515869777e-03 5.023273108733151797e-03 -2.575053072881710106e-03 3.478188066673350981e-03 -9.315625741846436615e-04 1.635722410889371616e-03 -9.233450250323918529e-03 7.786738399313077041e-03 5.312371395831443771e-03 8.012969656759462780e-04 -9.770334957468733081e-03 -1.684345458207070663e-03 -5.038906562849184909e-03 1.487717670551251190e-03 7.355854934068001109e-03 1.948195651863030356e-03 3.981931810602037936e-03 -2.201645312475301614e-03 -1.158272478828425165e-03 -6.851589540243334386e-04 1.362454128366611316e-03 -7.529576455537868342e-03 3.965798601847572193e-03 -6.159947081446534014e-05 -4.466291509546629554e-03 -1.126040118563485098e-02 4.058517198263680847e-03 7.481299560878262520e-04 5.166408848420569848e-03 -2.511501634257184718e-03 5.170695667672658155e-04 -8.835389886531496567e-03 -4.839482061269900597e-03 4.805630884777647820e-03 -9.574253837006148002e-03 -8.679059144397439571e-03 -3.215555952960262934e-03 -4.042861190728315110e-03 -6.075710188963647472e-03 7.396671815322721020e-05 9.627607956395865113e-03 -2.437513449342030582e-04 7.518533761410819798e-03 1.901380558128638399e-03 -4.758732788314403231e-03 -4.712479398141453286e-03 -1.237419343064265599e-03 -4.815523210449874913e-03 6.865244561276701712e-03 -8.379084160068940926e-03 -6.540327271254191277e-03 -2.126536854502513504e-03 -7.529305197759841514e-03 -3.780923914165947638e-03 1.537235685991578940e-03 2.814354830522042012e-03 4.057199617482823602e-03 -6.473643127954737363e-03 -1.121719031931443138e-03 5.439463330372365166e-03 1.818422695354001686e-03 -4.905794454019181405e-03 3.742517696304742490e-03 3.788126311623115066e-03 -3.638825833901225895e-03 -8.695871596150449301e-03 2.956308241030870983e-03 1.630263534730464674e-04 4.859289901818241754e-03 3.073278500912740140e-03 4.549796103313397816e-03 3.584894705264503843e-03 7.646234402592092493e-03 -1.040276403382784688e-02 6.031248211126253103e-03 9.832681503994189498e-03 -9.749885686711970076e-03 3.733865872217338126e-03 8.745144915017051546e-03 6.507700277988121181e-03 -6.502249990869179335e-04 -7.869553320160441179e-03 -2.869685166279834377e-03 9.496699183995820689e-04 -9.530886914825065226e-03 -9.494546335607194354e-03 -6.022955875697022683e-03 2.740509889890013154e-03 8.603165620996685789e-03 -6.903469483375267515e-03 -4.251040312147383662e-03 8.498194240027319782e-03 -8.164853347826857288e-03 -5.738890369123080155e-04 -6.982099318826542715e-03 -3.518472283415271639e-03 3.177967331241099945e-03 5.608236312449846328e-03 6.828624569353936111e-04 9.317097901759080480e-03 -6.452955944196116060e-03 3.387520649420128552e-03 -1.798603324701484414e-03 3.267806802314538860e-04 -2.070274110955209416e-03 -3.241675388496678255e-03 5.229634229683139193e-03 -2.875152140263447301e-04 -6.262273227480183620e-03 1.539639381903197849e-03 -2.297684010369076182e-03 4.888036866959363791e-03 -4.342742075428012057e-03 4.027461519826159089e-03 2.457596430737069536e-03 -7.744295253687756564e-03 -5.791144226574666820e-04 -9.684841118864308609e-03 2.979870521962425887e-03 -1.002217245437123962e-02 -8.285037152451069434e-03 -7.055754383943181954e-03 5.191341585573463775e-04 -7.437306937315757427e-03 4.864855027298710562e-03 4.899919000725763175e-03 -2.637592149370445067e-03 -1.368504854315188458e-03 9.564736603449169872e-03 -2.557538150964121237e-03 7.017419982372045256e-03
-1.040435476495583239e-02 -1.709781476274247619e-02 7.788524103403788798e-03 3.449205992334319210e-03 -7.702313203882813972e-03 7.652053340654214712e-03 -9.847890965217783940e-03 -2.993941631131965663e-03 -7.334210513980059763e-03 -4.664330132450132844e-03 4.037557571040647705e-03 2.288187900201629939e-03 6.334002979347422638e-03 -3.133883795765086706e-03 -8.439118033757861750e-03 -2.224105436558560227e-03 6.276673638985310819e-03 -3.352357694084753901e-03 -7.948713546875551400e-03 -3.822449452851340093e-03 2.488049104771606745e-03 -1.097793314963036587e-02 -6.838900708947405309e-03 1.227030784848222268e-03 1.123701828843444439e-02 3.813087241659734918e-03 -6.341591737986095566e-03 6.152764199553154185e-03 4.010465680767890360e-03 3.315899478057647912e-03 -1.175590912609740177e-03 -1.127840592847550658e-02 6.185344497157842410e-03 -2.216249693637655990e-03 1.756825526206611974e-03 1.843519975507962316e-02 1.518566132437389367e-02 7.743307393435534640e-03 -4.459625299222945947e-03 -1.509888267591509526e-03 2.128527160980687397e-03 3.502374047698016482e-03 -1.996492096941129921e-03 -1.109702659486452164e-03 -5.342659831402028422e-03 -2.443782559898326733e-03 -4.309070839019488348e-03 4.869562464325819136e-03 1.509280939195611470e-03 5.835081600383492696e-04 -1.589252531003229000e-03 5.271597586209294910e-03 -1.127103087094913358e-02 -1.818496398981802632e-03 2.626312332174038713e-03 5.275406910068433652e-03 7.239225903337335663e-03 2.366246651701106075e-03 7.393304576188225452e-03 -5.667933684472909774e-03 4.409465904975741479e-03 -3.766629956752263423e-03 7.247892995806078684e-05 -7.702121218383864844e-05 -1.904810926072777978e-03 -8.183081599432423872e-03 7.227374062640358129e-03 1.111365958242228544e-02 -5.015660469039666608e-04 -7.425717863807412833e-03 -2.086904720514688814e-03 -4.856693609660331476e-04 -1.836922879041479094e-03 1.317834792122054731e-03 -1.440874505409997031e-03 1.518682961785730590e-02 -9.433869986845823483e-04 -2.777549350672298741e-03 3.928019977640592221e-03 7.761537675024222059e-03 5.310048048858612840e-03 7.038543848434457642e-03 5.802677637260035331e-04 1.525589325057421716e-02 6.480068080001902091e-03 7.015048216752261395e-03 4.290092943025522812e-03 -4.937640692430079505e-03 3.141313753900919952e-04 1.760831981555086023e-02 1.604122838527481860e-04 5.294834538891112288e-03 1.702545039155051567e-03 -2.719075069453221871e-03 1.141121232175700169e-02 7.169226575829207131e-03 -6.872495783834064662e-03 7.202263823945479100e-03 1.028315310873462347e-02 -1.533991104508944728e-02 5.359660280635435495e-03 7.696914040821661168e-03 -5.767706288774620367e-04 -1.365977247387834166e-03 1.088914263040570429e-02 -8.234662830666634667e-03 6.122143417681710428e-03 3.656686089506460893e-05 -9.031400749905176342e-03 8.169101375024561545e-03 -1.610786927684852233e-03 6.800795343227999945e-03 3.491924402490003548e-04 -1.562138771656385906e-02 1.451218518500127855e-02 5.105110905818370341e-03 1.171792536468451579e-02 8.641386718432239947e-03 2.293719358119838524e-03 -7.961161385616628491e-03 -1.627595888949977395e-05 1.049771909304104620e-02 1.096502229768237273e-03 -2.160176348761624378e-03 6.157335623331570279e-03 -9.416711463675038821e-03 -6.961877983445364203e-03 6.893800207233512743e-03 -5.624421290667661923e-03 -5.435995736179310110e-03 7.285344678749770819e-03 4.176017951382495104e-03 -4.241011002427854185e-03 8.244189092601833177e-03 2.687212804366896461e-03 -2.473146630800462931e-03 9.456910833278691503e-03 5.170563775107530659e-03 6.702468152867768411e-03 9.112938967078263938e-03 -3.217726424292014029e-03 -2.170646719800613245e-03 1.212522538639167549e-02 1.278303825371226825e-02 7.334030514322472695e-03 -1.236309846266544360e-02 -1.270780477665403238e-02 9.565687567789199139e-03 7.600682201487513404e-03 6.861750564714077377e-03 7.467357024507010992e-03 8.304125870794730468e-03 -1.856411285509388081e-04 3.982877068886808702e-03 6.537418867785618239e-03 -1.779463400543939821e-03 1.030503861504245174e-02 7.831288155199393752e-03 -5.731365039334761343e-04 6.466015012884290293e-03 7.081004693526442989e-03 -6.516339603581466173e-04 -2.425218659459636619e-04 -3.962458941780031864e-03 -8.902327066016126403e-03 1.807850897130777441e-04 1.336533898035128370e-02 1.107548777300836930e-02 6.936277134166381371e-03 -4.232394071721388810e-03 -1.857151149351351409e-03 2.655528475144494811e-03 2.737866057488261371e-03 -2.420874502679955329e-03 1.069964943738693167e-03 2.377475977440691307e-03 -5.580257554855889458e-03 -7.246554237819198031e-03 -1.675600975698077633e-03 4.560135124182705668e-03 5.086959780031843209e-03 1.599738139118222352e-02 2.126990120400496041e-03 -8.556422031291220642e-03 1.045386393931137248e-02 6.056925412114492167e-03 4.308210925768444360e-03 -6.176923873901356624e-03 -6.326556777233764868e-03 -7.873656146133486966e-03 -9.407051174623662360e-03 -4.372569770883625792e-03 7.907023326090705656e-03 -3.358014583309375072e-03 -1.196667390147606799e-02 1.316290356080118858e-02 -4.475125869671649735e-03 -5.548390056242168307e-03 -8.203578077408103797e-03 -6.386774970201932258e-03
9.913384364487087125e-03 8.205802134995887620e-03 -4.941118065718760714e-03 1.740164970164627053e-02 -5.779120889719865060e-03 -1.151310896976275901e-02 2.976515840104822404e-03 1.795111663583177572e-02 -2.022918533517434740e-05 9.066968105259679781e-04 -8.773665294606734777e-03 -4.546689527449233187e-03 1.022143099454466894e-03 5.572454306416944891e-03 8.376716085396668232e-03 8.470783745297761399e-04 -1.003759927480105466e-02 -5.697960324553966779e-04 -3.079908017132856890e-03 1.247317583778069852e-02 1.114208759850929438e-02 2.687254389806115890e-02 2.594673240846279583e-03 -5.438828698945091626e-03 -6.975653154897975584e-03 -9.006809778113205114e-03 5.152886777769354748e-03 1.104357664145358062e-02 -2.511107041811845922e-03 7.271600002820338606e-04 -7.980197309875494693e-03 1.065202369599591546e-02 6.314125643917800450e-03 2.831062715871590380e-03 9.557910077766808808e-04 -8.313389649037135039e-05 -1.687579251432880234e-02 6.366402355987335268e-03 -4.909580547837722429e-03 -3.216810283548779143e-03 -1.760371989423852035e-02 -2.238925814417630240e-03 1.868914560288796644e-03 -1.269967486052532395e-02 5.461790950384736408e-03 2.689471133111805135e-02 -6.558480216436908268e-06 -2.106105195475547684e-03 -9.810380955972076295e-03 -1.189848006612991943e-04 -1.901995502584117800e-02 1.062083633614358501e-02 1.039432912697108545e-02 -1.333478285370535282e-03 1.154098322162511528e-02 7.215707148292382737e-04 1.193151519373045373e-02 -8.676709576963559725e-03 -9.201289392231665198e-03 2.701208573553071871e-03 -1.131702303995866209e-02 -8.713897910396993214e-04 -2.228061763160088873e-03 1.208663326308372608e-02 9.974738878876872675e-03 6.397612699337726187e-03 -6.791319409382816363e-03 2.258899300246904572e-03 1.332707188168844471e-03 6.719301124715830985e-03 1.126321251128812283e-02 1.678345066703621716e-03 -9.340682592454305558e-03 2.106662858232314153e-02 -1.784613868530985498e-02 2.046941360836647059e-03 3.474993679144982878e-03 1.530875972670993172e-02 -9.153377844359022672e-03 6.999414184101813464e-03 2.367349896840437867e-02 1.336098093225809857e-02 2.102995031861883655e-03 3.532272600741624777e-03 -6.544116093379072699e-03 4.064888360308597202e-03 -1.557710948298614805e-02 4.838416901755300537e-03 4.571266479421506879e-03 1.762743011417183120e-02 9.253060918613045457e-03 -5.025062497894358833e-03 2.115106779111336488e-02 7.967594440385491680e-03 -1.090204425309453280e-02 3.691938580316815946e-04 -6.998154740028984626e-03 1.459912384732591113e-03 1.267910535494586044e-02 1.160930484260012420e-03 9.602806420704408999e-03 8.728473541665032753e-03 9.121258724772508862e-04 -5.859070985853850021e-03 2.522344216924347123e-03 -2.926344860823927325e-03 -1.252400275627712362e-02 2.031614865112939261e-02 9.437779725639824577e-03 -1.196210711850328838e-02 1.694146191590595318e-02 -8.800397526911768508e-04 4.914279172655836372e-03 1.009767698701741906e-02 -4.915640060373896621e-03 -8.035693540454573458e-03 -6.237027821382131604e-03 -1.494752332957727248e-02 2.143129814526728572e-02 -5.631754948637315503e-03 -1.000364529488585730e-02 -7.338450311468321455e-03 6.453252821599017586e-03 1.596319402253793820e-04 1.404959050770434800e-02 -5.304772604515848103e-03 -5.840212112633883998e-03 5.470676312579174187e-03 1.258681722931399502e-02 -1.627222864144047768e-03 -5.878171827159365051e-03 -4.603695874484341373e-03 4.824713303499842017e-03 8.931778794507769931e-03 9.122773317968263518e-03 1.548511408888460401e-02 -1.273000150602135623e-02 7.950516993754157226e-04 -1.755927518468521423e-02 1.283550418368851684e-02 -6.513955625174635243e-04 8.276790256363322079e-03 -1.470066458939966667e-02 3.374098689338749998e-03 8.632376038547833960e-03 2.017019366918890860e-02 1.375340672041829373e-02 1.545763756161945730e-02 -1.533589025510289109e-03 -9.470908108046790369e-03 1.237036859328657229e-02 -3.100851727993500073e-03 -1.287073300604618664e-02 2.764547677775792967e-03 1.181281608880123575e-02 1.899881058792303803e-02 5.381832952289456080e-03 8.104877061967675697e-03 -8.646797231118203905e-03 1.389302209611527512e-02 -2.535777078402357432e-03 -3.200626620607160966e-03 6.505208957178015838e-03 7.488221008187148642e-03 1.421900033677995188e-02 1.068366367222876954e-03 8.165990998933557107e-03 5.504531709558990781e-04 -5.715891854965180104e-03 -9.370854297660324850e-03 1.401897879953172173e-02 -3.267279416203347497e-03 -3.942057763825432271e-03 7.195499968942942106e-04 3.815052030051089855e-03 -9.277572495180417059e-03 1.199672138187712032e-02 1.207344815814685723e-02 1.636512193301645560e-02 -1.453364801432473034e-02 5.975170166290833668e-03 6.717284254394751374e-03 6.209951567638979236e-03 -8.353204687473740619e-03 -6.451752550441180317e-03 -2.912808165447045624e-04 -8.554833958034082156e-03 -1.663491613165382632e-02 1.546258454873202480e-03 -1.399412102436018920e-02 -7.557975177121842997e-03 -7.272203758612504065e-03 -5.967017566941618459e-03 8.650149426702031770e-04 -1.332626476708169416e-02 -3.214701913399407689e-03 -4.753178465064286824e-03 3.948300811863651033e-03 8.956263652029582134e-03 1.277864125218129872e-02
9.445650565736799301e-03 -6.488903825634448688e-03 -2.518969867729571599e-03 -1.225236096066418048e-02 6.571196764907803398e-03 -1.306870821328668351e-02 -1.385324494726806674e-02 -6.572196231760800422e-03 6.669686542046381061e-03 1.828338375970065335e-02 3.920351643375436998e-03 -1.090190687280946820e-02 2.203166379237330233e-02 1.026139530225864821e-02 1.345446374791719156e-02 2.472814354086921504e-02 2.430825599203352474e-03 -2.122155922538265533e-03 9.571408415760583946e-03 -1.677175937524388351e-03 8.639930452236656636e-03 -4.534507579798323731e-04 1.308796275470814306e-02 -1.708026335514625793e-02 2.101126836414618851e-02 -1.033267130343487258e-02 4.003741264551412792e-03 -4.908376604544868911e-03 -2.159749882235225890e-02 7.398772052645930658e-03 2.690096086978592191e-03 -1.581259428581344162e-02 6.119856196061103891e-03 1.082075373429515659e-02 -9.071912328608257910e-04 -8.942028482245855531e-03 1.074826683714251614e-02 2.411611475406165092e-02 -4.441748553354786175e-03 -1.507750211461490655e-03 7.816566031045329987e-03 4.694729860590902493e-04 4.839326488262718040e-05 5.398168927363558404e-03 1.117364019175369830e-02 -7.219859053925605646e-03 -1.008395247175699998e-02 -3.573571981251383745e-03 1.192343005695228799e-03 -7.097707917222274669e-03 9.476761131871446050e-04 -1.085861911488605891e-02 7.423194372267490418e-03 1.552911519325589525e-02 1.397132605769231583e-03 9.187135916611164493e-03 9.366053471318030663e-03 -1.479277766450111560e-02 2.379073349443056300e-03 7.218879957454800433e-03 -1.136726369049810906e-02 -6.646045370848767224e-03 -2.131311748778473569e-03 5.274557902342384870e-03 9.674893035446285178e-03 1.675293369030247947e-02 8.052875682421120618e-03 1.497860871515597700e-02 1.203191433990935359e-02 2.536578479536133815e-02 -5.337588716073525877e-03 -6.843965901276640590e-03 2.487007619672390937e-02 -1.914620051117257686e-03 1.442646507875947406e-02 2.622077221147561202e-03 -1.130949814686905280e-02 4.775421968567827684e-03 2.581079877520004243e-02 -1.146061123594830202e-03 -1.493537866669353807e-02 2.370286568672641189e-02 -2.666406238579508651e-03 -2.409894715131913334e-02 1.707089435633337565e-02 -6.299167648336493263e-04 1.935087171709088619e-03 1.393873901935923157e-02 -1.083236910298295344e-02 1.270325212014274119e-02 1.383999409411024520e-02 -6.672211193037912852e-03 -1.511849660944559331e-02 -5.285131920585425802e-03 -6.527886721165663750e-03 -3.008139815414142626e-04 -2.861359158236739201e-03 -5.727602113437063602e-03 5.856199340981810796e-06 -1.054745750870799553e-02 3.873878395839131742e-03 -6.778912758030453296e-03 1.607704533885618431e-02 2.424648557561816589e-02 -1.743638151466225805e-02 -1.143236701482005027e-02 3.039236780154721054e-03 2.660488353890191546e-02 -8.264436416949245967e-03 8.088046120367021682e-03 4.488669399555181294e-03 5.665987611977817313e-03 -2.912999013331229667e-03 -1.255583785700692054e-02 4.461865928397922530e-03 1.223174868785971816e-03 2.462483014917060762e-03 1.308067678763826826e-02 2.061353036290272320e-02 -1.635934447143733150e-02 -2.051969142886385031e-02 5.934231826411100891e-03 5.668809505011734168e-03 -1.103174548308700044e-03 3.205212372658985086e-03 -3.402754315367888076e-03 -6.969162976975875300e-03 -2.066899013204708674e-03 1.559355086172116217e-03 1.083308758702580116e-02 1.312790125601854402e-02 4.939878000317838615e-03 6.694893412526293445e-04 1.538010780818582258e-02 4.171618237835020976e-03 -1.744611655360368829e-02 8.500593263849998138e-03 -5.693056149657067279e-03 1.543708907113742340e-02 -4.899107067115725071e-03 1.014579059712812301e-02 5.179698317665328011e-03 -2.629937924162774245e-03 2.101343282800988144e-02 5.544544851989674332e-03 -2.500693930052342445e-03 -9.409565164716570188e-03 -8.444942117818429045e-03 2.244097916132021739e-02 1.969098698863842867e-02 -1.117678424859217673e-02 1.392259632170835502e-02 -7.683833829060448053e-03 -2.046318148332186213e-02 -1.622517269890725797e-02 -9.864685063444624327e-03 -8.764657785327137005e-03 -1.480750450019525629e-03 1.425624707742273976e-02 -7.193636965166293890e-03 3.428109326766043408e-03 1.092483233864306041e-02 -6.718230366621122515e-04 -1.305045892361429878e-02 1.184932783061526385e-02 -1.508542204694857287e-03 -1.041014752038196996e-02 -1.941293260894489140e-03 1.668663068283273918e-02 6.543150365869097353e-03 3.373026525422978018e-03 5.765985313751690808e-03 -1.399735168938356228e-02 2.290726367859376514e-03 -2.552458725373222929e-03 2.071881738331321152e-02 -6.633584080241469380e-03 1.873070764856685916e-02 -1.271288404340083092e-03 2.127854207429833583e-02 1.748997840240497099e-04 6.742429580943529698e-03 1.058276848259615335e-02 8.301436959694076523e-03 -1.728416461805486887e-02 -9.148117491525720180e-03 8.901725612690265799e-03 5.009144081310503132e-04 1.827992287065874355e-02 5.010517534964307150e-03 1.836363920872584711e-03 5.536340645752771406e-03 3.062712426928541117e-03 1.364814719336207138e-03 4.155138410119435868e-03 5.175165763222535319e-03 -7.015588822657385475e-03 -4.704273058258173594e-03 5.814649229815610412e-04 7.395755114897969995e-03
8.812544232171565239e-03 1.451243038016827337e-02 -8.233011195206241944e-03 -2.698495963573341316e-03 1.364797565552215708e-02 3.449555501706031303e-03 -1.471217539316724233e-03 -1.071204295668097073e-03 -7.306040214244762313e-03 -4.959975604806252970e-03 9.165888490117336113e-03 3.380298252582077979e-03 3.502445464553223010e-03 1.123610090795789697e-02 6.413059145685588193e-03 2.707595178620383382e-03 -1.346656689938865482e-02 -1.195833465571077836e-02 4.971735408598815936e-03 -4.695817196238475690e-03 -4.040972095647094725e-03 7.871878583566678175e-03 -7.636122034361680563e-03 -7.399464384377916343e-03 -1.030614160036597352e-02 7.227084862354088250e-03 -8.502266117092078732e-03 -9.153001175748109661e-03 6.848262654903212315e-03 -1.373478087806439011e-03 3.392401126940371918e-04 3.998709378691846575e-03 -7.085473139159657006e-03 -1.240089015536349759e-03 -1.027796604017479701e-02 1.445430255960629580e-03 -1.249281446505807157e-02 4.281877387557549326e-03 -2.542735142463097703e-03 1.659464993606848526e-03 1.145244799042687348e-02 -2.575921627177210887e-03 -9.018118575077997690e-03 -3.894377965960560319e-03 -2.597808349348013687e-03 -1.076010596174973091e-02 1.044386569917809919e-02 -4.250333813057555546e-03 1.243825305203500979e-02 -5.777004889674035477e-03 1.017273481037783570e-03 1.344516482776570918e-03 -5.464432742490108429e-03 -5.266856936020858360e-03 1.946567613365822067e-03 -1.206226653743730157e-02 9.937414380964921384e-03 -3.265441671659813274e-03 4.154442367971622301e-03 -9.690215713871816114e-03 -2.441278481437685575e-03 -4.422646486475246283e-04 -5.445258533935177885e-03 4.207421543801677551e-03 5.316167341483509119e-03 7.899544748727506741e-03 -1.146075623830691663e-02 -9.362837079935014059e-03 -1.141287004388339202e-02 -6.217033217859195375e-03 8.496181150093679024e-03 -2.639606873125931001e-03 -7.563548378033499268e-03 -3.501737551510667856e-03 -1.015912936557696955e-03 -1.721796585751470161e-03 -4.016932081246544183e-03 8.418120527046905541e-03 1.878517907548501843e-05 6.776684351359895872e-03 -4.782140292366169514e-04 4.380591560537802458e-03 1.380865331378113882e-02 8.676137825665477393e-03 -1.738819035405329448e-03 5.469962849216669296e-03 7.906066093812698717e-03 1.114580107195786186e-02 1.206990805505805432e-02 -1.674092686855347843e-03 -2.477339172331872140e-03 5.986997404599595125e-03 -5.885868695541580757e-03 -2.508594982052198517e-03 -1.745822247309948561e-02 3.223994716989528071e-03 6.996986671510650214e-03 -1.646852749671902545e-03 8.289260180545817563e-03 -6.571038457854683006e-05 -4.777455507087627860e-03 -1.017753131021071483e-02 3.372813756963162404e-03 4.551484065335154559e-03 8.806367479197281523e-03 7.060858317625831604e-03 4.761873831714153729e-04 1.389731586995354012e-02 2.273912047603383370e-03 -6.012779056976577316e-03 -5.558476121376854442e-03 -5.417403497809752076e-03 2.371533068726623293e-04 -4.730811593779191311e-03 -1.065506095513158715e-03 7.083211667332402726e-03 -1.901634922650143164e-05 8.185957911410754809e-03 3.416521686234689787e-03 -2.557335279543883691e-03 6.714358899946950426e-03 6.701167714251498285e-03 9.952257006909980344e-03 2.126539414471506368e-03 -8.681948195334554183e-03 -1.582788920191081222e-03 1.430594089717366138e-02 -6.536876664997905324e-03 -5.799195819345554122e-03 -3.835091207935974102e-03 9.044828795243797445e-03 -4.362497999821745263e-03 4.004665333924897416e-03 -1.025993308311741459e-02 -9.352553124824314942e-04 -6.511574886098201766e-03 1.166122547378377339e-02 -7.160753934122369470e-03 2.336939546171679614e-03 4.291942369903481956e-03 -7.201472125391098107e-03 -1.581597904079712043e-03 -1.837042432330579641e-04 7.088018577394199909e-03 3.072118687609353121e-03 6.207135057299835793e-03 -9.746554283251470177e-03 5.181311213127655357e-03 -3.277221401037913682e-03 -3.813631257976709057e-03 3.345599894731309757e-03 -4.519526021425092875e-03 -1.717901024214709424e-03 -8.700442267865893600e-03 2.114455212137789433e-03 -3.829819678471749634e-03 -8.164794003755394824e-03 6.337329463182979870e-03 8.207070377784822859e-03 -6.105843922251059930e-03 7.474849956322268327e-03 -2.146433893531307646e-03 -7.949469556174936641e-03 -7.623042611147827670e-03 -8.042221917220655769e-03 6.942369075592815311e-03 -6.693290669261211948e-04 7.286190066680228727e-03 -4.849170255442927964e-03 2.831966540815833520e-03 4.186517295671006618e-03 1.688593473307264860e-03 8.998826212224197985e-03 -5.789235009223589121e-03 2.861546083157557848e-04 2.217329166040287076e-03 7.433490413984627891e-03 5.077166977439293710e-03 -6.043273493085188179e-03 8.002577271881755258e-03 -1.440183188251234524e-03 1.864982754772819603e-03 1.053042315350539299e-02 3.146510592561438217e-03 -1.949630295601122729e-03 -1.262174330152646346e-03 3.139069268085339058e-03 2.631064563099852135e-03 -3.439912945955263604e-03 -4.024922861959204755e-03 -2.721801011659500009e-03 8.784389441093221063e-03 -5.511670335854248690e-03 1.277244506432168372e-02 7.527326454553446948e-03 -3.671989381022350892e-03 -8.337902346067562961e-03 2.706535028644399066e-04 -1.287595380799343983e-03 -3.281481860510837654e-03
-5.830384954836426159e-03 1.031469956207255699e-02 -8.569437544228539899e-03 4.863345477429105402e-04 6.490884677652524089e-03 2.083328690698957840e-03 -7.417314583174172520e-03 -2.490968140911414136e-02 7.423122528998738791e-03 -4.566874546541307284e-03 7.385018222962769045e-03 -4.770267473000787753e-03 1.601789362118121937e-02 1.270194862785314904e-02 -5.157350050862429501e-03 4.465127386614776810e-03 -2.171141214079679721e-02 -1.509599142187437095e-03 7.320529988419082791e-03 5.744492831635706828e-03 4.068095637921159344e-03 -4.402729931119034497e-03 -5.572020055107690557e-03 2.280442621680608614e-02 -3.789329823635091254e-03 1.916182831744525639e-02 -6.011797234923095881e-03 1.008536383508470404e-03 -6.123500609794844431e-03 1.295619575448990132e-03 5.422372760328102084e-04 -2.243191197448739932e-03 -4.555756687350932463e-03 2.315748918357454170e-03 -9.545543251916553239e-04 2.245317699872854955e-02 8.648830847256725428e-04 8.946990819864516706e-03 2.008092093898744632e-03 5.118086697272753414e-03 5.908830593542789902e-03 -8.790228638740579283e-04 -1.719122742584963323e-02 -9.891693619677776120e-03 -7.841299946146641428e-03 -5.210444784068440222e-03 6.656945793593191212e-03 -1.384563990122752650e-02 1.454720725387646449e-02 -9.735541823201116982e-03 -2.301089226951818102e-03 -9.263529544786826275e-03 -2.165054570382367229e-03 6.413273114389574786e-03 -5.838635801882773079e-04 -2.583216671369686218e-02 2.851034022266707262e-03 -4.961881405897814075e-03 7.455308712096124155e-03 -5.704417101619436645e-03 1.602416762709612044e-02 -3.644933054534737343e-03 3.127294944595375523e-03 -1.437658140058893468e-02 -9.619120571874053421e-03 1.408779702552233511e-02 -1.470541687961156828e-02 -9.242816651493500693e-03 2.534159875958508223e-03 3.159838390442220972e-03 -3.223216231835375218e-03 7.496147445739465183e-03 1.028994379470074029e-02 8.551894219013570289e-03 1.625216828142745859e-02 1.865351858102067342e-02 6.486436408573457990e-03 -1.147523929665956489e-02 9.008702862461213934e-03 1.730188283226152118e-02 -5.075935521600843416e-03 -5.618648678738109295e-04 -3.971090298622422833e-03 -4.894018566111993200e-03 5.209039402261816248e-03 7.712841876771332848e-04 2.127668748653211567e-02 -1.843205033528178113e-04 -5.129169304408385914e-03 1.996752984286657897e-03 -1.783056587788163939e-03 -6.805263755300606544e-03 1.252078325797349734e-02 1.681711327850913401e-02 -5.197177695018384731e-03 -2.106747222778970199e-04 5.734907372891369284e-04 -3.486343082781746990e-03 -1.220482174784264136e-02 7.894212896917802242e-04 -4.072297500300842100e-04 1.057744788745890521e-02 -9.654018147689655965e-03 -1.141238322186177538e-02 -8.558131665218448106e-03 5.043084785312016566e-03 6.459725562008792298e-03 3.328993401921996609e-02 -1.567082644271777445e-02 -7.767521644929311665e-03 -6.355007252740119605e-04 4.075450485974245647e-03 -1.625628991558302622e-02 9.973373658702952647e-04 9.759038238508323596e-03 -3.373183178293714078e-04 -1.692145797923985283e-03 1.361723250962971338e-02 2.886951647979195922e-03 3.261407268527872702e-03 -1.196260144552100096e-03 2.453827919207713856e-03 -1.057717042719070327e-02 4.834028117120934241e-03 -1.955706043492450377e-02 -6.603055172121956263e-04 4.650922978575973768e-03 -7.478795954347397870e-03 9.462892908493763383e-03 2.990716786052200361e-03 3.792075325246954589e-03 1.210036798756576257e-02 -1.145054447092120828e-02 -4.781410402189710182e-03 3.186340511910013690e-03 -5.568823595669281784e-03 -7.547674975193019095e-03 6.136377082905479508e-03 1.508083864550205551e-02 1.005667228983100382e-02 -1.073546437505496333e-03 -4.344258157622521953e-03 2.501712884309860593e-04 -1.129112761516438100e-02 1.070271309015404003e-03 -6.876219940002805883e-03 -4.695980192087228708e-03 -7.690985296290631795e-03 -1.511319622423629855e-02 6.121944449872543555e-03 1.101174619943933071e-02 1.329517368135934088e-02 9.931605597090917975e-03 1.223997424052064228e-02 1.451892656993489759e-02 -1.014894124500250253e-02 -2.140877460111113850e-02 8.891760382849835456e-03 -9.744258886183286908e-03 -1.132372062524657219e-02 -7.793638150161495519e-03 -1.498278338691493711e-02 4.036737850153646577e-03 -5.470732420718647272e-03 -1.266695587844958622e-02 5.863646866488892058e-03 3.435243072102100483e-03 -1.729692048128319420e-02 4.111109131932241985e-03 -4.289963445965922981e-03 -7.100279247239746176e-03 2.185633186651211868e-02 6.261730574997550515e-03 1.950475224736866048e-02 -7.373111048971986957e-03 2.705106308527888137e-02 1.080144707090053592e-02 4.823496555981568977e-04 -1.351279621211062473e-02 5.737381838804637459e-03 -6.570187943565103557e-03 8.848746887847562179e-03 -4.527421846906046383e-03 7.183977023227163493e-03 -7.713221892946420938e-04 -8.004727126164453560e-03 -9.735418473972728276e-03 1.508620811966495355e-02 2.284507537958255490e-03 -1.038132824932369927e-02 -1.822425666827547520e-03 -1.503769889871709939e-02 2.756304800863151536e-02 7.859800447787983896e-03 -1.306446192431568896e-03 -1.935366966093191032e-02 1.830677860007965405e-03 -7.086718988472555207e-03 -8.957104012778326595e-04 -7.343956798387841524e-03
-2.419489120853963917e-03 1.994437987987253153e-03 1.319101518768410648e-03 -2.857418599928228647e-03 -2.111547015538688902e-03 5.320148749813861412e-03 9.292790628474417031e-03 3.462769072202015463e-02 1.308002870835505912e-02 2.030507411959407357e-02 -2.662924195467059746e-04 -9.896179117356972837e-03 9.278561296990932988e-03 1.162878523881547693e-02 2.862274938504588001e-02 4.627405589495515136e-03 2.365891725847412211e-02 9.626892534592066536e-03 7.669159191867299438e-04 -1.299341803299675449e-04 -2.224375993716445551e-02 4.275090731856967877e-03 1.958250889978957118e-02 -1.039481185672941690e-02 1.143183371318824866e-02 -1.082249496156595207e-02 1.449808532737391700e-02 7.381563144718968419e-03 1.577536581468600308e-03 7.063090884495227227e-03 -4.597151754677470531e-03 -2.845478594933194532e-03 -3.240255312029764051e-03 -1.815423450756792822e-03 4.925473633884513112e-03 -1.003501090182391635e-02 1.279427103827276806e-02 -1.248271908156957898e-02 -1.569603358592206854e-03 -2.536862533058424195e-03 -2.482193771114159925e-02 1.388009608408487944e-02 2.344389913723671573e-02 1.002866912071277705e-02 1.372960702581491402e-02 1.245549552279734233e-02 1.845501107821884926e-03 6.686364119126932473e-03 -2.621912793529416336e-03 1.365791914828389658e-02 -4.638463284159186420e-03 -6.682089583891083484e-03 -2.706918186271501259e-03 -9.246786298518317598e-03 8.161632471559506982e-03 2.698457414381742053e-02 -3.136206353425170963e-03 7.014452240327121932e-03 8.070357646264013016e-03 2.583880572963988612e-02 -2.541283118904777774e-02 -2.006054887882367192e-03 -7.604664542192895310e-03 -4.871528052430283175e-04 -6.619396658383206074e-03 -9.449717566931250048e-03 1.372876322256065540e-02 7.646372248975346654e-03 1.250510988692889180e-02 -1.540662891193394710e-02 -2.597010185434651432e-04 -4.958375159421368576e-03 -1.271690364493711575e-02 2.314376092111960700e-02 -8.874479928418047307e-04 1.022715875379905798e-02 1.844560549445610237e-04 1.533122913925130844e-02 2.156805257299539234e-04 -5.850446634123667236e-03 5.509738197553433817e-03 1.450505087617716057e-02 -7.872617495827577069e-03 5.965049617149958787e-03 2.808758943429679258e-02 9.004844423213826526e-03 -2.105247045971690018e-02 8.390334967408636865e-03 -2.386733669856888639e-04 -7.296657916076375143e-03 -2.058000123330224439e-03 -9.036444573750806661e-03 1.350298682981151618e-02 2.555661966115273590e-02 2.863317005584220531e-02 7.883518731150594011e-03 1.496680311120889180e-02 1.550450108455066027e-02 -3.711944329015281390e-04 9.395274513751088880e-03 -9.742248245148212721e-03 8.479246255670666241e-03 3.420168921909784963e-03 2.951662581562246312e-02 4.263269001230335364e-03 -1.073028421350652028e-03 1.138252398539030957e-02 -2.831220301826129632e-02 1.829493034842577526e-02 8.595043150225013112e-03 -4.172459422809048947e-03 3.159322049067729912e-03 2.538593801370396877e-02 -1.944639915812473125e-04 4.657561375451465006e-04 -2.311494081673338974e-02 -1.134880595994710098e-02 -1.697777626333584616e-02 6.163255953927657647e-03 2.255637357681363267e-02 1.807381069879669330e-02 -7.029802681815479001e-03 -6.568904576602289762e-03 -2.964811013039110599e-02 1.238054038052757017e-02 -1.357300278706432412e-02 -9.177842691303339517e-03 2.881667940334401573e-03 7.803365456866810483e-03 -5.871888686132488086e-03 -6.642137358419701251e-03 -2.575658785584622294e-03 -5.025188895654997961e-03 1.326193709687915022e-02 8.743272270806652993e-03 7.269038326069128531e-03 -1.380396313620472137e-03 -2.992608070860229910e-03 6.522302502557447701e-03 -1.179673395734714752e-03 1.706212859524808279e-02 1.373509967902287847e-02 2.950775474346562888e-04 -2.722818147005317321e-03 -6.778240263702936703e-03 1.533507636592428697e-02 1.461235618512362819e-02 1.506021329233293848e-02 -1.167667603410631541e-02 5.497571275467250280e-03 -2.578201540536727808e-03 -2.817786134937146601e-03 -2.915695381512600423e-02 1.284903363770527676e-02 1.149807971302220814e-03 2.870654272089238554e-02 1.620933806325766668e-02 3.815657890469591803e-03 3.899204497132727210e-03 -1.025658166571178547e-03 -1.358848330642920162e-02 2.737555760683205858e-02 -2.559357730434641542e-03 -4.691048696963373045e-03 2.217665796308131154e-02 -8.486703565813493236e-03 9.302259352792024982e-03 -4.377270707854934335e-03 -3.294982303577802338e-03 1.263207996402738011e-03 7.346479538275408130e-03 -1.634790057788984910e-02 5.530098572249613799e-03 -9.730605988880883022e-04 -2.344448980351351505e-02 -3.865370310924160641e-02 -2.370809508719864955e-02 1.661107305361713554e-02 6.060677531881438623e-03 -1.126132426298615333e-02 -2.393517778925260617e-03 1.113724411949276738e-03 1.507106015366387226e-04 -9.268166239332895073e-03 1.941445751169026479e-03 1.030531925153597983e-02 -3.203918939158501011e-03 -6.906064686568441809e-03 -1.068028015556805183e-02 -2.798705961554896543e-04 -5.796828546690040856e-03 1.059403724844533434e-02 3.459019514052601076e-03 -3.986138524506710815e-03 -1.901724637482591837e-02 -1.219884282656991852e-03 1.629974464037386647e-02 2.166871929615435313e-03 3.521500037654377445e-04 -5.556638447603541933e-03
-2.467050375179502303e-04 1.251057862003036175e-02 7.214013774733793634e-04 -1.462849551129885226e-02 8.560812784996763014e-03 2.591236836196066096e-02 -1.230792408027664257e-02 2.740238526208170662e-03 1.391736815389544961e-02 1.640765695470032667e-03 -9.796635790458607142e-05 1.782421160973856472e-02 -7.615563136151178546e-03 -1.272632343438939197e-02 -1.407239264147154036e-02 5.816372989124748462e-03 1.182698681585851383e-02 7.033735476446379038e-03 1.046929850421485014e-03 8.921744734623870965e-03 -2.497267717345482210e-02 -2.700427521688543095e-02 -3.376736183772417830e-03 4.313465370035265284e-03 -1.620115943379304632e-02 2.518003193075862151e-02 1.580159469367928282e-02 6.931649011329112792e-03 5.228279994801657456e-03 -7.848524262205590091e-04 1.514251299059887583e-02 1.707490993085586037e-02 -2.609305829465111311e-03 -6.721810171357729159e-03 -4.130194338160999429e-03 1.410463471374027132e-02 3.898875766449810126e-02 -1.029097283459636664e-02 -9.235352861659742313e-03 -1.878917632105709702e-03 8.312638857903922179e-03 2.297607349753920739e-02 -1.544237127406887337e-02 1.430273132141062636e-02 5.183076466939446313e-03 2.305495682143548532e-03 -8.022116594615685825e-03 2.772297589176800359e-02 1.493404163879173512e-02 -9.488216396303041436e-03 2.023478680760285378e-02 9.888166354584237289e-03 -1.102301925317882708e-02 -4.403889040170101861e-03 -9.842786303381995811e-03 1.386646922146808625e-02 1.080454174698160241e-03 3.734711072467944426e-02 3.861090997371557487e-03 2.031031658414424960e-03 -7.496513492604772733e-03 -5.688965829968603213e-03 5.579363942960402414e-04 8.980801228008311946e-03 -6.415482687221678131e-04 -1.204045203610192016e-02 1.467456399717701615e-02 4.161045380213247540e-03 -3.140938216189119361e-03 -7.648734540704361408e-03 3.390045540994344325e-03 -1.014486017065879819e-02 1.193033883978577084e-02 2.240635743444715014e-02 1.467673578276767338e-02 2.995633809606651141e-02 -8.243838300748122447e-03 -9.594060128901103074e-03 8.047883134376314362e-03 -2.009489361700282639e-02 2.748175765067928378e-02 -2.441825550901188802e-02 8.924682756449945839e-03 5.128399054031716753e-02 7.766127270155814659e-03 -9.821931722651151483e-03 3.347277928647976290e-03 -1.193808194623132042e-02 1.238345478581517715e-02 -1.903952062978675475e-02 -2.587619532442986259e-02 -1.006897147506573232e-03 -7.345462505716755450e-03 7.123348358887378849e-03 -3.571979002795325903e-03 2.167104816492668173e-02 1.226832809891606479e-02 4.486522665283382803e-03 1.253914766792642126e-02 -9.538842065940347434e-03 -1.193247439901957236e-03 -1.657260706127557061e-03 -1.632660997520502671e-02 -1.524515278775291042e-04 9.636530546172999978e-03 1.216539895724496516e-03 1.330287179509692837e-02 -3.322648899169292069e-02 -1.928743435946835352e-02 1.014163931462624610e-02 7.943201632966596232e-03 -1.576098505410108291e-02 1.377777273325868357e-02 -7.408447505959112956e-05 6.863977597864654757e-03 1.695047881039159210e-02 -7.604830171410977349e-03 1.283666505109559361e-02 -2.463739136270887142e-02 1.482856156566785856e-02 9.597188906860744037e-03 -2.101982656238017121e-03 1.518816311490122153e-02 -1.138993817709100902e-02 1.047542305282700946e-02 1.891909017554636516e-02 1.945177728924234531e-02 -6.600008397348717387e-03 -7.626826055159507782e-03 -1.796802115366241638e-03 5.977916811213312455e-03 -4.738825131917978606e-03 4.482284191418797921e-03 1.397521883088072639e-02 -1.206431192772344611e-02 -1.293615696078021481e-02 -5.285367333995550851e-04 -7.195720093510687108e-03 2.902982992049176012e-03 8.206739267220391001e-03 -1.374207574471580234e-02 2.180247676740973764e-03 1.053379977803112905e-02 -1.064096346215685426e-02 4.488020432812713303e-03 -1.288696688308821683e-02 2.403128666791565004e-05 1.303158877212614447e-02 -6.305301374827937812e-05 1.875269383221890920e-02 -4.351464951047575962e-03 -2.990444378119100355e-04 -1.833557263821733322e-03 -8.891292253076157545e-03 -4.878732360588338909e-03 -1.106023339498734469e-04 2.472524314993362806e-03 -2.546068700427434116e-04 9.830528894186944810e-03 -1.109347735068960498e-02 2.166497123177645381e-02 -6.281962108833429557e-03 1.416485827549387316e-02 1.065155952887882930e-02 -1.567769155439335815e-02 -1.104635164671066358e-02 5.313140860100434501e-03 -5.018482632624524271e-03 6.703304063705426558e-03 4.483800827674115468e-03 -1.969650194914768226e-02 -6.903858973076204379e-03 1.782581174051355672e-03 4.118840872001184933e-04 -3.790367580302347189e-03 -1.028182620824477124e-02 -4.877209039048764627e-03 -9.601535856206147232e-03 -1.736403431563708979e-02 2.692266337701949494e-02 5.487239613761621046e-03 1.901891653677715774e-02 -1.204287361470046148e-02 8.276118956582653426e-04 2.353467392713033245e-03 -3.438548006836528344e-03 1.365205533607338848e-03 1.448112013879397815e-02 9.588852255140827008e-04 2.850699817565179386e-02 3.527845306175482476e-03 -1.851920152837033783e-03 -1.414044137047500496e-02 -9.220423897404435645e-03 2.011297779294607055e-02 -1.675136256014304534e-02 1.555297976438457103e-02 -3.920438059195200439e-04 -5.956880777143394243e-03 -3.269085977332569174e-03
1.911490002524638548e-02 -8.269267935272332087e-03 7.803139319489573421e-03 -2.087008010548440165e-02 1.143449662749602448e-02 -7.181298362141747167e-03 7.906529700866840940e-03 2.468033652468684669e-02 -8.784222374471972045e-03 2.319658546917220329e-02 3.093499244928413910e-02 -1.077115158083875651e-03 6.777655469563942034e-03 -6.962525566097126431e-03 3.043287070995848165e-02 -1.412693390576437794e-02 2.070119284218906175e-02 -4.642311960768310923e-03 1.373930419641638742e-02 2.446225701081439566e-02 9.790933799699728241e-03 -6.411731119709844842e-03 1.998316914439049116e-02 -1.577754222370830739e-02 -1.494769069211454452e-03 1.582220862079882634e-02 6.262087007233758940e-02 1.327058263269675735e-02 -5.711081115933200553e-04 1.910647213666048783e-02 1.471689993417372999e-02 9.462560172900175148e-03 4.079783294879727427e-03 1.625372794211784374e-03 -1.545061722375425106e-02 -1.413085571983130513e-02 1.786995308654728068e-02 -1.931842796474616056e-02 8.016479927515671872e-03 1.924774219706698120e-03 -1.323291395767160587e-02 5.288221424143754908e-03 2.075174157043893283e-02 6.153236972321569692e-04 3.703172566524159850e-03 2.926828851516924401e-02 9.318355767082087474e-03 2.551982687676541267e-02 8.720530411089881528e-03 -6.738636805070084487e-03 9.566370806007322772e-03 9.865964393884619002e-03 -1.128690589230031856e-03 4.620163690694595315e-03 7.350010608447841293e-03 1.304927645324426184e-02 4.136727539518591894e-03 2.463687691133945035e-02 -2.350161649014323537e-03 -3.928264535371627127e-03 -2.150479684383823330e-03 -4.220371592852351951e-03 -8.978805910887698027e-03 1.711161789237136341e-02 5.826233541384506776e-03 -3.161871212323869983e-03 1.400128988182166093e-02 -7.652699498748892666e-03 1.963046446953515406e-02 1.881543204251811402e-02 1.814672625637502338e-03 1.231630403930085264e-02 3.712914806462969640e-03 1.941539449859449457e-02 6.199276472475061771e-03 -1.639974106251006550e-02 1.105219112612610723e-02 2.457343688555107750e-02 8.454050547898751822e-03 4.536564207669285288e-03 1.785423790967165247e-02 8.616225188143847649e-03 -2.997912479314465348e-02 1.298642356258418278e-02 1.896392573543575349e-02 -8.798532296297968333e-03 -6.921236760513667548e-03 -1.485457510863841257e-02 8.823731393784037952e-03 -2.896951154258874117e-02 -1.343966271916654598e-03 -9.507105272237897226e-03 -1.753428170923709145e-02 -9.977589954285517176e-03 2.278609803118766472e-02 2.041305250419364267e-03 -3.972144071539012930e-03 -7.211821659874036693e-03 1.380859787441020281e-02 1.317786542218617012e-02 -6.545965958595842404e-03 -2.454196775508088804e-03 1.058393329222647589e-02 1.991112261656401497e-02 7.148171902768184031e-03 4.818274201102612855e-03 1.160022343827128190e-02 -8.601749136499284645e-03 -4.894738762619643690e-03 9.672955063099834827e-04 -3.703173913986721518e-03 -1.930164282949271143e-02 -6.178505059988596490e-04 2.620162740573126273e-02 -1.644140230655888324e-02 1.518902111698624408e-02 3.137391432042479708e-03 -2.371256625120292741e-02 -1.275170701695885374e-02 -9.578889958716791872e-03 -1.611495896135684003e-02 -3.437415927733630458e-03 1.247081940393256552e-02 -7.044279844946037261e-03 1.875336542500028944e-02 1.698001352409249723e-02 2.146929038953526367e-02 -5.016096804183978360e-03 -6.221605215585215322e-03 -1.306730319670196781e-02 -9.136812226369379203e-03 -2.761144069256329936e-02 8.586532265361169688e-03 9.707498333995525849e-03 -1.322537129040165724e-02 1.754723770456999635e-02 -1.090573541999996683e-02 -6.822443495993265640e-03 1.149281031593008505e-02 -1.032142573969052797e-02 -1.567035374430176143e-03 1.450598607877042270e-02 7.373229621745902400e-03 6.126156590560742458e-03 -1.699150450229472420e-02 7.984748956755436874e-03 1.660417705087558404e-03 -2.732149836892186316e-03 6.638921404455419562e-03 1.096675297744884904e-02 3.688888612010532832e-04 1.132627876899309702e-02 -8.776850776392785885e-04 -2.104166739478349757e-02 2.754477237776536275e-03 -3.985800366513356403e-03 1.038843296111508462e-02 -1.576397088466499694e-04 -1.584076420559303979e-03 2.162806257530283313e-03 1.104538806710589870e-02 1.141068047443661963e-02 3.406092871953127904e-02 1.459185339969114314e-02 1.237345448924951144e-02 4.254473590412795846e-03 -2.419527464596149882e-02 3.495051619296462436e-02 3.352553117038106073e-03 6.539774544786717408e-03 -9.006369240721165403e-03 -1.021546619657321894e-02 -1.867825724227777616e-03 -2.223753337637438335e-02 -4.888342752285107853e-03 -3.557144287095165280e-02 -8.651440840041687294e-04 1.867671998459255814e-02 5.270710202409981636e-03 1.272068586971967195e-02 -4.419552749792325652e-03 -1.460687866378767609e-02 1.166243744249072407e-02 -4.562644644365075434e-03 -2.002559122200343183e-02 -2.055564387893205405e-02 7.527536944534796333e-03 4.868335888949751160e-03 7.972892524596368602e-03 3.244790752698069325e-02 6.297013451600906586e-03 7.187185067045715782e-03 -1.993207059216963936e-02 -1.882302130021351605e-02 2.459385329059807918e-02 1.253026540750756639e-02 -1.207877897164539270e-02 4.152206576424850859e-03 1.043009517845035726e-02 2.119130783200268413e-03
2.233467947955254922e-03 -6.304985444108634563e-04 8.399135055814457504e-03 7.081260558080592835e-03 4.508043667476370822e-03 -1.017308416845900954e-02 1.063325888011556163e-02 1.703233684976413267e-02 8.952500734068046320e-03 -8.099755449033671343e-05 8.569973918011918046e-03 -7.449205822754869852e-03 2.217198581353183615e-04 5.098457106951267970e-03 1.186340852354742133e-02 1.253808333052671906e-02 1.029868272302573301e-02 1.708632828504740367e-03 -6.745053432770510386e-03 -5.339742785922042476e-03 9.654231719050348007e-03 1.771386714760019368e-02 9.512972649608743281e-03 -7.498120937990859942e-03 7.462673615170092346e-03 6.950600644220436032e-04 1.180606139943982807e-02 -1.380138687994415065e-03 9.983776610848177357e-03 1.089846297441078408e-02 -1.172488674756384276e-02 7.479063446621934952e-03 -1.735534696894984810e-03 -5.454665970677536647e-03 1.375259554914444113e-02 -9.656635403579940519e-03 3.715744063511358924e-03 3.019572662819310603e-03 6.093599946946337206e-03 -2.061507901994701335e-03 -6.799375183283724432e-04 3.620770505845724834e-03 -1.124003614964913349e-03 3.367861791156047998e-03 4.915805495266690160e-03 5.390748318854021205e-03 1.935739663918468502e-03 -6.541559903624241147e-03 -1.589908574901731375e-03 1.147470739019489615e-02 9.993544358930931890e-03 -5.728078157223845217e-03 8.275724062549826357e-03 -8.147048839920128724e-03 1.018324762526616294e-02 1.785465186878412453e-03 5.917246186652702113e-03 -2.913520096014207174e-03 -9.952958715868877662e-03 -6.466627209303793880e-03 -9.437545396654254889e-03 -1.101249384062897262e-03 -2.673784930786494984e-03 -9.581804878747724949e-03 4.097387473365623686e-03 4.192210835076822829e-03 4.685059696295719965e-03 -1.396615358918076692e-02 -9.499996359285327319e-03 -4.400640498343243341e-03 1.530189575411367801e-03 9.356340429880887280e-03 1.582584901237443992e-03 1.721685334054796554e-02 1.315840923726748499e-03 -8.803551948069022332e-03 7.646877410827070988e-03 8.206229807325212539e-04 -3.153448286611660071e-04 -7.218812153945240034e-03 -5.133886028580267324e-03 5.641236662527669005e-03 -9.652950048763375701e-03 -2.539314555686702710e-02 4.369697056636572680e-03 -3.942289812584720728e-03 1.165232523631366465e-02 4.007465559505863500e-03 -9.080073546206383212e-03 -1.636069330085019452e-02 -5.926088201336330782e-03 5.605427966128825878e-03 2.050669947029247746e-03 9.364289778313708221e-03 -4.448912999367168192e-03 -7.360958864059498341e-03 -8.015267677822485171e-03 7.964408323014456406e-03 -1.356987320731988661e-02 1.256948741569673469e-02 -1.022555993258407632e-02 -5.981631696769447101e-03 1.650826094706528760e-02 2.482792760392932285e-02 -1.182980564358158092e-02 -4.512809611669378780e-03 2.461852621652186376e-03 8.125049348225475004e-03 1.155991588110749565e-04 3.503420206658682933e-03 -6.968063779011484694e-03 -1.550734576295501564e-03 7.559132836320167290e-03 -3.851603298575212615e-03 4.452677488825081478e-03 9.434850284551064836e-03 -2.416805186807637236e-03 9.154293074855634690e-03 -4.417686416766128756e-04 -6.044151263007391250e-03 -6.312687775699072669e-04 1.885929661564546582e-03 1.308695134821623481e-02 -9.505616636403030686e-03 -1.465702411909160230e-02 5.071800100001284603e-03 3.131087670979994936e-03 -7.338537019777098373e-03 6.078716903835307446e-03 1.149727218004733577e-02 1.293788983134765147e-03 -4.059906572658360246e-03 5.933613607678796947e-03 -9.931185209698769126e-04 -5.938828850666247675e-03 -1.079200101452557070e-03 3.477531795987856209e-03 6.711869815697863069e-03 7.166417343661509419e-03 1.877632701968106211e-03 4.729760063219882842e-03 -5.654498650919981100e-03 -1.040553556580456470e-03 -3.589072231609614742e-03 1.988484694571354423e-03 1.554423217164417614e-03 -2.261501493131941494e-03 3.867486000710807555e-03 7.586648603961493320e-03 1.297071192075245367e-03 -3.831179797943117925e-03 2.225553815194100064e-03 2.065510597726458609e-03 -1.728226940066246789e-02 -8.638847313156252511e-03 1.832957389738264524e-03 7.853342833062082126e-03 4.641454518972477260e-05 8.186500174879676045e-03 1.089591565102680099e-02 2.104218971070380504e-03 1.524054586761053494e-02 1.388999327326161538e-03 -8.784924585078455680e-03 3.346291817373178625e-03 -1.683504976067844335e-03 -6.390868559663115400e-03 -5.741166730452873339e-03 -1.382821371521432766e-03 -6.966951114233315388e-03 -4.920328906285189978e-03 7.844422544141324213e-03 -1.255080534233218338e-02 -5.499582461276810406e-03 -3.386333651798903964e-03 9.972778375447056542e-04 -1.045064841134315907e-02 -3.079992111193132539e-03 1.344460501452043703e-02 9.497988785363425945e-03 -6.557930163463691377e-03 -2.764868790996972075e-05 1.321034201928388083e-04 5.083246070467763167e-03 7.269951129991873359e-03 -1.074533702690806322e-02 -7.519415581751223362e-03 1.377246520192019520e-02 9.391152005214620235e-03 -7.422404104716507668e-03 3.188887251986020650e-03 -3.047783155225063795e-03 5.049183771436770857e-03 -3.284977514904407429e-03 -1.155961749711309147e-02 9.630923988522412799e-03 5.508909005924738332e-03 -5.291264676618546298e-03 -9.412746196738814089e-03 8.125576385880725616e-03
9.268906867188942550e-03 5.304911763444684469e-04 -5.754769284732693009e-03 -1.142339340046708701e-02 -6.429079761696036843e-03 1.499720891286763884e-02 2.448091327471793067e-03 1.697328488961595550e-02 8.169669141224468814e-03 2.775473384510923278e-02 5.927498322801398253e-04 -2.100867291503740603e-03 1.424817715975731924e-02 -1.235726441113744415e-03 1.070032284713336342e-02 -9.270894268818503925e-03 2.174223010084271393e-02 1.092026531450041547e-02 8.402178741858035886e-04 -8.343345305776513759e-03 -1.705609835225247589e-02 -9.380918565299349240e-03 1.164400856799226516e-02 -6.273724103120013450e-04 2.498566560079810983e-02 1.707606572180750404e-02 2.964796372976496661e-02 5.037629035775741809e-03 3.360294218677188551e-03 -3.277829636189580082e-03 1.655619138397347243e-02 1.262053493420941391e-02 -3.331580222438977178e-03 -8.911318287204946995e-03 1.473323825754232173e-02 1.208053039910812233e-02 3.721854729822241664e-02 -1.953849491930461507e-02 -5.584223010521202971e-03 1.418474102564783353e-03 -5.439742457373891379e-03 4.810337479007173803e-03 1.883706786796220155e-03 -2.408744221022603854e-03 -2.435685267513098412e-03 -8.119156633466550685e-03 -6.818004446872514591e-03 2.645620383946880802e-02 1.004436321085222864e-02 -3.914160795767773586e-03 1.594203100758462624e-02 1.522905904461696082e-02 -1.258307134636582787e-02 -2.127620849774519707e-02 4.547096035016589058e-03 3.672608624285385488e-03 -2.768131483296287928e-04 3.155315832993761671e-02 -1.009070398739783311e-02 1.816234495235903579e-02 -4.530197939449739052e-03 -1.269248303470423868e-03 -1.415637041856477631e-02 -7.115021962264314256e-03 2.916014625544460174e-03 -1.769416417599197410e-03 1.328188115173819161e-03 9.826694393103214444e-04 1.576969523553849867e-02 8.427831070619463613e-03 -1.174844467623895918e-02 6.560151302516669010e-03 5.927235882414389270e-03 1.221181999970943725e-02 3.086639932387219912e-02 5.749800102015276658e-03 -1.245863089801023870e-03 -2.031581090154407909e-02 3.937319354440606094e-03 -2.632149416648913581e-03 1.231649441919930796e-02 -9.573740284857371052e-03 -1.854239678564372634e-02 2.685600510355429151e-03 1.882893373335707207e-02 -1.022395681642377166e-02 1.392390598849277232e-02 -2.850918351297213396e-02 4.901812057738531153e-03 -2.395698111904142127e-02 -1.956134057171068225e-02 -7.566980538497776812e-03 2.085502402384246945e-03 2.253369841595193393e-02 2.471339332587945206e-02 1.691235075346694469e-02 -6.158083345931401539e-03 -9.223592401641571639e-03 -1.794517441382365713e-02 1.947357905348396506e-02 -2.917422892816726177e-02 1.528635088566000257e-02 2.570219037150758053e-03 8.884460376025792375e-03 8.659055119074314131e-04 1.103654048012222806e-03 5.646642869411321909e-03 -2.389101415180389792e-02 1.961370366819991957e-03 8.411965446799101603e-03 1.429513403530978041e-02 -1.272997214959756263e-02 -1.925823285477789313e-03 -4.399479103731802204e-03 1.637091726941470107e-02 -1.109361228122136139e-02 -1.240917369567725399e-03 2.382862397774503354e-03 -8.226867379706036265e-03 3.123585125132377627e-02 -9.493175135278199631e-03 1.034735945485225871e-02 2.459808970038986596e-03 -1.322383294063039783e-02 -1.538120060488071435e-02 5.793393654955620101e-03 -1.783923170746554024e-03 -4.057044723089874429e-04 7.487760475835239689e-03 -7.835729466771988727e-03 3.820010084671281690e-03 -9.048430431019213044e-03 -1.841398927345720997e-03 2.963711635525126831e-03 -1.542906104979796175e-02 1.217724069629061434e-02 -1.736623959665702446e-02 1.558792198120594399e-03 3.018955239730054460e-02 -5.464979075879423422e-03 -3.320076591700751693e-03 1.031249837252045526e-02 2.444377671799281750e-03 -6.582481444884501036e-03 -1.045585757675393350e-02 -9.535041355599698301e-03 1.966017814036821049e-03 2.146667351300928298e-02 -7.580865695198487318e-03 1.011805114911320386e-02 -5.141486857012416561e-03 1.387289296297047718e-02 -5.215262483638171201e-03 -5.529073230372100536e-03 -6.966775538206080101e-03 1.994243843317786147e-02 4.074919546682134221e-03 5.915403389527364858e-03 -5.085317252074548523e-03 -3.040997884668251560e-03 -1.050144729787076681e-02 6.953238179268673297e-03 1.553099300033058570e-03 1.358033856394073305e-03 -8.705132476126280520e-04 5.110159431321975934e-03 -1.662898146070399333e-02 -1.331446844246834613e-02 1.503167667320737602e-02 1.424047648644466597e-03 -1.456082184834581877e-02 3.965702351967980571e-03 -6.909661811405559163e-03 -1.654604301480273876e-02 -6.293062599832131322e-03 -1.439111223975665134e-02 -2.555364898928525266e-02 -4.375754107882929948e-03 3.630613735734773868e-03 2.627358674898971902e-02 -6.038102501252550804e-03 8.699212490998885217e-03 -3.497153040443794821e-03 -3.128774870963732958e-03 2.294654113031646247e-03 -1.062917681515607692e-02 1.191290578757594164e-02 2.017790734027177790e-02 1.961927439257581812e-02 1.602829956226713495e-02 -6.873177168787665547e-03 -5.085655990648079751e-03 -1.069821086377959840e-04 -1.108414640346168378e-02 -5.618750272036837114e-03 4.144884762811714557e-03 -4.248218310235234857e-03 -1.193058952650308605e-02 4.412459745827022189e-03 6.426615399969753603e-03
2.441438739238464915e-03 1.910385949247421500e-02 7.582784992349133170e-04 9.832404485161979485e-03 4.393947335750328191e-04 -6.311131926670303198e-03 -5.315044080025456419e-03 -1.543435753469872551e-02 2.780467544672253054e-03 -1.367062228626218963e-02 2.706461688746034794e-02 2.081898957594468559e-03 -1.696923413817084903e-03 2.488408135997530884e-02 2.068339401102271477e-02 7.067311351644951604e-03 -3.247643976671886305e-03 -1.595170795682399750e-02 -1.227404150753656255e-02 6.440550904493994207e-03 4.316709478219749561e-03 -2.152611205942330484e-03 -1.446774575186809964e-02 2.105706996005761791e-02 -7.076237549598179445e-03 2.831141331110701917e-03 -1.160004514079452168e-02 3.471886350796860726e-03 6.249700356165227913e-03 1.150150918330935038e-02 1.652421578269110472e-02 3.079825529312658168e-04 1.573791909322622834e-02 -2.007938243339063220e-03 8.796192548537438982e-04 5.444186866143603185e-03 -5.071324228385922471e-03 1.530793351559639123e-02 -2.396055806163124337e-03 -1.763414664401899206e-03 1.156069051965731044e-02 -4.543444555527974965e-03 5.869735312207759702e-03 -3.820779818173311061e-03 -2.497364047211462351e-03 6.805063320377854538e-03 7.705446425680964780e-03 1.934330654439514680e-03 7.837433153857202572e-03 -1.143660363490196395e-03 -2.277327537615493787e-03 -3.958320286832418475e-03 5.719777377957809689e-03 8.656993210763770999e-03 -9.453168234237883938e-03 -1.396648611332370477e-02 1.923334206387437807e-03 4.358428679274405949e-03 9.369158591872600236e-03 -1.750526799699161917e-02 -1.395045040867339383e-03 5.473298282110326991e-03 -5.542566860133060769e-03 -6.410668543640513257e-03 -4.429295436617308908e-03 -3.141859356891210046e-03 -8.849568411081273553e-03 -5.318436583323353332e-03 -1.073331325022346995e-02 1.110811005773046367e-02 -5.442067866773150735e-03 7.138104154350977462e-03 3.049292037303272251e-02 -7.305508711736330082e-03 -4.300844226630191024e-03 -1.912235652573054251e-02 -1.007734053315949242e-03 1.576941497071772304e-03 -1.039801195689120557e-02 4.916046669972313175e-03 2.023854834033126868e-02 9.618181180139130995e-03 1.201228508218996939e-02 -1.157783804859360485e-02 -1.864311861196071493e-02 1.539280084959713168e-03 1.746777063595893187e-02 -1.197879229431215303e-02 1.557223034954278475e-02 1.122226338399799975e-02 -3.808151565022759120e-03 -6.584973823511437903e-03 1.298812168638498361e-02 -2.694555687965187810e-03 -2.792654712282481230e-02 1.368409860382608506e-02 1.944660825677176769e-02 -3.694951087659837860e-03 -1.624262183174553611e-04 1.331947713474675166e-03 1.444071434478493877e-02 -8.965646611910349506e-03 1.067478804869336113e-02 7.473532191166502511e-03 -3.846239130123294513e-03 1.281321310014512955e-03 8.886888471040349860e-03 4.776200177722770071e-03 -9.429660315536721182e-03 2.771167454435710577e-03 1.011829308393088741e-03 8.715836628130116739e-03 4.222635723272459584e-04 1.137391909888726960e-02 -1.251798600671653536e-02 1.151969272980249426e-02 3.818460798195639008e-03 2.273257881735477395e-02 7.782114657170601923e-04 -3.631306356335148181e-04 3.147055280941114114e-02 3.871680885819297428e-03 1.679584020675645856e-02 -9.291280058710874013e-05 2.207409666093092162e-03 1.647613386572215760e-02 4.098760283214358813e-02 -1.306988149356660793e-02 -1.005960795095350857e-03 1.579434455478049767e-02 1.375538572873305325e-02 1.419793930930294233e-02 9.084632777535482651e-03 -2.945865999772281224e-03 4.928013708967200236e-03 -9.216870347244368947e-03 -8.512120746318367973e-03 7.638676451185178254e-03 -2.172549015412580248e-02 -6.708344462148460759e-03 -1.306260478195681897e-02 -1.748858018690643834e-02 4.647925662209326236e-03 -5.072247245750749825e-03 9.170283781911175991e-03 1.206558413830189497e-02 2.461202097360301686e-03 -1.507997680591887171e-02 -1.199467048232732286e-02 -1.225719378927789260e-02 1.596106521997159647e-02 3.527830724729261441e-03 -2.268201194454039747e-03 -1.833725919654448019e-02 -4.303683163234038253e-03 -5.930837985237776347e-03 1.154843689500533940e-02 7.797001475338049756e-03 -9.692450266512615820e-03 1.031442606050862222e-02 1.697155990432160783e-02 4.650246089894090025e-04 9.316487391797042758e-03 3.968036745386364916e-03 2.564477515871330798e-03 1.550769409574567423e-03 -6.349411724246709597e-03 1.282798696023967552e-02 4.550550612012434215e-03 7.996432673230528549e-04 2.396796697583902184e-03 8.548044442014370720e-03 -9.854008897162163175e-03 1.461685390729426486e-02 2.280429009634433665e-02 2.360332691154017060e-02 7.381587953885908847e-03 3.683389690288182538e-03 1.752167192603417203e-02 5.315948362228799066e-03 1.388279705031780428e-02 -9.340603994194581318e-04 4.928890917195017859e-03 5.668670676520345605e-03 7.542024437903640903e-03 7.978278753713848384e-03 -7.182953859431140571e-03 5.737913263847409066e-03 5.212715971514921172e-03 1.070466680067866383e-02 1.337183282630458785e-03 1.161716863855238348e-02 1.766073207520478527e-02 -1.503790474346184151e-03 1.703325503660674603e-02 -4.453714512969562771e-03 1.249916611464823787e-02 -3.108068023583314844e-03 -1.577799448490189646e-02 1.022196143677356209e-03
-5.695807845893094065e-04 -5.852357542494451143e-03 -1.295621293934092616e-02 -4.791671323696601592e-03 -2.640073714798611953e-03 -1.712270618753228973e-02 1.144058514065038508e-02 4.859185601127901169e-03 -6.593525318008941483e-03 -1.649911173134222322e-02 -9.988887417551490025e-03 1.169971181755211261e-02 -1.110983892375818662e-02 -5.237430255098295302e-03 -1.075630935552956101e-02 -1.437048545824186167e-02 -6.782419385941975028e-03 -7.449601308841917457e-03 5.474000851984336729e-04 9.371105812032772420e-04 -2.817601173622505568e-03 -3.253657944431869592e-03 -2.002838622121102738e-02 -2.867983988716754900e-03 -5.943646464497250904e-03 1.091203322439994808e-02 1.885179418377341820e-02 1.245348601374214950e-02 1.710216175904748920e-02 1.200404559999982725e-02 2.013619840537370087e-02 5.881232688602325460e-03 6.415415261336449709e-03 -5.373072777426438768e-03 -2.173597356892815677e-02 6.618942211126128787e-03 -3.698046050334478224e-02 -1.716623483051317456e-02 1.085068816217523054e-02 4.556240470113995938e-03 -1.131728428997661080e-02 -1.180855069459667110e-02 3.380582775399996413e-03 8.523170110053636395e-03 -5.331093904716812173e-03 2.051352569202618062e-02 8.320479644123388724e-03 3.903908844664687357e-03 2.362190424317327231e-02 -9.803698637061146470e-03 -1.401819170595434635e-02 9.353548944828307329e-03 -1.191252301265813274e-02 3.351488835644984843e-02 -3.439224332790868487e-03 -1.653138323937373283e-02 -2.757366443230596133e-03 9.889213345944041639e-03 1.311059019277431743e-02 -1.302092584762254597e-02 1.965860504656145868e-02 9.971872557073708024e-03 1.375455899231859715e-02 1.570777979545570635e-02 -4.952353445447700911e-03 7.864667844514328359e-04 -2.531127824698542125e-02 -3.047875301310785934e-02 1.427171004655137382e-02 9.791878190563723175e-03 -4.851864179900276103e-03 8.475148254181639335e-03 4.498647894705685231e-04 -2.354813117775346465e-02 -2.147315444558230840e-02 -1.609953373720713352e-03 2.451763495679402070e-03 1.293742848860290375e-02 -2.575165498182369755e-02 1.084892773532123919e-02 2.647646513445088903e-02 -2.816799502198205369e-03 -2.382943393069379343e-03 3.141555387052599041e-02 -3.289117122393900999e-02 -6.335297613654478077e-03 -4.565584542507597141e-03 -9.155262567792197756e-03 1.257533232541999807e-02 -1.279242877830122187e-02 2.680835653710462660e-02 1.559435565519353859e-03 -7.563366863560998937e-03 1.181995123709337486e-02 1.971826423005756945e-02 -9.408181608063420631e-03 -1.574742139953862544e-02 -4.006712491570934079e-03 7.663225003888757443e-03 2.413928116260951467e-02 1.838103844896777847e-02 -5.072122791340043929e-03 4.057366934595011375e-03 -2.052823758545014622e-03 3.031818781797924328e-02 -3.430076263883737996e-03 1.150610891424923982e-02 2.269071308485223065e-02 -3.620200939404755007e-03 1.120824905885352924e-03 4.391960901690767499e-03 -1.192858950666653844e-02 -1.936950870222483440e-02 2.602489804014010248e-03 -5.813883054410648454e-03 1.385806814752028188e-02 -1.235297604997782212e-02 1.305352177847530527e-02 -1.913918336736062861e-02 6.467473131389015611e-03 6.900079916439249075e-03 -5.262510077318116077e-03 5.751895098875669729e-03 1.429515861155537283e-02 -3.072100919505125604e-03 7.770739417408979374e-03 2.119363717614521428e-02 -1.046299650215161241e-02 5.713099875035824310e-03 1.383061428199421593e-02 -2.121182181048792813e-03 -1.280564974846787807e-03 4.204061333600252713e-03 -1.939604998086496071e-02 1.153035103817040205e-02 2.234833628006448539e-02 -1.058732483954471224e-04 6.668728655200131632e-03 1.041326264158999419e-02 1.612168522444769325e-02 -8.660169348383534374e-03 -1.695060020289097108e-02 3.492741345933803900e-03 1.132020433861436609e-02 -7.216987980254330193e-03 -5.056311303098766537e-03 1.262206762708749114e-03 7.182087388540216687e-03 1.737973841919620080e-02 -9.485960011959875676e-03 1.678716143664834822e-03 -1.323620150304891455e-02 1.873622530424218224e-02 -1.866798073900479511e-03 4.549795421633151711e-03 -8.408885655084664956e-03 -1.746937313332414324e-02 6.973229656543681459e-03 -3.002150606406749772e-03 -2.505107028470201797e-03 1.504164703665217782e-02 -1.993944927817384305e-02 1.217384356986936367e-02 1.602098038980165687e-02 -1.147641620455722850e-02 1.337559827081949600e-02 1.008879932890199317e-02 2.432214775148520275e-02 -5.128644106356126074e-03 6.536410356602416309e-03 -1.416306182384241899e-02 -1.108294502822957696e-02 1.455044776092013353e-02 -7.199323019164308689e-03 1.159319870108723068e-02 2.775226028956876909e-02 2.459692516491367512e-02 -1.433882427829429040e-02 -8.612232942881542855e-03 -8.085286768259420179e-03 -4.290177663177004684e-03 1.023510315667962821e-02 1.750249033579323512e-03 -7.663393057272674998e-04 2.538661728898633160e-02 -2.020324749320326265e-03 -6.238854832821686021e-03 -1.561972626805239496e-02 -3.749720515953972912e-03 1.981894058438934958e-02 -6.224449240044858944e-03 2.190241795493723387e-02 -1.217512829144517389e-02 4.248665626143697215e-03 1.575667624195755540e-02 1.918416431010611448e-02 -2.749807528199368911e-02 9.922858162347178781e-03 5.713705216167892960e-03 1.681000205078376705e-02
1.169330185251857279e-02 -1.755992469065747671e-02 9.421281442870308234e-03 -3.092475505504148001e-03 1.337747096759707259e-03 1.034476608069543821e-03 6.978494324718009442e-03 9.404396521626036398e-03 -3.005556409764895132e-03 -6.589567611152757692e-04 -6.872270545351544940e-04 -3.234069058111539892e-04 -2.341212920696902899e-03 -1.878602487752677880e-02 1.383955688743373526e-02 3.666235687256134274e-03 1.385438081756962432e-03 -2.750973174333974647e-03 1.866602394640628527e-03 9.724369518848105173e-03 -1.662904968823075572e-03 7.396117680823194492e-03 1.312432800202372254e-02 -1.521729206069582542e-02 1.302339594208692421e-02 -1.103936381693155708e-02 1.526958513926448581e-02 1.226641621982839207e-02 -1.798314487027940362e-02 1.470617484114055372e-02 1.283171776267118605e-02 -2.412266037947125626e-03 2.613274721877067411e-04 -6.471342062018543666e-03 -1.272802077598305000e-02 -6.271733751821324636e-03 5.347229662566440949e-04 4.972450633073971504e-03 -4.413215134294346323e-03 -3.923430506131755750e-03 -6.564495909101796499e-03 -8.242206001553356587e-03 8.463757130889780489e-03 2.029505650548186092e-03 9.172477736296877696e-03 2.428424887265930726e-02 5.136538392414218696e-03 -5.475182170210091993e-03 9.594996034354196304e-03 -8.853514367105571464e-03 -6.159824397106677778e-04 9.271686688023935904e-03 1.546857917063393199e-02 -4.564393201216689067e-03 1.403922028670973043e-02 -3.811196993492912272e-03 7.496717088037926739e-03 -4.588681900166779494e-03 5.020395962999732453e-03 1.062587827721977844e-02 -1.110083560671483102e-02 -4.532426426942738965e-03 1.792229636693781899e-03 8.590981895822941139e-03 -6.739639533375802252e-03 9.765281704900527493e-03 -5.595388643758465556e-03 2.364581393683785546e-02 1.578081958103478080e-02 -5.692488244216658069e-03 8.162575404002824289e-03 1.016105583329343469e-02 -4.699542131141256837e-03 -2.109098559277763647e-03 -1.270638546362126871e-02 -5.406493755210998835e-03 7.349538183581898025e-03 1.786736011602499050e-02 1.107913027969447371e-02 -7.905695416447188276e-03 1.644247215569551168e-02 1.578784033601433878e-02 -4.619723082415111252e-03 1.715056598537765750e-02 1.688478855641226475e-02 5.728456092703016964e-03 -1.606081528698277347e-02 7.596939275267125535e-03 5.643923687176766353e-03 1.404471155895706258e-02 2.338944514123755813e-02 -6.727801883967180320e-04 4.592750905083902400e-03 1.585317024603498035e-02 1.414817168075637246e-02 -6.109482072697649396e-03 -1.557959717830171772e-02 2.297831503077082775e-03 8.577461928642869833e-04 -9.850184622982430943e-03 1.126510929000899483e-02 1.073999463658261051e-02 8.369328669694500906e-04 -3.437920332303413210e-04 4.601228635918707191e-03 -1.829666429301172494e-03 -1.041690434263589475e-02 1.220691078742162060e-02 5.488867008326394833e-03 -1.082381949818374788e-02 6.634813720029089992e-03 2.432696756033773163e-03 -1.328870105653786639e-02 -9.448673859073478468e-03 9.410922156488725140e-03 -5.724758510646876276e-03 5.807749479256942579e-04 -6.377244832200736936e-03 1.304402172745292542e-02 -1.076498879523848061e-02 -2.414854167067121207e-02 -5.508255020374828656e-03 -1.064101618381403311e-02 2.608742024294155061e-03 3.995125103129821935e-03 -4.338271154221625368e-03 -4.406437355785291338e-04 -6.429421090373909145e-03 3.500949441798750089e-03 1.415429068986364097e-03 -1.393129549579319969e-02 -2.540690025746892428e-03 -1.514241594538554665e-04 8.514779395025906181e-03 -4.886992659520050276e-03 8.028790826597253377e-03 7.126830082451130789e-03 3.994053713240994924e-03 1.028889299116801659e-02 5.322993688306895677e-03 7.037632266785870568e-03 -3.524841304882926976e-03 -1.139054830757852028e-02 4.023826733429025290e-03 -1.333242520983026272e-02 2.078080414883832962e-03 -1.006190047399893595e-02 8.565826374651013680e-03 2.133708780982172815e-02 -9.862397993965430973e-03 -4.028372634833584688e-03 9.410826244598866075e-03 -9.312734912867430548e-03 1.329285327964078479e-02 7.907743353197540723e-03 3.849934742617782649e-04 -5.253700117800276514e-03 2.505366568109763849e-03 -8.751905934610995294e-03 1.146304197461554993e-02 -1.675070952068768645e-02 -1.297465763386606435e-02 8.786365272596722512e-04 1.341978252355332211e-02 -1.521547221003601751e-03 -8.236143360775273177e-04 1.959426246934751949e-03 1.688071151075727291e-02 -1.456329909314892437e-02 5.485176418025068147e-03 5.676415914351694812e-03 7.125321175367710369e-03 -4.836100840050725456e-03 -1.129099891475075670e-04 -1.751785412203772305e-02 -9.225436837878513152e-03 4.537191023895782369e-03 2.914435636305527742e-03 5.173100670879603527e-03 -4.746179683860330886e-03 -1.107835300860961041e-02 -4.318467620565070129e-03 3.918136694947786831e-03 -6.202724229525144288e-03 -2.255886303661146577e-02 -9.652632540649580409e-04 1.312501636434908886e-02 -1.815879673521095597e-02 9.942776144422611415e-03 -8.632481487564911196e-03 6.276269487597933502e-03 1.457036274229617234e-02 -8.096181586462093335e-03 -1.050763020422904211e-02 -9.372838073150245933e-03 5.877550055406582583e-03 -2.377462432798570571e-02 6.471635668605132952e-03 1.302297287945629843e-02 1.101810210343554149e-02
-4.079881247678304561e-03 -3.534503948887191688e-02 7.431178781220541471e-03 -1.082914918701809691e-02 -1.098027394282176383e-02 -3.543505247660760568e-03 1.041981682718606675e-03 -1.635291941649334724e-02 -1.413023119363437247e-02 2.542868287713515116e-03 -2.104121976953450893e-03 5.751401588503285769e-03 6.188463375751868806e-03 -2.479190087183520338e-02 8.470439615008278425e-03 1.260781148760228322e-02 -3.424750924901481634e-03 -3.618731256083612680e-03 -1.341011237170538183e-02 -6.608674214171536554e-03 9.244008159158295657e-03 3.440425843633121254e-03 2.877202427748160821e-03 5.670687429448042875e-03 1.444529333066341126e-02 -1.068358014413601717e-02 -1.694063963823542671e-02 2.077609817962859564e-03 -1.660461932933150406e-02 1.615866343978090633e-02 8.653760270107994923e-03 -1.300993134036889862e-02 1.348892722934239702e-02 7.343310101258005915e-03 2.032661243182949315e-03 1.152670017529052252e-02 1.567507746987721780e-03 1.321355650150496212e-02 -3.722616818263874399e-03 -8.140341622471281707e-03 7.970295675036240951e-03 -1.919879602522792800e-02 -8.881523073280985989e-03 1.028218395842147269e-03 1.844981145992178467e-02 1.334760395768819739e-02 -9.725380660404896183e-03 -2.131426048804385340e-02 1.650419243214622592e-02 -1.204480219157596371e-02 -7.936621546277953035e-03 -8.236347528580667500e-04 6.251526546207582941e-03 1.776792721785869222e-02 3.475689343262533537e-03 -2.192297676966810036e-02 1.309180256635201003e-02 -2.186841693286032187e-02 -1.510483323288667502e-02 -1.224227004562825939e-02 -6.863356941554839448e-03 -1.903306681625810707e-03 -7.091671550753607563e-03 1.034900623945811567e-02 1.418435473002666774e-03 1.117411681321360539e-02 2.123413566046266840e-02 1.175196287766466091e-02 9.633482521830492515e-03 -4.119928828602354071e-04 -6.965425688541254309e-03 1.080308478651363646e-02 1.517462587966700825e-02 -2.786430502803060108e-02 9.983276743568538034e-04 2.868389677576156042e-03 -2.777843506190398192e-04 1.868410045875943054e-03 1.217695317519338054e-03 5.129173743450426114e-03 -2.655346080134714237e-03 2.706821205172455294e-03 1.075546115281715912e-02 -1.315369964909015449e-02 1.007864125457619796e-02 -3.647940620386317095e-03 3.480262358098074223e-03 7.016304944356370997e-03 -8.309910108549945287e-03 1.153765125994456534e-02 1.771443449768869693e-02 3.965421579241663538e-03 -6.802380849239540034e-03 1.678794324183559283e-02 1.126230045035895438e-02 -1.464930121691456789e-02 -1.856008770742920491e-02 1.180244187362340918e-03 8.590857315994907678e-03 -2.236413442532633050e-02 1.575874946439953517e-02 -5.019597190379383039e-03 1.799640925257965998e-02 -3.307371353828617022e-02 1.493180066250053215e-02 -6.664183702948393677e-03 -1.658670016569829819e-03 1.450282853870783761e-02 8.428524039985483413e-03 7.080543256727417009e-03 6.763154493802144528e-03 1.299112505324793131e-03 -2.504391083163121784e-02 -2.289403442702337647e-03 2.750259378122326889e-02 1.207090534278670337e-02 4.629831578664660510e-03 -1.162232870578230404e-03 8.781956874567610222e-04 -3.529413266515224468e-02 -4.165409913781242118e-02 -7.129365443719880638e-03 1.704221067992042066e-02 1.474396627543773930e-02 4.097674889473751532e-03 -1.274255378654953925e-02 -8.055326123636029389e-04 -4.400048900236359570e-03 -1.574853610843471655e-02 3.937840109452176232e-03 -1.179949312273592633e-03 1.620478090758114414e-02 8.877946589419887739e-04 5.645120981702486662e-03 -3.969168332329438297e-04 -7.361736254960106647e-03 6.315338600220957339e-03 3.123054408400618986e-03 2.555479630403367786e-02 7.610804017422113758e-03 8.702954256665203572e-03 -4.360876031433581074e-04 -1.335789662594971845e-02 1.058936547405590553e-02 -1.231784795235865183e-02 -6.378106387616641615e-03 -5.132341611677456415e-03 1.351583979066075733e-02 1.072612685140540006e-02 2.490525991531573587e-04 1.884326366582140047e-03 7.440995472340773860e-03 -1.511333454261446722e-03 1.323313156018836746e-03 7.179578860177235691e-03 1.306329381092010550e-02 -1.884314944883069484e-02 -2.271357376874669451e-05 9.476668631038217064e-03 4.096586879373807538e-04 -2.906601257770457299e-03 -7.106055211980102752e-03 1.886499863198270316e-02 9.182976945080495446e-03 -9.303718658856912488e-03 9.673547915992790954e-04 -6.584112524847064718e-03 1.489498701082772776e-02 -1.673270939099446783e-02 3.349965352227560807e-03 -1.870441713875075837e-02 4.968395669260218007e-03 -7.194955669755568987e-03 -1.785555419889789256e-03 -1.327520301166475354e-02 1.961056686531035403e-02 7.377758409777203374e-03 8.929673695682784768e-03 1.553310996429446353e-02 -9.812374241211277090e-03 1.648932915659823877e-03 6.650278674757987250e-03 9.453672164124595628e-03 7.899971661732866843e-03 -7.334962807364814319e-03 -4.301699026771319294e-04 1.727202381757907829e-02 -2.188973197799572515e-02 3.350948351474971384e-03 -1.787515150150294262e-03 2.604348651024395345e-04 1.498666051316853952e-02 1.004181896518469529e-02 -2.350770211635845250e-02 -3.783262211938374746e-03 2.322216338265701077e-02 -1.966951294683396551e-02 -8.433452529606356302e-03 6.830431066448728120e-03 1.639032234366757240e-02
8.812122522104323674e-03 3.474886839035732766e-03 -8.302594764242061942e-03 -8.583905823420973080e-03 1.283634973912277551e-02 3.852585596271144389e-03 -1.114135292014836048e-02 -1.759570858763014750e-02 -9.645410799083143499e-03 -2.952975493674915228e-03 1.773118065936636276e-02 -2.639395852071548844e-03 3.210066193786306581e-03 1.079031618822409028e-02 -2.854747637986823454e-03 -1.115521867711460023e-02 -5.976235459197773436e-03 1.655332091129105808e-03 -9.370842952371524412e-03 -3.034474392031937407e-03 1.359248334492222168e-02 -3.801745068474397197e-03 3.325858621843089287e-03 9.897202050696066178e-03 4.294478744511200964e-03 -1.819647643859457695e-03 1.887509766719702026e-02 -6.278021689554301628e-03 -4.676202002379712709e-03 3.248668517708158589e-03 7.936422405216284406e-03 6.563110926370049718e-03 -4.967120337301564499e-03 -1.658943226685323687e-03 -1.133358337814009860e-02 1.013810081322461150e-02 -2.456044548641191615e-03 1.004748373514262848e-02 -2.609763054577321582e-03 -4.127735283345953035e-03 7.422233872466188574e-04 -8.686733178436493313e-03 -9.938718267654087293e-03 -9.163006402811398401e-03 -1.181720626482258944e-02 -9.569931166904540806e-03 1.176642103547212437e-02 -3.653918659737672835e-03 3.036905780213918112e-03 1.080917686281532937e-03 4.233112003218866826e-04 6.821351944611719377e-03 -2.003879517456268015e-03 1.833417350735656827e-03 2.766243924418458709e-03 -1.387105672860117732e-02 8.396413717190569226e-04 5.723443123965038688e-03 6.690353325565316471e-03 1.963449135899071000e-03 -4.307418807052076568e-03 -8.615635021080441172e-03 7.544526593460083343e-03 1.276311082763665131e-02 4.496523229176113625e-04 -3.484061714109523353e-03 1.015518456306474700e-02 -8.462614121687068655e-03 -1.057377190390914636e-02 4.593466427005133551e-03 4.053222650003979015e-03 5.139113742184772682e-03 -4.080075788707902655e-03 -6.116205504817930939e-03 1.085749816717184769e-02 -2.443503465339412917e-03 4.472278051318587938e-03 1.628469040218905733e-02 6.118293547526585177e-03 1.845058849674736934e-03 2.646223857640239707e-03 1.439165854632869050e-02 1.146032706964908963e-02 1.019497710504619140e-02 2.419367619015879312e-03 9.774549203492351873e-03 -1.615520849240396710e-04 9.091167509100727545e-03 7.206367692410889890e-03 -4.923347070595210026e-03 6.462363149950549855e-03 4.407634414716527296e-03 -8.005446560645147758e-03 -1.375015044311031845e-02 -8.129107233103637087e-03 1.559168308599654176e-02 1.008916767668956334e-02 6.780827511586370177e-03 4.554039424065891846e-04 -1.176479313608554816e-02 6.951765469393547843e-03 -5.875113693223367115e-03 5.275292243086112005e-03 -1.333472549095285863e-02 -2.263815417675597852e-03 8.796197920326669431e-03 -7.146616017761377171e-03 9.765848326807539947e-03 -8.916300539111288864e-03 -1.455445142728728014e-03 -7.284121777018620625e-03 -1.018857679007882655e-03 5.499777975872199853e-03 -6.414381728465060224e-03 -1.267048231456435834e-03 1.238124001858527043e-02 -4.208362930547829978e-03 8.196191207810454848e-03 -9.551261204640868613e-03 9.902778247042691960e-04 -3.582655344071331883e-03 8.200206629137816311e-03 1.178936792003051383e-02 -8.036654143031658412e-03 5.169373549488324310e-03 2.991541917825529893e-03 1.642421843856634381e-02 2.069308948414075745e-03 1.978807258452361904e-03 4.778903658528198262e-03 9.514990324416917888e-03 2.489034548639982615e-03 3.034204858828860440e-03 -1.267824452809915292e-03 -8.253251894704981620e-03 -1.619711560423073640e-02 4.732376582478248737e-03 -5.376531729253418435e-03 -3.102127315651698452e-03 -3.487514294905120875e-03 -1.350704937209029014e-03 2.467003208097157726e-03 -2.315060305729238661e-03 1.102462251737587953e-02 -5.584091891173318528e-03 1.538673133598585053e-03 -9.199939308303201405e-03 -2.099048840005446554e-04 -1.168534586702574089e-02 -2.752909277701646399e-03 7.801798373100849240e-03 1.091713591627573206e-02 -2.564444238434664732e-03 -1.075148774540860171e-02 -6.943019105076829109e-03 -1.445046612852845559e-02 3.481592087357464078e-03 -8.791655896593811997e-03 -1.977929920823573657e-04 -9.010218871429852283e-03 1.124025861148325763e-02 1.460725816176463719e-04 7.795474720432351949e-03 -1.042771011581392245e-02 -8.792866566449897281e-03 3.095752006756030423e-03 4.147364280587121851e-03 4.777844823847525631e-03 -4.865133750830740247e-03 -4.451425690602300346e-03 8.056041816159160984e-03 1.058434327300432874e-02 -1.016065180145710005e-03 3.161880960148699422e-03 6.700550908057936565e-03 1.073475707312588658e-02 -3.744152680434375234e-03 -2.331341970718683616e-03 9.751428154167705864e-03 1.226181636280915255e-02 -3.019202359962220531e-03 1.630493910643570753e-03 -1.048392216448792931e-04 8.875758447751888602e-03 -6.539238752947458024e-03 -7.278110452632627521e-03 -3.386828952885555331e-03 1.953946016235365291e-02 -2.870094555183478843e-04 7.649720552802724213e-03 -1.020478243121247970e-02 -1.091285594417644965e-02 5.558304684182853840e-04 4.478975059594285726e-03 1.427209192733001897e-02 -3.898408661331508995e-04 9.219053342581134958e-03 6.471910563432508971e-03 -1.072323961754567678e-02 4.451286659424627361e-03
