7.140143286942982059e-02 1.233765185009495953e-03 -2.007831804436610232e-02 -5.651574086979622644e-03 -3.330581920159006448e-02 5.745575849583398065e-02 -2.544565820946218665e-02 -1.094591552497300091e-03 -9.785196001124860099e-03 2.780671623082950697e-02 -6.158362508765279075e-02 3.167683683381441323e-02 1.660655294723317049e-02 -5.352284473393119357e-02 5.393274961421527097e-02 2.943428809268049378e-03 3.599999865214977349e-03 1.232151453470332544e-02 1.428233415734698076e-03 7.438091659918987485e-03 -6.937875879159292880e-02 9.161750860563800530e-03 2.155606123270559921e-02 -6.204998079070536687e-02 -1.742895801071441333e-02 -1.798566991703138412e-02 -1.215754357002290197e-02 -2.329616937444841523e-02 -5.395616571821727075e-02 -1.861969681733621762e-02 8.538841335014968337e-02 -1.351691493751757712e-02 8.703979634116678146e-03 -4.563719416851536037e-02 -3.088288051118716696e-02 -5.864381362787680213e-02 -1.047018263271399727e-02 7.307449781089757693e-03 -4.997286399389489625e-02 -1.319259105834949021e-02 -9.998607991231416026e-03 -7.388289644452477635e-03 5.315400221961829458e-02 4.470482129369083429e-02 -5.397398578736117836e-02 2.580240595459342562e-02 6.842292306232737988e-04 3.596033377864693570e-02 -6.551657194998997125e-02 9.955219065824571015e-03 3.976138695787318107e-03 2.453060727613119024e-02 2.182532131580697775e-03 1.389575421899523315e-02 1.248402407430033306e-03 7.346491552215192976e-03 5.678317218031359720e-02 -1.942015254279658501e-02 -4.300457094845017841e-02 -1.152607806637412011e-02 1.481991575977061569e-02 -9.301214265654117463e-02 -5.826962446562095228e-03 8.242392649973314181e-03 -1.993695865641974523e-03 -6.154203585964541229e-03 4.816557488832088479e-03 -9.898739013481382826e-03 -2.300497308856020058e-03 4.816354112792397418e-02 -2.671119295024149132e-02 1.310127658855311274e-02 6.830489846140764794e-04 8.445365427922527091e-03 4.187894531123458747e-03 1.132130935861386939e-02 3.838820278422309246e-02 1.032328461390239795e-02 8.677535401114100377e-02 -1.699700430083534927e-02
9.034150826841497520e-04 7.293748409632166800e-03 -3.902704339618601193e-02 6.959155647945058573e-03 2.564584276232863280e-02 -6.169156091371376383e-02 -4.882790753333495111e-03 -1.028958898358358666e-02 4.618208874265140179e-02 2.960675532731170401e-02 7.822598835317585986e-02 -6.845800914059792242e-02 -5.318483750796581741e-03 8.155062623685251089e-02 -3.800174228786350888e-02 -9.499700989095707926e-02 -6.559975550457690374e-02 -2.586218664496286665e-02 1.249748293936970211e-03 -2.584133766133347304e-02 1.077084453579094103e-01 9.861277993083257445e-04 -2.690198236881157293e-02 6.198168945231569832e-02 1.517304882077430764e-02 4.037945879790905135e-02 3.682503925690343120e-03 1.031885427200180012e-02 5.858066264692135539e-02 1.199725017024356674e-02 -3.777929369088479927e-02 -5.562987050154227699e-04 9.924888224882032900e-03 3.341431215377234452e-03 1.817782918426502636e-02 5.394427396921358010e-03 -5.750229979629335048e-03 3.011480927828512691e-02 2.056328990237677248e-02 4.450312850122799951e-02 7.417998667880672074e-03 -4.501580170822391119e-02 -5.935694016982636517e-02 3.929751280642920785e-02 2.501442452758180848e-02 1.734015171042418632e-02 -3.156935607782444635e-03 -5.307449886413943829e-02 -4.031629052475461245e-02 -1.630768110350652028e-02 -2.177105145288144722e-02 -1.000561831993064532e-02 -1.836477547591799583e-03 2.418570394141852584e-02 1.444355094635322288e-04 -5.268504036693051618e-03 3.561103480601189521e-04 1.193473629352600595e-04 -4.267465162608900103e-02 -1.309861442461728205e-02 -3.922471624216199160e-02 2.979249101813092118e-02 -5.136077062114793867e-02 1.505688622729737212e-02 -7.529297822621518383e-05 3.726659933045727013e-02 -5.516777062463880908e-03 4.007522725865881458e-02 -2.318766606943709410e-02 -4.164279052166421774e-02 -4.105301045140574701e-02 2.764709127602204761e-02 5.834416675754345964e-03 7.103488313401936163e-03 2.451056143626608938e-02 4.008332230152563541e-02 9.383366369608235266e-03 -4.629834288300213770e-03 -2.440477016511117744e-02 -3.966534587850456539e-03
4.448160936286153777e-02 4.745426356677151861e-03 -3.555582993099122568e-02 5.475741650892536165e-03 -1.975636008415756172e-03 -5.114560502093931649e-02 -1.428250249730617788e-02 -1.215451798654018471e-02 -4.674854348161513323e-02 2.171319142353402010e-02 4.619005880740816028e-02 7.831537876944595633e-02 2.715800394082670474e-02 5.945057648652293109e-02 -1.760777637834419138e-02 5.502684667114781519e-02 -2.058370936607772927e-02 -4.752922026469203268e-03 -3.918843807776980701e-03 8.352818409387330334e-02 -3.497162025325897122e-02 6.651557364753447714e-03 -5.871442848016514976e-02 4.442493676636499050e-02 3.860642655425956804e-02 -4.157446742244034002e-03 -9.705683228769301785e-03 -8.027185559431134279e-03 5.723371347003015225e-02 3.173265437548893064e-02 2.140881852456868670e-02 1.034441756632853600e-02 3.507488057519307905e-03 4.826786983864721908e-03 -5.181089268815763753e-03 -1.869641570218939092e-02 -1.653061559325057130e-03 -6.240715480215754075e-04 5.708516935086445365e-02 -4.036733001000425425e-02 1.053652134740273817e-03 8.487275575537645000e-02 3.344853525852269083e-02 -3.679487751117164335e-02 -1.942806466549654165e-02 -2.546388794425122337e-02 -7.816926617261753946e-03 -5.937376231744064675e-02 -2.403851159781675642e-02 1.950279681560562837e-03 4.743866210925041550e-03 -2.108799977740091758e-03 6.133266148624644774e-03 -2.906958029125379910e-03 4.022921237079459846e-03 6.587876009117654870e-03 5.942433512040238425e-02 2.642019358031864884e-02 4.190556969047954522e-02 -5.004434461046222693e-02 -3.768071591135786769e-02 4.437851712634484358e-02 -9.144134306746859453e-02 1.658413787125275971e-02 -1.781787966019863015e-03 3.238780130286283976e-02 7.596629630022743373e-05 -2.058167659352260273e-02 -5.141234070571514686e-02 5.978278496977562639e-02 -4.652177276455581739e-02 -2.125343884157994065e-02 -2.079619932341277098e-03 -7.583516300816498662e-03 1.280881792732914588e-02 1.075831267084582585e-02 1.398425510449546189e-02 2.452196703881991124e-03 8.617907221474399582e-02 1.587303330898812452e-03
-6.633218050539625710e-02 -1.047427098510125311e-02 -3.795327466480475503e-02 -2.895543910066633152e-03 1.961617093150994431e-02 2.362966835912791441e-02 -3.320838189362612658e-02 -1.133179534158921045e-02 -7.112393216913431848e-02 7.357391452068508253e-02 8.802467345768848900e-03 -1.862299766577813279e-02 -2.176616419725462687e-02 -1.895295457087409902e-02 1.342572237153099018e-03 -4.688826451475298918e-02 -2.245285536003431386e-03 -2.676336240457249938e-02 -7.599514776586374989e-03 2.349063569147838426e-02 1.561589960684413823e-02 3.372868698937955042e-03 -3.717413189694543374e-02 2.167678119143674059e-02 4.946541617727293408e-03 4.660531188214538795e-02 -1.126392602175498546e-02 -2.422360310801707078e-02 -3.178937213959425433e-03 3.248801033181038158e-03 1.237471969029050461e-02 2.511560517380670779e-02 -1.050209978763220293e-03 2.259410127078272448e-02 3.040491368849809403e-02 1.099921344108950733e-01 8.031115193163731666e-03 -3.002559494139541915e-02 -4.130777470880940550e-02 -4.708937513945937042e-02 3.111907860072067947e-03 -1.071918553574646368e-02 -3.265297219837706016e-02 -6.234278451545791772e-02 1.214111649747209309e-01 -1.904358589249450714e-02 -8.307951286002141942e-04 3.015331952889107117e-02 -3.707823710847193283e-02 -7.566582387843875587e-04 -1.326714199846244086e-02 -3.509475591011609191e-02 7.021208155434032101e-03 9.997992159712356872e-03 8.621559586097718095e-03 6.536007270810731407e-04 -4.353022564038213499e-02 -4.046844649720995196e-02 8.197296958613253803e-02 -2.001003976466867243e-02 1.522370216261463224e-02 -3.289047183340146254e-03 -4.276840772679706311e-03 2.055295661061013954e-02 -1.243154851477788411e-02 -1.707777265682779155e-02 1.761017136908288880e-03 -2.627212539468563521e-02 -1.899424584903306942e-02 6.374572346434458602e-03 6.950923048156157358e-02 -1.702484816820833829e-02 -1.775871649136042058e-03 -2.132333708807185660e-02 -4.228574814137416732e-02 7.184176492153006299e-03 -3.875655646636858020e-02 -8.564488272209755046e-03 5.297775501740225462e-02 2.363210916662051957e-03
1.495110168005124411e-02 6.697841984067839753e-03 5.961857088215584410e-02 -4.166596195019312172e-03 2.220477831720741799e-02 -3.056141974830532335e-02 7.263199600175257453e-02 8.922581540566285052e-03 2.274306691910792794e-02 -8.711381367222116590e-02 -1.383752731554100356e-02 2.644893782579784899e-02 -1.633069828426587239e-02 -2.160110576681512073e-02 2.337415051694324494e-02 -1.991797901507655431e-03 2.691146406010167316e-02 9.916936971430945214e-02 2.742865097925195270e-02 -4.280074103322734948e-03 -8.674668999133820779e-03 1.110143033934284486e-03 1.135416470491636964e-01 1.100638808335709703e-03 -8.923380534187841384e-03 -4.264734414501230447e-02 4.445307022725897284e-02 -2.036812898964698165e-02 -2.425795052603662780e-02 7.523881600454792283e-03 -1.170587423251241016e-01 2.831876674656332374e-02 4.406385659291790942e-03 -4.875963857829121451e-02 -2.864609733860939414e-04 1.283969025147814295e-02 -9.694098842056884458e-04 6.766556325720887721e-03 -1.233502653991697465e-02 -1.249494484122313717e-02 -6.709224233124243611e-03 -3.387240798363636181e-03 -1.174597610471569227e-03 -1.430538502888398754e-02 -7.671918354738296864e-02 -8.147463176613010949e-02 -2.428083486013307007e-03 -5.482922405653203185e-02 2.251383543699438106e-02 -9.126502872768811961e-03 -1.668014570111560693e-02 -1.229190393222925545e-02 7.237175140882016328e-03 2.942150537536796905e-03 -9.792004817233164807e-03 6.699500269576010546e-03 -3.159270265889072005e-02 1.067463758133100349e-01 -6.006948304121729337e-02 -7.275144965110309260e-03 7.109237410636386201e-02 6.938723652779034412e-02 3.697002895858193111e-02 -5.417199287572296851e-02 -6.761136581231413749e-03 4.575214161336527141e-02 8.330128492280328492e-03 4.180122701486880393e-02 2.357773968290528474e-02 8.083636240663728476e-03 2.529069182493873941e-02 1.960864038015164409e-04 2.553910358651383713e-03 2.074774194574392772e-02 -1.856579046758748477e-02 -1.986862187227900894e-02 -3.544295368051657985e-02 -1.065358575435123569e-03 -1.613419398458252468e-02 -3.753239341469842105e-04
-5.421681099884638130e-03 5.134670777601814569e-03 2.184706200033880927e-02 6.898967234979046410e-03 -1.173560655993441566e-02 -2.639364098584839891e-03 3.688408550087210469e-02 2.555318593084754050e-02 2.408575043925337972e-02 -2.486970501414629414e-02 1.221887054082472328e-02 -7.377425884223391683e-02 2.144802526897736025e-02 -1.344958374929171134e-02 7.043869213660476636e-02 2.152835420659330104e-02 -5.185122477540701075e-02 -5.277612179283026894e-02 8.440242251359754769e-03 1.081957192093752594e-02 3.914972489663957021e-03 -6.021648014736074445e-03 -9.676671972454305160e-02 -3.002677831529577263e-02 1.172540269328643803e-02 5.088532619435994463e-03 1.156240026595081391e-02 6.846609134992903689e-02 -3.272074198259554423e-02 -3.637423667369020595e-03 2.667434615587016208e-02 -2.398187918118746542e-02 -5.134684303235538712e-03 -2.920549575890064864e-02 -3.300426636966331644e-03 3.857597176754651996e-02 -4.436126091112509336e-03 -9.525681148995319373e-04 6.327148491603377944e-02 5.246369594748191006e-02 4.807856351684325867e-03 -6.992791491408085168e-03 -6.144038011012160037e-03 9.383487133480940962e-03 4.433570746667545026e-02 9.252325153611759556e-02 -9.572343748440494127e-03 1.440862370536943604e-01 9.794582646451494359e-03 -1.109236418071353307e-02 4.138519610865680314e-03 2.576100272464535920e-02 -9.515740440114783122e-03 -4.790337337415286056e-02 -6.205411759448045336e-03 -5.077440595310936736e-03 -4.837001655906693343e-02 1.901921073856648742e-02 -1.190771461617897223e-02 3.305907318404588402e-02 3.325973663043692297e-02 -2.134416469331893232e-02 1.233787863608656471e-01 -9.209962197774076986e-03 -8.680514473901640438e-03 1.900229822950885716e-02 7.218766599691648495e-03 -1.117763699904931150e-02 -1.752126935724063195e-02 -7.064384299917089716e-02 2.957798526108330536e-02 7.117838378767868228e-03 5.805918967666737728e-03 -2.385531457379005960e-02 -1.199263312714321170e-02 -4.134065903464243658e-02 5.508888902057269832e-02 8.640921666371913570e-03 -5.877345197354438833e-02 2.369260780991253729e-02
1.441357493809025669e-02 -7.639563593049126557e-03 -3.755500804715670299e-02 -3.591709843193285380e-03 -1.774616458975235289e-02 2.807743599810321768e-03 -6.640771289625806151e-02 1.631683164198967362e-02 4.064394596233515677e-02 -6.673498150226565839e-02 5.595807915999225640e-03 2.375951474467197233e-02 -1.964080892206870529e-02 -4.189827337257139017e-02 2.374541099333814242e-02 7.617174557935013635e-02 -2.381915133429032827e-02 -6.505512010934194622e-02 3.303889818613762325e-02 -4.331251081438813183e-02 -5.538920158433191521e-02 2.642483364806747902e-03 4.641118289292218285e-02 -5.507523976363021961e-02 -1.666304541259689548e-02 -5.418210670529228362e-02 -7.767034733891149158e-03 1.070800915080427282e-02 4.435782618859517024e-02 1.026683057025085111e-01 2.022540057982248618e-02 -3.414359008088828362e-02 -3.750527099843317235e-03 -1.994718845044316652e-02 -6.886615557485887759e-03 -2.807725307346599364e-02 -4.621671251135449181e-03 -8.769511456620200651e-03 -2.784616700201184643e-04 -2.370336316305061281e-02 5.304907061195705820e-03 -2.672857155211586649e-02 9.227169587994911784e-03 5.109155798062918474e-02 -4.153460692538577664e-02 -5.667893399147495674e-03 -6.037459162436253045e-03 5.302739763056411176e-02 -5.037567705327263695e-02 5.244063949111309880e-02 5.704883484980470543e-02 2.986943598497575868e-03 -2.078320686005246786e-03 -1.528576940404734359e-02 3.008345290432940661e-03 7.746875067097734775e-03 3.837124139269222634e-02 1.551296084172948918e-02 -4.544132869881130354e-02 2.436498953043790550e-02 -5.078368465539097321e-02 8.340411376790712178e-03 4.929604968048930530e-02 -3.556293228613469082e-02 6.617208432614665736e-03 2.263343480386616549e-02 3.432699840229929463e-03 -1.573204858981041079e-02 -4.430127491722911370e-02 -6.094489634855663335e-02 -3.399951646547572093e-02 -1.777501328740752843e-03 3.098015501119965806e-03 1.523092958831330501e-02 9.451972802781961891e-02 -4.359768405719621071e-02 7.106680291794550963e-03 5.126133451604204284e-03 -1.948833607361260753e-02 -3.398487521986761923e-03
-8.625702742177922266e-03 4.052375158541574041e-02 4.338282009412453705e-02 -8.588609287693166686e-03 -2.549925077801765139e-02 2.930039168163036875e-02 6.167437747151322674e-02 7.310055190041331828e-03 -2.242916612017770150e-02 4.102544193517861093e-02 6.008100068075877820e-02 9.055950476235102853e-02 4.722630262514344174e-02 8.145896869546870311e-02 -4.074566977532954187e-02 -8.253441375872710983e-02 3.742261723332666878e-02 -2.169683369430483108e-02 -2.282098241078050951e-03 4.742758317347826533e-03 -1.919296330527721708e-02 -4.568897092595955792e-03 -3.917066057578077326e-02 4.150825814263484764e-02 -1.354107784007500641e-02 2.278796107201979185e-02 8.974166158216704062e-03 -3.064314566794972342e-02 5.222081820900656424e-02 -1.097780242467782594e-02 -4.148581634361240417e-02 4.709292520143413402e-02 2.205175168819740929e-03 2.008796756058784522e-02 -7.008928662853823252e-03 2.974785401874330271e-02 3.201473890184563034e-03 1.569675118452808216e-02 2.969675594093387425e-02 1.882606409285839458e-02 -6.690359155361204693e-03 -4.343711824072637485e-03 -4.114356235332317091e-02 -1.428142170596800702e-02 -8.902124092081821483e-02 1.817417148220056011e-02 4.197081642697878499e-03 -7.069202026555915230e-02 5.195078004198531996e-02 3.605768326009910901e-02 -4.023195180422817208e-02 -1.702169474105070038e-02 4.790336068655532721e-03 -2.520128830119894303e-02 5.201097119442060421e-03 1.433344648580897954e-02 -2.938332439419995279e-02 -2.256520553981799723e-02 7.321507304068491928e-02 1.329075304484412731e-02 -1.780517439222095016e-02 -6.345709992818975020e-02 -7.136770302269529465e-02 5.897273076551617227e-02 -8.126286099490051540e-03 -3.537491221902923366e-03 -3.230393796298840041e-03 2.058284259795776019e-02 4.827396362607065672e-02 9.074071503889663548e-02 -3.190848944274669863e-02 -3.942232647742106855e-03 3.056825718591068587e-03 -1.536795025541129629e-02 -3.303676929017632102e-02 -3.634754544840909825e-03 5.859838295555210019e-02 2.521654833616565269e-02 -2.566661259929764113e-02 1.403205715750350038e-02
-7.144619332837900960e-02 -6.656047731135514116e-03 2.927327761859494643e-02 -9.106542026941848514e-03 1.061545330572917674e-02 2.384297164472889974e-02 -3.392053286367829185e-02 7.208459647456668534e-03 1.788883945015702984e-02 -3.950518905489110860e-02 -2.941935142994734839e-02 -8.654130293265603624e-02 -1.294761085266413723e-02 -4.280073939798612059e-02 -2.980109477440029409e-02 4.581561082238287674e-02 1.967966109090572499e-02 5.790214629552707659e-02 -3.159664667545594718e-02 -3.411650427943614672e-02 2.979812652883397084e-02 -8.121559719564833482e-03 3.692581487583019434e-02 2.980727285708987054e-02 3.913453754495708342e-02 -4.001230162897001161e-03 1.902983084833836805e-03 -2.908025629314513541e-02 1.172878554280466605e-02 -4.506010120548761821e-02 5.171299558949050967e-02 -6.972476466132275508e-02 8.142747548338125432e-03 9.374882425481355364e-02 -9.135120237308563471e-03 -6.897895660009570329e-02 -2.990411399277114520e-03 -1.484545966971874062e-02 3.193079794627046598e-03 -2.036961089703692718e-02 3.713106406713564608e-03 7.109676608651376364e-03 3.802512728866806746e-02 2.915156234261398471e-02 6.972162408017872071e-02 -5.450122629230323007e-02 -7.354669361930399156e-03 6.902623443330040305e-03 6.514133423668061473e-02 -4.686428757030321537e-03 -7.298535244508604428e-03 2.733083505095543209e-02 -5.992945061430635274e-03 1.259987658987229801e-02 -9.076653006233644308e-03 9.445019909530534899e-03 3.701616720752440998e-02 -1.960469462630242549e-02 3.901261114381243678e-03 -6.677197244529609055e-02 -6.990117134677793559e-04 2.589264667434583445e-02 3.706148996653969852e-02 -4.400661099929254610e-02 1.068295004217535748e-03 -6.633719700972320887e-02 9.484922731018060119e-03 -3.582054009587009452e-02 4.733606450248364211e-02 -6.590340091360245844e-02 -2.706446640450178506e-03 -3.894149546547537658e-03 -5.715405468948301856e-03 -3.446725035132133103e-02 -5.997662530279473936e-02 -2.045265007684511985e-02 -5.267553363685571061e-02 8.465760267187960250e-03 -2.959770164328332648e-02 -2.486893807825894462e-02
2.100069863211727339e-02 -3.745027218771530830e-02 1.771557961160519570e-02 -7.215529374696354713e-03 2.038872463074727429e-02 3.242340095934983374e-02 1.383220709153306846e-02 -2.611917879919400595e-02 1.753150472407948024e-02 4.655456162918420598e-02 -1.102078479646471515e-01 5.390357108603231577e-03 -1.741017687090169394e-02 -3.044218114215356541e-02 -7.409098472232045207e-02 2.843336804408822319e-02 6.114479709519764217e-02 3.944497670370356729e-02 -4.465716976746902933e-02 -1.796310113212295362e-02 2.505349987293139027e-02 2.512014217709467121e-03 5.507146482391294534e-02 -6.383738433697466741e-02 -4.476675397622782715e-02 -1.737148576895425345e-02 -4.871216204386325660e-02 3.747134628846460896e-02 -1.222171988330793407e-01 -9.896270408191781831e-02 -7.673413900464716268e-03 2.503846911436031011e-02 6.721856712049755107e-03 1.619738112652879120e-02 -6.266977045984243287e-03 -8.641774532012589868e-03 8.889336085239127674e-03 -3.413501970336458528e-03 -7.096352298519884028e-02 1.922343132755123182e-02 4.963908606178818461e-03 1.445864757656759210e-02 -1.276529588177867554e-02 -5.688749993414064787e-02 1.819574904564279227e-02 4.030749045750352255e-02 4.059552104391049750e-03 -4.380094694582272602e-02 7.553764778589958095e-02 -5.581243742915006911e-02 3.481798807274082141e-02 -2.058308692960858846e-02 -3.317851525200253863e-04 2.324375100391146143e-02 -6.941112592062973451e-03 -6.461822927034259782e-04 -8.726848236404001133e-03 -3.977560499851406223e-02 9.148351480890207742e-04 8.904709239999004933e-02 3.621374145685039847e-02 2.955510924145461280e-02 -2.737069676178197769e-02 9.765716221113511855e-03 1.478497960365705681e-02 -4.227604478438652669e-02 -6.812308155224315598e-03 3.870291640368802438e-02 4.885549265363363369e-02 2.081707996740143896e-02 4.784577820288966193e-02 2.714117417499163284e-02 -4.230846918661206914e-03 4.400425216366782993e-02 2.751930676469033221e-02 4.199884243127831318e-02 -4.723967596119255791e-02 -1.798661441441556583e-02 -5.145575976308856825e-02 6.490991402668751416e-03
