7.040456915612247971e-03 -1.355667275585219428e-03 -4.042805024061111620e-03 -7.317867023471522937e-03 -7.903644235462354076e-03 -7.341751935990670046e-03 9.071927371872583537e-03 9.455415725026245638e-03 -2.385087858728793947e-03 5.426001969713316331e-03 -9.324491623642693766e-03 5.911844335424704805e-03 -4.223797107904023879e-03 8.053143493871739098e-03 1.950100752749392950e-03 -7.947228446992018677e-03 7.191462824579419530e-03 1.761475570534216635e-03 5.581409311758065393e-03 9.821242616857676910e-03 2.202096677998917167e-03 6.588144932243273667e-03 7.762734150796162316e-03 7.844225094816088817e-03 -1.398723118560354396e-03 -8.232868013099425147e-03 6.428159133078235193e-03 5.747429120532289958e-03 -2.737578709370396251e-03 -5.829247374873420574e-03 -8.709398956284300150e-03 -1.725494955733504216e-03 2.253816706696827425e-03 -3.364182293421280829e-04 1.566658059493145506e-03 4.348218695604697155e-03 4.677917887120632348e-03 6.577527844675318085e-03 1.595451753604040183e-03 -7.094540550729824466e-03 -2.679565427923547797e-03 -3.266667528017604041e-03 -1.552758101433333957e-03 -3.478425931175750489e-03 -1.221656490763369830e-03 -3.162940534771816717e-04 -6.148643973210183309e-04 3.474764155209091650e-03 1.270456757306906307e-03 7.907502243144116233e-03 -3.506543066097220565e-03 -9.831807804158553682e-03 1.107241635751612290e-03 5.711620579452438874e-03 6.179211015652988012e-03 9.365001361481271533e-03 1.929185352992219800e-03 -6.803767923520043052e-03 7.463179537728139266e-03 4.270444314948056326e-03 5.143139211917753008e-03 5.097640448638824512e-03 -4.157815190027677223e-03 -5.172237411219527932e-04 6.706122470577527373e-04 5.782162465627743372e-03 -8.963171288926194413e-03 -1.004055099257989379e-02 3.895579607622576528e-03 -5.094060129017574483e-03 -7.945602941332582589e-03 3.758850189139764392e-03 -5.084545074012608752e-03 3.605682609793730078e-03 1.228770123463624131e-05 6.073648221590254026e-03 -3.368832164722493881e-03 7.403918407786013074e-03 -7.731839678039691133e-03 -5.885404083904850845e-04 -2.767662983892780343e-03 9.908838395607650479e-03 2.369579434103232657e-03 8.856072916985473220e-03 3.660093683338714286e-03 -6.417456827201908735e-03 -5.864804040833675354e-03 -5.716745091711510421e-03 -6.968051077644710602e-04 2.858985397277422416e-03 3.392690623454727369e-03 -8.537300516009762100e-03 -9.979583195977947616e-03 7.938271905017302635e-03 -3.584322625458659720e-03 1.003157867194915667e-03 -1.018500131770482507e-02 -4.868577666161312545e-03 -2.577833016602005655e-03 -5.122957765483655661e-03 3.436201741725764848e-03 -1.371753765637894612e-02 -1.291866215404492528e-02 -1.294311451793192340e-02 -2.756297011418293395e-03 -9.399939793921939426e-04 9.308199863033179283e-03 -8.238779625029203635e-03 -9.746968271291026054e-03 -8.369596544402746821e-03 1.688249482517201281e-04 1.025465254394528590e-03 -7.499389274721614783e-03 -1.718728478645899053e-03 -8.638723473617632154e-03 -4.248752515504335137e-03 -5.557744552903421710e-03 4.905250960849502281e-03 1.299866486631495299e-03 -1.132152200717669250e-03 -6.948448249171752973e-03 -7.537168344000841173e-03 7.625425603988131990e-03 -9.283298096591376114e-03 -8.619601097378288765e-03 -6.281622179808978197e-03 6.166177294058532035e-05 -8.275064937179707480e-03 -1.119250500779025992e-02 -3.003025250199464324e-03 -7.238538381958657501e-03 1.290817649916098245e-03 -7.730834591426869948e-03 6.673602474790237341e-03 -1.099800046185665965e-02 -6.091289885370202231e-03 -3.938785948660459418e-03 -6.158360767500350476e-03 3.352156893866179224e-03 -8.984484699960923471e-03 5.310598710764034142e-03 6.788704185678118503e-04 -4.710556344286750442e-03 3.284795251540347221e-03 8.307012880461056180e-04 -5.181558858737291516e-03 -6.916345856706593645e-03 3.010862142226338779e-04 -8.222386047098842118e-03 -6.656092480439377256e-03 -1.300000578400791092e-02 -1.583426904953931166e-02 9.324481307049270527e-05 -1.493613830327938236e-02 -5.429509378515617185e-03 -5.361148207128615733e-04 -1.025769419176916254e-02 -1.828164941755551845e-02 -1.702014533017793402e-02 -6.659952348671266571e-03 -1.125334548794942402e-03 -1.122928852680502541e-02 -3.483173376520950701e-03 -5.910164039913557571e-03 6.278551531982941476e-03 3.650562536598992661e-03 3.567088295753624225e-03 4.493532188505637917e-03 5.577040064852895745e-03 -2.559452258104295570e-03 9.264384407366104898e-03 3.753743743021873769e-04 7.845473225048494106e-03 3.309539304331311684e-03 -4.870404892155538734e-03 -7.932631241450892800e-04 -2.080499682318151609e-03 -1.244501129134360611e-02 -4.758463799172145230e-03 -1.498347222899423445e-02 -3.009972387206534712e-03 -2.771389737597251476e-03 -2.263476367521032040e-02 -9.729120603805735401e-03 -2.183935728533474910e-02 -1.822428311773281089e-03 -2.871364530209730235e-03 -3.157020082073414002e-03 2.798319215175591821e-03 8.014741969063468932e-03 -5.432987317864197870e-03 9.796092116891013529e-03 -2.080475582499124922e-03 7.395392078403841343e-03 6.596427737932192975e-03 -3.399927415988559642e-03 -5.608280028476846091e-03 -8.667957245165978236e-03 7.292373203797085542e-03 3.945276364166164403e-03 -1.778742679045300715e-03 6.973169354259035717e-03 1.459816361786190914e-03 -5.399071987524940155e-04 -1.919030889204491027e-03 2.128888380993436240e-03 -9.801117357849508521e-04 -4.079012468492453948e-03 -1.188185566992385270e-02 -2.266226619262446534e-02 -1.992250835206244367e-02 -1.913192899609829703e-02 -1.543411330038700104e-02 -6.182784295961312078e-03 -1.101751434108490593e-02 -9.536173855856432818e-03 4.455003793368269107e-04 -7.043892687222510184e-03 5.955238452843006867e-03 1.027523112714004080e-02 -2.146189928106212279e-03 -8.277171610492588608e-03 9.586725248670741051e-03 2.175879791090155543e-03 -8.466891048862768693e-03 -6.840206386664082414e-03 -7.325154553764118281e-03 4.992608123645723810e-03 -1.201262766230848334e-03 -1.030279619619403793e-02 4.057136200611197825e-04 -1.115088248100757663e-02 -8.853089992509262027e-03 -1.235356456631198953e-02 -2.240454712965804507e-02 -2.216876591575344183e-02 -1.859485737805718561e-02 -2.468971062547331563e-02 -9.570907334519764345e-03 -1.734879105781865494e-02 -2.305720844568436359e-02 -8.896164482227538958e-03 -1.127406254969902030e-02 -1.691000442571208295e-02 -1.382978965819153284e-02 -2.373335831200851492e-03 4.695090811581311557e-03 8.244511902760551583e-03 1.108036578982080772e-02 -9.121207294710984015e-03 -4.731192279596306560e-03 -9.688495722784011555e-03 -6.650919232808183684e-04 -8.780584371774967714e-03 -9.008389705471346598e-03 -6.158739316305214973e-04 7.556976212919943800e-03 6.488462173862919249e-03 -7.079490724474399657e-03 -6.341048306629658467e-03 -2.339602328446874387e-03 -7.335435959895090889e-03 -1.819084558868907728e-02 -1.155805309280109536e-02 -1.495696960593343068e-02 -1.671656407850560105e-02 -8.408289253859455373e-03 -1.840507087596994842e-02 -1.693842078678100757e-02 -1.177149174949078392e-02 -1.566369904552280742e-02 -2.337202175119945657e-02 -4.311336166165611467e-03 -8.675957845123944551e-03 4.462945385328694579e-03 1.034069441018596602e-02 4.607840346443415822e-03 -1.893042976710838021e-03 3.681680996409840596e-03 4.151591640119070212e-03 9.511596962572067826e-03 9.503871207692596301e-03 -1.539977391527915006e-03 -4.282867345070176524e-03 -7.028261346603163762e-03 -1.875371282934253526e-03 -4.032595733373998612e-03 2.310717789187719136e-04 -4.386663920527748384e-04 -2.116852077477425487e-02 -2.022439886401000350e-02 -1.823015882772902746e-02 -1.448023017226255336e-02 -1.332276730246196618e-02 -8.156080817155381135e-03 -1.857758421252879433e-02 -5.350286579828376389e-03 -1.932684300107478242e-02 -2.491160006468829888e-02 -1.624798216392166206e-02 -6.802351905872097704e-03 1.962513559946462826e-03 2.175470268057325129e-03 -8.621360825909680711e-03 4.438618966329195559e-03 8.469631492239063780e-03 4.020759581291788627e-03 -7.845259088780039136e-03 -4.102886896728095457e-03 2.231171604426171549e-03 9.845670606364462923e-03 -9.963446242026701566e-03 -7.412511648130034117e-03 -6.247532990955479218e-03 -9.845133976640111501e-03 -1.120279973116791901e-02 -1.989140312121498704e-03 -9.706531629803446387e-03 -1.787218971419438735e-03 -1.218961569240334386e-02 -1.256827372121455035e-03 -1.404511753656936812e-02 -1.128039610314778007e-02 -1.261203608347859911e-02 -2.167143259915494183e-02 -1.403646772092098649e-02 -1.986742537274790651e-02 -2.360322404643603114e-02 -9.181445979228522805e-03 -1.579475074411508095e-03 3.919666007665493709e-03 -9.644864086537830242e-03 9.182658365953196358e-03 9.642062884243360679e-03 -7.768317526187894749e-03 6.912858670210324762e-03 -6.515933664731710442e-03 7.234399645807256495e-03 8.249155006118221584e-03 -5.424454890509838173e-03 1.809989910453553823e-03 -9.989369884360698934e-03 -9.143908421358053554e-03 3.277024159769460591e-03 -5.963754453901815369e-03 -4.805018612326865737e-03 -8.789821265520098709e-03 -1.135569021234202926e-02 -6.629159133188591152e-03 -7.387617268946618417e-03 -1.218021127338910978e-02 -1.496258524383619302e-02 -2.339152613405045059e-02 -2.813851311923621507e-02 -2.628139067656253339e-02 -2.756708373698942005e-02 -2.057615670774489564e-02 -1.129600629485981098e-02 3.167520450931680942e-03 -3.866866333511743449e-03 -3.360076922498682513e-04 -4.307464584995494318e-03 7.502172573139819119e-03 -3.668226414022550744e-03 7.177931867435561122e-03 7.753933808572643048e-03 6.946250450753821588e-03 2.968027897068380334e-03 2.534418970126271070e-03 1.549412175472784318e-03 -7.178351847496961848e-03 2.110626033894052057e-03 -9.629488010983164314e-03 -4.195645787897576626e-03 -1.951832978650101108e-02 -9.751379663145057219e-03 -8.443136151289075463e-06 -5.691196695854152006e-03 -1.421777778040352221e-02 -2.027638872362820532e-02 -1.694547667524670675e-02 -1.810939130940120503e-02 -1.783471312214702370e-02 -1.983879832290047843e-02 -2.114197724998939654e-02 -8.651850712963678539e-03 6.633088677870085242e-03 -9.562838709069735807e-03 3.347848660955496120e-03 -3.759292173862175540e-03 6.500552501307178647e-03 1.790887373797309633e-03 -3.641773311515883460e-03 4.594823713008120043e-03 -1.820689107672250140e-03 9.133460940864786617e-03 7.465634075475497018e-03 -5.101420226812470454e-03 -3.566501768906386177e-03 -8.584330656428329487e-03 -1.194308094611799820e-02 -1.674053563471788325e-02 -4.593753536595416437e-03 -1.033431815272268378e-02 -1.202326529515108239e-02 -2.098774539741670581e-02 -2.807002182623906383e-02 -2.043883404162982406e-02 -3.535061932280713498e-02 -2.428098824037090014e-02 -1.972225525612518460e-02 -2.103119444706111341e-02 -4.645878714983763154e-03 -1.264224703570923126e-02 6.425405628716952984e-03 1.789291612195024420e-03 -1.687779238514694686e-03 -4.473234303095125798e-03 -2.536978253851282505e-03 5.920934525700143232e-03 1.472229120126824749e-03 -1.538602233245553973e-03 8.869860293897845541e-03 7.360073460793987998e-03 -8.808335294651244846e-03 1.380751462206092567e-03 -1.095225698645617418e-02 -1.304210911307809515e-02 -2.048243800605015902e-02 -1.854001038338693591e-02 -1.918359186077102721e-02 -2.504965202331861304e-02 -1.646242697000638994e-02 -1.465276807723365354e-02 -1.804239566619878291e-02 -2.874128927440685460e-02 -2.796896705725237381e-02 -2.120393892089850185e-02 -2.137694834885410164e-02 -1.096190498823908233e-02 -8.649473803681995490e-03 -5.978831508136678990e-03 -1.311747381494306024e-02 -4.758307029499256151e-03 -7.745688180712779515e-03 -7.408419564781220778e-04 5.781806843100156974e-03 -6.873770168693140586e-03 8.049561596748274275e-03 9.164809577363814200e-03 -9.990746822745399588e-03 -8.463589508400291145e-03 -2.023029303268970673e-03 -6.303362417038682088e-03 -1.265416553319150851e-02 -6.079256806956125948e-03 -1.339083360746274459e-02 -1.034283594681404371e-02 -2.210855179442818702e-02 -2.114566358026652437e-02 -2.513192461186168625e-02 -1.820077718629316971e-02 -2.794408754594260302e-02 -2.486877534046238666e-02 -1.877545219511328120e-02 -1.426853707661873867e-02 -1.759805092700105628e-02 -8.448620969980712506e-03 -1.363555331679958821e-02 -5.675750470579624986e-03 -3.721730171565230689e-03 4.830387784701587785e-03 -1.434972601877659544e-03 -1.732703291828632591e-03 1.117298121748122727e-03 7.626161756383867223e-03 8.810122495657834313e-03 7.898727428706275909e-04 6.591202367071090536e-03 -9.564568262732657533e-03 3.592831224602630220e-03 5.969118176631716885e-03 4.995451899729695840e-03 -1.246058877468284899e-02 -8.423815916211751728e-03 -1.375787872182748263e-02 -1.373914723636945716e-02 -2.200307554100144197e-02 -2.554673665689099343e-02 -2.900913706118185206e-02 -1.534116071163124477e-02 -3.319793568514400189e-02 -1.741629223952599614e-02 -1.795972778098278363e-02 -9.495900771314550251e-03 -6.541088339008172686e-03 -1.005119433582864728e-02 2.319988371463332141e-03 -1.203550759258335476e-02 -9.685471880042324788e-03 -1.504901711745026309e-03 -9.834795315666462062e-03 -2.018245996380711553e-03 -2.608820775165829938e-03 -9.707272924305573132e-04 2.154982699652927339e-03 -4.996814746788923699e-03 8.116573491098713535e-04 -6.516222062556894026e-03 -6.903445100645585857e-03 -9.703771377012509677e-03 2.374626807191619008e-03 -1.150004196392357889e-02 -1.905647181546271315e-02 -1.833483556316448104e-02 -1.342956254427557852e-02 -2.361934554594862304e-02 -3.022808103167486105e-02 -2.094966966189970234e-02 -2.081693052470414210e-02 -1.379262131114457682e-02 -1.281827263095536816e-02 -1.072600472255261922e-02 -7.077325656273379152e-03 -3.358586678527651376e-04 3.825194574629989935e-03 6.461305972772070014e-03 2.579346489773374465e-04 6.296739808441389336e-03 -5.469192586753864570e-03 -9.030884614627143758e-03 9.546943286021580127e-03 7.206726469242284022e-03 7.675482978316446048e-03 5.683166171702368381e-03 6.525021096233269390e-03 4.681679901017172553e-03 5.480085571380080393e-03 -1.053774833458546306e-02 -3.035719029001263287e-03 -1.052864561105654358e-02 -1.834348455330851030e-02 -1.916856577573064838e-02 -1.221816455966918957e-02 -2.345253917211324174e-02 -1.706090322476710996e-02 -2.541894778339352096e-02 -1.853151210862771445e-02 -3.088276752094422373e-02 -2.522851986386916504e-02 -1.829273364409557401e-02 -1.321240893327003257e-02 -1.465925028090410767e-02 -4.700146907761730032e-03 3.976391660216063370e-03 4.379902317804709386e-03 -9.975447924117966311e-03 6.504529141181610019e-03 7.459356548454807931e-03 5.598202892721834863e-03 -3.130726056051269328e-04 -6.038886904339471617e-03 8.056656020534047266e-03 -3.679551339385966468e-03 -1.696641227863140500e-03 -2.203982675340016711e-03 -1.790388019725466014e-03 -7.316307985062081630e-05 -8.939179848313421684e-04 -1.396779937047060161e-02 -6.659546183578217426e-03 -2.321806026093259367e-02 -2.122267032226342331e-02 -2.828404456184861748e-02 -3.169721070874328278e-02 -1.753568912728349291e-02 -1.797879143222280707e-02 -6.341300750856773694e-03 -2.737827132776371897e-03 1.472181615067910806e-03 -6.657292613147106422e-03 -3.574613331709861324e-04 -1.084294202801700533e-03 8.245054356416012947e-03 5.313588508652812310e-04 6.717026180324689281e-03 6.351746110571752403e-03 -2.696598552835452033e-03 7.768415616014458930e-03 2.990189054579390029e-04 -8.310209889258993524e-03 4.281928769539749581e-03 4.044218432428726105e-03 -1.381730232913099953e-04 -4.653398932945795700e-03 -8.604928594084364571e-03 6.705682668307151508e-04 1.682006395983029349e-03 -4.389975094211177875e-03 -7.670150496652588558e-03 -1.304779210162484472e-02 -1.960001277012780874e-02 -2.349182584475927385e-02 -2.145868917166596918e-02 -5.439792082502258215e-03 -1.119009710308827357e-02 -1.133116667484173126e-02 -5.251549059160119833e-03 -1.145869968998760799e-02 -2.016210823769497111e-03 -3.483877881166911814e-03 -9.811878298973637086e-03 5.367160258997066141e-03 1.402570641281088246e-03 -8.363119305387627100e-03 -2.521052414514519686e-03 -3.485448495459988506e-03 -5.366390539907883554e-03 6.344330682156448971e-03 8.968779486085197775e-03 6.838117611500748802e-03 4.164670882486733519e-03 4.585210699388885501e-03 4.507708268385947174e-03 -1.071703895058571943e-02 -1.352492311097279985e-02 -3.935652815020932241e-03 -1.599482039556017129e-02 -1.876570086294232758e-03 -2.002815512860577421e-02 -1.290120390040146864e-02 -3.657796887836075109e-04 -1.218233426402385612e-02 -1.161653580926328561e-02 -1.213872214789190988e-02 -3.849934613733431432e-03 6.538955036548060526e-03 -8.478212174770741877e-03 8.452231254865605770e-04 8.000012825964112131e-03 -4.582553744209915542e-03 -4.014448524319150051e-03 7.556802526026576081e-03 -2.287456023009979550e-03 8.750873193010162698e-03 7.607872349526525677e-03 8.165201837499950002e-03 -6.862986945992765632e-03 -8.884310461104504703e-03 4.869320959453956287e-03 4.385702528083832742e-03 4.177303030802264434e-04 2.560177383132171674e-03 -1.066936333283103819e-02 -6.131850427931438870e-03 2.677123585794139761e-03 -7.230104469865532985e-03 -9.834809304128793242e-03 -5.660134500613309312e-03 -9.102397735362434113e-05 -6.814020292591119361e-03 -2.393212128766579027e-03 -1.454769437131410567e-03 -1.107889078639046369e-03 1.467056231009316930e-03 -1.799961328734665019e-03 -1.014363159877790938e-02 2.310497576820845760e-03 -7.401288253408817158e-03 -2.177906159641675166e-03 -4.030333755118942186e-04 6.432725428827017547e-03 8.219561517550093288e-03 -2.983387328200404025e-03 9.428706405676355595e-03 -2.053847274621678400e-03 -7.173159289121311226e-03 -3.234281753373519693e-03 -1.002232346303369957e-02 -2.591424551391575352e-03 4.955852559364685170e-04 2.751045710063078353e-03 -2.769059100837432518e-03 -5.886552084414581852e-03 -1.154839486279032358e-02 -6.896823381561866147e-03 -1.090188890196544004e-02 -7.814085645974419916e-03 9.058786501473872505e-04 9.531397852045520773e-04 -5.074203819734116744e-03 -3.074317107734153760e-04 -2.335798000539048448e-03 -9.494656951067597262e-04 -1.058302747735022234e-03 -3.987969689463828973e-03 6.625840715279494517e-03 4.685855420477771580e-03 -4.990544874365165744e-04 9.502327740755022942e-03 -6.588499531670439710e-03 9.509660086632393608e-03 3.582684641268358769e-03 -4.067766788041063397e-03 3.211541049212980527e-03 -4.070227644625017040e-04 -1.225746364602625649e-03 -1.057018009557025157e-02 -8.111066589784721170e-03 -1.086202929669507523e-02 -9.404980578382957914e-04 6.797165686638373145e-05 1.077647147693884620e-03 -5.084179200598552828e-03 -1.710372568387628130e-03 -6.989770717894978024e-03 6.891157129290773585e-03 5.708623773830010829e-03 8.265450804753795427e-03 -2.726377819542396067e-03 -1.596720436050074344e-03 8.328238647884974796e-03 7.532046421307206710e-03 4.153507708767449971e-03 -4.085531251494797095e-03 2.260856507883435285e-03 7.382165427372453827e-03 8.320108867356863086e-03 5.731017189304577148e-04 -7.523799991215027877e-03 5.216241906316798670e-04 1.634896435252144488e-03 -5.400384825963672718e-03 -7.596429498132686170e-03 -7.044111912784332963e-03 5.510894537479917032e-04 -5.640252130271768312e-03 -7.926742561478167639e-04 -8.651125943668158333e-03 -1.031603367607270352e-02 6.350577582772599754e-03 -2.688344300997191211e-03 -8.501669019356495466e-03 5.871843149400515034e-04 -7.373083518071947215e-03 8.212141092902233708e-03 3.826593757474066205e-03 -9.207715919329185691e-03 -2.417317774237941110e-03 9.080461616035982383e-03 -4.090127820232094744e-03 1.325548139816802411e-04 5.758604887211882586e-03 5.643068881501647066e-03 -1.130556052926419116e-03 -8.342654514643298158e-03 -8.859875826747274502e-03 -2.867502378593895888e-03 9.032108226859346042e-03 2.610700321705039430e-03 1.792756386895757352e-03 8.290518138463662604e-03 8.193526165677023770e-03 1.589065692053310891e-03 7.844564333796871704e-04 2.608068599846356025e-03 -4.891509558335736634e-03 4.677986982532189586e-03 -7.830095948113712997e-03 -3.242711197907024220e-03 3.681895657331415560e-03 9.418397304190831605e-04 -7.182311479760375775e-03 -2.475196419765931903e-03 -7.270279578916839097e-03 -4.464637934743816670e-03 7.953961825096531740e-03 7.237473839207986433e-04 6.222832311231765376e-03 7.467703856217544796e-03 3.760379157004838276e-03 7.110755386057237247e-03 9.541554096608742541e-03 -8.225485842992199745e-03
-2.795274906226807941e-03 -8.996113781147790575e-03 3.373532450496705744e-03 3.968972069155909596e-03 1.291521601426084400e-03 -8.937417495786508653e-03 -4.267500885268104942e-03 -7.057472981325274911e-03 -5.240601822310746519e-03 -8.212078374465289765e-03 9.828359763189060613e-03 -1.247646665697674760e-03 -7.894431261742773653e-03 -3.611978924788416916e-03 7.916942453976027506e-04 2.771104391344769886e-03 -5.286255147510953876e-04 -7.029043882553654300e-04 -2.178317323045533393e-03 -9.735673347083185136e-04 -1.139455835882627810e-03 -7.596011862402825103e-03 2.863911637330252176e-03 3.351882612683967401e-03 3.833678706961156802e-03 5.606450938941809521e-03 4.196263164523461250e-03 4.656253638942385066e-03 4.646389070413206417e-03 6.540976554391957250e-03 -7.111441069297572484e-03 5.325380704126827375e-03 -8.398041338647833920e-03 -5.281513417760253307e-03 3.517861155538861903e-03 3.853248429555389070e-04 -9.837456664881082547e-04 9.871759901873866302e-03 8.529021794771437376e-03 -5.992535081854151284e-03 4.208123420930174642e-03 -5.818073530788765366e-03 5.918024563118681920e-03 7.853672992451758705e-03 -8.389196005589653546e-03 3.515583403982964778e-03 -6.452959716286859769e-04 -8.680001056395678235e-06 4.572250460790272183e-03 -9.235538195960573890e-03 -5.122271795173851533e-03 7.029195285655260965e-03 -8.507313553349125923e-03 -3.567196719139149614e-03 7.514296646462284048e-03 -7.197040643650562571e-03 -9.808258428589957181e-03 9.845572942984342005e-03 -3.845262838680038944e-03 -4.540240471259540146e-03 8.767243581867912444e-03 7.297106381875208790e-03 -1.005818280117929406e-03 9.710468000465204141e-03 1.687929409187978545e-03 7.381647240557972708e-03 -8.205058828234584531e-03 8.619811679778023594e-03 -3.693353842103889572e-03 -6.120018542134097669e-03 -6.967474827497586488e-03 4.824043802527581797e-03 -1.050665270232887215e-02 -7.762328923116551711e-03 -7.856147378435214546e-03 -7.324464667761837293e-03 6.709332540355927681e-04 9.553767844180913226e-04 -8.054097903030556227e-03 -5.409777618164650706e-03 4.963580595489451575e-03 -6.022808624950173363e-03 -8.261164623976319926e-03 1.993783931297006366e-03 7.345110660058453388e-03 9.351438047465821315e-03 9.504871273862822850e-03 8.511937499814536566e-04 -9.878194353704490907e-03 -9.676311107215848986e-03 -3.967917102604718617e-03 3.877330970045789801e-03 7.647569408489635241e-03 -1.005662796168551275e-03 -7.823422651855082080e-03 3.229853155687820686e-03 -6.908862572578520177e-03 7.815618352076069558e-03 7.141086101842116819e-03 -2.583960005483941589e-03 2.601006018883178332e-03 -1.174831541797654970e-02 -7.853225649558995269e-03 -1.484219740162050390e-02 2.221476392837320839e-03 -9.222160023859433606e-03 -4.800190848852947320e-03 4.079143025397469202e-03 -1.000280699655970752e-02 8.213448186144459151e-03 1.299870897577643999e-03 1.563661579900679170e-03 9.949244391216589822e-03 3.125721492258537351e-04 -1.140903806157296269e-03 9.888337105845867742e-04 -4.314956353822888523e-03 -2.668682794812823542e-03 7.181003074514259385e-03 7.414770905938864072e-03 -6.720311822871390464e-03 6.107190648217722742e-03 -1.416457221289771752e-03 -6.919146773213724969e-03 -4.325146444201824827e-03 1.043546472005948229e-03 -8.935740250867258566e-03 -1.806451859447699357e-02 -3.008899551732702269e-03 -1.724535236985666464e-02 1.654969000008544222e-03 3.929065667066909337e-03 -1.192510394531557955e-03 -7.079188222113481671e-05 -1.108968907391013822e-02 1.000694032586037707e-03 -9.944950824485425389e-04 1.801375662511216919e-03 8.100107550893554135e-04 7.238664556468976923e-04 -7.131857797284626467e-03 -3.703269608953354674e-03 -6.372761086193486383e-04 -6.009652863637169468e-03 6.090265418588596165e-03 -5.466966354214487789e-03 -5.013540116632054199e-03 7.721965977594250248e-03 1.758333209494453630e-03 -7.586861409968228068e-03 1.202581908860417791e-03 -8.508450809071069557e-03 -2.333945548170578838e-02 -2.762075922164763941e-02 -2.695121817942527920e-02 -2.714877035909505493e-02 -3.288690432608497999e-02 -2.629067080203932594e-02 -2.222279731925588808e-02 -2.958718464457300249e-03 -1.442339389208350912e-02 -1.384162899741665613e-02 -1.098788491686504033e-02 -4.966892887606605064e-03 4.114134167558985977e-03 -7.898627182530572333e-03 -8.008290539827950943e-03 -7.062200683176271879e-03 5.635003369778961331e-03 1.610649992889670026e-03 -2.744450777566507550e-03 -8.189995192777183367e-03 3.151381624350399480e-03 -3.828555418570264040e-04 6.502319213781304619e-03 -1.487511901624372600e-02 -1.316817553243217025e-02 -2.355777384989284767e-02 -2.986090712950824344e-02 -2.679562828781036077e-02 -3.803559399923776146e-02 -3.888391928288915944e-02 -4.733699219707027117e-02 -4.174843720923820944e-02 -5.039981729479077466e-02 -3.234281705940374868e-02 -3.090425915446251559e-02 -1.873648261714628421e-02 -1.865648184622701114e-02 -4.798313215319311223e-03 -1.276319385570810067e-02 -4.693317374694134028e-03 -1.225274384514057555e-02 -7.350846192117733470e-03 6.272053309783568245e-03 -1.602578241355499507e-03 -5.446477959033544335e-03 -7.036863197295550529e-03 -3.515700378270802777e-03 6.686626243121823222e-03 2.422081354250334769e-03 -1.059438345105454329e-02 -1.505246562048813755e-03 -2.128503387396739333e-02 -7.518300984324960412e-03 -2.145030591041070106e-02 -3.585280623909282288e-02 -3.484728082661409099e-02 -6.003585299229188127e-02 -5.792846325667672797e-02 -5.788750259404430026e-02 -6.270977120052903531e-02 -7.304026159166915333e-02 -6.385615741597268358e-02 -5.078939601333005288e-02 -4.938282237447250145e-02 -3.336939642346477969e-02 -2.530261307811992530e-02 -1.552074439846286985e-02 -5.540399541595977806e-04 -9.986121475956594162e-03 6.820074784482964454e-03 -3.058496264563886815e-03 7.783348948253822515e-03 -2.194280946233750809e-04 9.004984897245646436e-03 3.144772173072893796e-03 -3.508518260826984543e-03 -5.446703322349674518e-03 -5.553387312469078296e-03 -1.504740151202035685e-02 -1.888592336936054106e-02 -1.238096510365895193e-02 -3.787582410410871014e-02 -4.195346638872933520e-02 -5.799525077456433447e-02 -6.490731577575802047e-02 -7.156362894518721041e-02 -7.956615107363795847e-02 -6.179003554615011828e-02 -7.374364440520991826e-02 -6.764422472354905680e-02 -6.492555898418422844e-02 -7.050786056635191534e-02 -4.753813410228094338e-02 -2.921101853138916016e-02 -9.931555457307793960e-03 -7.395265322935267761e-03 -5.300252608518107953e-04 -4.290832136107302144e-03 4.958914371234716609e-03 -4.322894612700391268e-04 4.216497713791817793e-03 -3.491675644749077118e-03 -1.217142918792997030e-03 -6.552615855271812055e-03 1.925274122314920872e-04 -1.642871863765688490e-03 -1.078329473847716366e-02 -1.705708675503050942e-02 -2.146207360749606552e-02 -4.297154616896203122e-02 -6.849621567563257685e-02 -8.066225758314637950e-02 -7.986416088151816750e-02 -7.127168345944695504e-02 -4.487787264177160035e-02 -5.052310147698604176e-02 -4.648724168515805388e-02 -6.458317959759778126e-02 -7.311204716654971791e-02 -5.620669753917489908e-02 -5.510200633663209918e-02 -2.758720793356219878e-02 -1.947547456075488653e-02 -2.182894400648742461e-02 -1.851833803824691482e-03 2.247016503153354168e-03 -3.504613770220160827e-03 -1.709582837552458016e-03 -4.800749966076028191e-03 4.239297959001219959e-03 1.986786463586451713e-03 -5.345300327295650529e-03 -3.638621263422211973e-04 -1.299258214968331947e-03 -1.711256042806322264e-02 -1.585613687410592637e-02 -3.526169070110335424e-02 -5.339146927025831962e-02 -7.895589859992478698e-02 -8.289141484602907672e-02 -6.858306305899208866e-02 -2.900642126158057069e-02 -2.320413877845851902e-02 -2.304365342835655237e-02 -5.000182690158923998e-02 -5.716803763375424841e-02 -6.329872475437234303e-02 -5.299828005625552285e-02 -5.807287179921926529e-02 -3.909361310983434229e-02 -2.990161767065793036e-02 -1.610225222678931395e-02 -1.127381551576029642e-03 8.969617599383196763e-03 7.492537064617084755e-03 4.566318982643912186e-03 6.518627790130555530e-03 2.452119845818927484e-03 2.731137312311013657e-03 5.408476355651125472e-03 -1.658316194606020708e-03 -1.429444209162876282e-02 -1.574905316858139434e-02 -3.109865828784549174e-02 -4.614403751771637557e-02 -5.807805996197808185e-02 -7.316234034726698532e-02 -6.073087725719773095e-02 -4.187017573249018215e-02 -2.146156893902891744e-02 -6.925573876198978795e-03 -2.564551168200945516e-02 -4.395418474685842264e-02 -5.503072319703954107e-02 -6.642331459404542116e-02 -6.363031373074670705e-02 -3.846774030807961070e-02 -2.123053916015345960e-02 -2.178309296385354601e-02 -1.118035188617500300e-02 -2.155366036868742573e-03 -6.337484229993189423e-03 8.013724222476311526e-03 8.816144628040345141e-03 6.376785588721285529e-03 4.826419397598269391e-04 -7.783607938664136548e-03 6.075387016463305347e-03 4.305971970794878964e-03 -1.498412879819949022e-02 -1.963525598296263913e-02 -3.918027507105671658e-02 -4.246123126362240374e-02 -6.760220185278327520e-02 -7.259047625741750498e-02 -4.652270319332341836e-02 -2.828179834175928095e-02 -2.662089021112563209e-02 -1.573834620419566066e-02 -1.516810149870288782e-02 -4.665212305682684552e-02 -5.836185686878767043e-02 -7.084199877962420178e-02 -5.596445091187261106e-02 -3.853387496630383130e-02 -2.711301766147277900e-02 -1.963111720155212916e-02 3.036460603927624321e-04 -9.782115831179985163e-03 5.345413721515184652e-03 -1.990778847869631180e-03 -2.725492402760132469e-03 -6.958984733816475990e-03 4.570989202756677028e-03 1.938247916148445665e-03 -3.585188460085758557e-03 -8.432440493259894115e-03 2.006363644399416796e-03 -2.843760691280418362e-02 -5.020713922174747240e-02 -5.201120008156835672e-02 -6.627748144170836353e-02 -7.083754282370788302e-02 -5.105927322701204335e-02 -4.522660659503396907e-02 -2.608257290734662323e-02 -1.788440079384010298e-02 -3.388609463664767757e-02 -6.867992735875855237e-02 -6.684011803538153496e-02 -7.476921431967747944e-02 -4.153959637823292222e-02 -3.707939763604684025e-02 -2.884478288014518180e-02 -2.030247831759243032e-02 -1.181719516470768061e-02 -3.622782824372846634e-03 3.318718984990627272e-03 -5.458608424068351825e-03 -8.426564467539083073e-03 -1.023204686044405527e-03 -5.561599716741913620e-03 6.473997497630245603e-04 9.744055985920480403e-03 -1.090109411492033199e-02 -1.330216658843459861e-02 -2.506844145943777982e-02 -4.745118029810541094e-02 -7.512421078797269780e-02 -8.655185848306364005e-02 -7.963872657491388729e-02 -7.503293405819973227e-02 -5.919939732993299147e-02 -4.723988067277676284e-02 -4.103232287749378898e-02 -5.687223148796049371e-02 -7.676658576092915132e-02 -7.958591194322388318e-02 -6.932818402144569347e-02 -5.907200574988130670e-02 -4.233057917143821791e-02 -1.561472119378791261e-02 -2.494075789333471613e-02 9.408542924373339798e-04 -8.217993866937261388e-03 5.803836610708634422e-03 6.376044108645118058e-03 -1.881391959784179920e-03 -5.372183385993128078e-03 7.352588384684128481e-03 6.606557165818216677e-03 8.975249535386888716e-03 1.929183696750839429e-03 -2.265620306535257120e-03 -2.005012426996184011e-02 -4.295931514604606205e-02 -6.724382465153869171e-02 -7.558177303194588137e-02 -7.691091324185146683e-02 -7.369822369087755676e-02 -6.136409365697864660e-02 -3.272601009425485374e-02 -3.926375388667972810e-02 -5.886682504574859698e-02 -7.389869246926257518e-02 -7.402033409310480871e-02 -6.086323121989897778e-02 -4.579585907948601625e-02 -4.542824805680252542e-02 -1.714970056102992080e-02 -6.274893069765057584e-03 -1.079281683909151697e-02 -3.395111788889744898e-03 -4.142956770609795315e-03 -5.745982659225773101e-03 6.550001145225436668e-04 6.405321880969476467e-03 -5.131812680500858273e-03 -5.749091643411332470e-03 1.538481921699473435e-03 -5.946375698644517510e-03 -2.629975851317446767e-03 -9.992593253536918158e-03 -4.617491731915480957e-02 -5.399314445479682506e-02 -4.827963496067493032e-02 -4.376766661063997976e-02 -3.630990653192552736e-02 -3.468636440201392640e-02 -2.111888898449847465e-02 -3.640533801594730834e-02 -5.653030433583332987e-02 -8.288599314990037492e-02 -7.425220552289298059e-02 -5.633606214329875406e-02 -5.210722141376798039e-02 -3.788867524810389520e-02 -2.908812294124940925e-02 -1.484137504653621452e-02 -1.611989633098139321e-02 8.219401292645476739e-03 -9.026846374149981658e-03 -2.200533550279452823e-03 6.783092281580762294e-03 -5.840869533416980994e-03 6.514001767948431575e-03 -7.294190985803849885e-03 -3.013739827338858535e-03 7.936921168957108280e-03 -2.244066819975999336e-04 -2.491925018152526747e-02 -1.808947354009993527e-02 -2.585578273105538019e-02 -3.654164598597574309e-02 -2.132399993372116609e-02 -2.580016591253317393e-02 -7.815624879128830679e-03 -1.315776456734989164e-02 -3.298932629207321915e-02 -5.848327991709818124e-02 -6.819326032163815221e-02 -5.941409433250145061e-02 -5.314366639897442901e-02 -3.301020437956229958e-02 -3.236400255951892707e-02 -1.293145482355416778e-02 -9.895734787394021292e-03 4.326147124137742425e-03 -3.645846089118017549e-03 7.631962564884155024e-03 -2.691950436572829349e-03 -6.997039387562429234e-03 -7.479816983882842628e-03 -5.275656965690239675e-03 -7.398590280731312356e-03 9.184789437717156418e-03 -6.321638851125491350e-03 -2.274395086318998247e-04 -1.701674039731601237e-02 -2.174976079407530891e-02 -1.315137745128881763e-02 -1.474620903099583581e-02 -2.448279754714551351e-02 -7.358373736319827677e-03 -2.282031244259199315e-02 -1.919018239778106857e-02 -4.025722611712773819e-02 -6.089418639336115213e-02 -6.337388686455895648e-02 -6.201914897676014810e-02 -3.495379078217220048e-02 -3.418095026298420547e-02 -3.124143904756009754e-02 -2.197249057687747711e-02 1.337666499480868500e-03 1.748745066921214781e-03 8.054975513220149130e-04 -9.027917070227870064e-04 -5.140054453611275949e-03 -8.284821688151682711e-03 -1.361796214054218114e-03 -9.860815218425977163e-03 -3.346899935140098137e-03 -8.433521291555322666e-03 5.762401941831035365e-03 2.201068075089765604e-03 -7.360727499123138722e-03 -2.455898557603574534e-02 -1.674279083385159239e-02 -2.326935708809901512e-02 -8.138603362648176576e-03 -1.069599285133765974e-02 -2.214411508303089707e-02 -3.871325863605869222e-02 -4.746974672420282981e-02 -4.918915974559094628e-02 -7.347932240637056189e-02 -6.108013284303089041e-02 -4.947697706493893455e-02 -4.270201230290798788e-02 -2.291687461738391857e-02 -1.157226115089842432e-02 -4.934706445968733805e-03 -5.876811921731763845e-03 -9.454648594356422544e-04 -1.155549300748360099e-03 4.003440732958953550e-03 -8.823703872522521696e-03 -5.467244280204341944e-03 6.939663202706587188e-03 -7.704867677198598205e-03 8.535044186624443641e-03 8.033165340268788070e-04 -8.793929653500277138e-03 -6.118997027568303694e-03 -7.759677863200294644e-03 -2.446281393504318863e-02 -1.914805892481032806e-02 -2.302750243210044054e-02 -3.679183544421487512e-02 -3.066093392495837164e-02 -4.570117772222755115e-02 -5.647178008521394621e-02 -6.984654734765079198e-02 -5.464956999852141339e-02 -5.809982023012333352e-02 -4.534733081162159452e-02 -2.304485304717115296e-02 -1.891747997912221826e-02 -2.711304320571115544e-03 -4.619482724166752013e-03 6.890572547467445699e-03 5.293013574012636092e-03 -7.849270457627914935e-03 -5.142296080875167000e-03 3.465940109747520786e-03 9.720768324882867427e-04 -2.829177402364022736e-03 -6.471868743489109232e-03 1.161948386639751569e-03 -6.144366445468360180e-03 3.463326760510665805e-03 -6.875602963687434295e-03 -2.577098476316229056e-02 -1.832186964732946885e-02 -2.877086896746998065e-02 -3.178026647811244693e-02 -4.940507147151972089e-02 -5.476056681891147693e-02 -5.202120667725887437e-02 -5.420678111479090844e-02 -6.566618227875385683e-02 -5.343016762335450753e-02 -4.476462819763549900e-02 -2.543270779974850238e-02 -2.035220503179853077e-02 -6.719434225711290627e-03 6.388494858112302340e-03 1.358781731668512981e-03 -3.752713820050332838e-04 3.489908448743833224e-03 -3.812047986467754536e-03 -9.330552402310085189e-03 1.422593770505622404e-03 -9.962415057904395327e-03 -1.392059539897947491e-03 -3.971447999597034831e-03 1.411366649815051647e-03 -1.733368077623653703e-03 2.246925913307547956e-03 -1.126015337896159665e-02 -1.827930543452859977e-02 -2.328420573564181709e-02 -3.744059469899134462e-02 -3.243670962665230056e-02 -4.923184894585453525e-02 -6.030020248727657739e-02 -5.565929797549866442e-02 -6.470615718520457416e-02 -5.147711099377320215e-02 -4.444479181447223010e-02 -4.107291979649685398e-02 -3.434606899964147420e-02 -9.039671785724449904e-03 -1.136090845033095945e-02 6.989577763150388659e-03 -4.025847230084936279e-03 9.150464601933076814e-03 7.869460865429330626e-03 9.436276543044722423e-03 1.173828942873758044e-03 9.430826103963809576e-03 4.694920780246252152e-03 -4.297729256428121924e-03 -5.853668435337032287e-03 -5.935510234939944847e-03 -4.940616104741177642e-03 -7.409392358142702015e-03 -1.943802314925912721e-03 -4.567000428240501966e-03 -6.519077435483079143e-03 -2.001785299914233401e-02 -2.441689734345432045e-02 -4.404571466647674155e-02 -3.664847582409722776e-02 -5.774893193569836936e-02 -5.078475996698433859e-02 -4.160983311447800925e-02 -2.700761586584550511e-02 -3.047705767742648134e-02 -1.857763214193274698e-02 -1.104055529162583857e-02 2.924932039517021045e-03 -1.125102764324457027e-03 -6.421632503330070366e-03 -7.695540357811043661e-03 -9.876111322233874917e-03 2.154383975978645723e-03 -9.500027195229687749e-03 -2.694600887293559059e-03 1.165105159939061608e-03 7.634581194525982654e-03 -5.005059345991040576e-03 2.368968185301829812e-03 3.480321893306076875e-03 -8.416425922352038444e-03 -1.100892633375989693e-02 -3.376102974914867334e-03 -8.570469773282267043e-03 -1.654531690959326964e-02 -1.276680214913702288e-02 -3.077040182236050192e-02 -4.117392025171584535e-02 -2.533563571251571528e-02 -2.841752625221838705e-02 -2.695028258924619599e-02 -1.633821428292930519e-02 -1.731861238528014171e-02 -9.799142789437470524e-03 -1.223840476087751511e-02 -8.084692099121344039e-03 5.561550767073058024e-03 3.922197056381951396e-04 9.503893331461123108e-04 -5.469289018296310222e-03 -9.233092114852183355e-03 -6.681733780681323003e-03 5.702131338228290901e-03 5.076376817994016771e-03 6.982387084235903464e-03 2.459401257036315357e-03 -7.201714394583521141e-04 -4.773636098458843013e-03 4.899395825651170662e-03 -1.023363302216466139e-02 -1.369916325215246415e-02 -9.827985898355571376e-03 -1.394947776945138461e-02 -9.543025568116455040e-03 -2.488818744530293947e-02 -1.362782744273769581e-02 -1.437639350857674789e-02 -2.727453738453623072e-02 -2.836271450429837457e-02 -1.751312527777846781e-02 -5.435173408542688135e-03 -2.015323716500382403e-02 5.658926470509735877e-04 1.519656865121507560e-04 -3.789628088968234870e-04 -1.022382233496552453e-02 -6.355878913174201755e-03 -5.275853097400529535e-04 3.617307294162690461e-03 5.226043787497663094e-03 -2.933579769998011493e-03 -3.307141566474620670e-03 3.025079978279945295e-03 2.674738920687540385e-03 -2.851353894148369542e-03 -4.614330007474081938e-03 4.063704873898113718e-05 -1.064258838610465836e-02 -4.018998221237586599e-03 -1.101830379530802442e-02 -1.092949097130847466e-02 1.732360807387728352e-03 -5.722556509847002461e-03 -7.520549359964754689e-03 -1.476133023132944651e-02 -1.391201535074989420e-02 -1.290201533689894296e-03 -8.502451741063753177e-03 -3.111912624404059805e-03 -2.498034444682871468e-04 -5.847056106603366540e-03 -8.745104742670416556e-03 -9.170902723572805712e-03 2.135240044136813616e-03 3.061234867604485568e-03 -2.127381417303606404e-03 -9.722327069797632310e-03 4.181737831400484523e-03 5.609052350693266315e-04 -3.701653232748924795e-03 9.830750713522424383e-03 -2.073724307557820237e-03 -2.933521383939536979e-03 -7.910711868898251051e-03 -7.780253533574008756e-03 5.222649380370396853e-03 8.114149412135644376e-03 8.355932386665003778e-03 -6.525650926268602645e-03 -6.568225942513268405e-03 4.668755029587513122e-03 1.227124150774173321e-03 -9.195901545899361554e-03 -1.038493080623389834e-03 3.097728474723492401e-03 9.303624572053095787e-03 -3.643127228288223305e-03 5.589126535773493096e-03 -8.038638693660903750e-03 -8.413144188757048624e-04 -1.544082550979644945e-03 -5.455784490411948011e-03 -7.834895599720772749e-03 9.010325603260649352e-03 -5.567456852519909842e-03 2.164248287137369130e-03 -2.576651122903765839e-03
-3.230725360087241104e-03 -4.750478909693567689e-03 8.903048182296320612e-03 2.387106389300623806e-03 7.447549977495165029e-03 2.231478951536170017e-03 4.655225273860150517e-03 2.382419636272259476e-03 -7.903145267543933497e-03 -1.447159502116186465e-03 4.617645608452933953e-03 3.415552070596046454e-03 -8.891891281515830470e-03 -8.981229086992156829e-03 -9.652881629322575263e-03 1.840130607828551748e-03 -2.656422884191953458e-03 9.608375030327197946e-03 -7.384396936061788080e-04 -6.706009250183555918e-03 -1.333131322532823352e-03 -1.566238689318435410e-03 -2.195248407706529466e-03 8.692511286673832230e-03 -8.629314392972051509e-03 2.775378944510853430e-03 -9.696250191555466158e-04 -5.610286280504537051e-03 -8.561784982699709168e-03 -6.509425383223518997e-03 4.575868120193491741e-03 -2.552710786155876210e-03 7.215437224093745622e-04 -7.323629833653129070e-03 6.985265015362373750e-03 3.297304434699521638e-03 6.646188624349611863e-03 8.295293052410841750e-03 -9.726482367732965442e-03 4.221570234079041750e-03 7.848947107189649733e-03 8.325676269255302686e-03 6.903367391693915681e-03 -1.025089525426001831e-03 3.443900417865577383e-03 -9.271590014029031102e-03 -5.620112866625828416e-03 1.132552653437761576e-03 5.644578608666408863e-03 2.346764903822176271e-03 4.094285040143961531e-03 4.554173175489737227e-03 5.567095573689211790e-03 -9.777447240208703930e-04 -9.618976262232918975e-03 3.609715107450919142e-03 -2.191120868672182757e-03 7.479195609968364994e-03 -6.857672509748431386e-03 7.496666368213158668e-03 -6.643879006951287740e-03 -3.053907261747657205e-04 3.443487153816102500e-03 -8.968251383822149411e-03 -4.257457046862898192e-03 -7.101182085812132727e-03 7.448488095402966630e-04 -8.103621977343565541e-03 -1.553432158528247377e-03 -5.391359763972523346e-03 -4.272217256752247096e-03 -9.210361367629175608e-03 -6.971576098732227417e-03 7.885054871953322761e-03 -5.299588672817648859e-03 -2.696261569871210260e-03 9.001659093779184467e-03 7.952148699416818761e-03 2.264830944680436102e-03 -1.108072946105082609e-03 6.274648761562069341e-03 -8.799253654860436646e-03 -4.281509208040362030e-03 -4.537416951000254953e-03 2.971626368489106631e-03 -9.449232803756490301e-03 -3.165513098722605619e-03 -3.563752493004712467e-04 -3.010968438484691416e-03 3.787661367066387161e-03 -5.947995054980616605e-03 -7.844173206979063086e-04 5.105572096794664359e-03 -2.399777158059533417e-03 2.656334510251003554e-03 -8.257952460888322993e-03 -2.906710071477089545e-05 1.920568436263337623e-03 6.462033776460113926e-03 9.655972724549775291e-04 -8.404369161460784055e-03 3.846962650035687381e-03 -4.473424627242005014e-03 2.889337826175255447e-03 9.071801463558447701e-03 6.978140257443203771e-03 2.179279578217313985e-03 8.882207206501175137e-03 -5.631615195160095955e-03 7.483158178952297596e-03 -3.954436397381839649e-03 5.816470616969522146e-03 -6.288538767323845723e-03 8.037358521913806966e-03 -1.204285724467733017e-03 -5.628936271399342418e-04 5.540296626689726264e-03 6.030527314378735654e-03 8.548128084490621420e-03 -5.820351208691594037e-03 1.818896376510750063e-03 1.780551460015149462e-03 -6.721270441451039461e-03 -1.182076727393430171e-02 5.731343373730276615e-03 1.256072643050712076e-03 -4.578958816146834303e-03 -9.695112720580250504e-03 -3.061310999293445547e-03 -1.568180625542713383e-02 4.630975800983403584e-03 -2.225187440020205600e-03 4.203977098255181136e-03 -5.313753291952313072e-03 -9.413430509800910229e-03 5.754326827334595509e-03 -4.014573599324754334e-03 -4.194175190259370831e-04 -9.570630331880040920e-03 -2.497301870678394348e-03 4.139610185147102350e-04 -5.576478711716998868e-03 8.463475407658743385e-03 -4.492797726510538124e-03 3.196543217987295356e-03 -3.794725177896376544e-03 7.710549211258307424e-04 5.989911140148912114e-03 2.404870842791167942e-03 6.440279590717849778e-03 -5.176487300299590331e-03 -6.734641302399708117e-03 -6.146619066259070147e-03 -1.543177336142406014e-02 -5.712394503115721806e-03 -1.518216825035930383e-02 -1.169128641540766178e-02 -8.231383589674054480e-03 -1.433737677080660147e-02 -1.227765641503145546e-03 4.102119291288008895e-03 -3.028990061282483930e-03 -2.278543139305165555e-03 9.596942873424503528e-03 -6.569597607024237236e-03 5.374762805415587465e-03 -1.191535780092704133e-04 3.239520675635625211e-03 -7.395420209726104310e-03 7.955828743750347626e-03 -7.061014328337303532e-03 -1.324330467718030891e-04 -2.284641822175166505e-03 3.910616111300529996e-03 -8.872093859888779271e-03 4.872672211295390673e-03 -8.784956528423672889e-03 4.309269177527903956e-03 -7.960705539055460637e-04 -3.337442349720791315e-03 -2.879997029541218022e-03 -1.676618906333492837e-02 -2.110359130781688797e-02 -1.185434900857894845e-02 -9.139764192894776415e-03 -2.059148399384850073e-02 -1.475115483443526464e-02 -1.224255675916558969e-02 -1.104974429555206396e-02 -5.973357323142435005e-03 -1.111969503980553969e-02 -7.411920141688221712e-03 4.311597912948971108e-03 -3.977803631297697519e-03 4.155187708229277598e-03 1.958933622336994380e-03 3.766160722313856030e-03 3.953428505973391807e-03 -4.189331464180483244e-03 4.487671439762654611e-03 3.791220421679184285e-03 8.412633863640623516e-03 -6.524062932835026848e-03 1.160484286393986039e-03 -9.338272243213605397e-03 -8.889295730589752073e-03 -2.406902684119395074e-03 -1.677641690577088771e-02 -8.185356103308134151e-03 -1.292660304833691265e-02 -2.390710559135656929e-02 -1.746339869287488397e-02 -1.453671188253704422e-02 -9.372248475273419269e-03 -5.545746917984680294e-03 -1.204118646029304733e-02 -6.091255160079314668e-03 -1.072881517708345472e-02 -1.448759605341539249e-03 -4.379431405994573499e-03 -5.249582211136301184e-03 7.681286676987113780e-03 8.719964508367629430e-03 7.472649845033540149e-03 -4.445861271281111027e-03 6.033394207529100758e-03 9.580091812953352853e-03 -7.688910915098399156e-03 -3.685163400875831967e-04 -6.705564451252234159e-03 -7.229184414108808486e-03 1.893809845820120744e-03 -8.523384749613607868e-07 -1.407741983643689097e-02 -1.268583275981405127e-02 -1.135122342789112414e-02 -6.756990988391993296e-03 -1.314293770386024476e-02 -1.982935968392802659e-02 -2.029129836131332576e-02 -1.500443015424213038e-02 -1.592859025010604293e-02 -1.020534774306419874e-02 -1.333282297473649229e-02 -8.264719625041638471e-03 -1.327777681270362643e-03 1.645868225386522147e-03 3.200615263783053097e-03 2.154340417925674784e-03 -8.989254491246117043e-03 -9.355195132056933274e-03 -8.706589015944283041e-03 -8.063088359757759546e-03 9.374509591929394009e-03 -1.878410097189029456e-03 5.448044453469272526e-03 -4.814720203868304814e-03 -2.634332467785383859e-03 -9.139878910238602092e-03 3.690557526004137508e-03 1.177004447517160423e-03 -5.723502578124225679e-03 -1.327993668020653779e-02 -1.358257283201534833e-02 -1.934887974338741351e-02 -7.011548801991179455e-03 -2.086760115017439327e-02 -2.371403050553113571e-03 -1.871348524072814767e-02 -9.392014990456802256e-03 -6.435510494397830156e-03 -1.459810837107804182e-02 -1.661359855951468484e-02 -1.635792765395618908e-02 8.172805979106767885e-04 -9.329296572550252811e-03 -2.350545889804785734e-03 9.642260422364722777e-03 -3.495316699184632982e-03 -5.101086463548960837e-03 6.496240660169027865e-04 -2.042998807449937938e-03 6.574666716236587244e-03 6.655524267727996358e-03 2.105986975726646627e-04 -5.322848043683549649e-03 5.901796391526596469e-04 -9.948921464462461006e-03 -2.630874971447802902e-03 -1.500367514555521085e-03 -5.529550990597963296e-03 -1.851772592874432674e-02 -1.413871779654875434e-02 -6.542128339412599941e-03 -1.280908822791284284e-02 -1.143025973550754540e-02 -3.913823854726573044e-06 -1.764585852279018999e-02 -7.721105358435478155e-04 -1.472821881862892805e-02 -6.542887984994487718e-03 -1.406870381862651044e-02 -1.222645932174794108e-02 -1.306037008684959345e-02 2.746178807439584538e-03 -1.624464410203416750e-04 -1.212247969917767910e-03 -2.320495124394135293e-03 2.132763800928212401e-03 8.467605335999203731e-03 -3.371791053537326766e-03 -6.762483769828088985e-03 -8.087326114898627655e-03 4.488632389324715040e-03 6.735140333779672007e-03 -1.155068482612580348e-02 -1.164107891521929880e-02 -1.209088156681128014e-03 -1.261482108191201885e-02 -9.724714326511296053e-03 -9.692998109107857710e-03 -1.063442715727499176e-02 -1.481463801170111554e-02 -9.924054352238529872e-03 -1.287264578399948149e-03 -1.116053108718736801e-02 5.201537771734327241e-05 -2.471249733964664668e-03 -1.304717707306171474e-02 -1.110802787349621408e-02 -1.393789762195831502e-03 -1.769065839405624440e-03 1.999668243398480209e-03 -6.287831774664817339e-03 1.608753156303404123e-03 -6.510906999820343169e-03 3.171618785495990914e-03 6.840242400038261481e-04 2.817279123306830248e-03 -1.848909796636712252e-03 1.118666721993449549e-03 6.188972604114348006e-04 5.944033482767544082e-04 -1.307145689379941161e-03 -1.494619079746948610e-02 -1.470813211687463026e-02 -8.655124162054233031e-03 -1.282366046283960927e-02 -2.333859764750413797e-03 -2.123131255520462751e-03 -1.983957355201402314e-03 -1.299640068116022541e-02 -8.808332561873112587e-03 -7.138306937182300159e-03 -9.365489791739064346e-03 -1.347508505057593009e-02 -1.491208748233053411e-02 1.129742175313334799e-03 1.103880218798528132e-03 -9.743020044849977704e-03 5.452083596831025503e-03 7.478761116565185241e-04 -8.633648151991390671e-03 -8.131414966887677565e-03 7.593607284702328167e-03 6.079973886800307467e-03 2.395543105958208765e-03 7.540900003109239115e-03 5.854995206774652947e-03 -5.457607629747385919e-03 -1.288375606770029427e-03 5.558688389912742715e-03 -1.579589134416464410e-02 -1.599177644373966228e-02 -5.346587338536712419e-03 -1.331054414236110782e-02 -4.059432625704792637e-03 -1.046348832689186943e-02 -1.312685893729170945e-02 -1.759879895076763012e-02 -4.803741634567686852e-03 -6.199644442103476039e-03 -1.485650744391115406e-02 -9.046733635358818887e-03 -1.505817680443532862e-02 -6.482685488076273157e-03 -3.567205584575786157e-03 2.616946878419168336e-03 5.347679748583630994e-04 7.916317499245231065e-03 5.584497531117085106e-03 -8.844341441671232495e-04 3.261611970749025199e-03 1.087167626631597734e-03 -5.202349419421888055e-03 -4.046580171410573377e-03 -8.710228743619274211e-03 7.970482533101213435e-03 -1.046743740334555271e-02 -3.914984925460442480e-03 -1.458456733205092115e-02 -6.011832643928095680e-03 -8.149679279567520127e-03 -1.443496682970808569e-02 1.623006842474916840e-03 -1.736298310635677258e-02 -1.220141409358548555e-02 -1.652221341785273939e-02 -7.575807444067838214e-04 -2.299781839685788223e-03 -6.293316951471341139e-03 -1.385354225317921538e-02 -5.565576785150632907e-03 -1.564768094250888406e-02 -1.211019705505916345e-02 -3.875043631446927189e-03 -9.525356054474926754e-03 -5.352663174234166717e-03 3.650151242685948511e-03 -8.657001242682604153e-03 -7.493153797365603025e-03 7.000879056576559192e-03 -6.837371920507706211e-05 5.988056936396998417e-03 7.718670352118191767e-03 -5.449427407349058741e-03 2.001112008228037812e-03 -1.662784412286843344e-02 -1.414042610435602143e-02 -4.760289491385806190e-03 1.298065851438429466e-03 7.812017201074491785e-04 -1.073778985824941704e-02 -2.756040264274924826e-03 -1.882184635219526225e-02 -6.701675430734110525e-03 -5.876936332510068880e-04 -7.244624809653193304e-03 -1.263528928198749506e-02 2.686809396065406239e-03 -4.883089620197885415e-03 -8.322225898805124663e-04 -1.112332642826425674e-02 -7.753687238450011031e-03 -3.425355604319142624e-03 7.507777109661249032e-03 7.541071420298803459e-03 3.026319573614406813e-03 2.160817348468735410e-03 -7.952144463776053551e-03 -4.885363540446576586e-03 -8.627498051288651215e-03 -1.412279246428912007e-03 -1.161025494642102356e-02 -1.463351697333002861e-03 -1.041429643516821393e-02 -1.742478620373923148e-02 8.221489583182400602e-04 -1.623008699723380802e-03 -1.268830868648352511e-02 -8.219931715405687933e-06 -9.935507443758788068e-04 -1.197154530846290810e-02 -1.153231562755850127e-02 -1.032073966875820224e-02 -2.248831565018621440e-05 9.325538645535177799e-04 -7.033176261733004551e-03 -1.458668406580331499e-02 -5.729576076812805362e-03 9.933039484669612881e-04 -1.153374189732933944e-02 -8.567328154138272381e-03 -2.331078265469388976e-03 3.051633333566914318e-03 9.260630262342590957e-03 8.922092075882993856e-03 3.391352996469125785e-03 -6.354198012230409531e-03 4.907508534476913778e-03 2.772029451983985468e-03 -4.898410388483441123e-04 -2.780790764759109336e-03 -1.241898964705228856e-02 -1.704290078280645826e-02 -1.238526784936318237e-02 -8.133024953106764501e-03 -1.525786410073490078e-02 -8.055805203262206629e-03 -9.507994407274320686e-03 -1.432568844442582215e-03 -1.354405937766835037e-02 -1.398553773554166981e-04 -6.878807101783257841e-03 -1.762955172759531758e-02 -1.365353821149969948e-02 -5.967224993332704425e-03 -1.305033333766458803e-02 -1.261809346950144677e-02 -1.182765798460927789e-02 -2.546257158428266287e-03 -8.811745479513150708e-03 -7.863857744952979650e-03 -7.499543159941782049e-03 -4.001227004850310687e-03 -4.358043340595578463e-03 -1.903496307288930376e-03 1.079285053362833390e-03 6.570859831294393640e-03 4.154782842735665958e-04 -5.063952899628009277e-03 -1.298634715187027338e-03 -1.257210216581898521e-02 -8.738795959237414049e-03 -1.163262913298392619e-02 -3.379199241070992427e-03 -1.821223734178855497e-02 -1.880204787550319653e-02 -1.460668709124775255e-02 -1.112142236173292893e-02 -1.388025933947949729e-02 -1.509867461198583687e-03 -9.976139902651025293e-03 -1.575125509293911694e-02 -6.908631002979444095e-03 -1.454993832753798339e-03 -1.848640349935835219e-03 7.736598922831544600e-03 1.861236173014084016e-03 -3.096643200496845740e-03 2.489982285109060018e-04 -8.532790974050600760e-03 -6.461389039839691983e-03 9.497922723651200383e-03 -2.674000929678405601e-03 5.491335100704218151e-04 4.665263656349586882e-03 -1.417399049646053330e-02 -1.039805629672377156e-02 -7.565618424699843518e-03 -2.550959458366121313e-03 -1.631353870476643167e-02 -7.009611784272039466e-03 -1.262790031118288248e-02 -7.929659949697374921e-03 -1.472784868445350254e-02 -1.780830438038321847e-02 -1.295530191366855337e-03 -1.238249220271720949e-02 -1.510647259939635993e-02 -6.690309959374651089e-03 -3.732465400950388257e-03 1.746688206043335535e-03 -9.888678579738035060e-03 1.772894045253384492e-03 -6.624857352210594512e-03 8.693485884159449575e-03 4.462564552042706280e-03 5.981415036775720832e-03 7.563181173776558665e-03 -7.792547035401458169e-03 5.556066383589821495e-03 3.395134647621748068e-03 -8.505367839436761210e-03 4.369872222660511028e-03 -4.895975408609515474e-03 1.842080006360097191e-03 -1.412136916232032205e-02 -5.793074748614985593e-03 -1.957429855206212557e-02 -1.404438988246653648e-02 -1.695370943797886235e-02 -1.078171225961424042e-02 -2.047589836517276982e-02 -2.004154812779789657e-02 -1.355123104209120070e-02 -1.393404765507872886e-02 -7.773567412552113455e-03 -1.186015299660421289e-02 -1.283122926587892433e-02 -1.079994379003068779e-02 -5.190901481508387568e-04 -4.851958041212300031e-03 8.159364857056142532e-04 -4.328193342094921112e-03 6.320180199228779203e-03 4.718335922156775136e-03 7.569790990695810830e-03 -7.202818452750150459e-03 -3.047512878337466178e-03 4.246159879902428047e-03 6.037362187680086860e-03 -1.500482807027278369e-04 -8.211341061593785450e-04 -4.775887480949537502e-03 -1.146673481732621118e-02 -1.820876915631814558e-02 -1.942163687074161676e-02 -9.912078067038436816e-03 -2.032949962030385083e-02 -7.884662372146250195e-03 -1.320810215204173271e-02 -8.386977463043813683e-03 -2.336932475149213276e-02 -4.930729415104974714e-03 -1.229934589177605897e-02 -1.477194463928313724e-02 2.573159155293142271e-03 -4.825610949516267838e-03 3.171754931165805206e-03 7.014419662513970803e-03 -1.101071715248896216e-02 6.320759513968502753e-03 -6.465704105138769288e-03 -4.627632281433833282e-03 1.239561578570525066e-04 -7.996168740938558450e-04 2.894473145801741611e-03 -9.741998875533529334e-03 7.509137622244524933e-03 4.860025546277089124e-03 -3.000039140557066338e-03 1.626910721623989588e-04 -1.536228334816151266e-02 -7.949213645951921188e-04 -1.995808085278842278e-02 -6.438649396854320521e-03 -1.508509562079729180e-02 -8.752022829894758743e-03 -1.234923178980091955e-02 -4.316578887658707557e-03 -3.881878490111518275e-03 -1.165286675677050000e-02 -1.898762585071837134e-03 -1.004821075315577399e-02 -3.103890666657933926e-03 -1.012522637459833952e-02 -8.947405320085612818e-03 4.257045611196396545e-03 -1.028028672625158971e-02 -7.745579181419455679e-03 4.602101286036459210e-03 9.135121907932219378e-04 7.581347544421028657e-03 7.544762427999720730e-03 -1.549133355054319559e-03 5.290029148878643700e-03 -3.794644014643055660e-03 -5.247512788242920771e-03 -4.610371103811954085e-03 -3.783040423113743795e-03 -1.442265347257742176e-03 -8.274634624936600194e-03 -3.248709317527026172e-03 -4.856311404266525078e-03 -1.768962366753952520e-02 -1.918515833131077993e-03 -2.067268797022589130e-03 -1.258447876840679269e-02 -3.950217960522235325e-03 -1.207754475151928512e-02 -6.946407301811390912e-03 4.088225742453661070e-03 -8.548172357472735156e-03 1.639929550674700106e-03 -6.483720575110629367e-03 -4.763191678529165099e-03 7.145331536700497187e-04 9.665842771234719327e-03 -7.123254479186704076e-03 3.941118836140380423e-03 9.793141360648051352e-03 -4.962628909541240245e-03 8.386477520512691959e-05 -8.049015912962026800e-03 -5.087756409451985040e-03 5.185499040559242261e-03 -5.293177658418786111e-03 8.297286871659477958e-04 3.513787415330292714e-03 7.458974353983293358e-03 -4.702455018049899599e-03 8.248769086787221053e-04 3.601967391493590340e-04 5.535114720073687142e-03 -1.037287611406705751e-02 5.561027053854301731e-03 -1.229822382773982422e-03 7.230786408020477112e-03 -3.085126618087161089e-04 3.556366076904444225e-03 3.116138217567759449e-03 1.530523676263212526e-03 -6.070076687171088899e-03 7.948314828539700116e-03 -8.226583208705357669e-03 -6.897069098752719139e-03 1.881094445582431884e-03 -1.210451615337004849e-03 5.835459957443844999e-03 -1.095712987866870325e-03 8.280070469656503410e-03 3.856568300937626270e-03 3.313550051634426077e-03 -7.157940056962130114e-03 7.204912503448939604e-03 -7.824022347914280640e-03 3.159549578481340732e-03 -6.793263100256781949e-03 1.637286762345584830e-03 2.870716532955396114e-03 6.063948815113266158e-04 1.215524239238135323e-03 -9.648310641760438414e-03 -3.588783076927356316e-03 8.266679114349591295e-03 -1.909377488120246992e-03 -3.747819885220921195e-03 9.954683904583623913e-03 -6.065690750344252327e-03 8.127720276313109282e-03 5.643851045215139868e-03 -9.514022142676215044e-03 2.642315425325622927e-03 -3.513629935976840622e-03 3.492057751041113215e-03 8.481046269000624624e-03 9.117051037636873800e-03 -5.608255840077471487e-03 -1.088578865510925257e-04 6.173053937610049023e-03 -2.099716593223192960e-03 3.862788523387226166e-03 -8.261485421418303735e-03 -5.976471796231739089e-03 -4.203841290668507320e-03 -8.084152475464635376e-03 -9.279854162402852158e-03 6.062336064011733180e-03 3.511299870634589440e-03 -8.894377264998065344e-03 5.188760600471975688e-03 -3.378668225734504909e-03 -6.546537913363886102e-03 -5.449795463609580096e-04 -9.322771569709608144e-03 -1.283783652923586004e-04 5.595777475929919736e-04 1.186984897595411170e-04 5.221379230028857892e-03 3.255012910868002388e-03 9.953079244278080495e-03 3.273667487577069934e-03 -3.161393101115779133e-03 2.933384571868857642e-03 -5.481188651109727451e-03 -1.680496222714840133e-03 -1.315224143574500362e-04 -1.230289886998505756e-03 1.730366687163176296e-03 4.095613210218087413e-03 -2.630536078654128942e-03 3.353036430469931179e-03 4.734067435069011856e-03 6.524381195986366129e-03 8.289493924755786045e-03 -5.809233698998082090e-03 -4.893875086948189755e-03 -1.584242578144114859e-03 -6.654574941364363970e-03 -7.780264055292307468e-03 -9.838334261624614779e-05 -1.240056859713583107e-03 -7.095862218519364585e-03 2.670110032565253615e-04 5.199347807684302249e-03 -1.660404829670871808e-03 -6.421780306699500195e-03 6.753491197294316656e-03 -7.221806961870289900e-03 6.021443766395846546e-03 -4.628402622224525803e-04 2.185609832595927348e-03 -2.324646223540445360e-03
2.088278153313139092e-05 -1.939586785855722598e-03 2.713762784170876876e-03 9.528780200551058982e-03 -5.532614007783538505e-03 -1.600494994127175160e-03 5.680096474335596772e-03 -6.512429955698517854e-03 1.368792756406107640e-03 7.657882545108038973e-03 8.222103811910219748e-04 -6.355890491914740169e-04 -6.304798630573644862e-03 -9.677702095905905012e-04 -1.739201920086299582e-03 6.458480567987930077e-03 3.714787949229694190e-03 -5.817812782896487553e-03 7.342922470577617662e-03 2.746200546961059634e-03 -8.749509491855565757e-03 5.760990892066098195e-04 -5.409739364130468180e-03 -2.220781810249186118e-03 9.361280257528758987e-04 4.765686923458884762e-03 3.600364125744055354e-03 -6.575599805980416636e-03 3.707954181988899495e-03 5.503652019866636484e-03 3.704788943394328026e-03 8.837262459806602757e-03 -9.086931660197139222e-05 1.566934307986411843e-03 -9.439799241321046933e-03 -9.952867144698673840e-03 -8.621925011747299866e-04 -6.399603958204589695e-03 -3.809377891544705325e-03 -2.174337250500677637e-03 -4.271277890818566021e-03 -4.341361419863424588e-03 -7.855182660281350912e-03 2.423052082709201225e-03 8.424207326749899236e-03 -4.205864625684737658e-03 -1.735713377352047886e-03 8.412927134946518101e-03 -1.282828033182836812e-04 4.800283248390642063e-03 4.859783565099622810e-03 5.564894682447623503e-03 3.284996999108020805e-03 -2.203111099205219345e-03 -7.531133454646557132e-03 -9.877898928718651869e-03 -6.625147699408331231e-03 -6.159821166060818962e-03 -5.016911232240248500e-03 -6.235669757703923149e-03 -5.539273107593078917e-04 -4.649396032731773973e-03 -7.400680925683799337e-03 7.229797614146191848e-03 8.472542109168279892e-03 5.248815563523264935e-03 5.207322255543771379e-04 -6.911365570604341597e-03 8.073176147132795147e-03 3.014890690124671924e-03 -7.887787671683302998e-03 6.346952713059625557e-03 -4.637744897918197329e-03 5.808934132010271610e-03 -2.943022707609031481e-04 4.008264540743681809e-04 -8.724589203917458916e-03 -3.122103709780969880e-03 1.010998345986941459e-02 4.260804804836710279e-03 7.965264882247986150e-03 4.202712336458271775e-03 6.599935639259986442e-03 1.560976616214766440e-03 -5.597815314109136180e-03 4.004988138820111780e-03 8.210234171089235075e-03 -7.909697059924692200e-03 6.027599305129440616e-03 -4.184130482741393181e-03 4.728872954212109785e-03 -7.526443048165854834e-03 -2.383643634875180165e-03 -6.048780370279779189e-03 9.306577482729406700e-03 1.877096635353143550e-04 4.332635264590194851e-03 -1.094533244096686057e-02 7.920933337330684013e-03 -4.992923703550932596e-03 -1.598848075646052943e-03 -3.146293776481925725e-03 -8.325651235456907329e-03 7.715298761464644585e-03 9.112767824883247561e-03 6.369464917382060970e-03 -6.110610216810463506e-03 -3.221078293332610854e-03 8.631500818322059704e-03 2.866100274035945743e-03 -4.318014113313229063e-05 -2.966903219617485123e-03 9.372430335118758435e-03 -6.658226142214686803e-03 -2.831972671501552588e-03 -5.873806061841298221e-03 -5.710072026783204191e-03 -7.838185353386905793e-03 -9.755258716134035044e-03 -4.660463138157949596e-03 -9.064620282950503968e-03 -7.119779067573685921e-03 -1.044702521037117228e-02 2.646187618094995690e-03 7.417587667200946627e-04 -1.687167849246994783e-02 -9.758487535256250497e-03 -1.255263575951572758e-02 -2.411521069073726750e-02 -2.058067164894237730e-02 2.089459103228846152e-03 4.111097785515035910e-05 -1.339514155522754033e-02 -1.203289459817913354e-02 3.956645688492556323e-03 -5.706268599633219397e-03 8.789276723278637016e-03 9.507888522817158419e-03 4.166941310978433503e-03 9.590345391466583228e-03 6.676797286791240869e-03 4.195480064801653322e-03 -1.884105987844428124e-04 -1.973608806529917464e-03 -9.142645313322568870e-03 -2.513954891112600044e-03 5.763963521675820149e-03 8.026097831895810317e-03 -1.050828631638918778e-02 -1.349581783819399708e-02 -6.011873291731944201e-03 -3.936785874477727147e-03 -1.033436294096394883e-02 -2.770776151694807551e-02 -3.724359656104839905e-02 -2.226403466007365398e-02 -2.325419593275413963e-02 -2.459579440194126568e-02 -1.909929846279707910e-02 -1.526884490604499961e-02 -1.329301107954129237e-02 -6.562206198208347420e-03 -2.231508040544791585e-03 6.760611904792853191e-03 3.258836396429006573e-03 4.328422059181901739e-03 1.000305198315494352e-02 1.739733250401405158e-03 7.815306287067674482e-03 -6.367050285363245153e-03 8.015055381223819969e-03 -6.075428015750362724e-03 -6.275430698379258314e-03 -4.954880427585830506e-03 -7.542545068884159119e-03 5.579840615754720623e-03 -1.059431930042558853e-02 -6.721508157049218418e-04 -1.109694785476987751e-02 -2.182364785852905498e-02 -2.619494925221511547e-02 -2.525534460622768859e-02 -4.145083925700002864e-02 -4.413430060412694422e-02 -3.085922293272602007e-02 -3.034899733675405081e-02 -1.750459071701331720e-02 -9.092492759846707018e-03 -8.487878431504954080e-03 -8.110760023923035272e-03 -8.683621734366821568e-03 -9.303495187106136308e-03 6.767305308065625028e-04 -9.860043787002073512e-03 -3.123664397388657959e-03 -5.706942747882126458e-03 7.635290973641146312e-03 1.197678450513456165e-03 -8.932285787293251303e-03 -4.225225421525788221e-03 -7.919471455969925855e-03 1.924425811366678495e-03 6.274120283195576799e-04 -1.349261548912667526e-03 -1.673606015037086212e-02 -1.594534634452306199e-02 -1.051507142433003895e-02 -2.578340320453785181e-02 -3.099431041910957405e-02 -3.749948245832433746e-02 -4.259929608735010115e-02 -3.094687683766859237e-02 -2.722546028807534824e-02 -3.207811281348127430e-02 -3.469097662382170794e-02 -2.923738828048712268e-02 -2.042927937034986693e-02 -1.996144125997663388e-02 -8.711343453752951743e-03 -1.937686477495227915e-03 -6.842031958869449274e-03 7.477809981939555033e-03 7.459996468634114142e-03 -2.261910403366589484e-03 -5.209926932340731669e-03 -5.053692870238637481e-03 -5.560045231026054628e-03 4.271990124535707083e-03 -1.109947205106703687e-02 8.087718378640093922e-03 -9.741082550534538396e-04 -3.422479750879408103e-03 -5.934464983459830471e-03 -1.310419080417621340e-02 -2.813209858860163740e-02 -3.029006207848283089e-02 -3.034278020924219971e-02 -2.837497002369234259e-02 -2.521223838591371905e-02 -3.030834975437948081e-02 -2.216896494105837986e-02 -3.694389966183560942e-02 -3.214459182613127464e-02 -1.736638481738508530e-02 -1.411200194051626979e-02 -1.163146489887345938e-02 -1.284924243301795513e-02 -1.205728293537367685e-02 -3.927072597769583166e-03 -3.768736547257267675e-03 -1.389632128016061313e-03 -8.771335372358570956e-03 -2.694391780408636125e-03 -5.853376374176559940e-03 4.540126272402518308e-03 2.971704670863971939e-03 -8.084494271233318152e-03 1.702323786023408198e-03 -5.389903075310154522e-03 -1.601781519521893946e-02 -1.684167180349105050e-02 -1.600764463603429263e-02 -1.880285002293152763e-02 -1.708130242445029742e-02 -2.786076987024756549e-02 -2.134024789756019599e-02 -2.159330673324963076e-02 -2.858656390062882732e-02 -2.920032944166375127e-02 -1.462354834217672629e-02 -1.637916489636892167e-02 -1.037713753080675948e-02 -2.208763687124784200e-02 -2.070993315182350844e-02 -1.385515848865109811e-02 3.528502607450469900e-03 6.993393892632630664e-03 -8.285355640995915524e-03 5.953375357038113817e-03 -2.320315302495543682e-03 -8.590014338066593799e-03 7.591439675497233842e-03 -7.451293627352051710e-03 5.920952318990046342e-03 -8.609839555053150351e-03 -7.190947671388244963e-03 -7.242079832897134299e-03 -5.496576748523823198e-03 -1.056558106683769954e-02 -1.870549884349743258e-02 -1.918278284808965298e-02 -2.382719005867199244e-02 -1.377029621188250418e-02 -2.585227823018225804e-02 -2.541123818026228692e-02 -2.921339645652028943e-02 -2.536033148248483665e-02 -9.003983282720067968e-03 -9.242773916657287536e-03 -1.349290231867189375e-02 -6.222676389063216441e-03 -1.246045993257251586e-02 -1.332800944009647319e-02 -4.336249448359095864e-03 -3.578885752594941193e-03 -7.528302867271617974e-03 -7.731701865984757539e-03 -2.844426301503837681e-03 5.228002346432975879e-03 -3.150473196152627116e-03 -4.623663816674277761e-03 1.917240642494672225e-03 -8.293422208988038627e-03 8.449358234132651330e-03 3.413855597118493033e-03 3.152549249646325030e-03 -9.783960854517085096e-03 -1.540804628051554472e-02 -2.150526784428407126e-02 -1.428176464829961426e-02 -2.698861759428236931e-02 -2.262109363779747292e-02 -2.408662604029086773e-02 -2.065451660625205327e-02 -1.002376374089395360e-02 -1.406015057280212040e-02 -1.808723644718412266e-02 -1.435904449182003918e-02 -2.074318501306114323e-02 -1.245433898071310504e-02 -8.884417220623094802e-03 -1.116496351470151619e-03 -1.030201549328312906e-02 -4.332694099079310510e-03 4.047674170222692949e-03 2.323131155858102447e-03 8.846007747046994926e-03 8.015418770973220877e-03 3.192818596520458508e-03 6.249242358117752805e-03 2.515366103366429348e-03 -1.022950904170557250e-02 7.965413486982261121e-04 -1.674712248655137875e-02 -3.716816142135446165e-03 -1.267561457750614878e-02 -2.051394288257515908e-02 -2.266081190894784353e-02 -2.522517002173426878e-02 -2.697528426231398171e-02 -1.675751625084532029e-02 -2.581539413161481472e-02 -1.733062808215739964e-02 -7.508088551452007757e-03 -8.026617573030673039e-03 -5.330704078364383036e-03 -5.870870010126747786e-03 -1.842295538439813959e-02 -1.560261163277047378e-02 -5.119784294366102294e-03 -6.603226216792833919e-03 -2.528202908663173577e-03 -2.188783068202602988e-03 -2.098366202703385707e-03 -1.661675939092801613e-03 -3.736846802725443673e-03 9.812277641805486686e-03 -8.904868296733104913e-03 3.265274339840861482e-03 -1.084948851471936523e-02 4.503643742927264512e-04 -5.249793064887088752e-03 -1.937001209732103213e-02 -2.337712914773040426e-02 -2.619887545902709752e-02 -2.323153726438985378e-02 -9.486829632890199024e-03 -2.518025797709467009e-02 -2.272043243118352859e-02 -1.396710165945265654e-02 -8.251825519321182370e-03 -2.257839814914604920e-02 -2.106590617805946877e-02 -1.461599534282304047e-02 -1.776915823061063493e-02 -1.200575576508505250e-02 -2.397858083235952960e-03 -9.315895492206169304e-03 7.177172027773873371e-03 -4.517534110833778919e-03 -6.211876370862501155e-03 -3.044172374204758696e-03 7.226689454952283861e-03 -7.421175878194605051e-03 -2.173329959747937693e-03 5.657825059437627570e-03 -5.210354567361270318e-03 4.383670385264038004e-04 -6.217881157915149028e-04 -1.756524108314586746e-02 -2.083656497705310348e-02 -1.939021450954989123e-02 -1.211444161668466177e-02 -8.351386290143069865e-03 -2.537760233598297405e-03 -6.061145626833165656e-03 -1.205959231592761312e-02 -1.009954092521520887e-02 -8.779568578239984071e-04 -6.402091380553088552e-03 -3.257967410117802200e-03 -1.490945124026521983e-02 -1.958019856232600178e-02 -2.014580768268350863e-02 -1.175633140375897251e-02 -1.157361938261424437e-02 1.840431145451032089e-03 5.439639629563948302e-03 -3.896440288362071781e-03 8.461361689881199619e-03 7.219967017744411070e-04 9.054831018717131308e-03 6.970109994505055938e-03 -9.567913330142641462e-03 3.434408947726952377e-03 -1.162719311042859256e-02 -4.300133532195092936e-03 -2.272840921336452547e-02 -2.262422131922568400e-02 -1.214041054686724325e-02 -1.513580363596417171e-02 -4.832994525909100302e-03 -9.810369091796476010e-03 -1.912033108275790899e-02 -7.199010333430923107e-03 -4.164045604116517127e-03 -1.157551495993704681e-02 -1.211629714504638793e-02 -1.884858661019806056e-03 -6.503376904363753971e-03 -1.257461538901803386e-02 -2.183346770822531743e-02 -4.797128584284861275e-03 -1.104528686721028240e-02 -3.976155038329887322e-03 5.109919628176932439e-03 -8.825087547817734440e-03 -9.588772121851996122e-03 3.684661818613184283e-03 1.718362079398789814e-03 4.030275008850899010e-03 1.624475512578926577e-03 -2.522397637910177813e-03 -1.128929920755104496e-02 -1.485445657024406750e-02 -2.252323641612357860e-02 -2.531080913686127240e-02 -1.477264193012272145e-02 -1.753689264598237360e-02 -1.396139693412212215e-03 -1.952703384179449789e-02 -1.937109484215355365e-02 -1.444396124250297946e-02 -1.981056344356768237e-02 -5.599639666656818296e-03 2.594970655215682320e-04 -8.648166209688315856e-03 -1.253811670821182618e-02 -2.949241609383316740e-02 -8.965493168645262412e-03 -7.451735560174732251e-03 2.456951956761469283e-04 7.307150710178503782e-03 -6.428607434989735449e-03 -1.491874793514096900e-03 3.249828803594545686e-03 -8.052621736397959362e-03 6.919283019954616115e-03 4.419053890258857996e-03 9.021443036094386678e-03 8.488532596580113457e-03 -4.430061896473903686e-03 -1.840714387459960535e-02 -2.171191057871166633e-02 -1.798899545271155642e-02 -7.802523005198533021e-03 -3.989103464330127219e-03 -2.288653604136156247e-02 -7.855472866748858946e-03 -2.038794684754649533e-02 -1.283174529940758410e-02 -1.997473804203439909e-02 -1.250490200732191741e-02 -4.954672806732915089e-03 -1.150469877181313841e-02 -1.781258352759810051e-02 -3.145141444219197446e-02 -7.734675208492266738e-03 -9.847761137580549398e-03 -8.659318270950174673e-03 2.640775858741072762e-03 -6.486733020363356569e-03 -3.265642587830044647e-03 4.710106852859135239e-03 9.634755871205279848e-03 -5.969839765188953221e-03 -2.937351594906092642e-03 -4.263061584265574570e-03 -2.838928020190240216e-03 -8.140606004365962337e-03 -2.490786373872319950e-02 -1.425315137037902642e-02 -1.205415617303423441e-02 -2.062645353082007832e-02 -1.132897826072207237e-02 -1.555331520666101107e-02 -2.546924046523947605e-02 -2.259338246274424089e-02 -8.165763329153504294e-03 -1.213326021303593773e-02 -6.613152309400434706e-03 -1.074734263650409249e-02 -3.022342872987235710e-02 -3.183324270979931425e-02 -1.017074973747116376e-02 -5.382045500684948594e-03 -2.061388641336135176e-03 -8.743895189447374247e-03 -1.479056135582521849e-03 2.248633920945389709e-03 2.468786138990830287e-03 2.960970913672155997e-04 -6.771051439608329926e-03 9.572356882936840575e-03 -4.474887762125342311e-03 -3.256220929798333587e-03 -1.372109314263428824e-02 -1.591015855152046535e-02 -2.397277423117318007e-02 -1.903724025709539053e-02 -1.784491288730024119e-02 -1.430921717296439362e-02 -1.582889442546522515e-02 -2.002152125112116252e-02 -2.312040391110987622e-02 -1.400922080190341104e-02 -2.029709202553023686e-02 -1.901260241981233418e-02 -3.024434777262545795e-02 -2.526077695563104172e-02 -3.371730026985926554e-02 -1.725191035012091020e-02 -1.973183573299214927e-02 -1.902970845986859741e-02 -9.503685338808385424e-03 -6.779570184930998854e-03 -3.258934038311897281e-03 -7.935676857811883173e-03 -7.888072758346105842e-03 -1.667448329716447698e-03 -3.819917893259861192e-04 6.697143125397723475e-03 -1.036490309577894897e-02 -4.024655774715658191e-03 5.758672803539224578e-04 -1.532184436583816645e-02 -1.619039696828059038e-02 -8.931741489119007435e-03 -2.047330486730577701e-02 -1.873292684953126869e-02 -3.140310670380654784e-02 -2.945225364912833557e-02 -3.054537461984124791e-02 -3.257594525290219423e-02 -3.674944307514815822e-02 -3.343871748642895242e-02 -2.891051672054893371e-02 -2.623688847122718562e-02 -2.249119423947918903e-02 -1.302820513232176222e-02 -9.692199287091347523e-03 -1.823021431746972912e-02 -1.242545117502940125e-02 -1.692007193813675108e-03 6.264461567951374330e-04 -6.325865093321037490e-03 9.438099711201714632e-04 -9.550895901775047214e-03 9.409088189686084028e-03 -1.690252214342158983e-03 -1.505082845396940204e-03 -8.278274190792188000e-03 -7.749938332216261064e-03 -5.081795178405455402e-03 -1.214544504175034921e-02 -6.433395177266021045e-03 -1.850280408436428409e-02 -3.938384526130515179e-02 -2.204063651676671856e-02 -2.153641710939945345e-02 -3.349459910574763971e-02 -2.203417345213701251e-02 -2.434177258663622681e-02 -2.600749766811408931e-02 -2.372625179351464317e-02 -2.948541428193696134e-02 -1.396404258104983094e-02 -1.128974060706762483e-02 3.539594686741184392e-04 -6.049644637768168860e-03 -9.725469609432650653e-03 -1.137851308441002827e-03 1.279100973365195548e-03 -3.714898781918123463e-03 4.294258360827894842e-05 8.573604999268642085e-03 -6.350506454288997599e-03 1.844696592220238397e-03 1.709757678496987877e-03 -3.960806964093323279e-03 2.176383335801411467e-03 -8.739184372154663524e-03 -4.930942246279458423e-03 -1.760527185501413808e-02 -2.832102040423850262e-02 -2.551175025852022923e-02 -2.209629251738676192e-02 -2.264906643256920163e-02 -3.363836225689889603e-02 -3.387305855292047085e-02 -2.304933427311122579e-02 -2.781237626767177687e-02 -1.487186179550101933e-02 -1.165992838159040854e-02 -1.656318478694425098e-02 -1.242818570229043806e-03 5.789811949400735288e-04 5.657845921988465497e-04 6.840083239430238063e-03 -2.261719916351579394e-03 -9.426245261346204857e-03 4.000280251755127968e-04 -8.082410912741483031e-04 5.242912183711834553e-03 4.658080797547991831e-04 -6.764383702856033471e-03 6.374297059385155770e-03 6.942245385725410479e-03 -6.984254964191522266e-03 1.445738236648267186e-03 -3.664668391261087597e-03 -1.571402891653725375e-02 -1.928930557282984917e-02 -1.324636408779177217e-02 -2.754177300487637217e-02 -2.228851975520440565e-02 -1.385821777887880947e-02 -2.129852895843537680e-02 -9.043044883169452583e-03 -1.371047175043656023e-02 -1.554501731197637307e-02 -7.665354496366377779e-03 5.322206645154745064e-03 -7.467758940554890170e-04 1.736758930287910646e-03 -4.862540638167684760e-03 3.444627319746231355e-04 3.162115949800140078e-03 4.036962340080922466e-03 -9.911636314026636002e-03 -3.035838552593303919e-03 7.457483677785758935e-04 -1.982193745137883403e-03 -6.839098458407946203e-03 -3.343593704800948679e-03 3.081821274727211245e-03 -5.652606691517815356e-03 -8.722575928235529880e-03 9.060775262461384953e-04 -4.143595106306938863e-03 -6.334524738977376918e-03 -1.202030997257364474e-02 -5.320980625999886804e-03 -1.684339910687356404e-02 -1.048055308742692170e-02 -1.460716454635547536e-02 -1.361374515326881258e-02 -7.890540310984196434e-03 2.714874745103867427e-03 1.592092395874776132e-03 -9.519669472513829847e-03 9.058537432713877069e-03 -5.575405328469018335e-04 9.395249709389893664e-03 -2.267681593963572460e-03 8.337468534870501411e-04 7.168318730283813368e-03 -4.033637455108251939e-03 -6.779149342161556839e-03 -2.199340605562711670e-03 -7.793066936045562644e-03 6.613947281146077134e-03 -8.390582311865514911e-03 -9.634669627869909062e-03 1.278551442238774847e-03 6.333138049912423462e-03 -3.078157566477550400e-03 3.360366073496567386e-04 -4.811457553715207469e-04 -7.604320754593078694e-04 -2.075116441023640464e-03 -6.831702889797002833e-03 -4.569727520660296985e-03 1.871044523999784845e-03 -4.438668494401843030e-03 6.540171843137589265e-03 7.766809212379387900e-03 5.474801859300642420e-03 -3.161945445418592841e-03 -1.530277325407894016e-03 -4.724093211951360498e-03 -9.190038377038637490e-03 2.371626792921224810e-05 -4.364769205502276768e-03 -8.662675897359171234e-03 -3.764661843090637543e-03 4.503596418287354741e-03 5.232630092031604827e-03 -4.073106188314425634e-03 -4.820302117074315245e-04 -7.515662569573462390e-03 -4.354460153841401525e-03 7.646168789510818763e-03 4.378374043155237177e-03 -3.756281279500585640e-04 -4.167366937947244651e-03 2.607714624793317469e-03 -4.796806126587394893e-03 -9.642535481251091750e-03 -5.352797750650636552e-03 -6.090954574930695919e-03 8.374169384559509771e-04 -1.983495079652792658e-03 -9.987085405618850720e-03 5.111567142983474907e-04 5.872978939208885196e-03 9.256353141708218227e-03 -3.380190273594070073e-03 -6.402969888467432546e-04 5.293012137157568006e-03 -8.194871291446489611e-03 -9.155620647503312851e-03 -1.216456492277417895e-04 -4.064597008004113519e-03 -3.780271655563876166e-03 6.468771861670881244e-03 2.270372632085466535e-03 -7.220141765130798361e-03 -8.872971615746294560e-03 -3.916464618623905283e-03 5.614610087681712498e-03 -3.101325912220795691e-03 -1.498654832250452236e-03 7.387937606351935478e-03 -7.270493384156551456e-03 -9.244388463382227639e-03 -2.988675183882792121e-04 -8.383457392483544338e-03 1.432698874936660059e-03 4.626985168202905722e-03 -8.914744305446876613e-03 3.476783557793328670e-03 7.151590449190553013e-03 -7.613873655104663393e-03 4.021343187597444663e-03 -2.605473647631292855e-03 -6.034690610747949933e-04 4.608131445941763236e-03 -9.290819856837011573e-03 -4.310882591225779527e-03 -6.165244860196834181e-03 -5.939050185211344930e-03 -3.715779627019970451e-03 4.698214394976958294e-03
