-1.480150705117466812e-04 2.390651637459237887e-03 2.281870998268797999e-03 9.697863517882472292e-03 -7.887987499815342710e-03 6.033417164090350802e-03 4.168050975016586099e-03 6.772288099635481728e-03 1.025901453969360003e-03 7.692869513311852842e-03 9.390449918255639426e-04 5.034707003993028375e-03 3.612922366624815758e-03 -1.506995608005617655e-04 5.372433713297701530e-03 8.435462676883545216e-03 -5.576466814219800498e-03 9.949992086592553825e-03 8.462211297341839383e-03 9.338133244444870792e-03 4.551662020679580816e-05 5.832780225800142555e-03 8.772739859510545954e-03 7.568039644402759815e-03 4.424120638802797253e-03 6.746752043523433946e-03 6.429116790527160570e-03 -5.016797055268362726e-05 -8.100770616253567466e-03 -1.352128898114905980e-03 8.445052543707113821e-03 -6.167036325726397983e-03 1.293074512546069782e-03 3.128114332023257827e-03 -6.834060558685020430e-03 1.499601084519086754e-03 6.628467470542125095e-03 6.782683975084087546e-03 -7.960598203845632367e-03 -7.709624449276625442e-03 4.115430244679515147e-03 4.303814458755816745e-03 -3.425791264821726693e-03 -1.167633534289925189e-03 -4.446194263551767750e-03 2.867793821754583208e-03 1.754591446551763021e-03 -1.106972739281834872e-03 6.546998708768354824e-03 5.478972699800774976e-03 -7.138294431700034116e-03 9.518507967456662361e-03 7.756884175948517389e-03 6.520408713563072452e-03 7.761714719086514579e-03 1.015362852772940709e-03 -9.000543302828546699e-03 -1.803458926887717591e-03 8.124187598214390295e-04 3.252205349919472070e-03 9.401114902158603376e-03 4.621651375550123609e-04 3.577221611870355384e-03 9.066383911962403938e-03 9.522490176696580752e-03 -2.748938293160926990e-04 -2.074142437513354982e-04 -2.681003687650433936e-03 2.177729748176298035e-03 5.224244548227525292e-03 4.611023595593706850e-03 -4.957490155986424459e-03 -4.162315542333819979e-03 4.234067943466968825e-03 -5.903810290013924121e-03 -6.320057358752221091e-03 -3.876031787260861370e-03 -5.354941199136865199e-03 9.249806525572222202e-03 -4.990211421944816365e-03 4.341685202949543097e-03 9.156477700124999314e-03 6.054009500291663952e-03 -5.892517012737940804e-03 -9.529348390050890877e-03 -8.612073770582618151e-03 -9.249747530730801975e-04 3.302265688830143073e-03 -1.194808616839808726e-03 -4.426664916181842491e-03 -7.341671619660103745e-03 9.752274388197260807e-03 -2.696003583238482885e-03 -9.993916188836239004e-04 -7.927740222826674607e-03 -9.027303629520446382e-04 6.799984373392152504e-03 3.071068433888982617e-03 3.499818908689870012e-04 1.002723191956085905e-02 -3.017837613616333736e-03 -5.446170100954419481e-03 6.215732072288289792e-03 2.441530748147921134e-03 4.105231947328879388e-03 -4.270140854128559073e-03 4.544873186992049938e-03 5.192499334167756560e-03 -4.117723315717152291e-03 9.505090461240253349e-03 -6.878095340014211967e-03 -7.167747861996935990e-03 7.944365752412464038e-03 -5.806538041564968024e-04 -8.010693462433805812e-03 -2.647257299790784727e-03 1.600522981789314833e-03 -6.278570819204575080e-04 9.768388777016778421e-03 4.841443731177169120e-03 -9.226211549969987741e-03 -7.302711104764739343e-03 -4.955692949374986868e-03 -1.271848301245587405e-03 -9.346994907501342265e-03 6.381458292512186790e-03 2.192520108929184568e-03 3.248370299470401592e-03 -6.403186644133947517e-03 -2.835525686162047952e-03 2.184315072210643756e-03 3.987492339672055273e-04 -5.437775265865536778e-03 -6.078508673369480662e-03 -8.519097977158721774e-03 2.677596921197634202e-03 7.213002967668170028e-03 9.798355546790645659e-03 -8.494348947521173157e-03 -1.264955152220648149e-04 -7.077047469940227729e-03 2.126203127607424314e-03 4.488489854673378097e-03 -6.168414496646230753e-03 -8.821058672703961656e-03 -8.536838833413972968e-03 -7.779127100060887791e-03 8.112239116919568033e-03 7.427735535307695720e-04 4.074615978981803791e-03 -1.169806298933249479e-02 -6.449886933519547415e-03 6.043722681712027610e-03 -3.174184991372421688e-03 4.420506239465481126e-04 7.882437608989279962e-03 -6.905315448029785558e-03 -9.354238686321044230e-03 7.513815293160789992e-03 -1.013419555955869140e-02 7.023223460389925064e-04 -2.929935655535664644e-03 3.473945376327147380e-03 4.348618834369960551e-03 -9.617849787541484646e-03 6.834232078096288965e-03 -9.902347505683004730e-03 -3.883302785446217983e-03 -3.669963806348575195e-03 4.827197939386711732e-03 -9.877055915481142753e-04 8.001065965909166799e-03 -5.305209456039829130e-03 -7.924691712659760398e-03 4.617442733797889019e-03 -5.663185347899805586e-03 1.803201616680997436e-03 -1.337919495267048120e-02 2.379279527872907914e-03 6.014664345610366142e-03 -6.070107386600933274e-04 6.984200700588132082e-03 -1.477078967386965234e-04 -9.489351160094057838e-03 8.430660284853117199e-04 -9.943147701610989195e-03 -5.676679240283008347e-03 3.304244652069330407e-03 -3.758860029958542744e-03 -7.490463617212525169e-03 5.909251018819172479e-04 6.263600865758551031e-03 -4.038782799326334598e-03 -9.248532262203418980e-03 -4.324308498802372468e-03 -4.865573193816362906e-03 9.633023753710842976e-03 -9.781711797091422605e-03 5.164483314665815200e-03 7.919775316117936073e-03 1.563218538027379059e-03 -4.096168065805845873e-03 -2.468802067502989285e-03 1.462670761110415260e-03 -9.524986926862643102e-03 6.648113417867854667e-03 -2.508171006911124028e-03 -7.773744643005535936e-03 -8.332989817514393702e-03 4.773096918453810511e-03 -7.014795393896319092e-03 1.906305008711533079e-03 -8.165258911500990896e-03 -6.267363714140840834e-03 -1.111825716730772615e-02 -1.130959750367263768e-02 -5.367402625289664948e-03 5.815914266950450613e-03 5.173462111135367601e-03 -4.798140307109678183e-03 3.206004079097411058e-03 -1.126955588730795682e-03 -6.361243304738911988e-03 2.926655659653535583e-03 -3.345491323117120649e-03 -4.991605547676167959e-03 4.946690225360219750e-04 1.005740951537968143e-02 1.057715287491251162e-02 -4.031325097077782978e-03 2.871721164340673271e-03 6.797711440801170422e-03 2.582170526927140761e-03 -4.958843178830513870e-03 7.062849966855284586e-03 -6.402515826484765291e-03 7.583614852861647430e-03 3.070738265977346424e-03 -7.128011681393675060e-03 -7.591810042666397376e-03 -9.960920096353209977e-03 9.432857633088979465e-04 5.113423300268445278e-04 -3.320809922944785789e-03 5.453273015884083780e-03 -9.439044120072490746e-03 1.004347861089149516e-02 -5.449117584946745405e-03 5.199031890961686164e-03 -4.658071215304132769e-03 4.624522714803651000e-03 8.359521380712865712e-03 -7.715845817922437934e-03 -9.040381009534321360e-03 9.155431358557343871e-03 -3.039272752962273675e-03 4.193966062410016751e-03 5.270444218347253469e-03 7.973353030986854439e-03 -6.900769942652069206e-04 -8.111531192803085946e-03 -7.232793445116493525e-03 7.374874787143704397e-03 4.443259192832098021e-04 9.827885217856003816e-03 2.711551406300195723e-03 -1.301942580767094515e-04 -1.174589178296516281e-02 -1.063769806137145058e-02 -7.284720188245569043e-03 -4.614783102794397032e-03 -1.687430512356337170e-04 -5.983606234694280324e-03 7.215157465706594636e-03 -4.808542675567061345e-03 8.656935578488173313e-03 -2.433613426894447145e-03 -3.831468019215992279e-03 -1.572907017128350295e-03 1.495672890513967662e-03 2.456700799821799532e-03 -5.194688531004147160e-03 -4.237930741162083959e-03 1.307702943352834430e-03 -3.104907457008971531e-03 -3.780746670138601054e-04 7.984462044157376870e-03 1.685418069262733078e-03 8.467285243210404683e-03 2.309451159428140953e-03 5.793337168189234207e-03 1.439497157536801485e-02 2.114341757669625874e-03 5.669749200137606977e-03 -4.968919124818919550e-03 8.932175622563255602e-04 -2.974901977595028105e-04 -1.411776717728141462e-03 3.067704014169088736e-03 5.918854030976601795e-04 6.958862114131362034e-03 1.450561065179887263e-03 -9.046193504083610256e-04 5.288547824146792690e-03 1.419783144851566922e-03 -2.984859468703055397e-03 -9.432686085513791382e-04 9.176870874513975290e-03 -8.476091862101240706e-04 -6.461629622750379026e-03 8.642710519724296214e-03 8.259762731766057825e-03 9.117467448704272281e-03 7.522825557284136717e-03 -1.566478347813604578e-03 1.046578488755267600e-02 -8.480839203923389025e-03 9.447274065362176038e-03 8.443873650731473224e-04 4.914399346571032140e-03 -4.167840453018282522e-03 8.749348787322026801e-05 1.978690496241396462e-03 2.869993412452610630e-03 2.591711503821472404e-03 -4.889733178124722711e-03 6.166138058342778352e-03 1.137890392179409342e-02 3.384723380654804624e-03 -1.378597591673866220e-03 1.025977994755571977e-02 4.689483733625395175e-03 -3.595675968067990787e-03 -4.850353843247645277e-03 3.521592533388063790e-03 -3.503731057096547055e-03 9.826169394323543485e-03 3.951466122714119948e-03 4.981789304344342618e-03 -8.504387370930881901e-03 -3.410704468444369745e-03 -1.160119620129838116e-04 7.462845930794711341e-03 -6.709102638099988421e-03 -5.555661086226296869e-03 5.439169987532387236e-03 1.160650168368863606e-03 -6.303652166277624348e-03 7.820847999850989024e-03 4.821336459071666816e-03 3.101372553083315935e-03 6.926512468155491924e-03 9.016667111862593752e-04 1.157567033177657988e-02 -4.875922589534298530e-03 1.111199942382660143e-02 -3.098385456352153924e-03 -2.907068943453647736e-03 3.137840091830460584e-03 8.629684028414708399e-03 -4.660906903339662004e-03 -2.853704731335383188e-03 -4.503615732494584828e-03 -8.437325254835996782e-03 7.777561197876692138e-03 -2.066509425695775299e-03 -9.147686590665008582e-03 7.668739869694032874e-03 8.373431468403132877e-03 6.068601020838795823e-03 -6.588405313820035365e-03 6.534607770492756838e-03 4.752802835580512315e-03 7.655537894918153057e-03 3.640468849752396597e-04 6.837891391111443166e-03 -2.646081686627464302e-03 7.814532151969933935e-03 -9.914587193583528427e-03 -1.121732072131992070e-03 -7.194785746398959549e-03 -5.545164686422141345e-03 -4.137469813129721063e-03 -2.560820631208579872e-03 8.811055599997529020e-03 -1.278141730184027824e-03 7.973042618498585310e-03 -6.097837811921216940e-03 -6.046720444420440772e-03 -9.029917620684533436e-03 2.403491415376214982e-03 4.981517033302431535e-03 -3.622549334685858536e-03 -2.340586415984323345e-03 8.041052055785518488e-03 4.295581520408923125e-03 -4.157062849561812823e-03 -7.294245199262064730e-03 9.057840856452815297e-04 7.147542779156897640e-03 6.149140237411633743e-03 7.707746072493991407e-03 9.010989049191205427e-03 -8.888185485982604689e-03 3.143718302819530942e-03 6.950625556352387109e-03 -5.831604251279228976e-03 -8.767167317382343686e-03 -8.106095578759164519e-03 9.521527908266538484e-03 -7.272670138626665878e-03 6.808193303935256881e-03 3.826071756402137005e-03 3.761663191154143888e-03 5.918194425482694969e-03 8.194271479314686833e-04 2.297443114012584671e-03 -9.501056954315613423e-03 4.757302407024537917e-03 6.898985936328204914e-03 5.360057882054683302e-03 -7.828907803060466616e-03 2.849542945069041735e-03 3.631637416333058366e-03 -6.805319435172174983e-03 4.322709216594877767e-04 -1.082683382261213434e-03 6.123008487427951396e-03 -1.661082121998615939e-04 3.653494065451695465e-03 7.104388047418768240e-03 5.975867206525534679e-03 3.740976350113943069e-03 -1.048908370736067672e-02 -8.956492822998235459e-03 -7.828258249883266254e-03 -1.271330664379966176e-02 -6.523042256267074131e-03 -3.789292666776414666e-04 1.193734390846265883e-02 7.834604253841378693e-03 1.560534210163887952e-03 -7.151606545801246669e-03 6.944353405847646619e-03 -4.669475283886838704e-03 1.857040165351291593e-03 -7.800860840528706271e-03 2.037799572511569696e-03 -5.846774869942674216e-03 -6.142619763126737353e-03 8.334689285951836155e-03 4.251190833020605797e-03 5.212963576802385514e-03 -3.828721303991548721e-03 8.867550659222614082e-03 9.986533701962025528e-03 -5.769387030919031177e-03 -2.342430181482921085e-03 -8.892295877784452476e-03 -9.736175897918863953e-03 5.125704208978732563e-04 3.761363375379260000e-03 -1.213848142325513191e-02 -7.396948116105291592e-04 5.238164345734265884e-04 -2.730013450908392540e-03 -4.655226879486532368e-03 5.250860586782602965e-03 -2.812447334936177246e-04 -4.951528064827957418e-03 -6.154723236582963254e-03 -4.685137414424611624e-03 -8.643648225840627752e-03 4.816116066213399841e-03 -4.268381654188013567e-03 -7.242176238708233210e-03 2.843894759757521675e-03 2.764029145337722638e-03 5.729920058099069284e-03 1.558450762481731157e-05 4.759059837144167734e-04 -2.387654954345498366e-03 2.505385343385436460e-04 -6.901666547426011517e-03 6.265757681048887695e-03 -1.988065765407656758e-03 -8.747193385059838511e-03 -7.125681314635497372e-03 5.868083219962609391e-03 -1.387259686176836246e-02 -9.062263622458252565e-03 -1.236081010422552563e-02 -1.397600720737068479e-03 5.185516289799579556e-03 7.652994849930350911e-04 -4.935755269526274566e-03 -3.859643723710655481e-03 -7.402496496645970606e-03 -8.277954299137602837e-04 6.681382225084132572e-04 2.792196224642450302e-03 -7.915821593069880500e-04 -3.545729872648575864e-03 -5.509806101808299543e-03 2.781896300992592569e-04 1.153272238763727647e-03 -2.952026499257962185e-03 9.173560047807767168e-03 3.715903097118382348e-03 -3.349375100776221924e-03 -5.500715198426512839e-03 -6.949051033822902304e-03 4.526406494381723239e-03 -8.887385920623056337e-03 2.940880562869616251e-03 1.944300863932659938e-03 7.677089074155409032e-04 -2.552997722961376521e-03 -5.649377100699850066e-03 -7.964436827477596945e-03 -1.226321989014306267e-03 1.222404749379200472e-03 1.038882875866550121e-02 7.904684182575701340e-05 4.940400020109292009e-03 7.888636021452620148e-03 6.105725506481598196e-03 -3.455467848264822360e-03 1.304452502187286545e-03 -8.005156691511165420e-03 -4.067573834818292294e-03 6.077358934135228957e-03 5.910972445288807144e-03 -6.985377783643131368e-03 3.766437923598167647e-03 -1.093623496201894408e-03 -1.106456008931015235e-03 2.550481439333847355e-03 -7.115084999318642411e-03 6.347269316326495381e-03 -7.619226549208998368e-03 -9.505369784186739474e-03 -9.558500174203225785e-03 -6.056325292479267791e-03 -1.013828791157281306e-02 1.959540616526607177e-03 -1.055801492022388072e-02 -4.479880275603883785e-03 6.886926159907613004e-03 4.954295847058717492e-03 -5.270654176640100601e-03 1.009642321515217059e-02 9.988851844819882433e-03 4.205199960343704475e-03 -5.531984889673722053e-03 -5.942522784578861510e-03 4.447087465830453813e-03 9.300032982236182758e-03 -1.502592542589054709e-03 3.374758036014176288e-03 8.662618301730025047e-03 -1.837324024739054543e-03 -5.515293390203158952e-03 3.461534001209875134e-03 6.606247643966420757e-04 6.303035846142449744e-03 6.751283430349008449e-03 -8.835235650115754943e-03 -5.318182506532057909e-03 2.116088447365453186e-03 -1.063490796187184159e-02 -3.889986288749222240e-03 -1.017605343049555544e-03 -1.193135777070203438e-03 7.870486626421605014e-03 -6.225537395852940442e-03 6.350093676090391367e-03 -4.067299004583406485e-03 1.069846177881874326e-02 3.238069635932016785e-03 -8.938945994411777105e-03 -1.437712690337046920e-03 9.951015319518247918e-04 -8.179201384323613391e-03 5.956151789916751824e-04 7.672970103342380971e-03 -5.539930345598018287e-03 4.389044851191245891e-03 -3.024589417300600595e-03 5.196329329644455361e-03 4.397578539697376276e-03 -5.902749537733051333e-03 -1.289282934712088864e-03 6.843060948560722792e-03 -1.056582864860784038e-03 1.034886806642979678e-03 7.054823629766330227e-03 -2.933120609695214886e-03 -1.943645490927359883e-03 2.556520512933009928e-03 6.834047495682803175e-03 7.711442055686356344e-03 2.881403952334804595e-03 -2.692870343360637651e-03 7.463028701671188189e-03 1.086531531114924391e-02 4.037542046738037786e-03 -7.000206015997454366e-03 -5.147819150493179209e-03 4.781632614612334187e-03 4.329108823047711279e-04 -6.639336517129871065e-03 4.257005568013689373e-03 -6.622996305862645892e-03 6.349215811046628579e-04 -3.581945332255710799e-03 -4.874128450324193007e-03 -6.134101616944300644e-03 7.937529839398578882e-03 -4.176034210928111258e-03 5.284668523674494571e-03 -7.444517952427144418e-03 3.341291103092635262e-03 -8.525070893904512087e-03 -9.743429454707802292e-03 2.628307202393351076e-03 4.742741740183204304e-04 -1.109813847121970086e-02 -1.086822867310776632e-02 -8.396422498774064325e-03 2.540649714728266447e-03 9.845561578860481319e-04 1.002388644714938097e-02 7.518637342132040470e-03 5.644423920442991766e-03 6.946592814974303885e-03 2.359739808082557486e-03 -4.518514422249410301e-03 6.132275513228895546e-03 -6.456082893803242713e-04 -6.041902064689121284e-03 -6.716918514153524117e-03 4.839321220477260307e-03 4.659804819547228288e-04 1.857313824918944761e-03 2.645950409416004782e-03 9.248951234298660382e-03 3.851420234327285154e-04 -1.178556210119224628e-03 -7.047629842641288909e-03 8.765141831330052272e-03 1.427451116435567288e-03 -1.043761024955002642e-02 8.996111428741509087e-04 1.372478594166634406e-03 -4.096007988865540267e-03 4.110148910187681401e-03 -2.807443533735026839e-03 -8.815923188680331590e-03 2.715039139682835865e-03 6.849344510886958004e-03 1.211230483793810167e-02 -5.993905598420587282e-03 6.860692116661325397e-03 -6.021125976733129707e-03 -7.055945484973481611e-03 6.822037838934381579e-03 6.131403047219954189e-03 -5.050406951548058569e-03 4.786586734705014501e-03 -9.593803814622139416e-04 -1.373577502018334846e-03 5.132431791631431213e-03 4.382364367756248769e-03 -1.503809310684441547e-03 5.229499781485615235e-03 -6.724282590607011043e-03 4.653370131250224653e-03 -4.430542689892514631e-03 -9.260811816775562852e-03 3.926787812475376199e-03 -4.060083466186542415e-03 -2.071844622803724594e-03 -9.364386970532276658e-03 7.814419422509743737e-03 3.719757198797767929e-03 7.305619473592961897e-03 7.792773286250859188e-03 -3.937529288989583508e-03 9.174838011746301245e-03 4.485932439860833287e-03 8.287034140900269297e-03 1.005690555483882385e-02 -3.832725504186024895e-03 7.655964005584213992e-03 -8.770005208973039382e-03 -3.089635617804617224e-03 1.412798194113910975e-03 1.722697620625011428e-04 -6.643034936083347039e-03 5.493241969837008715e-03 2.971888018474362451e-03 1.909518105230007673e-03 -2.756817313660056643e-03 9.699308430863480546e-03 -7.803750438302735175e-03 -8.860632503622905762e-03 -5.734209184254612096e-03 9.172975430635034455e-03 -8.005336749892580372e-03 1.362564146534045017e-03 -1.853670874595167092e-03 -8.058019544971994214e-03 -7.917876563760521680e-03 6.026347629467207999e-03 2.766082047329231249e-03 -5.964397235795774153e-03 8.746145646155502676e-03 -6.627665234546194564e-03 -1.528677330732978372e-04 -7.877478295643197681e-03 9.197246940508215646e-03 3.569114327387522007e-03 4.537043334339594357e-03 -5.972646672688899233e-03 -8.757105582399558538e-03 4.337577535730441358e-03 -4.771891049711913732e-03 1.323117961414745948e-03 5.141360913402641918e-03 5.234899098815342516e-03 5.761184622280052930e-03 6.952004442659994940e-03 6.598256771835251354e-03 8.975324412368347604e-03 -9.535270895483005660e-03 -7.811325110825935274e-03 -7.314207778740966330e-03 1.384767260216052988e-03 -8.433738262121903695e-03 -3.106454857143366947e-03 -2.006357698645303347e-03 7.076602581734898513e-03 -5.322275039902861840e-03 -5.138185655955093169e-03 3.005902233105961583e-03 1.334840303771767404e-03 3.571712408957676641e-03 1.032783235591832986e-02 2.176727653134119533e-03 4.455911785057408737e-03 4.290111626548053121e-03 -1.130873010709067001e-03 -9.778937478437426528e-03 -6.777413193851366743e-03 -2.343535745930522968e-03 6.958018933974563329e-03 -4.135449430535147707e-03 7.961609969443053311e-03 -2.198380829443953403e-03 -7.973532004679864324e-03 -3.145918127732607195e-03 -1.195207562891544137e-03 -3.125827325425090814e-03 -1.172004872411841698e-03 -1.970630704503505571e-03 -9.003758618179131742e-03 3.899386237370513781e-03 1.270801340636973928e-03 -3.121468032538312828e-03 4.895052719867844584e-03 7.614945007331615917e-03 5.492073550835096379e-03 7.146908194050808835e-03 -6.394282299010495448e-03 2.364002305857721992e-03 -6.872550659793121887e-03 5.188672373691216935e-03 9.592120651833237546e-03 -4.388902296399169395e-04 2.148335918646269212e-03 -5.056553236770500431e-04 -6.773825905985983963e-03 -3.289020268554869886e-03
4.978382996929433917e-03 -3.936401038607662169e-03 5.246311747508856059e-03 9.613226079748704491e-04 -5.413026029691321052e-03 -9.097867552557960258e-03 3.695041270826924292e-03 -8.369672653594582845e-03 -1.252060375956152213e-03 7.917172303182866064e-03 -2.846311386356539450e-03 -6.780238443515844773e-03 -5.351938384826305031e-03 3.054861032157832465e-04 -7.154217078935154461e-04 2.102436272744436906e-03 3.895543832547927309e-03 7.781740417939742374e-03 -3.414613832586286309e-03 9.626383862357352703e-03 1.679069788888321035e-03 -1.579089355353435796e-03 6.024082089262503686e-03 -4.271614620281809389e-03 3.508626529304557148e-03 -3.798793119630248377e-03 -7.795597169483487604e-03 -5.381799065945194228e-03 9.317947061645046741e-03 -1.969484266102234944e-03 -3.353303874971309568e-03 7.443875338331132178e-03 -7.450447887229181415e-03 7.503336604417573490e-03 -2.275406192019662974e-03 1.697058891184322939e-03 5.836137351636695378e-03 6.647594669788118790e-03 -1.756358675332829120e-03 -6.291437628394664847e-03 2.024907045589675533e-03 -4.321294704826313463e-03 9.735241880669156037e-03 -1.187175277867863867e-03 2.943033282001078586e-03 -2.775384997781223193e-03 -6.803670510600693180e-03 1.100216895304539921e-03 -9.480907127426165329e-03 -4.297049392641884118e-03 -9.189508949408366906e-03 8.885829980553087981e-03 -3.635474033741285891e-03 -3.289361868596081106e-03 3.500393403020452161e-03 -7.902899096994930438e-04 6.525899255740208243e-04 -6.366803978513319723e-03 -2.085835956724773482e-03 -8.081842212134164941e-03 2.766955170359228656e-03 -9.157682612399527244e-03 -4.579777311250348565e-03 8.409991845997133800e-03 -5.744015078053527068e-03 -1.413718319721981968e-03 5.722693650420246358e-03 -2.274866021821664655e-03 1.128637881380034277e-02 -5.369648394165555533e-03 -5.049414029013221845e-03 3.873754158297512337e-03 -5.034274557096159175e-03 9.988768665160942251e-03 4.242695778861424460e-03 -7.798182413646081654e-03 9.017547818356520459e-04 4.522293366592428435e-03 -3.820525358606272244e-03 -3.133159129799806698e-03 6.004336572334564165e-03 1.618248798296391042e-04 7.160679292072009462e-03 -3.826972986547845252e-03 -2.412165489057094270e-03 6.212169705071197631e-03 -8.965532087004859929e-03 7.213793721904633756e-03 1.859218462392202374e-03 7.999151835479317157e-03 -4.703525417858274958e-03 6.411333361574110025e-03 -6.022390888159509341e-03 -1.457859966062262239e-03 -5.160171122219292701e-03 2.370653837958692795e-03 -1.060279561345045876e-03 -2.807431008914764315e-03 -7.202592573265445379e-03 -3.816517367271508084e-03 4.994784303609822555e-03 7.019396889792414891e-03 5.129968715547615458e-03 -4.845282503194516671e-03 9.561228638391252362e-04 3.726665640235075124e-03 -7.893944095387928420e-03 -3.489658401488970624e-03 8.759356679427275985e-03 2.739555753025802159e-03 -3.841807509257080117e-03 3.512073956891568257e-03 8.829204180064619684e-03 -6.209539853990448700e-03 2.814382401463567506e-03 -5.352739895799569960e-04 -6.260133262683052584e-03 8.898694890191145151e-03 1.014941150700666761e-04 -4.808294441961547504e-03 -7.906856513516816176e-03 1.061945573250910532e-02 1.000547828248243322e-02 7.349402478568745718e-04 6.711158283823132585e-03 2.011903887487415370e-03 2.093346813294382196e-03 5.437626106497188763e-03 8.106711367966182649e-03 5.100104716303040589e-03 -2.692180693101652207e-03 3.101570158736369209e-03 -1.910857181121105274e-03 4.323783306295810210e-03 -1.079161284503796312e-03 -8.570578681259394954e-03 -6.056168290158962624e-03 -6.760282978199097514e-03 -2.268406024625943800e-03 -7.268275454631076965e-03 -5.080585823083571661e-04 3.847497406834443807e-03 -2.615897635976673075e-03 8.143136912646807557e-03 -7.807369002349710471e-03 5.839114752828288707e-03 9.056990444336995155e-03 -8.572578521198219101e-03 6.057394869897714425e-03 -1.862095459743676098e-03 2.135997410292434298e-03 -1.048388067741320810e-02 -6.084355716821167152e-03 -3.895095120494582088e-03 1.779334426750517990e-03 -3.434230651851980301e-03 9.489070060783491578e-03 2.079091443698272059e-03 -5.174114793199420699e-03 -3.781046577730223616e-03 -6.175468349695088788e-03 -1.291338672717469351e-03 7.346309903108980697e-04 -7.059322303600932408e-03 9.903281927502217714e-04 -1.071058857568257458e-02 4.355477532974568952e-03 -4.588622134879693885e-03 -5.814193346439686452e-03 4.596569432520463024e-03 2.278260391987499151e-03 3.781723405772861347e-03 4.208801375747591757e-03 -6.644507053846295495e-03 -3.107546033112202309e-03 -1.960943084106131929e-03 -7.456110147480109022e-03 -1.247963424914053099e-03 7.535084497610127635e-03 -6.717740072456001091e-03 -1.793421097273328402e-03 9.164303211203421451e-03 -1.558793738272705280e-03 1.232613490128779861e-02 -2.300164900889432873e-03 -8.551448391467646182e-04 2.425521000907421201e-03 -4.795801592507555750e-03 -1.783360038325821489e-02 -1.420764746524679455e-02 -1.289546288727072033e-02 -1.484971846311308047e-02 -4.834620574581043745e-03 -3.040797145044494242e-03 5.774709794505145967e-03 8.442951154806803632e-04 6.429576490610853373e-03 -1.517531310309246746e-03 3.339906751644124237e-03 -4.489938611745093559e-03 -5.073095524907273585e-03 -6.195556115973211569e-03 1.481226733513099419e-03 5.741264754694751400e-03 6.517678254804010196e-03 2.840604130837334502e-03 -7.171649297895325370e-04 -3.096495952228181178e-03 5.992232668358879639e-03 -1.319006129914712319e-02 -2.625087600083176632e-03 -1.284411387511751219e-02 -1.619288121882265716e-02 -1.917817708294271284e-02 -1.358821214505009055e-02 -1.801980748224093695e-02 -1.789413565319971505e-02 -1.892323659092072161e-02 -1.816897361956720802e-02 -1.130439894158720773e-02 -8.282109472508748446e-03 -6.297918686423865237e-03 -9.429808350736453362e-03 9.592373003189470781e-03 2.021623631784175059e-03 -3.970054670618737395e-03 1.168409365032760557e-03 4.104157693110906981e-03 7.907680450577724701e-04 2.312781715309908826e-03 3.373310022331002089e-03 1.859364825948499550e-03 -7.308095668550314630e-03 1.985304131257553673e-03 6.637691819371463291e-03 -1.324280051802975700e-02 1.207104792504230123e-04 1.032242411148922906e-03 -1.521248493955490791e-02 -1.919676241889895982e-02 -2.098021934254634679e-02 -2.155190877447229689e-02 -2.317969720639918851e-02 -1.855846339232478451e-02 -4.648756889456475902e-03 -1.684606747961280709e-02 -1.711772675419998696e-02 -5.047807173024763429e-03 1.176624434348191774e-03 -2.545119868668217853e-03 3.362119629476783417e-03 4.541426057037622338e-03 -7.612134230938002663e-03 1.507437860756040372e-03 9.661855759444387811e-04 5.740577760227371686e-03 -8.422320976993330488e-03 1.187696552089939975e-03 2.876521290160189218e-03 -8.643149611777139509e-04 4.534922467383725730e-03 -9.309259458864813184e-04 -7.171620894089425838e-03 -4.846465387858961416e-03 4.376806507748038505e-03 -9.547414179126835487e-03 -3.898116859278760206e-03 -1.207813686786154495e-03 -3.035674592063048252e-03 -1.643834853238377441e-02 -1.813733445798331595e-02 -2.918049769163566856e-03 -5.632303322243087211e-03 -1.047776261241601878e-02 4.351809599639494194e-03 -3.660036239524779543e-03 4.508661960537096655e-03 5.300999734470318581e-03 5.713837161153383429e-03 -1.953122241769038227e-03 -2.519079141819883551e-03 -5.398386555495510511e-03 3.352957646789490615e-03 9.681118101210455656e-04 1.021212402105870116e-02 3.461684516541710475e-03 -6.819264817803148346e-03 8.820012249526262837e-03 -6.899488769150266543e-03 -1.285706347954671327e-03 -6.206570504731313831e-03 8.159507535682913914e-04 -7.901470287480484578e-03 7.422654670585599954e-04 6.797732779121453024e-03 4.021466089429322037e-03 -5.266529723717420890e-03 7.027854112917744644e-03 6.923592263513230448e-03 -1.950747297340039163e-03 1.196134714451194299e-02 3.843457048518331923e-03 1.008024441233056935e-02 1.031915833604736456e-03 6.637928533688294483e-03 -6.339800474554877635e-03 4.380602619281613336e-04 -4.407674982754554265e-03 -7.215247919693396246e-03 -3.157408129660771272e-03 6.182644182820337155e-03 -7.634636202408765296e-03 -5.377049501476455912e-03 -9.399130356884855333e-03 -1.508695440826885630e-03 -6.993489404532301189e-03 -4.381743749098947378e-03 -2.558979707547088698e-04 4.768737975395381974e-03 7.258288922562975559e-03 3.712133222630075672e-03 1.460092370631784278e-02 1.033638913482588448e-02 3.509552540905598508e-03 1.163536470331604476e-02 1.875565929593561026e-02 1.869001425974353703e-02 1.726513905202058108e-02 5.519794130272263205e-03 1.804323883429527139e-02 1.401299655511101076e-02 1.345592896684694867e-02 3.662678726758394725e-03 8.692105081139369846e-03 -2.996958409949811598e-03 5.315979822915354105e-03 -6.841893404181806880e-03 9.004547560738287298e-03 1.041233742325743976e-03 1.545135638478906896e-04 -7.699115776594145193e-03 -6.954509410527177568e-03 8.347738164252093210e-03 3.956601788128987114e-03 5.036386059781988722e-03 4.126137709120650428e-03 -6.036999273920719798e-03 3.903501871456188221e-03 7.961568649238694520e-03 1.059421789994502601e-02 9.766047866326324836e-03 3.358163027366520888e-03 1.349522204839445627e-02 -3.784331268716679161e-04 1.705069044783676796e-02 7.988195215323823026e-03 1.361263945483273501e-02 1.717238620803022281e-02 1.355147053814917402e-02 1.346794563671531225e-03 7.628733613405383300e-03 -7.430280348187721755e-03 -7.693803039165256034e-03 3.265597854852129046e-03 -8.574897464844941780e-03 8.357504464547168069e-03 -5.308518826829320206e-03 4.385341221644427703e-03 7.718649556353326426e-03 6.464587094206246908e-03 -4.744144475587955788e-03 -6.571551750154255682e-03 7.447596941284850315e-03 -8.627319098354319094e-03 1.639477133687793986e-03 6.585061051477507713e-03 -9.873349037541835974e-03 -1.532043726595504977e-03 -2.625980311120175176e-03 8.829218353684616105e-03 2.708916853393089283e-03 5.241355326729858072e-03 1.050342651900685806e-02 2.713253623136051111e-03 7.113290521479669754e-03 9.019973940295130527e-03 4.132459141016670348e-03 4.682137894372995213e-03 1.056832630764371894e-02 -5.806091271690872694e-04 6.389062571050711965e-03 7.561015679000111268e-03 6.854585045259311768e-03 -7.225019141417045668e-03 -2.815117715277278172e-03 -6.814693264233308984e-03 4.027278100341441340e-03 1.893753426299967955e-03 5.031025270281190391e-03 7.908102403506872199e-03 1.187040381049406972e-03 2.706884655461640372e-03 4.642275740162094336e-03 9.368447243601887159e-03 3.109749998901860293e-03 -5.434986029728771685e-03 -4.901439221376158346e-03 -1.398592763228946774e-02 -1.073406682440157175e-02 -2.023403889033516083e-03 4.815846679448738954e-03 -6.551443996247821762e-03 1.077539378646034636e-03 2.093975568691478547e-03 1.011990514217595526e-02 9.897158842912806911e-03 1.099633206888814448e-02 8.612810749474964986e-03 1.823282450882712991e-05 -3.382463261145375773e-03 -7.967789945963478851e-03 -5.075799768158508786e-03 -6.722331215882235492e-03 -2.724427281458515534e-03 3.351187222274329847e-03 3.524580847271027457e-03 -3.971578560733747543e-03 8.823061212948940697e-04 5.607879680731339862e-03 -7.213144825055386967e-04 -3.876725251140421095e-03 -5.514025714005253882e-03 2.566771017340977422e-03 -2.945168623130431655e-04 5.123830081272842630e-04 -4.252801700161948015e-03 -1.105496502177188457e-02 -6.839364589722930765e-03 5.540801413415289561e-03 5.811795366230759936e-03 4.084994362734715306e-03 9.108595547297083234e-03 9.633054619390400350e-03 7.747865308858448846e-03 2.682871977512857418e-03 -7.529955342127666110e-03 -4.944671901516003651e-03 5.171510929446608909e-03 -9.381235690993321510e-03 -6.454681427198339511e-03 -1.400333998341759438e-03 5.400346122248240489e-03 7.573410314189061091e-03 9.873195563563117588e-03 1.007756009994365681e-02 -6.215111186486399833e-03 -1.121069095845489937e-02 -1.156387022743121315e-02 -2.980883622700403104e-03 -8.026769364192115272e-03 5.520923555840534687e-03 -8.306551603275589901e-06 5.335631764514160713e-03 -2.860676270905529710e-03 -8.430687170087507523e-03 -3.506652578786770974e-03 -8.989769465259610237e-04 9.725395766779446755e-03 1.554341397205407770e-04 7.351074684097709012e-03 9.130348634786848022e-03 -1.746835274665052280e-04 3.014207243446865182e-03 -7.734424053740279748e-03 -3.646093349541112191e-04 -2.050900909557125829e-03 8.904247216860252528e-03 3.736404651584114382e-03 -5.675930382189640216e-03 -1.129313306139785675e-03 8.200831405117238807e-03 -8.060424910043011495e-03 -2.895839228801759210e-04 3.310669057074194788e-03 -1.090565752541721410e-02 -1.136897024297745321e-02 -1.368633130966061956e-03 -1.003370745905296253e-03 4.935814494355654676e-03 5.168044745492256578e-03 1.091611542308602162e-02 1.871482783159125274e-03 -9.441707789457630048e-03 -4.638617619462236108e-03 5.159292414979857119e-03 -9.979058474478342752e-03 2.294770857792204251e-03 -3.231586496810589463e-03 -5.770279843966555182e-03 8.580714192289550304e-03 -8.743799050231260139e-03 -1.811883774719578446e-03 4.277652810555855243e-04 5.412760589759843359e-03 8.923909780772490766e-03 6.689245371549363238e-03 1.615702492528674206e-03 3.722550555376527570e-03 -9.959425439529826646e-03 1.000137803835143141e-02 1.787460345738116786e-03 -2.388868569826748875e-03 1.167833461527262653e-02 -5.436097817975652467e-03 6.995918639088168078e-03 -5.001385925399828500e-03 4.209955641026752113e-03 7.323426361888102018e-03 8.088391037129499458e-03 -3.646786090356032503e-03 8.181949299629577219e-03 7.678995521695211428e-03 8.992228183341383421e-03 3.643396412283552051e-03 -1.900596878409014636e-03 -4.829360200612514004e-03 -5.745295318711370752e-03 -1.037407584041710566e-02 7.535461443964242998e-04 1.057365690198546751e-03 -5.388180722574305304e-03 7.863174554230908248e-03 -5.135031238395979143e-03 1.870718789508890936e-03 6.027241037682153427e-03 -9.046964996854060456e-03 6.922677199921264783e-03 2.506398866480484110e-03 -6.179309338632838801e-03 -3.923544482360832863e-03 -4.365676791899271610e-03 -3.156334757528194150e-04 -5.018491845872656565e-03 -1.954361449879216724e-03 1.119650997916189772e-02 -1.117602759830979044e-03 9.216082150525264569e-03 -6.424503703231107705e-03 1.283254107479411821e-04 -4.478681460548408419e-03 -7.333744126512019290e-03 -4.965079684609918081e-03 2.041082523027833336e-03 -2.365624178425668103e-03 5.920384437614748582e-04 5.382492080183290568e-03 -3.209643114357581869e-03 9.325336620441394483e-03 -6.504031607318284600e-03 2.838164531513985827e-03 -2.661416066670851781e-04 1.876931875201088987e-03 3.953860780628006694e-03 1.043664927250384858e-02 -5.791465277144424578e-03 -1.055696479607614625e-02 4.636994055816888623e-03 -8.871410207152980246e-03 5.259104963844264506e-03 -3.318544502031247831e-03 -1.029411451762436876e-02 -2.422190214596144087e-03 7.362722146733770030e-04 1.135598146951920587e-02 1.245078534115631047e-02 2.674203137999502013e-03 -4.465002451284932200e-03 -1.214689850467598822e-03 6.318211676535167090e-03 -5.763031606686131944e-03 -9.160521482834428283e-03 4.260351251288476034e-03 -6.724859752984800078e-03 -1.594400188006896016e-03 -4.049939790973853919e-03 -3.293279334741707094e-03 -4.450686888662724709e-03 1.267903543608968082e-03 3.381793662173684500e-03 -4.196396786025229954e-03 8.289682369131945103e-03 7.997002065823211048e-03 -6.412862953692011724e-03 -1.651912951604098210e-03 -6.693431224019540451e-03 -8.973721672533635160e-03 -1.826044589124904433e-03 7.611558222538393134e-03 4.300976472459575560e-03 -1.140433855483743248e-03 -6.876574368168601389e-03 3.384031592212391124e-03 7.870246709465922655e-03 4.078169418338536967e-03 4.347186147194488648e-03 -5.132637939797376862e-03 5.387349620266892146e-03 -1.320533033840940590e-02 -8.532678731822840312e-03 1.910133572357699486e-03 -2.706364271139228856e-03 -8.448052794296629503e-03 -5.380954015986764288e-03 3.964716562666910533e-03 3.212497795141415740e-03 -9.251140814522947065e-03 -7.056705065349705604e-03 -6.476486805650703317e-03 -4.217206039981835804e-03 5.950896760833141071e-03 -6.454287799212355542e-03 -1.187599459188181739e-03 -1.641240248319757742e-03 1.186437000391287085e-03 -7.008770496733681202e-03 -4.234087915362317288e-03 6.936379974837898234e-03 -2.076690244260046177e-03 5.652534517506679727e-03 -7.867041976868585987e-03 -4.861485838790245186e-03 6.534171974829854936e-03 7.405306633698741006e-04 1.368372522170342416e-03 2.456254328260503144e-03 -5.135188386776851598e-03 8.839823724503231405e-04 -1.276716263797431083e-02 -3.536354396673829000e-03 -3.254357014382630760e-03 2.851593931567357899e-03 1.089440652372279791e-03 7.499112041673301580e-03 6.582527510849434278e-03 3.287492053186116467e-03 8.821875402122203447e-03 4.626313886619452288e-03 9.225061980330240274e-03 6.399148365776601184e-03 8.278797769639854517e-03 5.786119308043778144e-03 -1.073948771872091854e-02 -9.628977358659805350e-03 -9.174468123415206733e-03 3.771984177067393661e-03 -7.374815583526724179e-03 -5.488357169328803714e-03 -2.214403375565720655e-03 6.458515479415354379e-03 -9.294386065550209325e-03 -2.628849354519811020e-03 -7.375195403778021623e-03 -9.784240583286526322e-03 -4.095481517200089822e-03 -8.509511568439953946e-03 8.700864062931748890e-05 7.170233482257275595e-03 -9.116178623824413088e-03 -6.433731155357338798e-03 2.315254636103187581e-03 -3.084073662102391686e-03 9.427662331338388865e-03 -7.523767997955533096e-03 8.714148846219949701e-03 9.818821769636268057e-04 -7.423655547837900185e-04 -7.117558132849899875e-03 4.837009296527240015e-03 -5.131159653529906127e-03 -5.834882272531890721e-03 -9.342908584881900319e-03 -6.136070109944897783e-04 -7.556236701325658167e-03 5.831875129433853645e-03 -9.222598782580252591e-03 -9.968106502037273747e-03 -8.551829485684465948e-05 -2.233574784870618311e-04 -6.039791451409350087e-03 4.552442114355351871e-03 -1.661912236524471214e-03 -5.255935033484764214e-03 -2.949812413834094604e-03 -1.036135650868952492e-02 2.925207058776634582e-03 2.783117028404397206e-03 3.891116843495321786e-03 -5.446774806193878729e-03 -3.309768062072946434e-03 3.476116941084845917e-03 8.655263101021055949e-03 6.959421960929110945e-03 -7.861327733666722845e-04 1.996311921201694532e-03 -7.541101907531645027e-03 3.978465289921653998e-03 -8.673565418744125580e-03 -9.743051194026217804e-03 5.018197685137567839e-04 -4.488793675649273111e-03 -3.723447549273118263e-03 -4.221805933433484502e-03 -3.337991616817653599e-03 -1.928469166195365342e-03 2.235327888758162178e-03 -5.971928288344983786e-03 2.415075870872866910e-03 -1.818709845588829810e-04 -3.284406277223094871e-03 -5.816593149937722071e-03 -4.719700818121828380e-03 -1.449468626760006505e-03 3.011995053860334112e-03 -1.164039800867005701e-03 5.306531989215402048e-03 3.880427987055745610e-04 -1.662585237193543513e-03 -4.147452282284149437e-03 7.740973578124457112e-03 -3.583760871965977358e-03 -7.657061788637537815e-03 -5.351095792387239368e-05 -6.927095898665663887e-03 -2.873376566452933573e-03 7.687364755434792328e-03 7.945707923230444988e-03 -6.715721970871603615e-03 -9.528444688455386946e-03 5.651042013535933876e-03 -3.153029457410939755e-03 -9.988583390059349934e-03 -6.417219303903902092e-03 -4.793484019700818000e-03 2.957198487353810269e-04 3.404933907661233678e-03 -1.037035902555509363e-02 -8.700533079799314604e-03 -8.897946107717512321e-03 -6.724688914504840277e-03 -3.311089167094082627e-03 7.107931615164500561e-03 -2.516117755960780526e-03 -2.251301126580553154e-03 8.239836512735217514e-03 -8.746871399260329472e-03 -1.558234066666599462e-03 -7.668714014987507849e-03 -4.859417701099533020e-03 -7.668558345710381127e-03 2.333248459053866974e-03 -3.880169598345238526e-03 -1.639628432845564475e-03 9.941975858332838430e-04 1.796604451407154751e-03 -6.466507920707972347e-03 -5.972960743103149575e-03 -5.850985479013207091e-03 -9.786534977419976064e-03 4.164895605019211869e-03 -8.503624351806451584e-03 -5.278270891716971801e-03 -3.364241641863185885e-03 -9.103674524479528352e-03 1.575985888328216124e-03 -9.300904764150437834e-03 -4.031663792717034484e-04 5.049210470558064025e-03 -2.257987985155302316e-03 5.406342421412512270e-03 -9.054746255073456082e-03 -9.020624156337819083e-03 7.343597512682631043e-03 -1.895331419826962139e-03 2.206788652915687553e-03
-7.026401665714753983e-04 -4.098970504019579068e-03 -3.037533491343740247e-03 1.732438351928451432e-03 -3.702938716360073493e-03 -5.491665786814592387e-03 2.137472646925877521e-03 -9.307647405447589187e-03 1.236038447734109187e-03 -2.867276906417144233e-03 9.724791318554575070e-03 7.668973146228814583e-03 9.466038452110388593e-03 -9.774296085710478671e-03 9.224230862942359860e-03 1.638577904361599932e-03 7.184069204727827965e-03 4.069005840829090052e-03 -1.648920442501038315e-03 5.616772644998928310e-03 -4.027296831838507452e-03 7.700236890950209502e-03 -3.028137015014964288e-03 -3.510561952179136740e-05 -9.808553743967454719e-03 -7.959642005164744780e-03 -3.333485632825734703e-03 1.244218432459249894e-03 -2.085923261785793507e-03 -4.402375533678592676e-03 8.003910114968725009e-03 -8.988362477187365751e-03 -5.228008679567546467e-03 -4.072115005985035667e-03 7.274824018135450654e-03 7.174099221558217707e-03 5.025078644724976194e-03 -5.484784718251954801e-03 -7.562272311670628633e-04 1.165064365027283300e-03 7.522186491362155107e-03 -4.262058560634197804e-04 7.010006478196393991e-03 4.706939630662088786e-03 -7.594258807521077348e-03 -1.403263834846126066e-04 -8.895467494060246491e-03 -8.489253755578912361e-03 -8.355431961461398313e-03 -3.399141855212790397e-03 -7.548876224031180263e-03 3.472528026789882712e-03 8.632225818946247936e-03 -1.494738551810177426e-03 3.314633907087889599e-03 -5.333966593955605934e-03 -6.745316459404149603e-03 -4.940121349668722371e-03 -1.690526459995429472e-03 2.037616545848963592e-03 -1.099788559897785261e-04 -6.541300716370750806e-03 -3.636834951424001896e-03 -3.059693953025202640e-03 8.330922185935799029e-03 7.362833620029197307e-03 -6.085888089175862242e-03 -6.827645289858559272e-03 3.950637521113941285e-04 7.976128108923574017e-03 6.828101522883971847e-03 2.451843739325429428e-03 -5.888221028069774710e-03 3.959183171817259005e-03 -4.140020800780395450e-03 8.605703853587321622e-03 -4.687546781985518773e-03 2.481722773893080269e-03 8.068938921971111761e-03 6.859448371495201549e-03 1.856482424628960910e-03 -4.323014734747228360e-03 9.741058173627373251e-03 -4.850779525076513894e-03 -5.331291773061994782e-03 -5.316279464396123262e-03 1.143585812136376292e-03 -7.153723332050962967e-03 1.505803981055892993e-03 -8.348887008562032308e-03 -2.555145020409322221e-03 -4.574399204563876949e-03 -5.145276142693441974e-03 -6.533765647114453574e-04 -8.267891969922473369e-03 -9.923617053442449279e-03 -4.138412836305769595e-03 -8.834503130302751722e-03 -4.823871484159390072e-03 -3.957702620132629717e-03 -5.957254452060290612e-03 -8.732008560999551805e-03 -6.889590245999391988e-03 4.095829423429440432e-03 -9.011789409379647453e-03 -9.256026152215462988e-03 -2.042684242993435175e-03 2.719339879954382234e-03 -7.215058295154431166e-03 -2.175169132329843932e-03 4.340489550158583947e-03 -1.047430607420465291e-03 8.969023962204608971e-03 5.181711861172447024e-03 -8.809228181492892440e-03 4.802554246250079683e-04 8.071359121182770588e-03 -7.423184006320322943e-03 -7.132522058830728998e-03 -6.714521370823272467e-03 -6.221559982915780655e-03 -2.725394271876224999e-03 -5.781458090332637374e-04 -1.701883007371401621e-03 1.124099044345473189e-03 -6.524858535004952366e-03 4.187723676622944272e-03 6.626826835333413275e-03 -3.780125919966427321e-03 -6.050201745312397796e-04 1.001636194073483518e-02 1.599516791037110860e-03 -1.307501586503069827e-03 6.568077778707922219e-03 -2.499352860258515613e-04 7.408279994823233593e-03 -8.181105050765920261e-03 4.102903458045195281e-03 9.959063113102411754e-03 -9.924076313086902315e-03 1.908657600650267606e-03 6.061229006612340459e-03 2.657137830277839490e-03 2.992760229627685481e-03 -3.831618728068705761e-03 -1.338818367296852087e-03 -7.610094537189560603e-03 -1.135801119019426127e-03 -9.371071130150763345e-03 1.999769489692877593e-03 -3.921061209421219072e-03 -3.845121774670387689e-03 -8.684202653212501691e-03 1.929599838499399412e-03 -4.952052136065443824e-03 6.396697367295126405e-03 -9.990489661469755672e-03 7.481049162959135801e-03 -3.535482584382210972e-03 -8.971432193051395720e-03 -1.300361554663712895e-04 -8.434915484574471989e-03 3.385076087989808899e-03 7.749407701868688859e-03 -9.886343875443949665e-04 -2.855842366658332965e-03 -5.346552386110685166e-03 -3.090605717623162566e-04 8.374713541939755868e-03 -6.424962354995331949e-03 -9.314121205443962048e-03 2.927987916975789522e-03 5.366940813958068213e-03 1.443560182753768914e-03 -6.286887239332907343e-03 -1.593754335442891306e-03 -1.481211822729351516e-03 -7.059222140241878420e-03 -1.069380007332998601e-02 6.352833253040410244e-03 -2.635600593140437035e-03 -2.573498108374206762e-04 2.542174351251018632e-03 -6.659805412396159301e-03 5.942123788414746359e-03 -3.950556214381222876e-03 -3.398010120207990616e-03 -8.202920774393770292e-03 9.799510914235025349e-03 -3.809847385673072358e-03 -1.222654875721024227e-03 -5.698345158091581986e-03 -9.540121523668919357e-03 6.725227337084127392e-03 9.347036494612699295e-03 5.260351558366547359e-03 -8.244504675068117447e-03 -1.385527102597492463e-03 9.640687976070375781e-03 5.226937484073540877e-03 1.270893131656539339e-03 6.268263099408179218e-03 -4.103637267485284179e-03 4.594441131488631071e-03 9.535113470348129810e-03 -4.202710436954773705e-03 -1.010608179723378403e-03 -9.449220556743301996e-03 -4.927973436587838353e-03 3.241086126353782699e-03 -1.000684029918400345e-02 -3.858235510553177650e-03 5.514308767874336915e-03 2.087047428394767437e-03 -6.711832322693775388e-03 -4.267307287049504523e-03 9.350669700790098515e-03 1.882309450094200171e-03 -9.101508579838891652e-03 6.237517863518230593e-03 -7.578127771658524879e-03 -6.671671598097888602e-03 3.865111400445114202e-03 -8.682670822016003848e-03 -7.340768241005872496e-03 -5.343465773136985356e-03 8.343129766492487012e-03 9.768039617478182363e-03 5.479634533675014491e-03 -7.949833193208924453e-03 9.991826741724500055e-03 8.529010223943870456e-03 -9.612074661888850985e-03 -2.189037033990489257e-03 6.632600847118467167e-03 8.173901369482490520e-03 -5.285157574861876380e-03 -4.774405361606565666e-03 5.296864806542620104e-03 1.521949399796430208e-03 -5.728170389352214842e-03 -4.844313513545125960e-03 -4.783610489534954879e-03 7.607043952280609367e-03 -2.588512853913497481e-03 2.694410129432421759e-03 9.581683853486662114e-03 -8.342382434321960957e-03 -2.073135503526919634e-03 6.512670445329603840e-03 -6.861842922415143341e-03 -3.021870946560986995e-03 6.194075732955127422e-03 -7.745538152702841420e-03 2.711239509972468171e-03 -3.716501497466638288e-03 -8.781299562486808222e-03 -6.406940828399541529e-03 -4.189701273467270198e-03 5.724509517494503000e-03 7.695016061401901628e-03 6.935983293410664420e-03 -1.516345462413530316e-04 -2.071866266541256413e-03 -1.676582803809817347e-03 7.252106873891590519e-03 -9.710204355198382917e-03 1.871056748993507796e-05 3.575566396619249670e-03 -6.597124963167879004e-03 -1.003587646558456482e-02 9.250918531131080425e-03 -1.185443814023852665e-03 -6.585750345160693887e-03 -3.854765355277124141e-03 -4.259609141539537173e-03 6.697741757983823388e-03 5.934080868061610871e-03 3.231069581331920144e-03 2.677228111976972646e-03 -9.744703002080020576e-03 -4.991910826012205260e-03 -6.171668464169119753e-04 -1.308286503740297172e-03 3.074841364856173518e-03 6.220961797454056461e-03 -9.559698935141773416e-04 6.558711660642949255e-03 -2.824765535403883469e-03 -6.408650312812029862e-03 -2.387625623784112895e-03 -1.447808244773499727e-03 -3.687180968667568004e-03 -7.283484565024759411e-03 -8.035310567590436825e-03 4.685407270417989156e-03 2.542264062234718923e-03 3.303146567656867118e-03 9.325495330455934153e-04 6.648167986517942822e-03 -2.007699209103924222e-03 5.889401802724156081e-03 4.753548659336118490e-03 5.723467996769125233e-04 -4.084089687342789404e-03 -7.854558974285776388e-03 -5.073709659494876276e-03 7.015106700385543084e-03 2.110768676250369784e-03 6.365382679868722242e-03 8.930783417794834617e-03 -6.523104918331482961e-03 -3.689181345310217630e-03 1.026391782148860891e-02 4.499105044434722166e-03 -4.263994049214364472e-03 5.333191221692233294e-03 -2.515218115867669680e-03 9.407710102821282422e-03 1.101633274878982029e-02 1.639389011197286364e-03 -5.994100067497281671e-03 7.546242705852215966e-03 -4.864177554501207881e-03 -8.248159764899056987e-03 -1.004528191914607878e-03 -6.260343813724615278e-03 8.854583887672141593e-03 9.251366559649068858e-03 -3.816651314549108880e-03 5.539059436140741401e-03 -2.481847233009360637e-03 8.418902550540851432e-03 -9.813862345967119555e-04 6.358646452050678924e-03 -5.374741221209599837e-03 5.006757903738317389e-03 -2.692549836223424517e-03 -9.688165927884743317e-03 -6.535160943925048295e-03 1.942025358266937602e-03 -7.618156174128889319e-03 -3.451487790604715854e-03 5.359984797607535720e-04 1.052571096965295404e-02 2.012209614267717901e-03 4.555432325283595950e-03 -5.938597242852622880e-03 -9.709913877050283665e-03 -1.273970505666778552e-03 5.258518091111235096e-03 -5.820062593493030741e-03 -7.958176269935389111e-03 -4.048053897202508709e-03 8.115854651695810634e-03 8.342563303244225625e-03 7.846179200139224638e-03 -6.172375024367934230e-04 -4.542517189508762238e-03 1.063147649403863330e-03 -1.784055755927116741e-04 4.627911547220634435e-03 6.343265744794181031e-03 5.283849600090794948e-03 3.237673897126414221e-04 -9.727978257654300645e-03 -9.688084787967902317e-03 -3.488925727413308333e-03 6.884567004212519513e-03 4.581882505401788791e-03 7.571965554539109022e-03 5.945546051921295509e-04 8.735029349905935880e-03 -4.249231697803486016e-03 7.581515645204874379e-03 4.101807541245683537e-03 -1.965531052736268439e-03 5.834321189982714408e-03 3.083561628201888366e-03 -7.411606636407379323e-03 -8.520332520167529095e-03 -1.141026494662875665e-04 1.147430728256761600e-03 -7.620136744466884417e-03 3.123397339593771051e-03 6.270072416927860090e-03 -3.693547795306331791e-03 5.323834787760737229e-03 1.290599663715688442e-03 -8.261098910976269818e-03 -3.707399635750359152e-03 5.550039843797188038e-03 -1.055797248930834308e-03 1.581139423884124864e-04 -9.198575062653015222e-03 -9.195684147288723728e-03 9.996766878986242111e-03 -1.776241217902500911e-04 8.091451548698572194e-03 -3.504976360443999225e-03 2.632722501766074537e-03 5.059030956591726788e-04 8.268634994149093309e-03 -9.156197035012995575e-03 7.653607020239758425e-03 1.468599398542880892e-03 4.134825864229345165e-03 -4.248026240765156742e-04 5.954025948185142324e-03 -2.692752528850442251e-03 -3.115303535501032228e-03 -3.989603721962262962e-03 4.337199172490212133e-03 9.709394040586788802e-03 -5.971478089941797615e-03 1.777699631249594089e-04 -8.907392393349625528e-03 -2.975211297512809702e-03 1.680720457827928910e-03 -6.532730379218549405e-03 8.450563193579074123e-03 2.004282622086469602e-03 6.842461794126401993e-03 1.709062637499475209e-03 3.610910886779311602e-03 -7.702020276948520067e-03 -3.518946152417794324e-03 2.092379307189778936e-03 -8.631863256322556965e-03 -4.295951352897755399e-03 -6.351803221633075223e-03 -9.684156330082132821e-03 -2.978228970009402961e-03 5.260254118825676527e-03 7.897108522055606983e-03 -8.202545393898370840e-03 -1.983818776565604829e-03 -9.066284482855299989e-03 -6.701843133992138428e-03 8.512682882322989558e-03 7.697565361600042406e-03 -5.703565392709320642e-03 6.821390566115640569e-03 -2.366486288775887590e-04 5.535875508002208872e-04 2.199880532349359451e-03 -5.264953423977434058e-03 2.087574446301389969e-03 -4.537924560121401121e-03 3.463861462222344971e-03 7.744350389263069366e-03 2.816734555103945115e-04 -7.802681547433533947e-03 -8.129775325065397018e-03 -3.212662813014097694e-03 -6.324521275576752873e-03 9.357555348455743466e-03 -1.466819678904343182e-03 -7.314261122909934687e-03 -1.363545334548163773e-03 -5.352786380653114066e-03 -2.999531359328263917e-03 -1.076831137073213859e-02 -2.117141701854055244e-03 -4.760596643990939320e-03 -4.818376681491532559e-03 9.502159076212313843e-03 -7.877582798672828554e-03 -1.770420097103223391e-04 -3.229286750286499428e-04 -4.657665177853419561e-03 -8.008290951987224668e-03 -9.839518027954945872e-03 8.501781634585226302e-03 -7.545387631991725200e-03 8.054730751869030106e-03 2.606745660390408312e-03 4.301751197723234846e-03 -5.557123420411272385e-03 7.872342414580815045e-03 -5.574807223693129324e-03 1.443049066604297449e-03 9.035908353855023889e-03 -8.511757860602396641e-03 2.992227605946144904e-03 4.355825108378558533e-03 1.624044934993163077e-04 -5.630089949718002605e-03 6.079620636023960051e-03 -5.765579770801105945e-03 2.835038450070462464e-03 -1.250006845884786165e-03 -7.997345770654888317e-03 1.169065565717146253e-03 -7.991784925222208133e-04 6.706368123883564743e-03 2.298456907461979195e-03 -7.890745759291238615e-03 6.871790755704056640e-03 6.867966432226704603e-03 -7.138878114711736940e-05 2.509530474348561999e-03 6.711051778159824767e-03 -9.242527679212531435e-04 6.932090506731831969e-03 -5.891220445095445707e-03 5.211107526279484814e-03 3.152117875289516067e-03 7.588604416087905979e-03 5.048559712031647391e-03 7.060228605222385869e-04 -1.289891830161926439e-03 -7.573625696832444673e-03 -4.222526890040287882e-03 1.057489455512610919e-03 -3.253367902548395894e-03 -5.985971519038043101e-03 -3.433061632654390086e-03 6.244183246892214510e-03 -1.806011098874009185e-03 -8.162126424990766987e-03 -7.608960493417941603e-03 8.754777849257903630e-03 1.091692232398517107e-02 1.831430675637248182e-03 8.531352266614033661e-03 6.253196938521903350e-03 -3.631170810581414894e-03 -3.914993153973454071e-03 2.566747967675282217e-03 -4.383989757973058912e-03 8.654489772591398428e-03 -1.657889104275127659e-03 -7.146688187491439040e-04 4.489543681692205641e-03 -9.815136071735078294e-03 2.195107756848305343e-03 8.029372132845501858e-03 -8.045293195291496752e-03 -4.328121521800453418e-03 7.643997229616898877e-03 -4.344700395402513633e-03 -8.202761205852903553e-03 -2.807619646723786850e-03 -5.451733637102450930e-03 3.832464554524093146e-03 -9.549937136645685748e-03 -6.076525472853839573e-03 -8.554116073223982496e-04 3.388490903536536033e-03 1.037425347451812439e-02 7.199974442679970632e-04 -3.054854926659902100e-03 -1.935022049031140260e-03 -3.419572130024815305e-04 1.845159829386612419e-03 -5.449071845621674889e-03 3.590932752323394792e-03 1.565883031771493595e-04 2.544680813841957486e-03 -8.844411586544819598e-03 -3.603407065555363966e-03 4.809858121971263140e-03 7.555262285891536228e-03 -4.644304673563424794e-04 2.226914765154216873e-03 3.381195985761549679e-03 7.587887260735929132e-03 -6.715909903337260838e-03 8.037971770537966423e-03 -4.071814204772475007e-03 5.625788145345076742e-03 -8.845637515422036593e-03 -6.177385687559954798e-03 -7.930244239911541726e-04 1.114265355145536377e-03 6.868564410453186810e-03 1.158619770835167366e-02 -5.923641677413314134e-03 1.929699292512089851e-03 3.431875464725220250e-04 -4.260143611525678276e-03 5.562709656880402385e-03 8.921423315908809035e-03 -6.084677227902801156e-04 3.757903389134331033e-03 5.006342398178566938e-03 -8.113748002244047450e-03 8.311087787062592172e-03 7.665008574769398807e-03 2.231848173148920367e-03 8.434358022197389199e-03 6.086547157959903281e-03 9.295260106531737926e-03 6.772679058660447358e-03 1.584575431153011039e-03 -7.800425685430830737e-03 -7.264328888092803742e-03 1.253003178359778699e-03 -1.099121842790813262e-03 9.664906859563435638e-05 -1.753220145761162033e-03 -4.744254879386545186e-03 4.451070003329947108e-03 -5.682877942883128586e-03 2.853643784006769987e-03 3.078724676914128180e-03 3.570976663908219211e-03 -6.229304781172050401e-03 -5.500580239819625669e-03 7.606022328169507671e-03 -7.909961400402672899e-03 -9.270031231046754402e-03 3.357247407803382478e-03 7.287076413809493586e-03 7.198649616474359081e-04 9.374316195215870971e-04 -9.258157318185097559e-03 -2.550058840806536170e-04 -6.389097647855010789e-03 4.197907323285947345e-03 -9.454510764747373888e-04 7.597624290184683445e-03 6.519330920064503147e-03 -7.898601776796921811e-03 -8.371636754756658222e-03 3.503444043788160253e-03 -1.591834780953407498e-03 -1.046338638291141078e-02 -2.256580862643876417e-04 9.135606629363209660e-04 -9.057978434284729222e-03 -6.682102170611785210e-04 7.266677624244243135e-03 1.046988902125627410e-02 9.284717345665374419e-03 6.127765483698954449e-03 -7.198173458746543775e-03 -2.165267281841483545e-03 -2.463613459099050032e-04 2.674959780760763958e-03 7.992541012739149287e-04 4.511035875056395444e-03 9.184574374133449085e-03 -3.825385708086481533e-03 -8.550318754382802214e-03 -2.458973234984229705e-03 5.835965033700067292e-04 -2.805155521704240720e-03 7.843087849190280483e-04 -9.321707561903326208e-03 -1.940107903977980521e-03 -5.059854353912990842e-03 -6.252061308273650043e-04 6.169807746877007532e-03 -7.191002336953348194e-03 5.981985375590632807e-03 -9.904796199402687504e-03 -6.009012115061883839e-03 5.222926961917619473e-03 1.066261799273221338e-02 5.658347643984499610e-03 6.941914138174147021e-03 2.218307357502055828e-03 7.275625387295764877e-03 8.585679279414209358e-03 9.419287423146465712e-04 3.723742255910300267e-03 1.490000541592289250e-03 4.129809951332727783e-03 3.427634836476651983e-03 -2.561176808292964322e-03 6.004590986538782711e-03 2.066588664077271317e-03 -2.257796858666782924e-03 -4.085102763547890890e-03 -5.515155910689637734e-04 -6.074637964766704812e-03 3.163501458004973343e-03 4.025673325544930001e-04 5.089060554801669300e-03 -8.855858670323150592e-03 -3.928322376152522041e-03 -3.807915076611890701e-03 -1.485237086687012532e-03 6.863392865726719756e-03 -6.050724131739101778e-03 -5.945555154114235200e-03 -6.322583671558399711e-03 1.101928353943251900e-02 6.229029760541663144e-03 -6.471096813876947573e-03 7.604382748270872155e-03 -2.994538333439385192e-03 -3.512914195520169727e-03 1.364894862459116996e-04 4.217601845118623162e-03 -4.777039920282355814e-03 -3.307539296932333721e-03 6.877979249758427692e-03 3.605659221875792252e-03 4.351958607166275111e-03 -1.724045438714903820e-03 -7.522992962186552703e-03 -1.161957672902343358e-03 -4.913149018934664068e-03 8.516190445545414670e-03 -4.480788756880820477e-03 7.445346119965785825e-03 -1.028253321006082632e-03 -4.591573467211119671e-04 8.336686139157924169e-03 -9.347061462961875691e-03 4.719882315913760326e-03 9.765885166434451481e-03 -2.567195643847542969e-03 8.974910943497961188e-03 2.220590297371323463e-03 2.054261861007074599e-03 2.261950720293578240e-03 -7.097562400147005776e-04 6.287683707440265730e-03 4.338417341401193568e-03 -8.467911225291504043e-03 9.410139363201655907e-04 -4.195468766145906206e-03 -3.477328029037047956e-03 -9.490232830604506320e-04 -9.360133074628587679e-03 8.312856690322705661e-03 3.460794871269823325e-03 9.388360381601712143e-03 -4.860560480077837607e-03 -7.820259233350834727e-03 -6.876412271907889583e-03 8.154467128594505149e-03 -5.495390707857652005e-03 9.402240127542076803e-03 -9.480139723888624664e-03 -9.583539268994526600e-03 -3.802664682385571097e-03 -3.619021551170959611e-03 4.442330828144035529e-03 -9.437762223264660813e-03 2.243295170936288746e-03 7.885340220585068671e-03 -4.849488765519629346e-03 8.976594490884967290e-03 2.977177692524524827e-03 7.308459787366976311e-04 -6.327111126900288735e-03 -1.374613161627099352e-04 6.688396078879766532e-03 -9.599272880597992802e-03 -3.360099688283271161e-03 -2.890856618698789491e-03 -8.821923205932257969e-03 -8.907431067242765985e-04 1.766887089308024706e-03 2.022763892502210496e-03 -7.488619564928542492e-03 1.993398124536902450e-03 7.796268590727494993e-03 6.144780953772202570e-03 -7.315075785669400074e-03 4.418415041424793473e-03 -1.034630953284732761e-03 -5.640357810880743984e-03 -9.538650718578652390e-03 -6.312998200449841842e-03 -4.663986346144377224e-03 -4.133393134118522674e-03 -3.248150516223104623e-03 8.930630212072573210e-03 -3.323133634519197851e-03 -5.500495954632550304e-03 8.622353831859263032e-03 7.376274037180854254e-03 1.864060134744713283e-03 6.538939768578930223e-03 -4.377382167375820399e-05 -2.936686232973946108e-03 7.513298029334505163e-03 -2.625975768535322632e-03
-7.854118997257332480e-03 -6.065535651096576331e-03 -3.877838247020952509e-03 6.280755821611745497e-03 -4.288665727801999213e-04 7.301483306168525533e-03 -2.726032422932342988e-03 4.761134604879242380e-03 -7.460285906796862085e-03 -1.289899341402049810e-03 -4.487942535486321924e-03 9.112033623881146682e-03 2.971608051640899605e-03 -6.824786914367639984e-03 -4.599754108103448888e-04 -8.548099398046149835e-04 -1.387333153117695748e-03 4.429185492809823745e-03 4.456011866287583507e-03 -5.506473005995032172e-03 5.118138137418930776e-03 9.060437087004798509e-03 6.107839236472782651e-03 5.551738856589550069e-05 5.528562908152041301e-03 -4.835191562259339750e-03 -3.369650901829051182e-03 9.061727588344462014e-03 8.564469952886606327e-03 7.213383175986714212e-03 7.203742994275536861e-03 6.645808192748108717e-03 -4.632261382099367268e-03 -8.796970554382279109e-03 -4.282481937075206802e-03 -9.447223926242996617e-03 3.237346458651794816e-03 2.299593706368178309e-03 3.839357273891957131e-03 5.486825005506482285e-03 -9.538788961857790766e-03 6.786109954727330418e-03 -1.959465768886617214e-03 4.721730397067053220e-03 3.334142723136183754e-03 4.199073001452807707e-03 -5.843604192972419800e-03 3.363937063394341429e-03 1.830003121493071214e-03 2.627135111243405824e-04 -6.401984238560984655e-03 1.433701962723431906e-03 5.075395475274697976e-03 2.521649198048037110e-03 6.198087318684624390e-03 -4.569039455908625522e-03 -4.286738024015384306e-03 3.393100648813536339e-03 -5.441272714123406712e-03 4.055445293748666420e-03 6.499350680885663048e-03 -1.726233950730735435e-03 2.258968857630444180e-03 -6.219556798314407851e-03 -8.173908089355558237e-03 -4.527423842474250990e-03 -9.956928701931174949e-03 -5.022217750320402858e-03 5.851837831438865163e-03 7.355347804986679672e-03 -3.942346830783242766e-03 1.245105174202905613e-03 -7.853905943694772934e-03 8.160966439415167847e-03 -4.466428558071039619e-03 7.667451215983233509e-03 6.459536532674749892e-03 8.277296398348255382e-03 -2.182860221454917347e-03 -6.236722165813026603e-03 -1.622786940273601253e-04 -8.991627071744719840e-03 -1.404162714236258927e-03 -6.473684087931644120e-03 2.050805078966056079e-03 -3.053655668152755083e-03 9.416728369084349098e-03 -3.259464161937751514e-03 9.899827352172908823e-03 -2.116352918204228960e-03 5.243691626781925817e-03 6.495699220865702207e-03 8.325964501918740879e-03 -7.104544184961569461e-03 -8.722024554580859210e-06 -9.676552608632373390e-03 4.082602172209493473e-03 -9.290992870837221432e-03 -9.239079332093284164e-03 -2.567739778798846031e-03 -9.076955201319271416e-03 -1.388146606757722232e-03 7.935640629893152276e-03 4.011011579618754992e-03 -7.090355132560552387e-03 2.302147157346394208e-03 5.167555214895873340e-04 -9.115482011416212865e-03 3.433416104262594550e-03 5.984582217779186837e-04 -8.626486780784865197e-04 9.924518168645177912e-03 -4.963025210572906583e-03 -5.178110180101122909e-03 -7.770766279632141359e-03 9.276126805694753091e-03 -5.347232758035078658e-03 -9.063621798788092099e-03 -3.513203211873996978e-03 5.418451446234309613e-04 -8.598163329719181458e-03 -2.204557569430466431e-04 -7.735992152496932095e-04 -1.421698690343070788e-03 3.672544810477589906e-04 -9.573794510853784676e-03 -1.431658644932471205e-02 -1.265122367324312061e-02 6.481227296844751899e-03 -5.398886364585214759e-03 1.344274777189623975e-03 -8.104789121581561923e-03 -5.782943773919999725e-03 2.146584815966755960e-03 3.867275433593377228e-03 4.861682523225232221e-03 4.195198944820664223e-03 7.844648751263177608e-03 -6.017425752859343301e-03 8.067264410388892346e-03 6.741680493883715070e-03 -7.316408069913289507e-03 3.616741547801188231e-03 6.164867845675491530e-03 -7.450925422368371784e-03 6.552832299865081304e-03 8.817765323690704427e-03 3.156082131868722263e-03 4.834931149577933150e-03 -7.467481042321357128e-03 2.606933956206554555e-03 -1.081688342332844978e-02 -1.365876930403949092e-02 -7.302714093707586909e-03 -2.091703583509295881e-03 -2.124272980913339669e-03 -4.531420962904881243e-03 1.772907674968995191e-03 8.691638609893982334e-03 4.446714141578349787e-03 6.197560292898036081e-03 -7.030943880912497897e-03 2.045291416164458226e-03 -9.276454549687698087e-03 -8.166570326623965453e-03 8.400104051229406385e-03 3.518788423929967426e-04 5.954487923333136139e-03 9.070624357711247129e-03 -7.872500138019732085e-03 -6.629173547434733318e-03 5.282964808440620240e-03 -2.619435393000134425e-03 -2.862637058257349373e-03 -9.228246099599910629e-03 -9.093118798217723550e-03 2.588733178749859278e-03 -7.281615520573709102e-03 7.986729911421997256e-04 -8.387369192882028479e-03 -5.943281822948247653e-03 -3.045645199863748851e-03 -2.388598351693937017e-03 -9.441189439571758338e-03 -2.612298726888558336e-03 8.170639311617527295e-03 -6.841068546022581541e-05 8.086960172181150222e-03 7.629020128232966158e-03 8.835686904243156628e-03 -8.021371040879576864e-03 -4.102593927675985373e-03 -3.051009079794316479e-03 2.196633229567857698e-03 -7.168389390287488797e-03 -5.351320968761789226e-03 -3.538366096409126596e-03 -8.513130974685359162e-03 6.817198357447590631e-03 -8.014079276959826942e-03 8.483605804268773073e-03 5.080821388266308115e-03 1.858400413100644473e-03 -3.796781253788206103e-03 -5.736777195339232832e-03 -2.371071532703531229e-03 3.983699020136298523e-05 -1.742325397838702730e-02 -7.731991113739554791e-03 -1.478197504968014817e-02 -2.552115065658915570e-03 -1.680192112378658302e-03 9.155786489303395503e-03 1.217140705158615980e-03 -2.972640662859659440e-03 -1.091327466614062502e-03 8.818464016172323713e-03 5.445778830312180199e-03 -3.422498935889252327e-03 5.149695464585665218e-03 -9.798464641845933826e-03 -9.815431425545990268e-03 1.002153672858933399e-02 -4.344963805517553998e-03 -2.036626707701978331e-03 8.710878742576274800e-03 9.322452654228817123e-03 -8.177683565063126325e-03 3.052351533412338194e-03 4.088239009703694901e-03 2.740928795994663960e-03 3.231360912144721912e-04 -4.116798931649436055e-03 -3.624034815080060673e-04 -1.264983656036673156e-02 -1.986356489931160110e-02 -1.711903887401143229e-02 4.120703635839433922e-03 -2.620128772153537938e-04 -3.491357301204104681e-03 1.991616369781637908e-03 1.140865973888394690e-02 -1.076696738597786480e-03 -4.210863769867765477e-03 2.416255328204207700e-03 2.043455849693767180e-03 1.172117996791879196e-02 -6.403956364776578446e-03 -1.072735855365383132e-03 -4.602512946352944369e-03 8.209363552585306409e-03 -2.513581814943716976e-04 -3.135545298974979755e-03 2.274405107058857182e-03 -7.207347994314403615e-03 7.274930442345231389e-03 -9.149664833527290653e-03 8.281789385553194743e-03 4.423885124251038074e-04 -6.348575107142577327e-03 -9.944826490778900518e-03 4.204678206205233549e-04 -6.220321942656879648e-03 -1.652441698217661098e-02 1.500626422744473021e-03 9.074838396778035776e-03 6.507378920710373688e-03 9.248505361509451461e-03 1.555408879760319420e-02 1.167496050432053657e-02 1.390437376420763406e-02 3.646040045268028607e-03 9.319135847537341616e-03 4.624248785682761112e-03 3.943437341634159488e-03 -3.430531995440802388e-03 9.524662586692508523e-03 -1.956968598139301012e-03 8.768748778162561985e-03 8.023733231699340177e-03 2.937477754305331708e-03 8.578311423772891700e-03 4.984776461821456735e-03 -1.474455754549172009e-03 3.729847631050094668e-03 5.996089991718391889e-04 1.923291135137112967e-04 -2.264558262634690320e-03 -8.256799992130858801e-03 -5.114033905399334966e-03 -1.239779053192342252e-02 -8.560337027399856150e-03 1.679974600775561988e-03 2.109010623625616563e-03 1.288129451679570492e-02 8.162805008971108986e-03 8.036636787599912152e-03 -1.656768310073257738e-03 -1.460523961032261829e-03 5.730353419331738266e-03 9.174431091291567386e-07 9.194324236049135346e-03 7.740914608662981776e-03 1.501371084617638199e-02 6.938798929937470272e-03 -5.929983544686025449e-04 -7.353246041367261961e-04 -4.174411489316458279e-03 -1.352622061136562548e-03 -3.154341931469627301e-03 5.106388535210502552e-03 -6.394156691253789250e-03 -8.974904119582835516e-03 6.822304439213115052e-03 -1.181043302988035205e-02 -8.170138269681484142e-03 -2.296456104856177069e-04 -8.353168042560739012e-03 -4.434797867441695601e-03 -1.019851362622759515e-02 3.726869769370163774e-03 -3.993857852302086509e-03 1.436963626797856282e-02 4.197014547340582359e-03 -2.137427223444095161e-03 1.853523430958167739e-03 -2.578154135085203476e-03 4.694736054127069715e-03 1.903452981262213116e-03 8.008768526136205226e-03 -3.851869851498187017e-03 2.079939024113466265e-03 -5.276223058946467523e-03 -4.311432622146806753e-03 -8.078547604488787309e-03 3.412200595349084483e-03 9.438379024742048901e-03 8.468157613437015188e-03 -5.496494134623038617e-03 -2.170913342112965137e-03 5.933131056200889770e-03 9.290244436285437918e-03 2.834697306391847828e-03 5.607124956000586642e-03 -2.407686340791530006e-03 -9.175757793818796818e-03 -2.386043826948755584e-03 -6.391811850477224083e-03 -5.231001311168295004e-03 1.373969633004734625e-02 9.687577743795420387e-03 -4.436089782276793196e-04 9.651651223523467771e-03 -1.771487656671318208e-03 -4.730055521030461334e-03 -1.224474748110087122e-02 1.409833567014702428e-03 -8.752517227172424558e-03 4.166677938914589013e-03 -3.898991295617448144e-03 6.828182169003305622e-03 7.022929971147401883e-03 -7.403615393554326823e-03 -9.208199025067332136e-03 -5.062636159301625409e-03 -7.788068172525404106e-03 3.552642428144821632e-03 -8.784187299731936044e-03 9.477161620641367731e-04 3.764573933768618208e-03 -4.065331130769165614e-03 -9.263669020677800167e-03 -2.745590489025472470e-03 -8.323698696333229827e-03 2.317504609612857768e-03 -2.223354677587189784e-03 -2.615537037491700960e-03 -3.279113786154427314e-03 1.034750609987362263e-02 -2.910505944803153545e-03 7.895870770227299620e-03 -5.589533633398744740e-03 7.403635309462511596e-03 -8.907033793423278431e-03 -4.946637763376482942e-03 -8.028115169963526490e-03 -9.899796113529590880e-03 -4.118572722257695523e-03 -6.176301738861873954e-03 -2.947098307431648273e-03 4.819340860195973127e-04 5.953009762503021218e-03 -3.729789686923021784e-03 -1.561036370953617670e-03 9.240808284770389222e-03 -7.521425597181874249e-03 -6.319777259514231665e-03 5.787616970749825777e-03 9.184286881764475998e-05 -7.343378921444229310e-03 8.570893720738019181e-03 4.988331031549099633e-03 -8.740842862792277262e-03 5.154434195163741343e-03 9.370320252733514363e-03 4.084642103932544302e-03 -6.473047465170997210e-03 -9.215640185994227601e-03 -1.089672368026983751e-02 1.429279378048950097e-03 -8.932540153415276241e-03 3.853093124909911984e-03 -6.212294100777879680e-04 5.377374307539047917e-03 -1.134963254260602794e-02 2.308649651049578689e-03 -9.851654694011985521e-04 -1.168122295567247497e-03 3.254749286631361798e-03 -8.156648962739059330e-03 4.714227616583386432e-03 7.954213308519961223e-03 -8.368767246660947789e-03 -3.220106062111228844e-03 1.054095328349556430e-02 5.937385009706169781e-03 6.384388531412414462e-03 -3.015338745168257180e-03 1.641878871925353794e-03 2.260375571578268454e-03 -4.399015030043547771e-04 -1.861715384200342662e-03 4.575198171073233643e-03 1.584495914108457982e-03 6.543482940701710743e-03 2.630426422587882167e-03 1.569091279676294165e-03 4.061806897719123267e-03 6.028865431468369285e-03 -9.212241103105546156e-03 -1.859302479386034084e-03 -2.249326760603762975e-03 -2.632965408999614690e-03 -4.563686058462902879e-03 -1.076070789956146481e-02 -9.534850554666525480e-03 -9.368121345854778931e-03 -4.463011564112855621e-03 -5.832120729805620983e-03 6.387497075637020745e-03 -1.344929374782994702e-03 -9.770163142957885224e-03 -7.091031095769164544e-03 3.111717555772967533e-03 -6.670250173822091884e-04 -1.206497471570619744e-03 -6.006935606943612912e-04 -9.254823522965669597e-03 1.190013413338070983e-03 -1.597479265945253839e-03 -1.002527318562437819e-02 -4.810483788742452374e-03 3.957410186223864201e-03 -5.506538512419582518e-03 -2.719677140275539654e-03 6.501385510922523189e-03 -9.742318338166097366e-03 7.484058369585335673e-04 -5.570135797437670948e-03 -5.986231860160858183e-03 -6.343422271533194837e-03 -4.687416025104405339e-03 -4.190523630154495242e-03 8.923088084973610640e-03 -9.345313109470822222e-03 -3.897761095297328643e-03 1.681994636755725862e-03 -4.633293991685873310e-03 -7.458520868453246550e-03 5.780812209017885221e-03 -4.949709179915225132e-03 -2.119097798692705142e-04 3.157223394281445401e-03 1.157883111801564493e-03 -3.687176755787566120e-03 5.874072226408129371e-03 1.486448656665326305e-03 -2.040492121132278774e-03 -1.016143163041279343e-02 -8.097194379644187230e-04 -2.058395056594612867e-03 1.517917895927669951e-02 5.720655011464853210e-03 1.518758406380316811e-02 1.027419335404096109e-03 -1.008158702492887616e-02 -1.160282530396647936e-02 -6.386264858274314470e-03 -6.819851045546720947e-03 -1.130435168172350298e-02 -7.128931529373857059e-03 7.969451056945268605e-03 4.783029810407051635e-03 7.625718965647709444e-03 1.705933482864284336e-03 1.001680277060275131e-03 -7.664670332738200004e-03 4.143173326139064534e-03 7.955215142145524373e-03 4.252343628514506507e-03 -5.638340190633745998e-05 -2.645846129790020620e-03 1.044454670743453356e-02 -3.385164568286563175e-03 -2.436821619157402037e-03 8.766281345470874897e-03 -9.628891510104984827e-03 4.887468111729119727e-03 -1.872957481916994989e-03 6.903922424393302455e-03 8.341149083144849471e-03 -5.089163471100004339e-03 -1.128501941212210237e-02 1.039262451268717271e-03 1.164580754069413594e-03 -1.617954484109385485e-02 -1.097419283841821226e-02 -2.210371762155848886e-03 6.194515473483021284e-03 -7.639420468957559482e-03 -8.163513294917255610e-04 -5.329254360741293890e-03 -3.906212948219881138e-03 4.897069024899777107e-03 7.565699828591777171e-03 -1.081464360057910259e-02 6.287383834376219713e-03 -6.028595359742444475e-03 -5.708214483999727099e-03 -5.647865395880911779e-04 1.059071758314848039e-02 7.179280775244704926e-03 -4.272889447116299047e-03 -5.332681277733557212e-03 5.767196554243963699e-03 8.961686281941081550e-03 1.156528004371827970e-02 1.032940834963791930e-02 8.466291395488323435e-03 -1.285599912568724697e-02 -1.027604745499806869e-02 1.413833535136190108e-03 -3.777276656950022578e-03 -7.500673142106512557e-03 5.529993331788585079e-04 3.502947549851153503e-03 -6.775301285202666238e-03 7.443920942633353889e-03 1.137547843664882784e-03 -4.870227866191573739e-03 -3.896478034102899418e-03 -1.955389375845452068e-03 8.593012434844597312e-04 -6.674880168490673893e-03 3.763260610527700920e-03 1.132263311456609654e-02 -3.261835852215493308e-03 8.905808409732386341e-03 6.338578098406729040e-03 5.697492286268934954e-04 8.171557985759017248e-03 6.921757290387346717e-03 6.622529158212082587e-03 1.415339066656688682e-02 -2.881056823821879533e-03 -4.654670736246131410e-03 -3.846603335653168542e-03 -2.584826360760452465e-03 -8.751844205111236966e-03 -1.501938360421418636e-02 -9.755319969891210891e-03 -1.199349415649957583e-02 5.076496934660532784e-03 6.928849308940161593e-03 1.842564653915524254e-03 1.302348833796892254e-03 3.325416120894570705e-03 -4.262280743214538759e-03 -4.205193727508439207e-03 8.382430530526835746e-03 -2.826369695252098531e-03 -4.135446366873047654e-03 6.865099862440876902e-03 -7.585935679422642526e-03 -1.607106054008870582e-03 1.893169482654720112e-03 8.714839346784750487e-03 -1.097892835643322820e-03 3.947366503062671277e-03 -5.977562205147534877e-03 -3.753091108644295449e-03 4.649061809638813797e-03 7.456872553573431692e-03 -5.351321701755485348e-03 -1.292848789009140749e-02 -3.951716659869872368e-03 -9.542606219599533354e-03 -5.575193268328101047e-03 -1.328486172386283623e-02 -5.803739510922513965e-03 -2.643592250086664649e-03 5.763850160917588332e-03 -5.476608620728167648e-03 5.428800567113062359e-03 -6.593381902590367619e-03 6.895620721449085243e-03 2.747006856111042922e-03 -4.526477832651503407e-03 1.531652867385264408e-03 -3.489049720122181647e-03 -7.021838378434630719e-03 7.080277025124223286e-03 8.418820458664688297e-03 -7.234205205553421135e-03 1.235198443166993579e-02 4.667513326710859625e-03 1.189361856349705447e-02 -2.611567548561644862e-03 9.112007557062941007e-03 -5.120891810024843886e-03 6.915970336264047440e-03 -1.362732739694130606e-02 -7.928388799258688502e-03 -4.491180877202579670e-03 -1.072433905346362876e-02 3.501024093961993718e-03 -7.781378427043190993e-03 -3.196939987714683684e-03 3.862341614191798153e-03 -9.327871606647874028e-03 -4.239598714665874027e-03 7.619622740228960099e-03 1.697455403434253334e-05 8.317622250494593702e-05 -3.532876774952435888e-03 -3.710934425795195911e-03 -2.485234495938165762e-03 -1.538182816424786851e-03 -4.099273651444269688e-03 6.550403307096266383e-04 -5.520234829123552532e-03 3.374588407316078415e-03 8.265205353841812916e-03 1.626339811613497575e-04 9.837443844100953599e-03 -5.723592242657771050e-03 9.797299439272143598e-03 -7.827197441214685594e-03 -1.450251408084471567e-02 -6.305386863431960108e-03 -7.272807020707744603e-03 1.323666397722298707e-03 1.323144305464422042e-03 -1.241386808811553201e-02 -2.530177274123795918e-03 -7.612311369404060370e-03 4.680336632872968659e-03 4.204609583585015159e-03 1.769464077012490241e-03 9.377049554393640518e-03 7.107499168946914596e-04 9.514916703239572476e-03 2.738274921235295256e-03 -3.050573489260521959e-07 1.430467716087323055e-03 -6.663024794163039797e-06 -4.335577383829985337e-03 -2.822480491905040179e-03 4.315480377158348833e-03 6.647094659731396342e-03 1.032753071736708123e-03 -1.968001490611399635e-03 3.279935559062375702e-03 3.177310101401411603e-03 -8.028948557409645512e-03 3.125501506073673566e-03 2.963456806696589899e-03 -8.331571672217976884e-03 -8.744325973807072147e-03 -7.154455044465097072e-03 -8.822039908302328802e-04 -1.073724051700944773e-02 -2.880244222443353354e-03 -8.880421920634453542e-03 5.819766247156861472e-03 7.045628716653521209e-03 7.375381393916744140e-03 -7.643509685457969619e-03 4.905536623858648172e-03 3.957229222009015814e-03 -7.551238846871022141e-03 -1.540070164610856133e-03 -6.380273223708163646e-03 -6.465770314898184159e-04 1.170912917604049466e-03 4.328315642099495215e-03 -1.652237681653135823e-03 -7.565404433962205112e-03 1.942590662986748299e-03 8.158601288716101074e-03 -7.286816365545864191e-03 1.361855926197130416e-03 -7.580363686175315904e-03 -1.497623383670026098e-03 3.007991427920319195e-03 8.682061977831737054e-03 8.508383719032414777e-03 -9.498278084109445347e-05 6.859568314751722864e-03 1.950788376029027752e-03 -3.078354571463897630e-03 6.173057319110182746e-03 -5.116913803967955421e-04 3.629265289567532287e-03 6.483688854929418530e-03 5.950868394824784628e-03 -5.288311243308199509e-03 9.810484551151167631e-03 -4.590022188966780400e-04 8.263993577110894523e-03 4.487329105257753547e-04 -2.105862348420030686e-03 9.587285010045191319e-03 -2.798130717792170772e-04 -2.447127971761924731e-03 9.622972881841206430e-03 6.030479938748713360e-03 -4.003479998497312502e-03 3.204150847874202065e-03 5.070819759139975555e-03 7.639254298381127802e-03 -2.010933220890918308e-03 -1.769343753365177361e-03 8.718934673724556411e-03 4.983368817991580893e-03 -9.444857308888117420e-03 -5.802099124120876569e-03 2.737128612450690120e-03 2.226809110541029188e-03 -3.894779346867436372e-03 -1.553133404402887478e-04 8.112339943850063739e-03 6.592726573974580680e-03 -1.844214170661000142e-04 -2.354816241392572191e-03 -7.613147540210469903e-03 7.369784566196955523e-03 7.488772052005923316e-03 -4.471652595477748388e-04 1.078579726398250010e-03 -4.711873634684982624e-03 5.077706674221213121e-03 -3.140450438057310403e-03 -2.214016451516032102e-03 6.573988319434878082e-03 3.486487661363925784e-03 -7.776970565671862019e-03 -5.740514934475833900e-03 8.381135822618979506e-03 -3.958955713371160000e-03 1.060022459185923751e-03 4.998079491322139981e-03 -7.977838127920014108e-03 4.932998408308793097e-03 4.795413874672171603e-03 2.998643665222157795e-03 1.843186104071037074e-03 1.001644531185610356e-03 -5.447680112301131819e-03 9.007015062199155708e-03 6.902661742175690736e-03 2.677303310253560491e-03 -8.522890099598761510e-03 9.626169336942182880e-03
