8.938347575360456460e-03
5.556371468487079912e-03
1.142761323841153497e-03
-7.228727924527352140e-03
-2.376585735746246115e-03
-6.467719029131648728e-03
6.326997075181103099e-04
5.838106537353679806e-03
-6.209413509977207597e-03
3.587434490830693819e-03
-6.064098779014298786e-03
-5.697074021671431898e-03
1.428675151554898966e-03
9.742721473795106640e-03
-2.843357621031545983e-03
-7.171114021112974350e-03
-4.690179055250621835e-03
-2.106302693268967408e-03
-8.234268057953832154e-03
-8.485420551040828013e-03
5.008016393616322379e-03
-4.013654131512795625e-03
7.864201495063928571e-03
7.133186104284865159e-04
-6.246302130317855049e-03
7.652127150343451985e-03
2.624937663585915747e-03
1.853210236473695272e-04
7.858050750188123532e-03
-2.465551621014588565e-03
-9.009566707106189676e-03
-1.225243137478385438e-03
-1.882540988723251964e-03
-8.421418861032375566e-03
5.190841892603979303e-03
7.539202709780288419e-03
4.660913051319980852e-04
2.614585513552355588e-04
7.974682615521977436e-03
-7.917721650299969216e-03
-5.570143578168366104e-03
2.152367526741116952e-03
-6.999639552969738566e-04
1.931154203713355676e-03
4.911571795979051760e-03
1.346132891031383760e-03
-3.765053455734192981e-03
9.414056630196456291e-03
-2.347700484594844594e-03
-7.167273610438910404e-03
-8.539609692052825074e-05
8.148208480055282518e-03
-8.269310929842422012e-03
-4.058432230380137548e-03
-2.744496245335957194e-03
5.247927718145001252e-03
8.573416759517346955e-03
7.564818651118423130e-03
-2.018242525482568002e-03
-6.802608185655895957e-03
-8.447359298758304325e-03
-1.023058113417734056e-03
-3.528641702725933763e-03
9.055206184866765665e-03
-8.015935461504109308e-03
3.356515087144247567e-03
-8.445617103192847377e-03
5.141308909018758519e-03
-9.446989800320611252e-03
6.601282624735427436e-03
6.428585545501336491e-03
-2.552598305117587119e-03
7.025223807930160635e-04
-7.623618642663916416e-03
1.296558286034019342e-03
-2.128615257877402092e-03
-3.960181634312802054e-03
1.087442117337340244e-03
1.217629859806357859e-03
-7.257909673895808836e-03
1.638419037943745918e-03
-7.766565102196370737e-03
3.698406814741194652e-03
-3.964778564257582030e-03
8.381367317376998624e-03
-3.556027337462943673e-03
-2.077503603075766050e-03
-5.598878693649851808e-03
6.603584750573245283e-04
-6.669016884875924971e-03
6.921562832906012416e-03
2.140905354099890273e-03
8.871490718413676743e-03
-8.465500512853782814e-03
-1.931014561762536223e-03
-4.880474392589745532e-03
-6.904390692462734555e-03
-4.608080516964882002e-03
-1.735589162035218415e-03
-3.808524621633052089e-03
2.248639974858991468e-03
-1.607965209103862309e-03
9.454052425239656970e-03
5.267409362813485658e-03
1.970009035393168861e-03
-8.748738231651715866e-03
-4.767184081657329167e-03
-3.124861155992906571e-03
-4.354901742885746406e-03
8.411557418617286730e-03
9.564720498526690928e-03
8.302166852685396612e-04
3.520206047589422103e-03
6.919488838215092502e-03
-8.015854676846198221e-03
-3.114790474425547552e-03
-9.222425032187666835e-03
7.882724081664065074e-03
-5.239366172549773590e-03
-5.311145375671934288e-03
-1.318091385252787701e-04
-7.300915115995160361e-03
1.945504551394123963e-03
-8.616328977306985965e-05
-7.136982002300948542e-03
-4.387254024128829297e-03
6.792337586119939763e-03
-4.959315018609497354e-04
8.281882307233682464e-04
2.386559046084910964e-03
-5.938382794710411056e-03
-1.982135263896399845e-03
4.254191853462885482e-03
2.295415480158503538e-03
6.141242534146193303e-03
9.959758507984946621e-03
8.632125135114212394e-03
-5.901576335135376439e-03
5.746904942803179005e-03
-7.504630346323346718e-03
9.553704902589603420e-03
-7.386999683492459674e-03
2.060445075840790837e-03
-3.505974433876501376e-03
-6.449384282515167356e-03
3.228192157859376566e-03
-3.082959541570280942e-03
7.737305268014044862e-03
-7.037040507857459694e-03
-6.241298807190418831e-03
5.185413572428571385e-03
-7.428542676027711025e-03
-6.430445677931242304e-03
9.937750132632544239e-03
5.624876642259955296e-03
5.624248345894066956e-03
-3.119529277908419159e-03
-8.322824126070908421e-03
-4.900830487494373978e-03
-2.078285023496098324e-03
9.451613716666917853e-03
-8.851123729532353601e-03
-2.382131194530437337e-03
9.234585017248581051e-03
-9.944375974184826647e-03
-6.913559243392213179e-03
-4.127721046403730679e-03
-6.930809040411343123e-03
-6.552617390791672623e-03
4.869274337014680310e-04
5.294203542089003824e-03
-1.161659330915938530e-03
-8.551022771344536991e-03
-6.176957612725065411e-03
-6.678079767615549209e-03
4.503034344010984139e-03
4.971326822306262883e-03
-2.697273201915781869e-03
-3.816124671149281281e-03
8.252143578423546885e-03
-8.996153672684236227e-03
-4.624071729352473054e-04
3.884131260921301686e-04
-3.893779203239136448e-03
5.583500585140776899e-04
8.011614795129549244e-03
-1.918657124460069032e-03
-7.076814689983709772e-03
-8.397808662464090190e-03
-7.732368976906085420e-03
-4.625627957684810788e-04
3.911208430029285837e-03
2.097827206574463289e-03
4.594419956666782011e-03
4.671440492932395216e-03
4.706941172828603068e-03
-9.380484826957564623e-03
7.008918839437816399e-03
-3.411519283012917798e-04
1.413578569266341664e-04
