1.470551155271469790e-03
-7.680055253938758777e-03
7.566318138931842421e-03
-4.318689511707315097e-03
-6.676363762528138984e-03
5.117782929748087087e-03
-3.300718943882359219e-03
4.499515223613048155e-03
-4.684082263711556067e-03
-8.109151642645901978e-03
8.134985257593999042e-03
1.729721975842860113e-03
-2.183732157537603483e-03
-5.348351116630115608e-03
-6.112590385942059772e-03
-4.612539658941713396e-03
-4.375640751996502480e-03
4.300842782631835240e-03
-3.857732451429106337e-03
9.716211881057250366e-03
-2.726970075691620941e-03
-4.899461789510487289e-03
-9.361952408501754766e-03
-1.702968918179085080e-03
-1.748069491143100247e-03
7.929607797569668270e-03
-4.570421120551043832e-03
2.259981194651452825e-03
-7.178904025957193484e-04
2.201058556311031190e-03
-5.220934752237917998e-04
-2.447187381822232659e-03
9.440282527758970784e-04
2.991075477870190191e-03
-3.082047846976135146e-03
4.441130184187480970e-03
9.642927543010038766e-03
-4.742340429181072028e-03
9.479993471091735860e-03
6.113140063057466780e-03
5.487842209797312056e-03
-8.604450367726203686e-04
7.161384498759417253e-03
-5.098968978103309881e-03
-4.190479158608872122e-03
6.370719434628789070e-03
5.851652924470721918e-03
-4.395154495477069170e-03
-7.643843941738671412e-03
6.028498377475885808e-03
-1.552576897080612875e-03
-8.108596998363358163e-03
-5.831205290332017871e-03
8.510739554163336551e-03
-8.425497385373986736e-03
-1.383105944249512272e-03
-1.219130630820541546e-03
9.177785480726317197e-03
8.619279447631170502e-03
1.302942684706793943e-03
1.552729875860849214e-03
-5.004194630524526691e-03
-1.190375554757824991e-03
-8.687866109736278042e-03
3.837704914518605750e-03
-5.721711923879568319e-03
-9.140864610120527298e-03
-6.427762124211997517e-03
8.730389377439263729e-03
-4.107878979248579497e-03
-7.139515703705639690e-03
-1.005993395316967347e-02
-6.236806404334857383e-03
9.785498249498366524e-03
3.204280164592322299e-03
8.326697673025703836e-03
-7.275603455227577267e-03
9.548859364088590693e-03
5.874118568361392893e-03
-8.842028071256635615e-04
9.672135150784886420e-03
9.345393476109287861e-03
-8.951413623247443316e-04
-3.491661584239624198e-03
5.042663964223971680e-03
7.421650022843755655e-03
-7.291770997069566169e-03
3.232543014431496411e-03
9.590089572899664983e-04
2.157129107656572710e-03
-9.879832041002505061e-03
-5.503900439990309749e-03
1.497665879508808901e-03
-4.663632989773290258e-03
3.879928843657238623e-03
6.035193572021953570e-03
-3.083096145520715717e-03
-2.290292328964611823e-04
9.513966083138437543e-03
9.158082954787054655e-03
9.126511359236396184e-03
-3.341034828142399379e-03
-8.910709501359378006e-04
-8.023224697049983730e-04
9.717513572858623924e-03
-1.529396182896903492e-03
-9.461617119470671494e-03
-1.530838596556076533e-03
-1.946001030829170805e-04
6.902098409494523967e-03
-9.024699443466333709e-03
5.376848425454997665e-03
9.196401222546638984e-03
3.031241667833388040e-03
7.054596880806039867e-03
-4.706014489363072317e-03
-1.687593008946914480e-04
1.365717195295590805e-04
2.174140086196140690e-03
7.154215180098219551e-03
-2.397378548912582844e-03
7.288466816316124461e-03
9.155999693708134074e-03
4.327920008851590325e-03
5.880917221607492168e-03
-2.646678929823456042e-03
5.282421898637915635e-03
-2.703098893311287054e-03
-6.585428407041943495e-03
-9.674090103980403921e-03
-3.180734863173001557e-03
-7.510637609695470888e-03
-7.751468360967257026e-04
-1.347943051042501924e-03
-9.907696634904657185e-03
4.287233784841739011e-03
-9.269013500546418108e-03
-7.367150955184669468e-03
-5.097402745350230330e-03
-5.922232347456774654e-03
9.066531721661460694e-03
7.527294902655682100e-04
-6.633255164461550508e-03
-8.872664789482511208e-03
3.572342422798178031e-03
-8.922369407288469750e-03
-8.423069373311636637e-04
2.874239611278825521e-03
4.791710281049314270e-03
-4.125787653189233288e-03
4.653499305633610611e-03
8.285307906696444055e-03
3.635264374214697888e-03
6.725538468857162819e-03
-1.001224586894122574e-02
5.290705985734437365e-03
-3.510711028268539979e-03
-5.379909850640117799e-03
-4.275873372209719556e-04
-8.790335775401395685e-03
-6.092012705598831915e-03
5.933683660561793992e-03
-1.020114960757623548e-02
5.748902447603562033e-03
6.058064104219894374e-04
-1.922360726181483997e-03
2.692055187775448458e-03
-7.544805203938165748e-03
5.262501535686732977e-03
3.462543454643369611e-03
4.951271596493726085e-03
-6.774400100798440641e-03
8.282726805699622274e-03
4.974706970896869591e-03
9.474790348073742000e-03
-6.812599746835266284e-04
-3.992244214309719104e-03
3.865191838123568837e-03
9.394309499940883823e-04
-3.096098404254120882e-03
1.451845771802159945e-03
7.864480761884303991e-03
5.112680277153140371e-03
9.651891887968147912e-03
-5.616594555445796923e-03
2.037708023370411996e-03
-1.800464638362585983e-03
-9.697895066671296735e-03
1.663493305724187766e-03
-9.446827220578222009e-03
4.928207065917204407e-03
5.119969258110224422e-03
7.452507277562627971e-03
-6.223180787972107733e-03
-9.120874915258574828e-03
4.389721488863384743e-03
1.605925653731443562e-03
-7.200616337455452431e-03
8.576563238119604485e-03
9.426233642031085422e-03
