-7.679516809674280693e-03
-8.951390621521051680e-03
7.559115911122047532e-03
-6.159140647829241220e-03
-7.962994120191087266e-03
6.974170474410980140e-03
-1.753003382369787031e-03
-5.577571210901180118e-03
6.889216607944513397e-03
1.523098707540095813e-03
2.352454532712041930e-03
-1.138853656329534125e-03
-7.543159461749704246e-03
-5.328557426330256079e-03
-8.084386995330277229e-04
5.138159600172275375e-03
9.017629514531720278e-03
3.062880703555373712e-03
-8.077958447506394454e-03
9.269898317207691044e-03
-4.196916239873677533e-03
7.963791344053066865e-03
-5.261072805446216985e-03
6.657815627723432132e-04
-4.839115729620468488e-04
-7.514323796681628490e-03
3.107259136432522634e-03
7.120341784615186707e-03
7.965303415525230510e-03
-3.240551558622059136e-03
-5.933874054798674719e-03
8.738296864189048010e-03
-2.750034233236952480e-03
-4.173633939912314156e-03
6.629110489122935421e-03
5.991006058859492042e-03
3.778870095433413054e-03
-6.545538956072878903e-03
-2.990039842864011116e-03
1.033245028768323831e-02
6.959127896464923843e-03
-4.137382422657284384e-03
-4.649829969001000388e-03
9.870209263819866574e-03
-9.370825487379262977e-03
1.379846995352572176e-03
-1.479658546535839170e-03
-3.683461808538476476e-03
3.154485200251263871e-04
4.577012676874584254e-03
-1.879063919148035342e-04
2.134625560794062467e-03
-1.510420880214908938e-03
1.150787097164384623e-04
2.215580264684878162e-03
-4.229592204050336424e-03
-9.229614141401139629e-03
-3.104553864145499862e-03
-2.021769482794474188e-03
4.796684395166157452e-03
-3.994019561326999333e-03
8.860249920007954097e-03
2.254801415430431229e-03
-6.862230115015675348e-03
-7.596395651758174918e-03
-6.448387119274895385e-03
9.016571062205082365e-03
-9.975215412723937875e-04
1.647749958782888154e-03
-9.802750301340592068e-03
6.036442814052089996e-03
-6.950888690668102256e-03
-6.365699091624966131e-03
-1.395478175492547487e-03
9.372057818599576623e-03
9.772722729969790523e-03
3.155404420880821622e-03
9.524316437793230172e-03
-2.100841329273843427e-03
-9.343688995261233837e-03
